# Created at Fri Jan 31 08:41:56 GMT+01:00 2025 in Burnaby Canada 
71686776750174 66.299995 123.719994 -23.400000 
71686796750174 66.299995 123.719994 -23.400000 
71686816750174 66.299995 123.719994 -23.400000 
71686836750174 66.299995 123.719994 -23.400000 
71686856750174 66.299995 123.719994 -23.400000 
71686876750174 66.299995 123.719994 -23.400000 
71686896750174 66.299995 123.719994 -23.400000 
71686916750174 66.299995 123.719994 -23.400000 
71686936750174 66.299995 123.719994 -23.400000 
71686956750174 66.299995 123.719994 -23.400000 
71686976750174 66.299995 123.719994 -23.400000 
71686996750174 66.299995 123.719994 -23.400000 
71687016750174 66.299995 123.719994 -23.400000 
71687036750174 66.299995 123.719994 -23.400000 
71687056750174 66.299995 123.719994 -23.400000 
71687076750174 66.299995 123.719994 -23.400000 
71687096750174 66.299995 123.719994 -23.400000 
71687116750174 66.299995 123.719994 -23.400000 
71687136750174 66.299995 123.719994 -23.400000 
71687156750174 66.299995 123.719994 -23.400000 
71687176750174 66.299995 123.719994 -23.400000 
71687196750174 66.299995 123.719994 -23.400000 
71687216750174 66.299995 123.719994 -23.400000 
71687236750174 66.299995 123.719994 -23.400000 
71687256750174 66.299995 123.719994 -23.400000 
71687276750174 66.299995 123.719994 -23.400000 
71687296750174 66.299995 123.719994 -23.400000 
71687316750174 66.299995 123.719994 -23.400000 
71687336750174 66.299995 123.719994 -23.400000 
71687356750174 66.299995 123.719994 -23.400000 
71687376750174 66.299995 123.719994 -23.400000 
71687396750174 66.299995 123.719994 -23.400000 
71687416750174 66.299995 123.719994 -23.400000 
71687436750174 66.299995 123.719994 -23.400000 
71687456750174 66.299995 123.719994 -23.400000 
71687476750174 66.299995 123.719994 -23.400000 
71687496750174 66.299995 123.719994 -23.400000 
71687516750174 66.299995 123.719994 -23.400000 
71687536750174 66.299995 123.719994 -23.400000 
71687556750174 66.299995 123.719994 -23.400000 
71687576750174 66.299995 123.719994 -23.400000 
71687596750174 66.299995 123.719994 -23.400000 
71687616750174 66.299995 123.719994 -23.400000 
71687636750174 66.299995 123.719994 -23.400000 
71687656750174 66.299995 123.719994 -23.400000 
71687676750174 66.299995 123.719994 -23.400000 
71687696750174 66.299995 123.719994 -23.400000 
71687716750174 66.299995 123.719994 -23.400000 
71687736750174 66.299995 123.719994 -23.400000 
71687756750174 66.299995 123.719994 -23.400000 
71687776750174 66.299995 123.719994 -23.400000 
71687796750174 66.299995 123.719994 -23.400000 
71687816750174 66.299995 123.719994 -23.400000 
71687836750174 66.299995 123.719994 -23.400000 
71687856750174 66.299995 123.719994 -23.400000 
71687876750174 66.299995 123.719994 -23.400000 
71687896750174 66.299995 123.719994 -23.400000 
71687916750174 66.299995 123.719994 -23.400000 
71687936750174 66.299995 123.719994 -23.400000 
71687956750174 66.299995 123.719994 -23.400000 
71687976750174 66.299995 123.719994 -23.400000 
71687996750174 66.299995 123.719994 -23.400000 
71688016750174 66.299995 123.719994 -23.400000 
71688036750174 66.299995 123.719994 -23.400000 
71688056750174 66.299995 123.719994 -23.400000 
71688076750174 66.299995 123.719994 -23.400000 
71688096750174 66.299995 123.719994 -23.400000 
71688116750174 66.239998 123.899994 -23.279999 
71688136750174 66.239998 123.899994 -23.279999 
71688156750174 66.239998 123.899994 -23.279999 
71688176750174 66.239998 123.899994 -23.279999 
71688196750174 66.239998 123.899994 -23.279999 
71688216750174 66.239998 123.899994 -23.279999 
71688236750174 66.239998 123.899994 -23.279999 
71688256750174 66.239998 123.899994 -23.279999 
71688276750174 66.239998 123.899994 -23.279999 
71688296750174 66.239998 123.899994 -23.279999 
71688316750174 66.119995 124.259995 -23.039999 
71688336750174 66.119995 124.259995 -23.039999 
71688356750174 66.119995 124.259995 -23.039999 
71688376750174 66.119995 124.259995 -23.039999 
71688396750174 66.119995 124.259995 -23.039999 
71688416750174 66.119995 124.259995 -23.039999 
71688436750174 66.119995 124.259995 -23.039999 
71688456750174 66.119995 124.259995 -23.039999 
71688476750174 66.119995 124.259995 -23.039999 
71688496750174 66.119995 124.259995 -23.039999 
71688516750174 66.119995 124.259995 -23.039999 
71688536750174 66.119995 124.259995 -23.039999 
71688556750174 66.119995 124.259995 -23.039999 
71688576750174 66.119995 124.259995 -23.039999 
71688596750174 66.119995 124.259995 -23.039999 
71688616750174 66.119995 124.259995 -23.039999 
71688636750174 66.119995 124.259995 -23.039999 
71688656750174 66.119995 124.259995 -23.039999 
71688676750174 66.119995 124.259995 -23.039999 
71688696750174 66.119995 124.259995 -23.039999 
71688716750174 66.119995 124.259995 -23.039999 
71688736750174 66.119995 124.259995 -23.039999 
71688756750174 65.760002 124.259995 -22.980000 
71688776750174 65.760002 124.259995 -22.980000 
71688796750174 65.760002 124.259995 -22.980000 
71688816750174 65.760002 124.259995 -22.980000 
71688836750174 65.760002 124.259995 -22.980000 
71688856750174 65.760002 124.259995 -22.980000 
71688876750174 65.760002 124.259995 -22.980000 
71688896750174 65.760002 124.259995 -22.980000 
71688916750174 65.760002 124.259995 -22.980000 
71688936750174 65.760002 124.259995 -22.980000 
71688956750174 65.760002 124.259995 -22.980000 
71688976750174 65.760002 124.259995 -22.980000 
71688996750174 65.760002 124.259995 -22.980000 
71689016750174 65.760002 124.259995 -22.980000 
71689036750174 65.760002 124.259995 -22.980000 
71689056750174 65.760002 124.259995 -22.980000 
71689076750174 65.760002 124.259995 -22.980000 
71689096750174 65.760002 124.259995 -22.980000 
71689116750174 65.760002 124.259995 -22.980000 
71689136750174 65.760002 124.259995 -22.980000 
71689156750174 65.760002 124.259995 -22.980000 
71689176750174 65.760002 124.259995 -22.980000 
71689196750174 65.760002 124.259995 -22.980000 
71689216750174 65.760002 124.259995 -22.980000 
71689236750174 65.760002 124.259995 -22.980000 
71689256750174 65.760002 124.259995 -22.980000 
71689276750174 65.760002 124.259995 -22.980000 
71689296750174 65.760002 124.259995 -22.980000 
71689316750174 65.760002 124.259995 -22.980000 
71689336750174 65.760002 124.259995 -22.980000 
71689356750174 65.760002 124.259995 -22.980000 
71689376750174 65.760002 124.259995 -22.980000 
71689396750174 65.760002 124.259995 -22.980000 
71689416750174 65.760002 124.259995 -22.980000 
71689436750174 65.760002 124.259995 -22.980000 
71689456750174 65.760002 124.259995 -22.980000 
71689476750174 65.760002 124.259995 -22.980000 
71689496750174 65.760002 124.259995 -22.980000 
71689516750174 65.760002 124.259995 -22.980000 
71689536750174 65.760002 124.259995 -22.980000 
71689556750174 65.760002 124.259995 -22.980000 
71689576750174 65.760002 124.259995 -22.980000 
71689596750174 65.760002 124.259995 -22.980000 
71689616750174 65.760002 124.259995 -22.980000 
71689636750174 65.760002 124.259995 -22.980000 
71689656750174 65.760002 124.259995 -22.980000 
71689676750174 65.760002 124.259995 -22.980000 
71689696750174 65.760002 124.259995 -22.980000 
71689716750174 65.760002 124.259995 -22.980000 
71689736750174 65.760002 124.259995 -22.980000 
71689756750174 65.760002 124.259995 -22.980000 
71689776750174 65.760002 124.259995 -22.980000 
71689796750174 65.760002 124.259995 -22.980000 
71689816750174 65.760002 124.259995 -22.980000 
71689836750174 65.760002 124.259995 -22.980000 
71689856750174 65.760002 124.259995 -22.980000 
71689876750174 65.760002 124.259995 -22.980000 
71689896750174 65.760002 124.259995 -22.980000 
71689916750174 65.639999 124.079994 -22.920000 
71689936750174 65.639999 124.079994 -22.920000 
71689956750174 65.639999 124.079994 -22.920000 
71689976750174 65.639999 124.079994 -22.920000 
71689996750174 65.639999 124.079994 -22.920000 
71690016750174 65.639999 124.079994 -22.920000 
71690036750174 65.639999 124.079994 -22.920000 
71690056750174 65.639999 124.079994 -22.920000 
71690076750174 65.639999 124.079994 -22.920000 
71690096750174 65.639999 124.079994 -22.920000 
71690116750174 65.639999 124.079994 -22.920000 
71690136750174 65.639999 124.079994 -22.920000 
71690156750174 65.639999 124.079994 -22.920000 
71690176750174 65.639999 124.079994 -22.920000 
71690196750174 65.459999 123.599998 -22.859999 
71690216750174 65.459999 123.599998 -22.859999 
71690236750174 65.459999 123.599998 -22.859999 
71690256750174 65.459999 123.599998 -22.859999 
71690276750174 65.459999 123.599998 -22.859999 
71690296750174 65.459999 123.599998 -22.859999 
71690316750174 65.459999 123.599998 -22.859999 
71690336750174 65.459999 123.599998 -22.859999 
71690356750174 65.459999 123.599998 -22.859999 
71690376750174 65.459999 123.599998 -22.859999 
71690396750174 65.459999 123.599998 -22.859999 
71690416750174 65.459999 123.599998 -22.859999 
71690436750174 65.459999 123.599998 -22.859999 
71690456750174 65.459999 123.599998 -22.859999 
71690476750174 65.459999 123.599998 -22.859999 
71690496750174 65.459999 123.599998 -22.859999 
71690516750174 65.459999 123.599998 -22.859999 
71690536750174 65.459999 123.599998 -22.859999 
71690556750174 65.459999 123.599998 -22.859999 
71690576750174 65.459999 123.599998 -22.859999 
71690596750174 65.459999 123.599998 -22.859999 
71690616750174 65.459999 123.599998 -22.859999 
71690636750174 65.459999 123.599998 -22.859999 
71690656750174 65.459999 123.599998 -22.859999 
71690676750174 65.459999 123.599998 -22.859999 
71690696750174 65.459999 123.599998 -22.859999 
71690716750174 65.459999 123.599998 -22.859999 
71690736750174 65.459999 123.599998 -22.859999 
71690756750174 65.459999 123.599998 -22.859999 
71690776750174 65.459999 123.599998 -22.859999 
71690796750174 65.459999 123.599998 -22.859999 
71690816750174 65.459999 123.599998 -22.859999 
71690836750174 65.459999 123.599998 -22.859999 
71690856750174 65.459999 123.599998 -22.859999 
71690876750174 65.459999 123.599998 -22.859999 
71690896750174 65.459999 123.599998 -22.859999 
71690916750174 65.459999 123.599998 -22.859999 
71690936750174 65.459999 123.599998 -22.859999 
71690956750174 65.459999 123.599998 -22.859999 
71690976750174 65.459999 123.599998 -22.859999 
71690996750174 65.400002 123.180000 -22.859999 
71691016750174 65.400002 123.180000 -22.859999 
71691036750174 65.400002 123.180000 -22.859999 
71691056750174 65.400002 123.180000 -22.859999 
71691076750174 65.400002 123.180000 -22.859999 
71691096750174 65.400002 123.180000 -22.859999 
71691116750174 65.400002 123.180000 -22.859999 
71691136750174 65.400002 123.180000 -22.859999 
71691156750174 65.400002 123.180000 -22.859999 
71691176750174 65.400002 123.180000 -22.859999 
71691196750174 65.400002 123.180000 -22.859999 
71691216750174 65.400002 123.180000 -22.859999 
71691236750174 65.400002 123.180000 -22.859999 
71691256750174 65.400002 123.180000 -22.859999 
71691276750174 65.400002 123.180000 -22.859999 
71691296750174 65.400002 123.180000 -22.859999 
71691316750174 65.400002 123.180000 -22.859999 
71691336750174 65.400002 123.180000 -22.859999 
71691356750174 65.400002 123.180000 -22.859999 
71691376750174 65.400002 123.180000 -22.859999 
71691396750174 65.400002 123.180000 -22.859999 
71691416750174 65.400002 123.180000 -22.859999 
71691436750174 65.400002 123.180000 -22.859999 
71691456750174 65.400002 123.180000 -22.859999 
71691476750174 65.400002 123.180000 -22.859999 
71691496750174 65.400002 123.180000 -22.859999 
71691516750174 65.400002 123.180000 -22.859999 
71691536750174 65.400002 123.180000 -22.859999 
71691556750174 65.400002 123.180000 -22.859999 
71691576750174 65.400002 123.180000 -22.859999 
71691596750174 65.400002 123.180000 -22.859999 
71691616750174 65.400002 123.180000 -22.859999 
71691636750174 65.400002 123.180000 -22.859999 
71691656750174 65.400002 123.180000 -22.859999 
71691676750174 65.400002 123.180000 -22.859999 
71691696750174 65.400002 123.180000 -22.859999 
71691716750174 65.400002 123.180000 -22.859999 
71691736750174 65.400002 123.180000 -22.859999 
71691756750174 65.400002 123.180000 -22.859999 
71691776750174 65.400002 123.180000 -22.859999 
71691796750174 65.400002 123.180000 -22.859999 
71691816750174 65.400002 123.180000 -22.859999 
71691836750174 65.400002 123.180000 -22.859999 
71691856750174 65.400002 123.180000 -22.859999 
71691876750174 65.339996 122.820000 -22.799999 
71691896750174 65.339996 122.820000 -22.799999 
71691916750174 65.339996 122.820000 -22.799999 
71691936750174 65.339996 122.820000 -22.799999 
71691956750174 65.339996 122.820000 -22.799999 
71691976750174 65.339996 122.820000 -22.799999 
71691996750174 65.339996 122.820000 -22.799999 
71692016750174 65.339996 122.820000 -22.799999 
71692036750174 65.339996 122.820000 -22.799999 
71692056750174 65.339996 122.820000 -22.799999 
71692076750174 65.339996 122.820000 -22.799999 
71692096750174 65.339996 122.820000 -22.799999 
71692116750174 65.339996 122.820000 -22.799999 
71692136750174 65.339996 122.820000 -22.799999 
71692156750174 65.339996 122.820000 -22.799999 
71692176750174 65.339996 122.820000 -22.799999 
71692196750174 65.339996 122.820000 -22.799999 
71692216750174 65.339996 122.820000 -22.799999 
71692236750174 65.339996 122.820000 -22.799999 
71692256750174 65.339996 122.820000 -22.799999 
71692276750174 65.339996 122.820000 -22.799999 
71692296750174 65.339996 122.820000 -22.799999 
71692316750174 65.159996 122.399994 -22.920000 
71692336750174 65.159996 122.399994 -22.920000 
71692356750174 65.159996 122.399994 -22.920000 
71692376750174 65.159996 122.399994 -22.920000 
71692396750174 65.159996 122.399994 -22.920000 
71692416750174 65.159996 122.399994 -22.920000 
71692436750174 65.159996 122.399994 -22.920000 
71692456750174 65.159996 122.399994 -22.920000 
71692476750174 65.159996 122.399994 -22.920000 
71692496750174 65.159996 122.399994 -22.920000 
71692516750174 65.159996 122.399994 -22.920000 
71692536750174 65.159996 122.399994 -22.920000 
71692556750174 65.159996 122.399994 -22.920000 
71692576750174 65.159996 122.399994 -22.920000 
71692596750174 65.159996 122.399994 -22.920000 
71692616750174 65.159996 122.399994 -22.920000 
71692636750174 65.159996 122.399994 -22.920000 
71692656750174 65.159996 122.399994 -22.920000 
71692676750174 65.159996 122.399994 -22.920000 
71692696750174 65.159996 122.399994 -22.920000 
71692716750174 65.159996 122.399994 -22.920000 
71692736750174 65.159996 122.399994 -22.920000 
71692756750174 65.159996 122.399994 -22.920000 
71692776750174 65.159996 122.399994 -22.920000 
71692796750174 65.159996 122.399994 -22.920000 
71692816750174 65.159996 122.399994 -22.920000 
71692836750174 65.159996 122.399994 -22.920000 
71692856750174 65.159996 122.399994 -22.920000 
71692876750174 65.159996 122.399994 -22.920000 
71692896750174 65.159996 122.399994 -22.920000 
71692916750174 65.159996 122.399994 -22.920000 
71692936750174 65.159996 122.399994 -22.920000 
71692956750174 65.159996 122.399994 -22.920000 
71692976750174 65.159996 122.399994 -22.920000 
71692996750174 65.159996 122.399994 -22.920000 
71693016750174 65.159996 122.399994 -22.920000 
71693036750174 65.159996 122.219994 -23.039999 
71693056750174 65.159996 122.219994 -23.039999 
71693076750174 65.159996 122.219994 -23.039999 
71693096750174 65.159996 122.219994 -23.039999 
71693116750174 65.159996 122.219994 -23.039999 
71693136750174 65.159996 122.219994 -23.039999 
71693156750174 65.159996 122.219994 -23.039999 
71693176750174 65.159996 122.219994 -23.039999 
71693196750174 65.159996 122.219994 -23.039999 
71693216750174 65.159996 122.219994 -23.039999 
71693236750174 65.159996 122.219994 -23.039999 
71693256750174 65.159996 122.219994 -23.039999 
71693276750174 65.159996 122.219994 -23.039999 
71693296750174 65.159996 122.219994 -23.039999 
71693316750174 65.159996 122.219994 -23.039999 
71693336750174 65.159996 122.219994 -23.039999 
71693356750174 65.159996 122.219994 -23.039999 
71693376750174 65.159996 122.219994 -23.039999 
71693396750174 65.159996 122.219994 -23.039999 
71693416750174 65.159996 122.219994 -23.039999 
71693436750174 65.159996 122.219994 -23.039999 
71693456750174 65.159996 122.219994 -23.039999 
71693476750174 65.159996 122.219994 -23.039999 
71693496750174 65.159996 122.219994 -23.039999 
71693516750174 65.159996 122.219994 -23.039999 
71693536750174 65.159996 122.219994 -23.039999 
71693556750174 65.159996 122.219994 -23.039999 
71693576750174 65.159996 122.219994 -23.039999 
71693596750174 65.159996 122.219994 -23.039999 
71693616750174 65.159996 122.219994 -23.039999 
71693636750174 65.159996 122.219994 -23.039999 
71693656750174 65.159996 122.219994 -23.039999 
71693676750174 65.159996 122.219994 -23.039999 
71693696750174 65.159996 122.219994 -23.039999 
71693716750174 65.159996 122.219994 -23.039999 
71693736750174 65.159996 122.219994 -23.039999 
71693756750174 65.159996 122.219994 -23.039999 
71693776750174 65.159996 122.219994 -23.039999 
71693796750174 65.159996 122.219994 -23.039999 
71693816750174 65.159996 122.219994 -23.039999 
71693836750174 65.159996 122.219994 -23.039999 
71693856750174 65.159996 122.219994 -23.039999 
71693876750174 65.159996 122.219994 -23.039999 
71693896750174 65.159996 122.219994 -23.039999 
71693916750174 65.159996 122.219994 -23.039999 
71693936750174 65.159996 122.219994 -23.039999 
71693956750174 65.159996 122.219994 -23.039999 
71693976750174 65.159996 122.219994 -23.039999 
71693996750174 65.159996 122.219994 -23.039999 
71694016750174 65.159996 122.219994 -23.039999 
71694036750174 65.159996 122.219994 -23.039999 
71694056750174 65.159996 122.219994 -23.039999 
71694076750174 65.159996 122.219994 -23.039999 
71694096750174 65.159996 122.219994 -23.039999 
71694116750174 65.159996 122.219994 -23.039999 
71694136750174 65.159996 122.219994 -23.039999 
71694156750174 65.159996 122.219994 -23.039999 
71694176750174 65.159996 122.219994 -23.039999 
71694196750174 65.159996 122.219994 -23.039999 
71694216750174 65.159996 122.219994 -23.039999 
71694236750174 65.159996 122.219994 -23.039999 
71694256750174 65.159996 122.219994 -23.039999 
71694276750174 65.159996 122.219994 -23.039999 
71694296750174 65.159996 122.219994 -23.039999 
71694316750174 65.159996 122.219994 -23.039999 
71694336750174 65.159996 122.219994 -23.039999 
71694356750174 65.159996 122.219994 -23.039999 
71694376750174 65.159996 122.219994 -23.039999 
71694396750174 65.159996 122.219994 -23.039999 
71694416750174 65.159996 122.219994 -23.039999 
71694436750174 65.159996 122.219994 -23.039999 
71694456750174 65.159996 122.219994 -23.039999 
71694476750174 65.159996 122.219994 -23.039999 
71694496750174 65.159996 122.219994 -23.039999 
71694516750174 65.159996 122.219994 -23.039999 
71694536750174 65.159996 122.219994 -23.039999 
71694556750174 65.159996 122.219994 -23.039999 
71694576750174 65.159996 122.219994 -23.039999 
71694596750174 65.159996 122.219994 -23.039999 
71694616750174 65.159996 122.219994 -23.039999 
71694636750174 65.159996 122.219994 -23.039999 
71694656750174 65.159996 122.219994 -23.039999 
71694676750174 65.159996 122.219994 -23.039999 
71694696750174 65.159996 122.219994 -23.039999 
71694716750174 65.159996 122.219994 -23.039999 
71694736750174 65.159996 122.219994 -23.039999 
71694756750174 65.159996 122.219994 -23.039999 
71694776750174 65.159996 122.219994 -23.039999 
71694796750174 65.159996 122.219994 -23.039999 
71694816750174 65.159996 122.219994 -23.039999 
71694836750174 65.159996 122.219994 -23.039999 
71694856750174 65.159996 122.219994 -23.039999 
71694876750174 65.159996 122.219994 -23.039999 
71694896750174 65.159996 122.219994 -23.039999 
71694916750174 65.159996 122.219994 -23.039999 
71694936750174 65.159996 122.219994 -23.039999 
71694956750174 65.159996 122.219994 -23.039999 
71694976750174 65.159996 122.219994 -23.039999 
71694996750174 65.159996 122.219994 -23.039999 
71695016750174 65.159996 122.219994 -23.039999 
71695036750174 65.159996 122.219994 -23.039999 
71695056750174 65.159996 122.219994 -23.039999 
71695076750174 65.159996 122.219994 -23.039999 
71695096750174 65.159996 122.219994 -23.039999 
71695116750174 65.159996 122.219994 -23.039999 
71695136750174 65.159996 122.219994 -23.039999 
71695156750174 65.159996 122.219994 -23.039999 
71695176750174 65.159996 122.219994 -23.039999 
71695196750174 65.159996 122.219994 -23.039999 
71695216750174 65.159996 122.219994 -23.039999 
71695236750174 65.159996 122.219994 -23.039999 
71695256750174 65.159996 122.219994 -23.039999 
71695276750174 65.159996 122.219994 -23.039999 
71695296750174 65.159996 122.219994 -23.039999 
71695316750174 65.159996 122.219994 -23.039999 
71695336750174 65.159996 122.219994 -23.039999 
71695356750174 65.159996 122.219994 -23.039999 
71695376750174 65.159996 122.219994 -23.039999 
71695396750174 65.159996 122.219994 -23.039999 
71695416750174 65.159996 122.219994 -23.039999 
71695436750174 65.159996 122.219994 -23.039999 
71695456750174 65.159996 122.219994 -23.039999 
71695476750174 65.159996 122.219994 -23.039999 
71695496750174 65.159996 122.219994 -23.039999 
71695516750174 65.159996 122.219994 -23.039999 
71695536750174 65.159996 122.219994 -23.039999 
71695556750174 65.159996 122.219994 -23.039999 
71695576750174 65.159996 122.219994 -23.039999 
71695596750174 65.159996 122.219994 -23.039999 
71695616750174 65.159996 122.219994 -23.039999 
71695636750174 65.159996 122.219994 -23.039999 
71695656750174 65.159996 122.219994 -23.039999 
71695676750174 65.159996 122.219994 -23.039999 
71695696750174 65.159996 122.219994 -23.039999 
71695716750174 65.159996 122.219994 -23.039999 
71695736750174 65.159996 122.219994 -23.039999 
71695756750174 65.159996 122.219994 -23.039999 
71695776750174 65.159996 122.219994 -23.039999 
71695796750174 65.159996 122.219994 -23.039999 
71695816750174 65.159996 122.219994 -23.039999 
71695836750174 65.159996 122.219994 -23.039999 
71695856750174 65.159996 122.219994 -23.039999 
71695876750174 65.159996 122.219994 -23.039999 
71695896750174 65.159996 122.219994 -23.039999 
71695916750174 65.159996 122.219994 -23.039999 
71695936750174 65.159996 122.219994 -23.039999 
71695956750174 65.159996 122.219994 -23.039999 
71695976750174 65.159996 122.219994 -23.039999 
71695996750174 65.159996 122.219994 -23.039999 
71696016750174 65.159996 122.219994 -23.039999 
71696036750174 65.159996 122.219994 -23.039999 
71696056750174 65.159996 122.219994 -23.039999 
71696076750174 65.159996 122.219994 -23.039999 
71696096750174 65.159996 122.219994 -23.039999 
71696116750174 65.159996 122.219994 -23.039999 
71696136750174 65.159996 122.219994 -23.039999 
71696156750174 65.159996 122.219994 -23.039999 
71696176750174 65.159996 122.219994 -23.039999 
71696196750174 65.159996 122.219994 -23.039999 
71696216750174 65.159996 122.219994 -23.039999 
71696236750174 65.159996 122.219994 -23.039999 
71696256750174 65.159996 122.219994 -23.039999 
71696276750174 65.159996 122.219994 -23.039999 
71696296750174 65.159996 122.219994 -23.039999 
71696316750174 65.159996 122.219994 -23.039999 
71696336750174 65.159996 122.219994 -23.039999 
71696356750174 65.159996 121.919998 -23.100000 
71696376750174 65.159996 121.919998 -23.100000 
71696396750174 65.159996 121.919998 -23.100000 
71696416750174 65.159996 121.919998 -23.100000 
71696436750174 65.159996 121.919998 -23.100000 
71696456750174 65.159996 121.919998 -23.100000 
71696476750174 65.159996 121.919998 -23.100000 
71696496750174 65.159996 121.919998 -23.100000 
71696516750174 65.159996 121.919998 -23.100000 
71696536750174 65.159996 121.919998 -23.100000 
71696556750174 65.159996 121.919998 -23.100000 
71696576750174 65.159996 121.919998 -23.100000 
71696596750174 65.159996 121.919998 -23.100000 
71696616750174 65.159996 121.919998 -23.100000 
71696636750174 65.159996 121.919998 -23.100000 
71696656750174 65.159996 121.919998 -23.100000 
71696676750174 65.159996 121.919998 -23.100000 
71696696750174 65.159996 121.919998 -23.100000 
71696716750174 65.040001 121.739998 -23.279999 
71696736750174 65.040001 121.739998 -23.279999 
71696756750174 65.040001 121.739998 -23.279999 
71696776750174 65.040001 121.739998 -23.279999 
71696796750174 65.040001 121.739998 -23.279999 
71696816750174 65.040001 121.739998 -23.279999 
71696836750174 65.040001 121.739998 -23.279999 
71696856750174 65.040001 121.739998 -23.279999 
71696876750174 65.040001 121.739998 -23.279999 
71696896750174 65.040001 121.739998 -23.279999 
71696916750174 65.040001 121.739998 -23.279999 
71696936750174 65.040001 121.739998 -23.279999 
71696956750174 65.040001 121.739998 -23.279999 
71696976750174 65.040001 121.739998 -23.279999 
71696996750174 65.040001 121.739998 -23.279999 
71697016750174 65.040001 121.739998 -23.279999 
71697036750174 65.040001 121.739998 -23.279999 
71697056750174 65.040001 121.739998 -23.279999 
71697076750174 65.040001 121.739998 -23.279999 
71697096750174 65.040001 121.739998 -23.279999 
71697116750174 65.040001 121.739998 -23.279999 
71697136750174 65.040001 121.739998 -23.279999 
71697156750174 65.040001 121.739998 -23.279999 
71697176750174 65.040001 121.739998 -23.279999 
71697196750174 65.040001 121.739998 -23.279999 
71697216750174 65.040001 121.739998 -23.279999 
71697236750174 65.040001 121.739998 -23.279999 
71697256750174 65.040001 121.739998 -23.279999 
71697276750174 65.040001 121.739998 -23.279999 
71697296750174 65.040001 121.739998 -23.279999 
71697316750174 65.040001 121.739998 -23.279999 
71697336750174 65.040001 121.739998 -23.279999 
71697356750174 65.040001 121.739998 -23.279999 
71697376750174 65.040001 121.739998 -23.279999 
71697396750174 65.040001 121.739998 -23.279999 
71697416750174 65.040001 121.739998 -23.279999 
71697436750174 64.979996 121.739998 -23.519999 
71697456750174 64.979996 121.739998 -23.519999 
71697476750174 64.979996 121.739998 -23.519999 
71697496750174 64.979996 121.739998 -23.519999 
71697516750174 64.979996 121.739998 -23.519999 
71697536750174 64.979996 121.739998 -23.519999 
71697556750174 64.979996 121.739998 -23.519999 
71697576750174 64.979996 121.739998 -23.519999 
71697596750174 64.979996 121.739998 -23.519999 
71697616750174 64.979996 121.739998 -23.519999 
71697636750174 64.979996 121.739998 -23.519999 
71697656750174 64.979996 121.739998 -23.519999 
71697676750174 64.979996 121.739998 -23.519999 
71697696750174 64.979996 121.739998 -23.519999 
71697716750174 64.979996 121.739998 -23.519999 
71697736750174 64.979996 121.739998 -23.519999 
71697756750174 64.979996 121.739998 -23.519999 
71697776750174 64.979996 121.739998 -23.519999 
71697796750174 64.799995 121.680000 -23.639999 
71697816750174 64.799995 121.680000 -23.639999 
71697836750174 64.799995 121.680000 -23.639999 
71697856750174 64.799995 121.680000 -23.639999 
71697876750174 64.799995 121.680000 -23.639999 
71697896750174 64.799995 121.680000 -23.639999 
71697916750174 64.799995 121.680000 -23.639999 
71697936750174 64.799995 121.680000 -23.639999 
71697956750174 64.799995 121.680000 -23.639999 
71697976750174 64.799995 121.680000 -23.639999 
71697996750174 64.799995 121.680000 -23.639999 
71698016750174 64.799995 121.680000 -23.639999 
71698036750174 64.799995 121.680000 -23.639999 
71698056750174 64.799995 121.680000 -23.639999 
71698076750174 64.799995 121.680000 -23.639999 
71698096750174 64.799995 121.680000 -23.639999 
71698116750174 64.799995 121.680000 -23.639999 
71698136750174 64.799995 121.680000 -23.639999 
71698156750174 64.799995 121.680000 -23.639999 
71698176750174 64.799995 121.680000 -23.639999 
71698196750174 64.799995 121.680000 -23.639999 
71698216750174 64.799995 121.680000 -23.639999 
71698236750174 64.799995 121.680000 -23.639999 
71698256750174 64.799995 121.680000 -23.639999 
71698276750174 64.799995 121.680000 -23.639999 
71698296750174 64.799995 121.680000 -23.639999 
71698316750174 64.799995 121.680000 -23.639999 
71698336750174 64.799995 121.680000 -23.639999 
71698356750174 64.799995 121.680000 -23.639999 
71698376750174 64.799995 121.680000 -23.639999 
71698396750174 64.799995 121.680000 -23.639999 
71698416750174 64.799995 121.680000 -23.639999 
71698436750174 64.799995 121.680000 -23.639999 
71698456750174 64.799995 121.680000 -23.639999 
71698476750174 64.799995 121.680000 -23.639999 
71698496750174 64.799995 121.680000 -23.639999 
71698516750174 64.799995 121.680000 -23.639999 
71698536750174 64.799995 121.680000 -23.639999 
71698556750174 64.799995 121.680000 -23.639999 
71698576750174 64.799995 121.680000 -23.639999 
71698596750174 64.799995 121.680000 -23.639999 
71698616750174 64.799995 121.680000 -23.639999 
71698636750174 64.799995 121.680000 -23.639999 
71698656750174 64.799995 121.680000 -23.639999 
71698676750174 64.799995 121.680000 -23.639999 
71698696750174 64.799995 121.680000 -23.639999 
71698716750174 64.799995 121.680000 -23.639999 
71698736750174 64.799995 121.680000 -23.639999 
71698756750174 64.799995 121.680000 -23.639999 
71698776750174 64.799995 121.680000 -23.639999 
71698796750174 64.799995 121.680000 -23.639999 
71698816750174 64.799995 121.680000 -23.639999 
71698836750174 64.799995 121.680000 -23.639999 
71698856750174 64.799995 121.680000 -23.639999 
71698876750174 64.619995 121.919998 -23.699999 
71698896750174 64.619995 121.919998 -23.699999 
71698916750174 64.619995 121.919998 -23.699999 
71698936750174 64.619995 121.919998 -23.699999 
71698956750174 64.619995 121.919998 -23.699999 
71698976750174 64.619995 121.919998 -23.699999 
71698996750174 64.619995 121.919998 -23.699999 
71699016750174 64.619995 121.919998 -23.699999 
71699036750174 64.619995 121.919998 -23.699999 
71699056750174 64.619995 121.919998 -23.699999 
71699076750174 64.619995 121.919998 -23.699999 
71699096750174 64.619995 121.919998 -23.699999 
71699116750174 64.619995 121.919998 -23.699999 
71699136750174 64.619995 121.919998 -23.699999 
71699156750174 64.619995 121.919998 -23.699999 
71699176750174 64.619995 121.919998 -23.699999 
71699196750174 64.619995 121.919998 -23.699999 
71699216750174 64.619995 121.919998 -23.699999 
71699236750174 64.619995 121.919998 -23.699999 
71699256750174 64.619995 121.919998 -23.699999 
71699276750174 64.619995 121.919998 -23.699999 
71699296750174 64.619995 121.919998 -23.699999 
71699316750174 64.619995 121.919998 -23.699999 
71699336750174 64.619995 121.919998 -23.699999 
71699356750174 64.619995 121.919998 -23.699999 
71699376750174 64.619995 121.919998 -23.699999 
71699396750174 64.619995 121.919998 -23.699999 
71699416750174 64.619995 121.919998 -23.699999 
71699436750174 64.619995 121.919998 -23.699999 
71699456750174 64.619995 121.919998 -23.699999 
71699476750174 64.619995 121.919998 -23.699999 
71699496750174 64.619995 121.919998 -23.699999 
71699516750174 64.619995 121.919998 -23.699999 
71699536750174 64.619995 121.919998 -23.699999 
71699556750174 64.619995 121.919998 -23.699999 
71699576750174 64.619995 121.919998 -23.699999 
71699596750174 64.619995 121.919998 -23.699999 
71699616750174 64.619995 121.919998 -23.699999 
71699636750174 64.619995 121.919998 -23.699999 
71699656750174 64.619995 121.919998 -23.699999 
71699676750174 64.619995 121.919998 -23.699999 
71699696750174 64.619995 121.919998 -23.699999 
71699716750174 64.619995 121.919998 -23.699999 
71699736750174 64.619995 121.919998 -23.699999 
71699756750174 64.619995 121.919998 -23.699999 
71699776750174 64.619995 121.919998 -23.699999 
71699796750174 64.619995 121.919998 -23.699999 
71699816750174 64.619995 121.919998 -23.699999 
71699836750174 64.619995 121.919998 -23.699999 
71699856750174 64.619995 121.919998 -23.699999 
71699876750174 64.619995 121.919998 -23.699999 
71699896750174 64.619995 121.919998 -23.699999 
71699916750174 64.619995 121.919998 -23.699999 
71699936750174 64.619995 121.919998 -23.699999 
71699956750174 64.619995 121.919998 -23.699999 
71699976750174 64.619995 121.919998 -23.699999 
71699996750174 64.619995 121.919998 -23.699999 
71700016750174 64.619995 121.919998 -23.699999 
71700036750174 64.619995 121.919998 -23.699999 
71700056750174 64.619995 121.919998 -23.699999 
71700076750174 64.619995 121.919998 -23.699999 
71700096750174 64.619995 121.919998 -23.699999 
71700116750174 64.619995 121.919998 -23.699999 
71700136750174 64.619995 121.919998 -23.699999 
71700156750174 64.619995 121.919998 -23.699999 
71700176750174 64.619995 121.919998 -23.699999 
71700196750174 64.619995 121.919998 -23.699999 
71700216750174 64.619995 121.919998 -23.699999 
71700236750174 64.619995 121.919998 -23.699999 
71700256750174 64.619995 121.919998 -23.699999 
71700276750174 64.619995 121.919998 -23.699999 
71700296750174 64.619995 121.919998 -23.699999 
71700316750174 64.619995 121.919998 -23.699999 
71700336750174 64.619995 121.919998 -23.699999 
71700356750174 64.619995 121.919998 -23.699999 
71700376750174 64.619995 121.919998 -23.699999 
71700396750174 64.619995 121.919998 -23.699999 
71700416750174 64.619995 121.919998 -23.699999 
71700436750174 64.619995 121.919998 -23.699999 
71700456750174 64.619995 121.919998 -23.699999 
71700476750174 64.619995 121.919998 -23.699999 
71700496750174 64.619995 121.919998 -23.699999 
71700516750174 64.619995 121.919998 -23.699999 
71700536750174 64.619995 121.919998 -23.699999 
71700556750174 64.619995 121.919998 -23.699999 
71700576750174 64.619995 121.919998 -23.699999 
71700596750174 64.619995 121.919998 -23.699999 
71700616750174 64.619995 121.919998 -23.699999 
71700636750174 64.619995 121.919998 -23.699999 
71700656750174 64.619995 121.919998 -23.699999 
71700676750174 64.619995 121.860001 -23.459999 
71700696750174 64.619995 121.860001 -23.459999 
71700716750174 64.619995 121.860001 -23.459999 
71700736750174 64.619995 121.860001 -23.459999 
71700756750174 64.619995 121.860001 -23.459999 
71700776750174 64.619995 121.860001 -23.459999 
71700796750174 64.619995 121.860001 -23.459999 
71700816750174 64.619995 121.860001 -23.459999 
71700836750174 64.619995 121.860001 -23.459999 
71700856750174 64.619995 121.860001 -23.459999 
71700876750174 64.619995 121.860001 -23.459999 
71700896750174 64.619995 121.860001 -23.459999 
71700916750174 64.619995 121.860001 -23.459999 
71700936750174 64.619995 121.860001 -23.459999 
71700956750174 64.619995 121.860001 -23.459999 
71700976750174 64.619995 121.860001 -23.459999 
71700996750174 64.619995 121.860001 -23.459999 
71701016750174 64.619995 121.860001 -23.459999 
71701036750174 64.619995 121.860001 -23.459999 
71701056750174 64.619995 121.860001 -23.459999 
71701076750174 64.619995 121.860001 -23.459999 
71701096750174 64.619995 121.860001 -23.459999 
71701116750174 64.619995 121.860001 -23.459999 
71701136750174 64.619995 121.860001 -23.459999 
71701156750174 64.619995 121.860001 -23.459999 
71701176750174 64.619995 121.860001 -23.459999 
71701196750174 64.619995 121.860001 -23.459999 
71701216750174 64.619995 121.860001 -23.459999 
71701236750174 64.619995 121.860001 -23.459999 
71701256750174 64.619995 121.860001 -23.459999 
71701276750174 64.619995 121.860001 -23.459999 
71701296750174 64.619995 121.860001 -23.459999 
71701316750174 64.619995 121.860001 -23.459999 
71701336750174 64.619995 121.860001 -23.459999 
71701356750174 64.619995 121.860001 -23.459999 
71701376750174 64.619995 121.860001 -23.459999 
71701396750174 64.619995 121.860001 -23.459999 
71701416750174 64.619995 121.860001 -23.459999 
71701436750174 64.619995 121.860001 -23.459999 
71701456750174 64.619995 121.860001 -23.459999 
71701476750174 64.619995 121.860001 -23.459999 
71701496750174 64.619995 121.860001 -23.459999 
71701516750174 64.619995 121.860001 -23.459999 
71701536750174 64.619995 121.860001 -23.459999 
71701556750174 64.619995 121.860001 -23.459999 
71701576750174 64.619995 121.860001 -23.459999 
71701596750174 64.619995 121.860001 -23.459999 
71701616750174 64.619995 121.860001 -23.459999 
71701636750174 64.619995 121.860001 -23.459999 
71701656750174 64.619995 121.860001 -23.459999 
71701676750174 64.619995 121.860001 -23.459999 
71701696750174 64.619995 121.860001 -23.459999 
71701716750174 64.619995 121.860001 -23.459999 
71701736750174 64.619995 121.860001 -23.459999 
71701756750174 64.619995 121.860001 -23.459999 
71701776750174 64.619995 121.860001 -23.459999 
71701796750174 64.619995 121.860001 -23.459999 
71701816750174 64.619995 121.860001 -23.459999 
71701836750174 64.619995 121.860001 -23.459999 
71701856750174 64.619995 121.860001 -23.459999 
71701876750174 64.619995 121.860001 -23.459999 
71701896750174 64.619995 121.860001 -23.459999 
71701916750174 64.619995 121.860001 -23.459999 
71701936750174 64.619995 121.860001 -23.459999 
71701956750174 64.619995 121.860001 -23.459999 
71701976750174 64.619995 121.860001 -23.459999 
71701996750174 64.619995 121.860001 -23.459999 
71702016750174 64.619995 121.860001 -23.459999 
71702036750174 64.619995 121.860001 -23.459999 
71702056750174 64.619995 121.860001 -23.459999 
71702076750174 64.619995 121.860001 -23.459999 
71702096750174 64.619995 121.860001 -23.459999 
71702116750174 64.619995 121.860001 -23.459999 
71702136750174 64.619995 121.860001 -23.459999 
71702156750174 64.619995 121.860001 -23.459999 
71702176750174 64.619995 121.860001 -23.459999 
71702196750174 64.619995 121.860001 -23.459999 
71702216750174 64.619995 121.860001 -23.459999 
71702236750174 64.619995 121.860001 -23.459999 
71702256750174 64.619995 121.860001 -23.459999 
71702276750174 64.619995 121.860001 -23.459999 
71702296750174 64.619995 121.860001 -23.459999 
71702316750174 64.619995 121.860001 -23.459999 
71702336750174 64.619995 121.860001 -23.459999 
71702356750174 64.619995 121.860001 -23.459999 
71702376750174 64.619995 121.860001 -23.459999 
71702396750174 64.619995 121.860001 -23.459999 
71702416750174 64.619995 121.860001 -23.459999 
71702436750174 64.619995 121.860001 -23.459999 
71702456750174 64.619995 121.860001 -23.459999 
71702476750174 64.619995 121.860001 -23.459999 
71702496750174 64.619995 121.860001 -23.459999 
71702516750174 64.619995 121.860001 -23.459999 
71702536750174 64.619995 121.860001 -23.459999 
71702556750174 64.619995 121.860001 -23.459999 
71702576750174 64.619995 121.860001 -23.459999 
71702596750174 64.619995 121.860001 -23.459999 
71702616750174 64.619995 121.860001 -23.459999 
71702636750174 64.619995 121.860001 -23.459999 
71702656750174 64.619995 121.860001 -23.459999 
71702676750174 64.619995 121.860001 -23.459999 
71702696750174 64.619995 121.860001 -23.459999 
71702716750174 64.619995 121.860001 -23.459999 
71702736750174 64.619995 121.860001 -23.459999 
71702756750174 64.619995 121.860001 -23.459999 
71702776750174 64.619995 121.860001 -23.459999 
71702796750174 64.619995 121.860001 -23.459999 
71702816750174 64.619995 121.860001 -23.459999 
71702836750174 64.619995 121.860001 -23.459999 
71702856750174 64.619995 121.860001 -23.459999 
71702876750174 64.619995 121.860001 -23.459999 
71702896750174 64.619995 121.860001 -23.459999 
71702916750174 64.619995 121.860001 -23.459999 
71702936750174 64.619995 121.860001 -23.459999 
71702956750174 64.619995 121.860001 -23.459999 
71702976750174 64.619995 121.860001 -23.459999 
71702996750174 64.619995 121.860001 -23.459999 
71703016750174 64.619995 121.860001 -23.459999 
71703036750174 64.619995 121.860001 -23.459999 
71703056750174 64.619995 121.860001 -23.459999 
71703076750174 64.619995 121.860001 -23.459999 
71703096750174 64.619995 121.860001 -23.459999 
71703116750174 64.619995 121.860001 -23.459999 
71703136750174 64.619995 121.860001 -23.459999 
71703156750174 64.619995 121.860001 -23.459999 
71703176750174 64.619995 121.860001 -23.459999 
71703196750174 64.619995 121.860001 -23.459999 
71703216750174 64.619995 121.860001 -23.459999 
71703236750174 64.619995 121.860001 -23.459999 
71703256750174 64.619995 121.860001 -23.459999 
71703276750174 64.619995 121.860001 -23.459999 
71703296750174 64.619995 121.860001 -23.459999 
71703316750174 64.619995 121.860001 -23.459999 
71703336750174 64.619995 121.860001 -23.459999 
71703356750174 64.619995 121.860001 -23.459999 
71703376750174 64.619995 121.860001 -23.459999 
71703396750174 64.619995 121.860001 -23.459999 
71703416750174 64.619995 121.860001 -23.459999 
71703436750174 64.619995 121.860001 -23.459999 
71703456750174 64.619995 121.860001 -23.459999 
71703476750174 64.619995 121.860001 -23.459999 
71703496750174 64.619995 121.860001 -23.459999 
71703516750174 64.619995 121.860001 -23.459999 
71703536750174 64.619995 121.860001 -23.459999 
71703556750174 64.619995 121.860001 -23.459999 
71703576750174 64.619995 121.860001 -23.459999 
71703596750174 64.619995 121.860001 -23.459999 
71703616750174 64.619995 121.860001 -23.459999 
71703636750174 64.619995 121.860001 -23.459999 
71703656750174 64.619995 121.860001 -23.459999 
71703676750174 64.619995 121.860001 -23.459999 
71703696750174 64.619995 121.860001 -23.459999 
71703716750174 64.619995 121.860001 -23.459999 
71703736750174 64.619995 121.860001 -23.459999 
71703756750174 64.619995 121.860001 -23.459999 
71703776750174 64.619995 121.860001 -23.459999 
71703796750174 64.619995 121.860001 -23.459999 
71703816750174 64.619995 121.860001 -23.459999 
71703836750174 64.619995 121.860001 -23.459999 
71703856750174 64.619995 121.860001 -23.459999 
71703876750174 64.619995 121.860001 -23.459999 
71703896750174 64.619995 121.860001 -23.459999 
71703916750174 64.619995 121.860001 -23.459999 
71703936750174 64.619995 121.860001 -23.459999 
71703956750174 64.619995 121.860001 -23.459999 
71703976750174 64.619995 121.860001 -23.459999 
71703996750174 64.619995 121.860001 -23.459999 
71704016750174 64.619995 121.860001 -23.459999 
71704036750174 64.619995 121.860001 -23.459999 
71704056750174 64.619995 121.860001 -23.459999 
71704076750174 64.619995 121.860001 -23.459999 
71704096750174 64.619995 121.860001 -23.459999 
71704116750174 64.619995 121.860001 -23.459999 
71704136750174 64.619995 121.860001 -23.459999 
71704156750174 64.619995 121.860001 -23.459999 
71704176750174 64.619995 121.860001 -23.459999 
71704196750174 64.619995 121.860001 -23.459999 
71704216750174 64.619995 121.860001 -23.459999 
71704236750174 64.619995 121.860001 -23.459999 
71704256750174 64.619995 121.860001 -23.459999 
71704276750174 64.619995 121.860001 -23.459999 
71704296750174 64.619995 121.860001 -23.459999 
71704316750174 64.799995 121.680000 -23.699999 
71704336750174 64.799995 121.680000 -23.699999 
71704356750174 64.799995 121.680000 -23.699999 
71704376750174 64.799995 121.680000 -23.699999 
71704396750174 64.799995 121.680000 -23.699999 
71704416750174 64.799995 121.680000 -23.699999 
71704436750174 64.799995 121.680000 -23.699999 
71704456750174 64.799995 121.680000 -23.699999 
71704476750174 64.799995 121.680000 -23.699999 
71704496750174 64.799995 121.680000 -23.699999 
71704516750174 64.799995 121.680000 -23.699999 
71704536750174 64.799995 121.680000 -23.699999 
71704556750174 64.799995 121.680000 -23.699999 
71704576750174 64.799995 121.680000 -23.699999 
71704596750174 64.799995 121.680000 -23.699999 
71704616750174 64.799995 121.680000 -23.699999 
71704636750174 64.799995 121.680000 -23.699999 
71704656750174 64.799995 121.680000 -23.699999 
71704676750174 64.799995 121.680000 -23.699999 
71704696750174 64.799995 121.680000 -23.699999 
71704716750174 64.799995 121.680000 -23.699999 
71704736750174 64.799995 121.680000 -23.699999 
71704756750174 64.799995 121.680000 -23.699999 
71704776750174 64.799995 121.680000 -23.699999 
71704796750174 64.799995 121.680000 -23.699999 
71704816750174 64.799995 121.680000 -23.699999 
71704836750174 64.799995 121.680000 -23.699999 
71704856750174 64.799995 121.680000 -23.699999 
71704876750174 64.799995 121.680000 -23.699999 
71704896750174 64.799995 121.680000 -23.699999 
71704916750174 64.799995 121.680000 -23.699999 
71704936750174 64.799995 121.680000 -23.699999 
71704956750174 64.799995 121.680000 -23.699999 
71704976750174 64.799995 121.680000 -23.699999 
71704996750174 64.799995 121.680000 -23.699999 
71705016750174 64.799995 121.680000 -23.699999 
71705036750174 64.799995 121.680000 -23.699999 
71705056750174 64.799995 121.680000 -23.699999 
71705076750174 64.799995 121.680000 -23.699999 
71705096750174 64.799995 121.680000 -23.699999 
71705116750174 64.799995 121.680000 -23.699999 
71705136750174 64.799995 121.680000 -23.699999 
71705156750174 64.799995 121.680000 -23.699999 
71705176750174 64.799995 121.680000 -23.699999 
71705196750174 64.799995 121.680000 -23.699999 
71705216750174 64.799995 121.680000 -23.699999 
71705236750174 64.799995 121.680000 -23.699999 
71705256750174 64.799995 121.680000 -23.699999 
71705276750174 64.799995 121.680000 -23.699999 
71705296750174 64.799995 121.680000 -23.699999 
71705316750174 64.799995 121.680000 -23.699999 
71705336750174 64.799995 121.680000 -23.699999 
71705356750174 64.799995 121.680000 -23.699999 
71705376750174 64.799995 121.680000 -23.699999 
71705396750174 64.799995 121.680000 -23.699999 
71705416750174 64.799995 121.680000 -23.699999 
71705436750174 64.799995 121.680000 -23.699999 
71705456750174 64.799995 121.680000 -23.699999 
71705476750174 64.799995 121.680000 -23.699999 
71705496750174 64.799995 121.680000 -23.699999 
71705516750174 64.799995 121.680000 -23.699999 
71705536750174 64.799995 121.680000 -23.699999 
71705556750174 64.799995 121.680000 -23.699999 
71705576750174 64.799995 121.680000 -23.699999 
71705596750174 64.799995 121.680000 -23.699999 
71705616750174 64.799995 121.680000 -23.699999 
71705636750174 64.799995 121.680000 -23.699999 
71705656750174 64.799995 121.680000 -23.699999 
71705676750174 64.799995 121.680000 -23.699999 
71705696750174 64.799995 121.680000 -23.699999 
71705716750174 64.799995 121.680000 -23.699999 
71705736750174 64.799995 121.680000 -23.699999 
71705756750174 64.799995 121.680000 -23.699999 
71705776750174 64.799995 121.680000 -23.699999 
71705796750174 64.799995 121.680000 -23.699999 
71705816750174 64.799995 121.680000 -23.699999 
71705836750174 64.799995 121.680000 -23.699999 
71705856750174 64.799995 121.680000 -23.699999 
71705876750174 64.799995 121.680000 -23.699999 
71705896750174 64.799995 121.680000 -23.699999 
71705916750174 64.799995 121.680000 -23.699999 
71705936750174 64.799995 121.680000 -23.699999 
71705956750174 64.799995 121.680000 -23.699999 
71705976750174 64.799995 121.680000 -23.699999 
71705996750174 64.799995 121.680000 -23.699999 
71706016750174 64.799995 121.680000 -23.699999 
71706036750174 64.799995 121.680000 -23.699999 
71706056750174 64.799995 121.680000 -23.699999 
71706076750174 64.799995 121.680000 -23.699999 
71706096750174 64.799995 121.680000 -23.699999 
71706116750174 64.799995 121.680000 -23.699999 
71706136750174 64.799995 121.680000 -23.699999 
71706156750174 64.799995 121.680000 -23.699999 
71706176750174 64.799995 121.680000 -23.699999 
71706196750174 64.799995 121.680000 -23.699999 
71706216750174 64.799995 121.680000 -23.699999 
71706236750174 64.799995 121.680000 -23.699999 
71706256750174 64.799995 121.680000 -23.699999 
71706276750174 64.799995 121.680000 -23.699999 
71706296750174 64.799995 121.680000 -23.699999 
71706316750174 64.799995 121.680000 -23.699999 
71706336750174 64.799995 121.680000 -23.699999 
71706356750174 64.799995 121.680000 -23.699999 
71706376750174 64.799995 121.680000 -23.699999 
71706396750174 64.799995 121.680000 -23.699999 
71706416750174 64.799995 121.680000 -23.699999 
71706436750174 64.799995 121.680000 -23.699999 
71706456750174 64.799995 121.680000 -23.699999 
71706476750174 64.799995 121.680000 -23.699999 
71706496750174 64.799995 121.680000 -23.699999 
71706516750174 64.799995 121.680000 -23.699999 
71706536750174 64.799995 121.680000 -23.699999 
71706556750174 64.799995 121.680000 -23.699999 
71706576750174 64.799995 121.680000 -23.699999 
71706596750174 64.799995 121.680000 -23.699999 
71706616750174 64.799995 121.680000 -23.699999 
71706636750174 64.799995 121.680000 -23.699999 
71706656750174 64.799995 121.680000 -23.699999 
71706676750174 65.099998 121.439995 -23.939999 
71706696750174 65.099998 121.439995 -23.939999 
71706716750174 65.099998 121.439995 -23.939999 
71706736750174 65.099998 121.439995 -23.939999 
71706756750174 65.099998 121.439995 -23.939999 
71706776750174 65.099998 121.439995 -23.939999 
71706796750174 65.099998 121.439995 -23.939999 
71706816750174 65.099998 121.439995 -23.939999 
71706836750174 65.099998 121.439995 -23.939999 
71706856750174 65.099998 121.439995 -23.939999 
71706876750174 65.099998 121.439995 -23.939999 
71706896750174 65.099998 121.439995 -23.939999 
71706916750174 65.099998 121.439995 -23.939999 
71706936750174 65.099998 121.439995 -23.939999 
71706956750174 65.099998 121.439995 -23.939999 
71706976750174 65.099998 121.439995 -23.939999 
71706996750174 65.099998 121.439995 -23.939999 
71707016750174 65.099998 121.439995 -23.939999 
71707036750174 65.099998 121.439995 -23.939999 
71707056750174 65.099998 121.439995 -23.939999 
71707076750174 65.099998 121.439995 -23.939999 
71707096750174 65.099998 121.439995 -23.939999 
71707116750174 65.099998 121.439995 -23.939999 
71707136750174 65.099998 121.439995 -23.939999 
71707156750174 65.099998 121.439995 -23.939999 
71707176750174 65.099998 121.439995 -23.939999 
71707196750174 65.099998 121.439995 -23.939999 
71707216750174 65.099998 121.439995 -23.939999 
71707236750174 65.099998 121.439995 -23.939999 
71707256750174 65.099998 121.439995 -23.939999 
71707276750174 65.099998 121.439995 -23.939999 
71707296750174 65.099998 121.439995 -23.939999 
71707316750174 65.099998 121.439995 -23.939999 
71707336750174 65.099998 121.439995 -23.939999 
71707356750174 65.099998 121.439995 -23.939999 
71707376750174 65.099998 121.439995 -23.939999 
71707396750174 65.099998 121.439995 -23.939999 
71707416750174 65.099998 121.439995 -23.939999 
71707436750174 65.099998 121.439995 -23.939999 
71707456750174 65.099998 121.439995 -23.939999 
71707476750174 65.099998 121.439995 -23.939999 
71707496750174 65.099998 121.439995 -23.939999 
71707516750174 65.099998 121.439995 -23.939999 
71707536750174 65.099998 121.439995 -23.939999 
71707556750174 65.459999 121.199997 -24.180000 
71707576750174 65.459999 121.199997 -24.180000 
71707596750174 65.459999 121.199997 -24.180000 
71707616750174 65.459999 121.199997 -24.180000 
71707636750174 65.459999 121.199997 -24.180000 
71707656750174 65.459999 121.199997 -24.180000 
71707676750174 65.459999 121.199997 -24.180000 
71707696750174 65.459999 121.199997 -24.180000 
71707716750174 65.459999 121.199997 -24.180000 
71707736750174 65.459999 121.199997 -24.180000 
71707756750174 65.459999 121.199997 -24.180000 
71707776750174 65.459999 121.199997 -24.180000 
71707796750174 65.459999 121.199997 -24.180000 
71707816750174 65.459999 121.199997 -24.180000 
71707836750174 65.459999 121.199997 -24.180000 
71707856750174 65.459999 121.199997 -24.180000 
71707876750174 65.459999 121.199997 -24.180000 
71707896750174 65.459999 121.199997 -24.180000 
71707916750174 65.459999 121.199997 -24.180000 
71707936750174 65.459999 121.199997 -24.180000 
71707956750174 65.459999 121.199997 -24.180000 
71707976750174 65.459999 121.199997 -24.180000 
71707996750174 65.760002 121.019997 -24.420000 
71708016750174 65.760002 121.019997 -24.420000 
71708036750174 65.760002 121.019997 -24.420000 
71708056750174 65.760002 121.019997 -24.420000 
71708076750174 65.760002 121.019997 -24.420000 
71708096750174 65.760002 121.019997 -24.420000 
71708116750174 65.760002 121.019997 -24.420000 
71708136750174 65.760002 121.019997 -24.420000 
71708156750174 65.760002 121.019997 -24.420000 
71708176750174 65.760002 121.019997 -24.420000 
71708196750174 65.760002 121.019997 -24.420000 
71708216750174 65.760002 121.019997 -24.420000 
71708236750174 65.760002 121.019997 -24.420000 
71708256750174 65.760002 121.019997 -24.420000 
71708276750174 65.760002 121.019997 -24.420000 
71708296750174 65.760002 121.019997 -24.420000 
71708316750174 65.760002 121.019997 -24.420000 
71708336750174 65.760002 121.019997 -24.420000 
71708356750174 65.760002 121.019997 -24.420000 
71708376750174 65.760002 121.019997 -24.420000 
71708396750174 65.760002 121.019997 -24.420000 
71708416750174 65.760002 121.019997 -24.420000 
71708436750174 65.760002 121.019997 -24.420000 
71708456750174 65.760002 121.019997 -24.420000 
71708476750174 65.760002 121.019997 -24.420000 
71708496750174 65.760002 121.019997 -24.420000 
71708516750174 65.760002 121.019997 -24.420000 
71708536750174 65.760002 121.019997 -24.420000 
71708556750174 65.760002 121.019997 -24.420000 
71708576750174 65.760002 121.019997 -24.420000 
71708596750174 65.760002 121.019997 -24.420000 
71708616750174 65.760002 121.019997 -24.420000 
71708636750174 65.879997 120.839996 -24.299999 
71708656750174 65.879997 120.839996 -24.299999 
71708676750174 65.879997 120.839996 -24.299999 
71708696750174 65.879997 120.839996 -24.299999 
71708716750174 65.879997 120.839996 -24.299999 
71708736750174 65.879997 120.839996 -24.299999 
71708756750174 65.879997 120.839996 -24.299999 
71708776750174 65.879997 120.839996 -24.299999 
71708796750174 65.879997 120.839996 -24.299999 
71708816750174 65.879997 120.839996 -24.299999 
71708836750174 65.879997 120.839996 -24.299999 
71708856750174 65.879997 120.839996 -24.299999 
71708876750174 65.879997 120.839996 -24.299999 
71708896750174 65.879997 120.839996 -24.299999 
71708916750174 65.879997 120.839996 -24.299999 
71708936750174 65.879997 120.839996 -24.299999 
71708956750174 65.879997 120.839996 -24.299999 
71708976750174 65.879997 120.839996 -24.299999 
71708996750174 65.879997 120.839996 -24.299999 
71709016750174 65.879997 120.839996 -24.299999 
71709036750174 65.879997 120.839996 -24.299999 
71709056750174 65.879997 120.839996 -24.299999 
71709076750174 65.879997 120.839996 -24.299999 
71709096750174 65.879997 120.839996 -24.299999 
71709116750174 65.879997 120.839996 -24.299999 
71709136750174 65.879997 120.839996 -24.299999 
71709156750174 65.879997 120.839996 -24.299999 
71709176750174 65.879997 120.839996 -24.299999 
71709196750174 65.879997 120.839996 -24.299999 
71709216750174 65.879997 120.839996 -24.299999 
71709236750174 65.879997 120.839996 -24.299999 
71709256750174 65.879997 120.839996 -24.299999 
71709276750174 65.879997 120.839996 -24.299999 
71709296750174 65.879997 120.839996 -24.299999 
71709316750174 65.879997 120.839996 -24.299999 
71709336750174 65.879997 120.839996 -24.299999 
71709356750174 65.879997 120.839996 -24.299999 
71709376750174 65.879997 120.839996 -24.299999 
71709396750174 65.879997 120.839996 -24.299999 
71709416750174 65.879997 120.839996 -24.299999 
71709436750174 65.879997 120.839996 -24.299999 
71709456750174 65.879997 120.839996 -24.299999 
71709476750174 65.879997 120.839996 -24.299999 
71709496750174 65.879997 120.839996 -24.299999 
71709516750174 65.879997 120.839996 -24.299999 
71709536750174 65.879997 120.839996 -24.299999 
71709556750174 65.879997 120.839996 -24.299999 
71709576750174 65.879997 120.839996 -24.299999 
71709596750174 65.879997 120.839996 -24.299999 
71709616750174 65.879997 120.839996 -24.299999 
71709636750174 65.879997 120.839996 -24.299999 
71709656750174 65.879997 120.839996 -24.299999 
71709676750174 65.879997 120.839996 -24.299999 
71709696750174 65.879997 120.839996 -24.299999 
71709716750174 65.879997 120.839996 -24.299999 
71709736750174 65.879997 120.839996 -24.299999 
71709756750174 65.879997 120.839996 -24.299999 
71709776750174 65.879997 120.839996 -24.299999 
71709796750174 65.879997 120.839996 -24.299999 
71709816750174 65.879997 120.839996 -24.299999 
71709836750174 65.879997 120.839996 -24.299999 
71709856750174 65.879997 120.839996 -24.299999 
71709876750174 65.879997 120.839996 -24.299999 
71709896750174 65.879997 120.839996 -24.299999 
71709916750174 65.879997 120.839996 -24.299999 
71709936750174 65.879997 120.839996 -24.299999 
71709956750174 65.879997 120.839996 -24.299999 
71709976750174 65.879997 120.839996 -24.299999 
71709996750174 65.879997 120.839996 -24.299999 
71710016750174 65.879997 120.839996 -24.299999 
71710036750174 65.879997 120.839996 -24.299999 
71710056750174 65.879997 120.839996 -24.299999 
71710076750174 65.879997 120.839996 -24.299999 
71710096750174 65.879997 120.839996 -24.299999 
71710116750174 65.879997 120.839996 -24.299999 
71710136750174 65.879997 120.839996 -24.299999 
71710156750174 65.879997 120.839996 -24.299999 
71710176750174 65.879997 120.839996 -24.299999 
71710196750174 65.879997 120.839996 -24.299999 
71710216750174 65.879997 120.839996 -24.299999 
71710236750174 65.879997 120.839996 -24.299999 
71710256750174 65.879997 120.839996 -24.299999 
71710276750174 65.879997 120.839996 -24.299999 
71710296750174 65.879997 120.839996 -24.299999 
71710316750174 65.879997 120.839996 -24.299999 
71710336750174 65.879997 120.839996 -24.299999 
71710356750174 65.879997 120.839996 -24.299999 
71710376750174 65.879997 120.839996 -24.299999 
71710396750174 65.879997 120.839996 -24.299999 
71710416750174 65.879997 120.839996 -24.299999 
71710436750174 65.879997 120.839996 -24.299999 
71710456750174 65.879997 120.839996 -24.299999 
71710476750174 65.879997 120.839996 -24.299999 
71710496750174 65.879997 120.839996 -24.299999 
71710516750174 65.879997 120.839996 -24.299999 
71710536750174 65.879997 120.839996 -24.299999 
71710556750174 65.879997 120.839996 -24.299999 
71710576750174 65.879997 120.839996 -24.299999 
71710596750174 65.879997 120.839996 -24.299999 
71710616750174 65.879997 120.839996 -24.299999 
71710636750174 65.879997 120.839996 -24.299999 
71710656750174 65.879997 120.839996 -24.299999 
71710676750174 65.879997 120.839996 -24.299999 
71710696750174 65.879997 120.839996 -24.299999 
71710716750174 65.879997 120.839996 -24.299999 
71710736750174 65.879997 120.839996 -24.299999 
71710756750174 65.879997 120.839996 -24.299999 
71710776750174 65.879997 120.839996 -24.299999 
71710796750174 65.879997 120.839996 -24.299999 
71710816750174 65.879997 120.839996 -24.299999 
71710836750174 65.879997 120.839996 -24.299999 
71710856750174 65.879997 120.839996 -24.299999 
71710876750174 65.879997 120.839996 -24.299999 
71710896750174 65.879997 120.839996 -24.299999 
71710916750174 65.879997 120.839996 -24.299999 
71710936750174 65.879997 120.839996 -24.299999 
71710956750174 65.879997 120.839996 -24.299999 
71710976750174 65.879997 120.839996 -24.299999 
71710996750174 65.879997 120.839996 -24.299999 
71711016750174 65.879997 120.839996 -24.299999 
71711036750174 65.879997 120.839996 -24.299999 
71711056750174 65.879997 120.839996 -24.299999 
71711076750174 65.879997 120.839996 -24.299999 
71711096750174 65.879997 120.839996 -24.299999 
71711116750174 65.879997 120.839996 -24.299999 
71711136750174 65.879997 120.839996 -24.299999 
71711156750174 65.879997 120.839996 -24.299999 
71711176750174 65.879997 120.839996 -24.299999 
71711196750174 65.879997 120.839996 -24.299999 
71711216750174 65.879997 120.839996 -24.299999 
71711236750174 65.879997 120.839996 -24.299999 
71711256750174 65.879997 120.839996 -24.299999 
71711276750174 65.879997 120.839996 -24.299999 
71711296750174 65.879997 120.839996 -24.299999 
71711316750174 65.879997 120.839996 -24.299999 
71711336750174 65.879997 120.839996 -24.299999 
71711356750174 65.879997 120.839996 -24.299999 
71711376750174 65.879997 120.839996 -24.299999 
71711396750174 65.879997 120.839996 -24.299999 
71711416750174 65.879997 120.839996 -24.299999 
71711436750174 65.879997 120.839996 -24.299999 
71711456750174 65.879997 120.839996 -24.299999 
71711476750174 65.879997 120.839996 -24.299999 
71711496750174 65.879997 120.839996 -24.299999 
71711516750174 65.879997 120.839996 -24.299999 
71711536750174 65.879997 120.839996 -24.299999 
71711556750174 65.879997 120.839996 -24.299999 
71711576750174 65.879997 120.839996 -24.299999 
71711596750174 65.879997 120.839996 -24.299999 
71711616750174 65.879997 120.839996 -24.299999 
71711636750174 65.879997 120.839996 -24.299999 
71711656750174 65.879997 120.839996 -24.299999 
71711676750174 65.879997 120.839996 -24.299999 
71711696750174 65.879997 120.839996 -24.299999 
71711716750174 65.879997 120.839996 -24.299999 
71711736750174 65.879997 120.839996 -24.299999 
71711756750174 65.879997 120.839996 -24.299999 
71711776750174 65.879997 120.839996 -24.299999 
71711796750174 65.879997 120.839996 -24.299999 
71711816750174 65.879997 120.839996 -24.299999 
71711836750174 65.879997 120.839996 -24.299999 
71711856750174 65.879997 120.839996 -24.299999 
71711876750174 65.879997 120.839996 -24.299999 
71711896750174 65.879997 120.839996 -24.299999 
71711916750174 65.879997 120.839996 -24.299999 
71711936750174 65.879997 120.839996 -24.299999 
71711956750174 65.879997 120.839996 -24.299999 
71711976750174 65.879997 120.839996 -24.299999 
71711996750174 65.879997 120.839996 -24.299999 
71712016750174 65.879997 120.839996 -24.299999 
71712036750174 65.879997 120.839996 -24.299999 
71712056750174 65.879997 120.839996 -24.299999 
71712076750174 65.879997 120.839996 -24.299999 
71712096750174 65.879997 120.839996 -24.299999 
71712116750174 65.879997 120.839996 -24.299999 
71712136750174 65.879997 120.839996 -24.299999 
71712156750174 65.879997 120.839996 -24.299999 
71712176750174 65.879997 120.839996 -24.299999 
71712196750174 65.879997 120.839996 -24.299999 
71712216750174 65.879997 120.839996 -24.299999 
71712236750174 65.879997 120.839996 -24.299999 
71712256750174 65.879997 120.839996 -24.299999 
71712276750174 65.879997 120.839996 -24.299999 
71712296750174 65.879997 120.839996 -24.299999 
71712316750174 65.879997 120.839996 -24.299999 
71712336750174 65.879997 120.839996 -24.299999 
71712356750174 65.879997 120.839996 -24.299999 
71712376750174 65.879997 120.839996 -24.299999 
71712396750174 65.879997 120.839996 -24.299999 
71712416750174 65.879997 120.839996 -24.299999 
71712436750174 65.879997 120.839996 -24.299999 
71712456750174 65.879997 120.839996 -24.299999 
71712476750174 65.879997 120.839996 -24.299999 
71712496750174 65.879997 120.839996 -24.299999 
71712516750174 65.879997 120.839996 -24.299999 
71712536750174 65.879997 120.839996 -24.299999 
71712556750174 65.879997 120.839996 -24.299999 
71712576750174 65.879997 120.839996 -24.299999 
71712596750174 65.879997 120.839996 -24.299999 
71712616750174 65.879997 120.839996 -24.299999 
71712636750174 65.879997 120.839996 -24.299999 
71712656750174 65.879997 120.839996 -24.299999 
71712676750174 65.879997 120.839996 -24.299999 
71712696750174 65.879997 120.839996 -24.299999 
71712716750174 65.879997 120.839996 -24.299999 
71712736750174 65.879997 120.839996 -24.299999 
71712756750174 65.879997 120.839996 -24.299999 
71712776750174 65.879997 120.839996 -24.299999 
71712796750174 65.879997 120.839996 -24.299999 
71712816750174 65.879997 120.839996 -24.299999 
71712836750174 65.879997 120.839996 -24.299999 
71712856750174 65.879997 120.839996 -24.299999 
71712876750174 65.879997 120.839996 -24.299999 
71712896750174 65.879997 120.839996 -24.299999 
71712916750174 65.879997 120.839996 -24.299999 
71712936750174 65.879997 120.839996 -24.299999 
71712956750174 65.879997 120.839996 -24.299999 
71712976750174 65.879997 120.839996 -24.299999 
71712996750174 65.879997 120.839996 -24.299999 
71713016750174 65.879997 120.839996 -24.299999 
71713036750174 65.879997 120.839996 -24.299999 
71713056750174 65.879997 120.839996 -24.299999 
71713076750174 65.879997 120.839996 -24.299999 
71713096750174 65.879997 120.839996 -24.299999 
71713116750174 65.879997 120.839996 -24.299999 
71713136750174 65.879997 120.839996 -24.299999 
71713156750174 65.879997 120.839996 -24.299999 
71713176750174 65.879997 120.839996 -24.299999 
71713196750174 65.879997 120.839996 -24.299999 
71713216750174 65.879997 120.839996 -24.299999 
71713236750174 65.879997 120.839996 -24.299999 
71713256750174 65.879997 120.839996 -24.299999 
71713276750174 65.879997 120.839996 -24.299999 
71713296750174 65.879997 120.839996 -24.299999 
71713316750174 65.879997 120.839996 -24.299999 
71713336750174 65.879997 120.839996 -24.299999 
71713356750174 65.879997 120.839996 -24.299999 
71713376750174 65.879997 120.839996 -24.299999 
71713396750174 65.879997 120.839996 -24.299999 
71713416750174 65.879997 120.839996 -24.299999 
71713436750174 65.760002 121.019997 -24.180000 
71713456750174 65.760002 121.019997 -24.180000 
71713476750174 65.760002 121.019997 -24.180000 
71713496750174 65.760002 121.019997 -24.180000 
71713516750174 65.760002 121.019997 -24.180000 
71713536750174 65.760002 121.019997 -24.180000 
71713556750174 65.760002 121.019997 -24.180000 
71713576750174 65.760002 121.019997 -24.180000 
71713596750174 65.760002 121.019997 -24.180000 
71713616750174 65.760002 121.019997 -24.180000 
71713636750174 65.760002 121.019997 -24.180000 
71713656750174 65.760002 121.019997 -24.180000 
71713676750174 65.760002 121.019997 -24.180000 
71713696750174 65.760002 121.019997 -24.180000 
71713716750174 65.760002 121.019997 -24.180000 
71713736750174 65.760002 121.019997 -24.180000 
71713756750174 65.760002 121.019997 -24.180000 
71713776750174 65.760002 121.019997 -24.180000 
71713796750174 65.760002 121.019997 -24.180000 
71713816750174 65.760002 121.019997 -24.180000 
71713836750174 65.760002 121.019997 -24.180000 
71713856750174 65.760002 121.019997 -24.180000 
71713876750174 65.760002 121.019997 -24.180000 
71713896750174 65.760002 121.019997 -24.180000 
71713916750174 65.760002 121.019997 -24.180000 
71713936750174 65.760002 121.019997 -24.180000 
71713956750174 65.760002 121.019997 -24.180000 
71713976750174 65.760002 121.019997 -24.180000 
71713996750174 65.760002 121.019997 -24.180000 
71714016750174 65.760002 121.019997 -24.180000 
71714036750174 65.760002 121.019997 -24.180000 
71714056750174 65.760002 121.019997 -24.180000 
71714076750174 65.760002 121.019997 -24.180000 
71714096750174 65.760002 121.019997 -24.180000 
71714116750174 65.760002 121.019997 -24.180000 
71714136750174 65.760002 121.019997 -24.180000 
71714156750174 65.760002 121.019997 -24.180000 
71714176750174 65.760002 121.019997 -24.180000 
71714196750174 65.760002 121.019997 -24.180000 
71714216750174 65.760002 121.019997 -24.180000 
71714236750174 65.760002 121.019997 -24.180000 
71714256750174 65.760002 121.019997 -24.180000 
71714276750174 65.760002 121.019997 -24.180000 
71714296750174 65.760002 121.019997 -24.180000 
71714316750174 65.760002 121.019997 -24.180000 
71714336750174 65.760002 121.019997 -24.180000 
71714356750174 65.760002 121.019997 -24.180000 
71714376750174 65.760002 121.019997 -24.180000 
71714396750174 65.760002 121.019997 -24.180000 
71714416750174 65.760002 121.019997 -24.180000 
71714436750174 65.760002 121.019997 -24.180000 
71714456750174 65.760002 121.019997 -24.180000 
71714476750174 65.760002 121.019997 -24.180000 
71714496750174 65.760002 121.019997 -24.180000 
71714516750174 65.760002 121.019997 -24.180000 
71714536750174 65.760002 121.019997 -24.180000 
71714556750174 65.760002 121.019997 -24.180000 
71714576750174 65.760002 121.019997 -24.180000 
71714596750174 65.760002 121.019997 -24.180000 
71714616750174 65.760002 121.019997 -24.180000 
71714636750174 65.760002 121.019997 -24.180000 
71714656750174 65.760002 121.019997 -24.180000 
71714676750174 65.760002 121.019997 -24.180000 
71714696750174 65.760002 121.019997 -24.180000 
71714716750174 65.760002 121.019997 -24.180000 
71714736750174 65.760002 121.019997 -24.180000 
71714756750174 65.760002 121.019997 -24.180000 
71714776750174 65.760002 121.019997 -24.180000 
71714796750174 65.760002 121.019997 -24.180000 
71714816750174 65.760002 121.019997 -24.180000 
71714836750174 65.760002 121.019997 -24.180000 
71714856750174 65.760002 121.019997 -24.180000 
71714876750174 65.760002 121.019997 -24.180000 
71714896750174 65.760002 121.019997 -24.180000 
71714916750174 65.760002 121.019997 -24.180000 
71714936750174 65.760002 121.019997 -24.180000 
71714956750174 65.760002 121.019997 -24.180000 
71714976750174 65.760002 121.019997 -24.180000 
71714996750174 65.760002 121.019997 -24.180000 
71715016750174 65.760002 121.019997 -24.180000 
71715036750174 65.760002 121.019997 -24.180000 
71715056750174 65.760002 121.019997 -24.180000 
71715076750174 65.760002 121.139999 -24.420000 
71715096750174 65.760002 121.139999 -24.420000 
71715116750174 65.760002 121.139999 -24.420000 
71715136750174 65.760002 121.139999 -24.420000 
71715156750174 65.760002 121.139999 -24.420000 
71715176750174 65.760002 121.139999 -24.420000 
71715196750174 65.760002 121.139999 -24.420000 
71715216750174 65.760002 121.139999 -24.420000 
71715236750174 65.760002 121.139999 -24.420000 
71715256750174 65.760002 121.139999 -24.420000 
71715276750174 65.760002 121.139999 -24.420000 
71715296750174 65.760002 121.139999 -24.420000 
71715316750174 65.760002 121.139999 -24.420000 
71715336750174 65.760002 121.139999 -24.420000 
71715356750174 65.760002 121.139999 -24.420000 
71715376750174 65.760002 121.139999 -24.420000 
71715396750174 65.760002 121.139999 -24.420000 
71715416750174 65.760002 121.139999 -24.420000 
71715436750174 65.760002 121.139999 -24.420000 
71715456750174 65.760002 121.139999 -24.420000 
71715476750174 65.760002 121.139999 -24.420000 
71715496750174 65.760002 121.139999 -24.420000 
71715516750174 65.760002 121.139999 -24.420000 
71715536750174 65.760002 121.139999 -24.420000 
71715556750174 65.760002 121.139999 -24.420000 
71715576750174 65.760002 121.139999 -24.420000 
71715596750174 65.760002 121.139999 -24.420000 
71715616750174 65.760002 121.139999 -24.420000 
71715636750174 65.760002 121.139999 -24.420000 
71715656750174 65.760002 121.139999 -24.420000 
71715676750174 65.760002 121.139999 -24.420000 
71715696750174 65.760002 121.139999 -24.420000 
71715716750174 65.760002 121.139999 -24.420000 
71715736750174 65.760002 121.139999 -24.420000 
71715756750174 65.760002 121.139999 -24.420000 
71715776750174 65.760002 121.139999 -24.420000 
71715796750174 65.760002 121.139999 -24.420000 
71715816750174 65.760002 121.139999 -24.420000 
71715836750174 65.760002 121.139999 -24.420000 
71715856750174 65.760002 121.139999 -24.420000 
71715876750174 65.760002 121.139999 -24.420000 
71715896750174 65.760002 121.139999 -24.420000 
71715916750174 65.760002 121.139999 -24.420000 
71715936750174 65.760002 121.139999 -24.420000 
71715956750174 65.760002 121.139999 -24.420000 
71715976750174 65.760002 121.139999 -24.420000 
71715996750174 65.760002 121.139999 -24.420000 
71716016750174 65.760002 121.139999 -24.420000 
71716036750174 65.760002 121.139999 -24.420000 
71716056750174 65.760002 121.139999 -24.420000 
71716076750174 65.760002 121.139999 -24.420000 
71716096750174 65.760002 121.139999 -24.420000 
71716116750174 65.760002 121.139999 -24.420000 
71716136750174 65.760002 121.139999 -24.420000 
71716156750174 65.760002 121.139999 -24.420000 
71716176750174 65.760002 121.139999 -24.420000 
71716196750174 65.699997 121.320000 -24.480000 
71716216750174 65.699997 121.320000 -24.480000 
71716236750174 65.699997 121.320000 -24.480000 
71716256750174 65.699997 121.320000 -24.480000 
71716276750174 65.699997 121.320000 -24.480000 
71716296750174 65.699997 121.320000 -24.480000 
71716316750174 65.699997 121.320000 -24.480000 
71716336750174 65.699997 121.320000 -24.480000 
71716356750174 65.699997 121.320000 -24.480000 
71716376750174 65.699997 121.320000 -24.480000 
71716396750174 65.699997 121.320000 -24.480000 
71716416750174 65.699997 121.320000 -24.480000 
71716436750174 65.699997 121.320000 -24.480000 
71716456750174 65.699997 121.320000 -24.480000 
71716476750174 65.699997 121.320000 -24.480000 
71716496750174 65.699997 121.320000 -24.480000 
71716516750174 65.699997 121.320000 -24.480000 
71716536750174 65.699997 121.320000 -24.480000 
71716556750174 65.699997 121.320000 -24.480000 
71716576750174 65.699997 121.320000 -24.480000 
71716596750174 65.699997 121.320000 -24.480000 
71716616750174 65.699997 121.320000 -24.480000 
71716636750174 65.699997 121.320000 -24.480000 
71716656750174 65.699997 121.320000 -24.480000 
71716676750174 65.699997 121.320000 -24.480000 
71716696750174 65.699997 121.320000 -24.480000 
71716716750174 65.699997 121.320000 -24.480000 
71716736750174 65.699997 121.320000 -24.480000 
71716756750174 65.699997 121.320000 -24.480000 
71716776750174 65.699997 121.320000 -24.480000 
71716796750174 65.699997 121.320000 -24.480000 
71716816750174 65.699997 121.320000 -24.480000 
71716836750174 65.699997 121.320000 -24.480000 
71716856750174 65.699997 121.320000 -24.480000 
71716876750174 65.699997 121.320000 -24.480000 
71716896750174 65.699997 121.320000 -24.480000 
71716916750174 65.699997 121.320000 -24.480000 
71716936750174 65.699997 121.320000 -24.480000 
71716956750174 65.699997 121.320000 -24.480000 
71716976750174 65.699997 121.320000 -24.480000 
71716996750174 65.699997 121.320000 -24.480000 
71717016750174 65.699997 121.320000 -24.480000 
71717036750174 65.699997 121.320000 -24.480000 
71717056750174 65.699997 121.320000 -24.480000 
71717076750174 65.699997 121.320000 -24.480000 
71717096750174 65.699997 121.320000 -24.480000 
71717116750174 65.699997 121.320000 -24.480000 
71717136750174 65.699997 121.320000 -24.480000 
71717156750174 65.699997 121.320000 -24.480000 
71717176750174 65.699997 121.320000 -24.480000 
71717196750174 65.699997 121.320000 -24.480000 
71717216750174 65.699997 121.320000 -24.480000 
71717236750174 65.699997 121.320000 -24.480000 
71717256750174 65.699997 121.320000 -24.480000 
71717276750174 65.699997 121.320000 -24.480000 
71717296750174 65.699997 121.320000 -24.480000 
71717316750174 65.699997 121.320000 -24.480000 
71717336750174 65.699997 121.320000 -24.480000 
71717356750174 65.699997 121.320000 -24.480000 
71717376750174 65.699997 121.320000 -24.480000 
71717396750174 65.699997 121.320000 -24.480000 
71717416750174 65.699997 121.320000 -24.480000 
71717436750174 65.699997 121.320000 -24.480000 
71717456750174 65.699997 121.320000 -24.480000 
71717476750174 65.699997 121.320000 -24.480000 
71717496750174 65.699997 121.320000 -24.480000 
71717516750174 65.699997 121.320000 -24.480000 
71717536750174 65.699997 121.320000 -24.480000 
71717556750174 65.699997 121.320000 -24.480000 
71717576750174 65.699997 121.320000 -24.480000 
71717596750174 65.699997 121.320000 -24.480000 
71717616750174 65.699997 121.320000 -24.480000 
71717636750174 65.699997 121.320000 -24.480000 
71717656750174 65.699997 121.320000 -24.480000 
71717676750174 65.699997 121.320000 -24.480000 
71717696750174 65.699997 121.320000 -24.480000 
71717716750174 65.699997 121.320000 -24.480000 
71717736750174 65.699997 121.320000 -24.480000 
71717756750174 65.699997 121.320000 -24.480000 
71717776750174 65.699997 121.320000 -24.480000 
71717796750174 65.699997 121.139999 -24.480000 
71717816750174 65.699997 121.139999 -24.480000 
71717836750174 65.699997 121.139999 -24.480000 
71717856750174 65.699997 121.139999 -24.480000 
71717876750174 65.699997 121.139999 -24.480000 
71717896750174 65.699997 121.139999 -24.480000 
71717916750174 65.699997 121.139999 -24.480000 
71717936750174 65.699997 121.139999 -24.480000 
71717956750174 65.699997 121.139999 -24.480000 
71717976750174 65.699997 121.139999 -24.480000 
71717996750174 65.699997 121.139999 -24.480000 
71718016750174 65.699997 121.139999 -24.480000 
71718036750174 65.699997 121.139999 -24.480000 
71718056750174 65.699997 121.139999 -24.480000 
71718076750174 65.699997 121.139999 -24.480000 
71718096750174 65.699997 121.139999 -24.480000 
71718116750174 65.699997 121.139999 -24.480000 
71718136750174 65.699997 121.139999 -24.480000 
71718156750174 65.699997 121.139999 -24.480000 
71718176750174 65.699997 121.139999 -24.480000 
71718196750174 65.699997 121.139999 -24.480000 
71718216750174 65.699997 121.139999 -24.480000 
71718236750174 65.699997 121.139999 -24.480000 
71718256750174 65.699997 121.139999 -24.480000 
71718276750174 65.699997 121.139999 -24.480000 
71718296750174 65.699997 121.139999 -24.480000 
71718316750174 65.699997 121.139999 -24.480000 
71718336750174 65.699997 121.139999 -24.480000 
71718356750174 65.699997 121.139999 -24.480000 
71718376750174 65.699997 121.139999 -24.480000 
71718396750174 65.699997 121.139999 -24.480000 
71718416750174 65.699997 121.139999 -24.480000 
71718436750174 65.699997 121.139999 -24.480000 
71718456750174 65.699997 121.139999 -24.480000 
71718476750174 65.699997 121.139999 -24.480000 
71718496750174 65.699997 121.139999 -24.480000 
71718516750174 65.699997 121.139999 -24.480000 
71718536750174 65.699997 121.139999 -24.480000 
71718556750174 65.699997 121.139999 -24.480000 
71718576750174 65.699997 121.139999 -24.480000 
71718596750174 65.699997 121.139999 -24.480000 
71718616750174 65.699997 121.139999 -24.480000 
71718636750174 65.699997 121.139999 -24.480000 
71718656750174 65.699997 121.139999 -24.480000 
71718676750174 65.699997 121.139999 -24.480000 
71718696750174 65.699997 121.139999 -24.480000 
71718716750174 65.699997 121.139999 -24.480000 
71718736750174 65.699997 121.139999 -24.480000 
71718756750174 65.699997 121.139999 -24.480000 
71718776750174 65.699997 121.139999 -24.480000 
71718796750174 65.699997 121.139999 -24.480000 
71718816750174 65.699997 121.139999 -24.480000 
71718836750174 65.699997 121.139999 -24.480000 
71718856750174 65.699997 121.139999 -24.480000 
71718876750174 65.699997 121.139999 -24.480000 
71718896750174 65.699997 121.139999 -24.480000 
71718916750174 65.699997 121.139999 -24.480000 
71718936750174 65.699997 121.139999 -24.480000 
71718956750174 65.699997 121.139999 -24.480000 
71718976750174 65.699997 121.139999 -24.480000 
71718996750174 65.699997 121.139999 -24.480000 
71719016750174 65.699997 121.139999 -24.480000 
71719036750174 65.699997 121.139999 -24.480000 
71719056750174 65.699997 121.139999 -24.480000 
71719076750174 65.699997 121.139999 -24.480000 
71719096750174 65.699997 121.139999 -24.480000 
71719116750174 65.699997 121.139999 -24.480000 
71719136750174 65.699997 121.139999 -24.480000 
71719156750174 65.699997 121.139999 -24.480000 
71719176750174 65.699997 121.139999 -24.480000 
71719196750174 65.699997 121.139999 -24.480000 
71719216750174 65.699997 121.139999 -24.480000 
71719236750174 65.699997 121.139999 -24.480000 
71719256750174 65.699997 121.139999 -24.480000 
71719276750174 65.699997 121.139999 -24.480000 
71719296750174 65.699997 121.139999 -24.480000 
71719316750174 65.699997 121.139999 -24.480000 
71719336750174 65.699997 121.139999 -24.480000 
71719356750174 65.699997 121.139999 -24.480000 
71719376750174 65.699997 121.139999 -24.480000 
71719396750174 65.699997 121.139999 -24.480000 
71719416750174 65.699997 121.139999 -24.480000 
71719436750174 65.699997 121.139999 -24.480000 
71719456750174 65.699997 121.139999 -24.480000 
71719476750174 65.699997 121.139999 -24.480000 
71719496750174 65.699997 121.139999 -24.480000 
71719516750174 65.699997 121.139999 -24.480000 
71719536750174 65.699997 121.139999 -24.480000 
71719556750174 65.699997 121.139999 -24.480000 
71719576750174 65.699997 121.139999 -24.480000 
71719596750174 65.699997 121.139999 -24.480000 
71719616750174 65.699997 121.139999 -24.480000 
71719636750174 65.699997 121.139999 -24.480000 
71719656750174 65.699997 121.139999 -24.480000 
71719676750174 65.699997 121.139999 -24.480000 
71719696750174 65.699997 121.139999 -24.480000 
71719716750174 65.699997 121.139999 -24.480000 
71719736750174 65.699997 121.139999 -24.480000 
71719756750174 65.699997 121.139999 -24.480000 
71719776750174 65.699997 121.139999 -24.480000 
71719796750174 65.699997 121.139999 -24.480000 
71719816750174 65.699997 121.139999 -24.480000 
71719836750174 65.699997 121.139999 -24.480000 
71719856750174 65.699997 121.139999 -24.480000 
71719876750174 65.699997 121.139999 -24.480000 
71719896750174 65.699997 121.139999 -24.480000 
71719916750174 65.699997 121.139999 -24.480000 
71719936750174 65.699997 121.139999 -24.480000 
71719956750174 65.699997 121.139999 -24.480000 
71719976750174 65.699997 121.139999 -24.480000 
71719996750174 65.699997 121.139999 -24.480000 
71720016750174 65.699997 121.139999 -24.480000 
71720036750174 65.699997 121.139999 -24.480000 
71720056750174 65.699997 121.139999 -24.480000 
71720076750174 65.699997 121.139999 -24.480000 
71720096750174 65.699997 121.139999 -24.480000 
71720116750174 65.699997 121.139999 -24.480000 
71720136750174 65.699997 121.139999 -24.480000 
71720156750174 65.699997 121.139999 -24.480000 
71720176750174 65.699997 121.139999 -24.480000 
71720196750174 65.699997 121.139999 -24.480000 
71720216750174 65.699997 121.139999 -24.480000 
71720236750174 65.699997 121.139999 -24.480000 
71720256750174 65.699997 121.139999 -24.480000 
71720276750174 65.699997 121.139999 -24.480000 
71720296750174 65.699997 121.139999 -24.480000 
71720316750174 65.699997 121.139999 -24.480000 
71720336750174 65.699997 121.139999 -24.480000 
71720356750174 65.699997 121.139999 -24.480000 
71720376750174 65.699997 121.139999 -24.480000 
71720396750174 65.699997 121.139999 -24.480000 
71720416750174 65.699997 121.139999 -24.480000 
71720436750174 65.699997 121.139999 -24.480000 
71720456750174 65.699997 121.139999 -24.480000 
71720476750174 65.879997 120.959999 -24.539999 
71720496750174 65.879997 120.959999 -24.539999 
71720516750174 65.879997 120.959999 -24.539999 
71720536750174 65.879997 120.959999 -24.539999 
71720556750174 65.879997 120.959999 -24.539999 
71720576750174 65.879997 120.959999 -24.539999 
71720596750174 65.879997 120.959999 -24.539999 
71720616750174 65.879997 120.959999 -24.539999 
71720636750174 65.879997 120.959999 -24.539999 
71720656750174 65.879997 120.959999 -24.539999 
71720676750174 66.119995 120.959999 -24.539999 
71720696750174 66.119995 120.959999 -24.539999 
71720716750174 66.119995 120.959999 -24.539999 
71720736750174 66.119995 120.959999 -24.539999 
71720756750174 66.119995 120.959999 -24.539999 
71720776750174 66.119995 120.959999 -24.539999 
71720796750174 66.299995 120.959999 -24.420000 
71720816750174 66.299995 120.959999 -24.420000 
71720836750174 66.299995 120.959999 -24.420000 
71720856750174 66.299995 120.959999 -24.420000 
71720876750174 66.299995 120.959999 -24.420000 
71720896750174 66.299995 120.959999 -24.420000 
71720916750174 66.299995 120.959999 -24.420000 
71720936750174 66.299995 120.959999 -24.420000 
71720956750174 66.299995 120.959999 -24.420000 
71720976750174 66.299995 120.959999 -24.420000 
71720996750174 66.299995 120.959999 -24.420000 
71721016750174 66.299995 120.959999 -24.420000 
71721036750174 66.299995 120.959999 -24.420000 
71721056750174 66.299995 120.959999 -24.420000 
71721076750174 66.599998 120.839996 -24.359999 
71721096750174 66.599998 120.839996 -24.359999 
71721116750174 66.599998 120.839996 -24.359999 
71721136750174 66.599998 120.839996 -24.359999 
71721156750174 66.599998 120.839996 -24.359999 
71721176750174 66.599998 120.839996 -24.359999 
71721196750174 66.599998 120.839996 -24.359999 
71721216750174 66.599998 120.839996 -24.359999 
71721236750174 66.599998 120.839996 -24.359999 
71721256750174 66.599998 120.839996 -24.359999 
71721276750174 66.599998 120.839996 -24.359999 
71721296750174 66.599998 120.839996 -24.359999 
71721316750174 66.599998 120.839996 -24.359999 
71721336750174 66.599998 120.839996 -24.359999 
71721356750174 66.599998 120.839996 -24.359999 
71721376750174 66.599998 120.839996 -24.359999 
71721396750174 66.599998 120.839996 -24.359999 
71721416750174 66.599998 120.839996 -24.359999 
71721436750174 66.599998 120.839996 -24.359999 
71721456750174 66.599998 120.839996 -24.359999 
71721476750174 66.599998 120.839996 -24.359999 
71721496750174 66.599998 120.839996 -24.359999 
71721516750174 66.599998 120.839996 -24.359999 
71721536750174 66.599998 120.839996 -24.359999 
71721556750174 66.599998 120.839996 -24.359999 
71721576750174 66.599998 120.839996 -24.359999 
71721596750174 66.599998 120.839996 -24.359999 
71721616750174 66.599998 120.839996 -24.359999 
71721636750174 66.599998 120.839996 -24.359999 
71721656750174 66.599998 120.839996 -24.359999 
71721676750174 66.599998 120.839996 -24.359999 
71721696750174 66.599998 120.839996 -24.359999 
71721716750174 66.599998 120.839996 -24.359999 
71721736750174 66.599998 120.839996 -24.359999 
71721756750174 66.599998 120.839996 -24.359999 
71721776750174 66.599998 120.839996 -24.359999 
71721796750174 66.599998 120.839996 -24.359999 
71721816750174 66.599998 120.839996 -24.359999 
71721836750174 66.599998 120.839996 -24.359999 
71721856750174 66.599998 120.839996 -24.359999 
71721876750174 66.599998 120.839996 -24.359999 
71721896750174 66.599998 120.839996 -24.359999 
71721916750174 66.599998 120.839996 -24.359999 
71721936750174 66.599998 120.839996 -24.359999 
71721956750174 66.599998 120.839996 -24.359999 
71721976750174 66.599998 120.839996 -24.359999 
71721996750174 66.599998 120.839996 -24.359999 
71722016750174 66.599998 120.839996 -24.359999 
71722036750174 66.599998 120.839996 -24.359999 
71722056750174 66.599998 120.839996 -24.359999 
71722076750174 66.599998 120.839996 -24.359999 
71722096750174 66.599998 120.839996 -24.359999 
71722116750174 66.599998 120.839996 -24.359999 
71722136750174 66.599998 120.839996 -24.359999 
71722156750174 66.599998 120.839996 -24.359999 
71722176750174 66.599998 120.839996 -24.359999 
71722196750174 66.599998 120.839996 -24.359999 
71722216750174 66.599998 120.839996 -24.359999 
71722236750174 66.599998 120.839996 -24.359999 
71722256750174 66.599998 120.839996 -24.359999 
71722276750174 66.599998 120.839996 -24.359999 
71722296750174 66.599998 120.839996 -24.359999 
71722316750174 66.599998 120.839996 -24.359999 
71722336750174 66.599998 120.839996 -24.359999 
71722356750174 66.599998 120.839996 -24.359999 
71722376750174 66.599998 120.839996 -24.359999 
71722396750174 66.599998 120.839996 -24.359999 
71722416750174 66.599998 120.839996 -24.359999 
71722436750174 66.599998 120.839996 -24.359999 
71722456750174 66.599998 120.839996 -24.359999 
71722476750174 66.599998 120.839996 -24.359999 
71722496750174 66.599998 120.839996 -24.359999 
71722516750174 66.599998 120.839996 -24.359999 
71722536750174 66.599998 120.839996 -24.359999 
71722556750174 66.599998 120.839996 -24.359999 
71722576750174 66.599998 120.839996 -24.359999 
71722596750174 66.599998 120.839996 -24.359999 
71722616750174 66.599998 120.839996 -24.359999 
71722636750174 66.599998 120.839996 -24.359999 
71722656750174 66.599998 120.839996 -24.359999 
71722676750174 66.599998 120.839996 -24.359999 
71722696750174 66.599998 120.839996 -24.359999 
71722716750174 66.599998 120.839996 -24.359999 
71722736750174 66.599998 120.839996 -24.359999 
71722756750174 66.599998 120.839996 -24.359999 
71722776750174 66.599998 120.839996 -24.359999 
71722796750174 66.599998 120.839996 -24.359999 
71722816750174 66.599998 120.839996 -24.359999 
71722836750174 66.599998 120.839996 -24.359999 
71722856750174 66.599998 120.839996 -24.359999 
71722876750174 66.599998 120.839996 -24.359999 
71722896750174 66.599998 120.839996 -24.359999 
71722916750174 66.599998 120.839996 -24.359999 
71722936750174 66.599998 120.839996 -24.359999 
71722956750174 66.599998 120.839996 -24.359999 
71722976750174 66.599998 120.839996 -24.359999 
71722996750174 66.599998 120.839996 -24.359999 
71723016750174 66.599998 120.839996 -24.359999 
71723036750174 66.599998 120.839996 -24.359999 
71723056750174 66.599998 120.839996 -24.359999 
71723076750174 66.599998 120.839996 -24.359999 
71723096750174 66.599998 120.839996 -24.359999 
71723116750174 66.599998 120.839996 -24.359999 
71723136750174 66.599998 120.839996 -24.359999 
71723156750174 66.599998 120.839996 -24.359999 
71723176750174 66.599998 120.839996 -24.359999 
71723196750174 66.599998 120.839996 -24.359999 
71723216750174 66.599998 120.839996 -24.359999 
71723236750174 66.599998 120.839996 -24.359999 
71723256750174 66.599998 120.839996 -24.359999 
71723276750174 66.599998 120.839996 -24.359999 
71723296750174 66.599998 120.839996 -24.359999 
71723316750174 66.599998 120.839996 -24.359999 
71723336750174 66.599998 120.839996 -24.359999 
71723356750174 66.599998 120.839996 -24.359999 
71723376750174 66.599998 120.839996 -24.359999 
71723396750174 66.599998 120.839996 -24.359999 
71723416750174 66.599998 120.839996 -24.359999 
71723436750174 66.599998 120.839996 -24.359999 
71723456750174 66.599998 120.839996 -24.359999 
71723476750174 66.599998 120.839996 -24.359999 
71723496750174 66.599998 120.839996 -24.359999 
71723516750174 66.599998 120.839996 -24.359999 
71723536750174 66.599998 120.839996 -24.359999 
71723556750174 66.599998 120.839996 -24.359999 
71723576750174 66.599998 120.839996 -24.359999 
71723596750174 66.599998 120.839996 -24.359999 
71723616750174 66.599998 120.839996 -24.359999 
71723636750174 66.599998 120.839996 -24.359999 
71723656750174 66.599998 120.839996 -24.359999 
71723676750174 66.599998 120.839996 -24.359999 
71723696750174 66.599998 120.839996 -24.359999 
71723716750174 66.599998 120.839996 -24.359999 
71723736750174 66.599998 120.839996 -24.359999 
71723756750174 66.599998 120.839996 -24.359999 
71723776750174 66.599998 120.839996 -24.359999 
71723796750174 66.599998 120.839996 -24.359999 
71723816750174 66.599998 120.839996 -24.359999 
71723836750174 66.599998 120.839996 -24.359999 
71723856750174 66.599998 120.839996 -24.359999 
71723876750174 66.599998 120.839996 -24.359999 
71723896750174 66.599998 120.839996 -24.359999 
71723916750174 66.599998 120.839996 -24.359999 
71723936750174 66.599998 120.839996 -24.359999 
71723956750174 66.599998 120.839996 -24.359999 
71723976750174 66.599998 120.839996 -24.359999 
71723996750174 66.599998 120.839996 -24.359999 
71724016750174 66.599998 120.839996 -24.359999 
71724036750174 66.599998 120.839996 -24.359999 
71724056750174 66.599998 120.839996 -24.359999 
71724076750174 66.599998 120.839996 -24.359999 
71724096750174 66.599998 120.839996 -24.359999 
71724116750174 66.599998 120.839996 -24.359999 
71724136750174 66.599998 120.839996 -24.359999 
71724156750174 66.599998 120.839996 -24.359999 
71724176750174 66.599998 120.839996 -24.359999 
71724196750174 66.599998 120.839996 -24.359999 
71724216750174 66.599998 120.839996 -24.359999 
71724236750174 66.599998 120.839996 -24.359999 
71724256750174 66.599998 120.839996 -24.359999 
71724276750174 66.599998 120.839996 -24.359999 
71724296750174 66.599998 120.839996 -24.359999 
71724316750174 66.599998 120.839996 -24.359999 
71724336750174 66.599998 120.839996 -24.359999 
71724356750174 66.599998 120.839996 -24.359999 
71724376750174 66.599998 120.839996 -24.359999 
71724396750174 66.599998 120.839996 -24.359999 
71724416750174 66.599998 120.839996 -24.359999 
71724436750174 66.599998 120.839996 -24.359999 
71724456750174 66.599998 120.839996 -24.359999 
71724476750174 66.599998 120.839996 -24.359999 
71724496750174 66.599998 120.839996 -24.359999 
71724516750174 66.599998 120.839996 -24.359999 
71724536750174 66.599998 120.839996 -24.359999 
71724556750174 66.599998 120.839996 -24.359999 
71724576750174 66.599998 120.839996 -24.359999 
71724596750174 66.599998 120.839996 -24.359999 
71724616750174 66.599998 120.839996 -24.359999 
71724636750174 66.599998 120.839996 -24.359999 
71724656750174 66.599998 120.839996 -24.359999 
71724676750174 66.599998 120.839996 -24.359999 
71724696750174 66.599998 120.839996 -24.359999 
71724716750174 66.599998 120.839996 -24.359999 
71724736750174 66.599998 120.839996 -24.359999 
71724756750174 66.599998 120.839996 -24.359999 
71724776750174 66.599998 120.839996 -24.359999 
71724796750174 66.599998 120.839996 -24.359999 
71724816750174 66.599998 120.839996 -24.359999 
71724836750174 66.599998 120.839996 -24.359999 
71724856750174 66.599998 120.839996 -24.359999 
71724876750174 66.599998 120.839996 -24.359999 
71724896750174 66.599998 120.839996 -24.359999 
71724916750174 66.599998 120.839996 -24.359999 
71724936750174 66.599998 120.839996 -24.359999 
71724956750174 66.599998 120.839996 -24.359999 
71724976750174 66.599998 120.839996 -24.359999 
71724996750174 66.599998 120.839996 -24.359999 
71725016750174 66.599998 120.839996 -24.359999 
71725036750174 66.599998 120.839996 -24.359999 
71725056750174 66.599998 120.839996 -24.359999 
71725076750174 66.599998 120.839996 -24.359999 
71725096750174 66.599998 120.839996 -24.359999 
71725116750174 66.599998 120.839996 -24.359999 
71725136750174 66.599998 120.839996 -24.359999 
71725156750174 66.599998 120.839996 -24.359999 
71725176750174 66.599998 120.839996 -24.359999 
71725196750174 66.599998 120.839996 -24.359999 
71725216750174 66.599998 120.839996 -24.359999 
71725236750174 66.599998 120.839996 -24.359999 
71725256750174 66.599998 120.839996 -24.359999 
71725276750174 66.599998 120.839996 -24.359999 
71725296750174 66.599998 120.839996 -24.359999 
71725316750174 66.599998 120.839996 -24.359999 
71725336750174 66.599998 120.839996 -24.359999 
71725356750174 66.599998 120.839996 -24.359999 
71725376750174 66.599998 120.839996 -24.359999 
71725396750174 66.599998 120.839996 -24.359999 
71725416750174 66.599998 120.839996 -24.359999 
71725436750174 66.599998 120.839996 -24.359999 
71725456750174 66.599998 120.839996 -24.359999 
71725476750174 66.599998 120.839996 -24.359999 
71725496750174 66.599998 120.839996 -24.359999 
71725516750174 66.599998 120.839996 -24.359999 
71725536750174 66.599998 120.839996 -24.359999 
71725556750174 66.599998 120.839996 -24.359999 
71725576750174 66.599998 120.839996 -24.359999 
71725596750174 66.599998 120.839996 -24.359999 
