# Created at Fri Jan 31 08:58:36 GMT+01:00 2025 in Burnaby Canada 
72686416749704 68.159996 121.139999 -24.359999 
72686436749704 68.159996 121.139999 -24.359999 
72686456749704 68.159996 121.139999 -24.359999 
72686476749704 68.159996 121.139999 -24.359999 
72686496749704 68.159996 121.139999 -24.359999 
72686516749704 68.159996 121.139999 -24.359999 
72686536749704 68.159996 121.139999 -24.359999 
72686556749704 68.159996 121.139999 -24.359999 
72686576749704 68.159996 121.139999 -24.359999 
72686596749704 68.159996 121.139999 -24.359999 
72686616749704 68.159996 121.139999 -24.359999 
72686636749704 68.159996 121.139999 -24.359999 
72686656749704 68.159996 121.139999 -24.359999 
72686676749704 68.159996 121.139999 -24.359999 
72686696749704 68.159996 121.139999 -24.359999 
72686716749704 68.159996 121.139999 -24.359999 
72686736749704 68.159996 121.139999 -24.359999 
72686756749704 68.159996 121.139999 -24.359999 
72686776749704 68.159996 121.139999 -24.359999 
72686796749704 68.159996 121.139999 -24.359999 
72686816749704 68.159996 121.139999 -24.359999 
72686836749704 68.159996 121.139999 -24.359999 
72686856749704 68.159996 121.139999 -24.359999 
72686876749704 68.159996 121.139999 -24.359999 
72686896749704 68.159996 121.139999 -24.359999 
72686916749704 68.159996 121.139999 -24.359999 
72686936749704 68.159996 121.139999 -24.359999 
72686956749704 68.159996 121.139999 -24.359999 
72686976749704 68.159996 121.139999 -24.359999 
72686996749704 68.159996 121.139999 -24.359999 
72687016749704 68.159996 121.139999 -24.359999 
72687036749704 68.159996 121.139999 -24.359999 
72687056749704 68.159996 121.139999 -24.359999 
72687076749704 68.159996 121.139999 -24.359999 
72687096749704 68.159996 121.139999 -24.359999 
72687116749704 68.159996 121.139999 -24.359999 
72687136749704 68.159996 121.139999 -24.359999 
72687156749704 68.159996 121.139999 -24.359999 
72687176749704 68.159996 121.139999 -24.359999 
72687196749704 68.159996 121.139999 -24.359999 
72687216749704 68.159996 121.139999 -24.359999 
72687236749704 68.159996 121.139999 -24.359999 
72687256749704 68.159996 121.139999 -24.359999 
72687276749704 68.159996 121.139999 -24.359999 
72687296749704 68.159996 121.139999 -24.359999 
72687316749704 68.159996 121.139999 -24.359999 
72687336749704 68.159996 121.139999 -24.359999 
72687356749704 68.159996 121.139999 -24.359999 
72687376749704 68.159996 121.139999 -24.359999 
72687396749704 68.159996 121.139999 -24.359999 
72687416749704 68.159996 121.139999 -24.359999 
72687436749704 68.159996 121.139999 -24.359999 
72687456749704 68.159996 121.139999 -24.359999 
72687476749704 68.159996 121.139999 -24.359999 
72687496749704 68.159996 121.139999 -24.359999 
72687516749704 68.159996 121.139999 -24.359999 
72687536749704 68.159996 121.139999 -24.359999 
72687556749704 68.159996 121.139999 -24.359999 
72687576749704 68.159996 121.139999 -24.359999 
72687596749704 68.159996 121.139999 -24.359999 
72687616749704 68.159996 121.139999 -24.359999 
72687636749704 68.159996 121.139999 -24.359999 
72687656749704 68.159996 121.139999 -24.359999 
72687676749704 68.159996 121.139999 -24.359999 
72687696749704 68.159996 121.139999 -24.359999 
72687716749704 68.159996 121.139999 -24.359999 
72687736749704 68.159996 121.139999 -24.359999 
72687756749704 68.159996 121.139999 -24.359999 
72687776749704 68.159996 121.139999 -24.359999 
72687796749704 68.159996 121.139999 -24.359999 
72687816749704 68.159996 121.139999 -24.359999 
72687836749704 68.159996 121.139999 -24.359999 
72687856749704 68.159996 121.139999 -24.359999 
72687876749704 68.159996 121.139999 -24.359999 
72687896749704 68.159996 121.139999 -24.359999 
72687916749704 68.159996 121.139999 -24.359999 
72687936749704 68.159996 121.139999 -24.359999 
72687956749704 68.159996 121.139999 -24.359999 
72687976749704 68.159996 121.139999 -24.359999 
72687996749704 68.159996 121.139999 -24.359999 
72688016749704 68.159996 121.139999 -24.359999 
72688036749704 68.159996 121.139999 -24.359999 
72688056749704 68.159996 121.139999 -24.359999 
72688076749704 68.159996 121.139999 -24.359999 
72688096749704 68.159996 121.139999 -24.359999 
72688116749704 68.159996 121.139999 -24.359999 
72688136749704 68.159996 121.139999 -24.359999 
72688156749704 68.159996 121.139999 -24.359999 
72688176749704 68.159996 121.139999 -24.359999 
72688196749704 68.159996 121.139999 -24.359999 
72688216749704 68.159996 121.139999 -24.359999 
72688236749704 68.159996 121.139999 -24.359999 
72688256749704 68.159996 121.139999 -24.359999 
72688276749704 68.159996 121.139999 -24.359999 
72688296749704 68.159996 121.139999 -24.359999 
72688316749704 68.159996 121.139999 -24.359999 
72688336749704 68.159996 121.139999 -24.359999 
72688356749704 68.159996 121.139999 -24.359999 
72688376749704 68.159996 121.139999 -24.359999 
72688396749704 68.159996 121.139999 -24.359999 
72688416749704 68.159996 121.139999 -24.359999 
72688436749704 67.919998 121.259995 -24.119999 
72688456749704 67.919998 121.259995 -24.119999 
72688476749704 67.919998 121.259995 -24.119999 
72688496749704 67.919998 121.259995 -24.119999 
72688516749704 67.919998 121.259995 -24.119999 
72688536749704 67.919998 121.259995 -24.119999 
72688556749704 67.919998 121.259995 -24.119999 
72688576749704 67.919998 121.259995 -24.119999 
72688596749704 67.919998 121.259995 -24.119999 
72688616749704 67.919998 121.259995 -24.119999 
72688636749704 67.919998 121.259995 -24.119999 
72688656749704 67.919998 121.259995 -24.119999 
72688676749704 67.919998 121.259995 -24.119999 
72688696749704 67.919998 121.259995 -24.119999 
72688716749704 67.919998 121.259995 -24.119999 
72688736749704 67.919998 121.259995 -24.119999 
72688756749704 67.919998 121.259995 -24.119999 
72688776749704 67.919998 121.259995 -24.119999 
72688796749704 67.919998 121.259995 -24.119999 
72688816749704 67.919998 121.259995 -24.119999 
72688836749704 67.680000 121.439995 -24.119999 
72688856749704 67.680000 121.439995 -24.119999 
72688876749704 67.680000 121.439995 -24.119999 
72688896749704 67.680000 121.439995 -24.119999 
72688916749704 67.680000 121.439995 -24.119999 
72688936749704 67.680000 121.439995 -24.119999 
72688956749704 67.680000 121.439995 -24.119999 
72688976749704 67.680000 121.439995 -24.119999 
72688996749704 67.680000 121.439995 -24.119999 
72689016749704 67.680000 121.439995 -24.119999 
72689036749704 67.680000 121.439995 -24.119999 
72689056749704 67.680000 121.439995 -24.119999 
72689076749704 67.680000 121.439995 -24.119999 
72689096749704 67.680000 121.439995 -24.119999 
72689116749704 67.680000 121.439995 -24.119999 
72689136749704 67.680000 121.439995 -24.119999 
72689156749704 67.680000 121.439995 -24.119999 
72689176749704 67.680000 121.439995 -24.119999 
72689196749704 67.680000 121.439995 -24.119999 
72689216749704 67.680000 121.439995 -24.119999 
72689236749704 67.680000 121.439995 -24.119999 
72689256749704 67.680000 121.439995 -24.119999 
72689276749704 67.680000 121.439995 -24.119999 
72689296749704 67.680000 121.439995 -24.119999 
72689316749704 67.680000 121.439995 -24.119999 
72689336749704 67.680000 121.439995 -24.119999 
72689356749704 67.680000 121.439995 -24.119999 
72689376749704 67.680000 121.439995 -24.119999 
72689396749704 67.680000 121.439995 -24.119999 
72689416749704 67.680000 121.439995 -24.119999 
72689436749704 67.680000 121.439995 -24.119999 
72689456749704 67.680000 121.439995 -24.119999 
72689476749704 67.680000 121.439995 -24.119999 
72689496749704 67.680000 121.439995 -24.119999 
72689516749704 67.680000 121.439995 -24.119999 
72689536749704 67.680000 121.439995 -24.119999 
72689556749704 67.680000 121.439995 -24.119999 
72689576749704 67.680000 121.439995 -24.119999 
72689596749704 67.680000 121.439995 -24.119999 
72689616749704 67.680000 121.439995 -24.119999 
72689636749704 67.680000 121.439995 -24.119999 
72689656749704 67.680000 121.439995 -24.119999 
72689676749704 67.680000 121.439995 -24.119999 
72689696749704 67.680000 121.439995 -24.119999 
72689716749704 67.680000 121.439995 -24.119999 
72689736749704 67.680000 121.439995 -24.119999 
72689756749704 67.680000 121.439995 -24.119999 
72689776749704 67.680000 121.439995 -24.119999 
72689796749704 67.680000 121.439995 -24.119999 
72689816749704 67.680000 121.439995 -24.119999 
72689836749704 67.680000 121.439995 -24.119999 
72689856749704 67.680000 121.439995 -24.119999 
72689876749704 67.680000 121.439995 -24.119999 
72689896749704 67.680000 121.439995 -24.119999 
72689916749704 67.680000 121.439995 -24.119999 
72689936749704 67.680000 121.439995 -24.119999 
72689956749704 67.680000 121.439995 -24.119999 
72689976749704 67.680000 121.439995 -24.119999 
72689996749704 67.680000 121.439995 -24.119999 
72690016749704 67.680000 121.439995 -24.119999 
72690036749704 67.680000 121.439995 -24.119999 
72690056749704 67.680000 121.439995 -24.119999 
72690076749704 67.680000 121.439995 -24.119999 
72690096749704 67.680000 121.439995 -24.119999 
72690116749704 67.559998 121.739998 -24.000000 
72690136749704 67.559998 121.739998 -24.000000 
72690156749704 67.559998 121.739998 -24.000000 
72690176749704 67.559998 121.739998 -24.000000 
72690196749704 67.559998 121.739998 -24.000000 
72690216749704 67.559998 121.739998 -24.000000 
72690236749704 67.559998 121.739998 -24.000000 
72690256749704 67.559998 121.739998 -24.000000 
72690276749704 67.559998 121.739998 -24.000000 
72690296749704 67.559998 121.739998 -24.000000 
72690316749704 67.559998 121.739998 -24.000000 
72690336749704 67.559998 121.739998 -24.000000 
72690356749704 67.559998 121.739998 -24.000000 
72690376749704 67.559998 121.739998 -24.000000 
72690396749704 67.559998 121.739998 -24.000000 
72690416749704 67.559998 121.739998 -24.000000 
72690436749704 67.559998 121.739998 -24.000000 
72690456749704 67.559998 121.739998 -24.000000 
72690476749704 67.559998 121.739998 -24.000000 
72690496749704 67.559998 121.739998 -24.000000 
72690516749704 67.559998 121.739998 -24.000000 
72690536749704 67.559998 121.739998 -24.000000 
72690556749704 67.559998 121.739998 -24.000000 
72690576749704 67.559998 121.739998 -24.000000 
72690596749704 67.559998 121.739998 -24.000000 
72690616749704 67.559998 121.739998 -24.000000 
72690636749704 67.559998 121.739998 -24.000000 
72690656749704 67.559998 121.739998 -24.000000 
72690676749704 67.559998 121.739998 -24.000000 
72690696749704 67.559998 121.739998 -24.000000 
72690716749704 67.559998 121.739998 -24.000000 
72690736749704 67.559998 121.739998 -24.000000 
72690756749704 67.559998 121.739998 -24.000000 
72690776749704 67.559998 121.739998 -24.000000 
72690796749704 67.559998 121.739998 -24.000000 
72690816749704 67.559998 121.739998 -24.000000 
72690836749704 67.559998 121.739998 -24.000000 
72690856749704 67.559998 121.739998 -24.000000 
72690876749704 67.559998 121.739998 -24.000000 
72690896749704 67.559998 121.739998 -24.000000 
72690916749704 67.559998 121.739998 -24.000000 
72690936749704 67.559998 121.739998 -24.000000 
72690956749704 67.559998 121.739998 -24.000000 
72690976749704 67.559998 121.739998 -24.000000 
72690996749704 67.559998 121.739998 -24.000000 
72691016749704 67.559998 121.739998 -24.000000 
72691036749704 67.559998 121.739998 -24.000000 
72691056749704 67.559998 121.739998 -24.000000 
72691076749704 67.559998 121.739998 -24.000000 
72691096749704 67.559998 121.739998 -24.000000 
72691116749704 67.559998 121.739998 -24.000000 
72691136749704 67.559998 121.739998 -24.000000 
72691156749704 67.559998 121.739998 -24.000000 
72691176749704 67.559998 121.739998 -24.000000 
72691196749704 67.559998 121.739998 -24.000000 
72691216749704 67.559998 121.739998 -24.000000 
72691236749704 67.559998 121.739998 -24.000000 
72691256749704 67.559998 121.739998 -24.000000 
72691276749704 67.559998 121.739998 -24.000000 
72691296749704 67.559998 121.739998 -24.000000 
72691316749704 67.559998 121.739998 -24.000000 
72691336749704 67.559998 121.739998 -24.000000 
72691356749704 67.559998 121.739998 -24.000000 
72691376749704 67.559998 121.739998 -24.000000 
72691396749704 67.559998 121.739998 -24.000000 
72691416749704 67.559998 121.739998 -24.000000 
72691436749704 67.559998 121.739998 -24.000000 
72691456749704 67.559998 121.739998 -24.000000 
72691476749704 67.559998 121.739998 -24.000000 
72691496749704 67.559998 121.739998 -24.000000 
72691516749704 67.559998 121.739998 -24.000000 
72691536749704 67.559998 121.739998 -24.000000 
72691556749704 67.559998 121.739998 -24.000000 
72691576749704 67.559998 121.739998 -24.000000 
72691596749704 67.559998 121.739998 -24.000000 
72691616749704 67.559998 121.739998 -24.000000 
72691636749704 67.559998 121.739998 -24.000000 
72691656749704 67.559998 121.739998 -24.000000 
72691676749704 67.559998 121.739998 -24.000000 
72691696749704 67.559998 121.739998 -24.000000 
72691716749704 67.559998 121.739998 -24.000000 
72691736749704 67.559998 121.739998 -24.000000 
72691756749704 67.559998 121.739998 -24.000000 
72691776749704 67.559998 121.739998 -24.000000 
72691796749704 67.739998 121.559998 -24.059999 
72691816749704 67.739998 121.559998 -24.059999 
72691836749704 67.739998 121.559998 -24.059999 
72691856749704 67.739998 121.559998 -24.059999 
72691876749704 67.739998 121.559998 -24.059999 
72691896749704 67.739998 121.559998 -24.059999 
72691916749704 67.739998 121.559998 -24.059999 
72691936749704 67.739998 121.559998 -24.059999 
72691956749704 67.739998 121.559998 -24.059999 
72691976749704 67.739998 121.559998 -24.059999 
72691996749704 67.739998 121.559998 -24.059999 
72692016749704 67.739998 121.559998 -24.059999 
72692036749704 67.739998 121.559998 -24.059999 
72692056749704 67.739998 121.559998 -24.059999 
72692076749704 67.739998 121.559998 -24.059999 
72692096749704 67.739998 121.559998 -24.059999 
72692116749704 67.739998 121.559998 -24.059999 
72692136749704 67.739998 121.559998 -24.059999 
72692156749704 67.739998 121.559998 -24.059999 
72692176749704 67.739998 121.559998 -24.059999 
72692196749704 67.739998 121.559998 -24.059999 
72692216749704 67.739998 121.559998 -24.059999 
72692236749704 67.739998 121.559998 -24.059999 
72692256749704 67.739998 121.559998 -24.059999 
72692276749704 67.739998 121.559998 -24.059999 
72692296749704 67.739998 121.559998 -24.059999 
72692316749704 67.739998 121.559998 -24.059999 
72692336749704 67.739998 121.559998 -24.059999 
72692356749704 67.739998 121.559998 -24.059999 
72692376749704 67.739998 121.559998 -24.059999 
72692396749704 67.739998 121.559998 -24.059999 
72692416749704 67.739998 121.559998 -24.059999 
72692436749704 67.739998 121.559998 -24.059999 
72692456749704 67.739998 121.559998 -24.059999 
72692476749704 67.739998 121.559998 -24.059999 
72692496749704 67.739998 121.559998 -24.059999 
72692516749704 67.739998 121.559998 -24.059999 
72692536749704 67.739998 121.559998 -24.059999 
72692556749704 67.739998 121.559998 -24.059999 
72692576749704 67.739998 121.559998 -24.059999 
72692596749704 67.739998 121.320000 -24.180000 
72692616749704 67.739998 121.320000 -24.180000 
72692636749704 67.739998 121.320000 -24.180000 
72692656749704 67.739998 121.320000 -24.180000 
72692676749704 67.739998 121.320000 -24.180000 
72692696749704 67.739998 121.320000 -24.180000 
72692716749704 67.739998 121.320000 -24.180000 
72692736749704 67.739998 121.320000 -24.180000 
72692756749704 67.739998 121.320000 -24.180000 
72692776749704 67.739998 121.320000 -24.180000 
72692796749704 67.739998 121.320000 -24.180000 
72692816749704 67.739998 121.320000 -24.180000 
72692836749704 67.739998 121.320000 -24.180000 
72692856749704 67.739998 121.320000 -24.180000 
72692876749704 67.739998 121.320000 -24.180000 
72692896749704 67.739998 121.320000 -24.180000 
72692916749704 67.680000 121.079994 -24.359999 
72692936749704 67.680000 121.079994 -24.359999 
72692956749704 67.680000 121.079994 -24.359999 
72692976749704 67.680000 121.079994 -24.359999 
72692996749704 67.680000 121.079994 -24.359999 
72693016749704 67.680000 121.079994 -24.359999 
72693036749704 67.680000 121.079994 -24.359999 
72693056749704 67.680000 121.079994 -24.359999 
72693076749704 67.680000 121.079994 -24.359999 
72693096749704 67.680000 121.079994 -24.359999 
72693116749704 67.680000 121.079994 -24.359999 
72693136749704 67.680000 121.079994 -24.359999 
72693156749704 67.680000 121.079994 -24.359999 
72693176749704 67.680000 121.079994 -24.359999 
72693196749704 67.680000 121.079994 -24.359999 
72693216749704 67.680000 121.079994 -24.359999 
72693236749704 67.680000 121.079994 -24.359999 
72693256749704 67.680000 121.079994 -24.359999 
72693276749704 67.680000 121.079994 -24.359999 
72693296749704 67.680000 121.079994 -24.359999 
72693316749704 67.680000 121.079994 -24.359999 
72693336749704 67.680000 121.079994 -24.359999 
72693356749704 67.680000 121.079994 -24.359999 
72693376749704 67.680000 121.079994 -24.359999 
72693396749704 67.680000 121.079994 -24.359999 
72693416749704 67.680000 121.079994 -24.359999 
72693436749704 67.680000 121.079994 -24.359999 
72693456749704 67.680000 121.079994 -24.359999 
72693476749704 67.680000 121.079994 -24.359999 
72693496749704 67.680000 121.079994 -24.359999 
72693516749704 67.680000 121.079994 -24.359999 
72693536749704 67.680000 121.079994 -24.359999 
72693556749704 67.619995 120.839996 -24.420000 
72693576749704 67.619995 120.839996 -24.420000 
72693596749704 67.619995 120.839996 -24.420000 
72693616749704 67.619995 120.839996 -24.420000 
72693636749704 67.619995 120.839996 -24.420000 
72693656749704 67.619995 120.839996 -24.420000 
72693676749704 67.619995 120.839996 -24.420000 
72693696749704 67.619995 120.839996 -24.420000 
72693716749704 67.619995 120.839996 -24.420000 
72693736749704 67.619995 120.839996 -24.420000 
72693756749704 67.619995 120.839996 -24.420000 
72693776749704 67.619995 120.839996 -24.420000 
72693796749704 67.619995 120.839996 -24.420000 
72693816749704 67.619995 120.839996 -24.420000 
72693836749704 67.619995 120.839996 -24.420000 
72693856749704 67.619995 120.839996 -24.420000 
72693876749704 67.619995 120.839996 -24.420000 
72693896749704 67.619995 120.839996 -24.420000 
72693916749704 67.619995 120.839996 -24.420000 
72693936749704 67.619995 120.839996 -24.420000 
72693956749704 67.619995 120.839996 -24.420000 
72693976749704 67.619995 120.839996 -24.420000 
72693996749704 67.559998 120.599998 -24.420000 
72694016749704 67.559998 120.599998 -24.420000 
72694036749704 67.559998 120.599998 -24.420000 
72694056749704 67.559998 120.599998 -24.420000 
72694076749704 67.559998 120.599998 -24.420000 
72694096749704 67.559998 120.599998 -24.420000 
72694116749704 67.559998 120.599998 -24.420000 
72694136749704 67.559998 120.599998 -24.420000 
72694156749704 67.559998 120.599998 -24.420000 
72694176749704 67.559998 120.599998 -24.420000 
72694196749704 67.559998 120.599998 -24.420000 
72694216749704 67.559998 120.599998 -24.420000 
72694236749704 67.559998 120.599998 -24.420000 
72694256749704 67.559998 120.599998 -24.420000 
72694276749704 67.559998 120.599998 -24.420000 
72694296749704 67.559998 120.599998 -24.420000 
72694316749704 67.559998 120.599998 -24.420000 
72694336749704 67.559998 120.599998 -24.420000 
72694356749704 67.559998 120.599998 -24.420000 
72694376749704 67.559998 120.599998 -24.420000 
72694396749704 67.559998 120.599998 -24.420000 
72694416749704 67.559998 120.599998 -24.420000 
72694436749704 67.559998 120.599998 -24.420000 
72694456749704 67.559998 120.599998 -24.420000 
72694476749704 67.559998 120.599998 -24.420000 
72694496749704 67.559998 120.599998 -24.420000 
72694516749704 67.559998 120.599998 -24.420000 
72694536749704 67.559998 120.599998 -24.420000 
72694556749704 67.559998 120.599998 -24.420000 
72694576749704 67.559998 120.599998 -24.420000 
72694596749704 67.559998 120.599998 -24.420000 
72694616749704 67.559998 120.599998 -24.420000 
72694636749704 67.559998 120.599998 -24.420000 
72694656749704 67.559998 120.599998 -24.420000 
72694676749704 67.559998 120.599998 -24.420000 
72694696749704 67.559998 120.599998 -24.420000 
72694716749704 67.559998 120.599998 -24.420000 
72694736749704 67.559998 120.599998 -24.420000 
72694756749704 67.559998 120.599998 -24.420000 
72694776749704 67.559998 120.599998 -24.420000 
72694796749704 67.559998 120.599998 -24.420000 
72694816749704 67.559998 120.599998 -24.420000 
72694836749704 67.559998 120.599998 -24.420000 
72694856749704 67.559998 120.599998 -24.420000 
72694876749704 67.559998 120.599998 -24.420000 
72694896749704 67.559998 120.599998 -24.420000 
72694916749704 67.559998 120.599998 -24.420000 
72694936749704 67.559998 120.599998 -24.420000 
72694956749704 67.559998 120.599998 -24.420000 
72694976749704 67.559998 120.599998 -24.420000 
72694996749704 67.559998 120.599998 -24.420000 
72695016749704 67.559998 120.599998 -24.420000 
72695036749704 67.559998 120.599998 -24.420000 
72695056749704 67.559998 120.599998 -24.420000 
72695076749704 67.559998 120.599998 -24.420000 
72695096749704 67.559998 120.599998 -24.420000 
72695116749704 67.500000 120.239998 -24.119999 
72695136749704 67.500000 120.239998 -24.119999 
72695156749704 67.500000 120.239998 -24.119999 
72695176749704 67.500000 120.239998 -24.119999 
72695196749704 67.500000 120.239998 -24.119999 
72695216749704 67.500000 120.239998 -24.119999 
72695236749704 67.500000 120.239998 -24.119999 
72695256749704 67.500000 120.239998 -24.119999 
72695276749704 67.500000 120.239998 -24.119999 
72695296749704 67.500000 120.239998 -24.119999 
72695316749704 67.500000 120.239998 -24.119999 
72695336749704 67.500000 120.239998 -24.119999 
72695356749704 67.500000 120.239998 -24.119999 
72695376749704 67.500000 120.239998 -24.119999 
72695396749704 67.500000 120.239998 -24.119999 
72695416749704 67.500000 120.239998 -24.119999 
72695436749704 67.500000 120.239998 -24.119999 
72695456749704 67.500000 120.239998 -24.119999 
72695476749704 67.500000 120.239998 -24.119999 
72695496749704 67.500000 120.239998 -24.119999 
72695516749704 67.500000 120.239998 -24.119999 
72695536749704 67.500000 120.239998 -24.119999 
72695556749704 67.500000 120.239998 -24.119999 
72695576749704 67.500000 120.239998 -24.119999 
72695596749704 67.500000 120.239998 -24.119999 
72695616749704 67.500000 120.239998 -24.119999 
72695636749704 67.500000 120.239998 -24.119999 
72695656749704 67.500000 120.239998 -24.119999 
72695676749704 67.500000 120.239998 -24.119999 
72695696749704 67.500000 120.239998 -24.119999 
72695716749704 67.500000 120.239998 -24.119999 
72695736749704 67.500000 120.239998 -24.119999 
72695756749704 67.500000 120.239998 -24.119999 
72695776749704 67.500000 120.239998 -24.119999 
72695796749704 67.500000 120.239998 -24.119999 
72695816749704 67.500000 120.239998 -24.119999 
72695836749704 67.500000 120.239998 -24.119999 
72695856749704 67.500000 120.239998 -24.119999 
72695876749704 67.500000 120.239998 -24.119999 
72695896749704 67.500000 120.239998 -24.119999 
72695916749704 67.500000 120.239998 -24.119999 
72695936749704 67.500000 120.239998 -24.119999 
72695956749704 67.500000 120.239998 -24.119999 
72695976749704 67.500000 120.239998 -24.119999 
72695996749704 67.500000 120.239998 -24.119999 
72696016749704 67.500000 120.239998 -24.119999 
72696036749704 67.500000 120.239998 -24.119999 
72696056749704 67.500000 120.239998 -24.119999 
72696076749704 67.500000 120.239998 -24.119999 
72696096749704 67.500000 120.239998 -24.119999 
72696116749704 67.500000 120.239998 -24.119999 
72696136749704 67.500000 120.239998 -24.119999 
72696156749704 67.500000 120.239998 -24.119999 
72696176749704 67.500000 120.239998 -24.119999 
72696196749704 67.500000 120.239998 -24.119999 
72696216749704 67.500000 120.239998 -24.119999 
72696236749704 67.500000 120.239998 -24.119999 
72696256749704 67.500000 120.239998 -24.119999 
72696276749704 67.439995 120.000000 -24.059999 
72696296749704 67.439995 120.000000 -24.059999 
72696316749704 67.439995 120.000000 -24.059999 
72696336749704 67.439995 120.000000 -24.059999 
72696356749704 67.439995 120.000000 -24.059999 
72696376749704 67.439995 120.000000 -24.059999 
72696396749704 67.439995 120.000000 -24.059999 
72696416749704 67.439995 120.000000 -24.059999 
72696436749704 67.439995 120.000000 -24.059999 
72696456749704 67.439995 120.000000 -24.059999 
72696476749704 67.439995 120.000000 -24.059999 
72696496749704 67.439995 120.000000 -24.059999 
72696516749704 67.439995 120.000000 -24.059999 
72696536749704 67.439995 120.000000 -24.059999 
72696556749704 67.439995 120.000000 -24.059999 
72696576749704 67.439995 120.000000 -24.059999 
72696596749704 67.439995 120.000000 -24.059999 
72696616749704 67.439995 120.000000 -24.059999 
72696636749704 67.439995 120.000000 -24.059999 
72696656749704 67.439995 120.000000 -24.059999 
72696676749704 67.439995 120.000000 -24.059999 
72696696749704 67.439995 120.000000 -24.059999 
72696716749704 67.439995 120.000000 -24.059999 
72696736749704 67.439995 120.000000 -24.059999 
72696756749704 67.439995 120.000000 -24.059999 
72696776749704 67.439995 120.000000 -24.059999 
72696796749704 67.439995 120.000000 -24.059999 
72696816749704 67.439995 120.000000 -24.059999 
72696836749704 67.439995 120.000000 -24.059999 
72696856749704 67.439995 120.000000 -24.059999 
72696876749704 67.439995 120.000000 -24.059999 
72696896749704 67.439995 120.000000 -24.059999 
72696916749704 67.439995 120.000000 -24.059999 
72696936749704 67.439995 120.000000 -24.059999 
72696956749704 67.439995 120.000000 -24.059999 
72696976749704 67.439995 120.000000 -24.059999 
72696996749704 67.439995 120.000000 -24.059999 
72697016749704 67.439995 120.000000 -24.059999 
72697036749704 67.439995 120.000000 -24.059999 
72697056749704 67.439995 120.000000 -24.059999 
72697076749704 67.439995 120.000000 -24.059999 
72697096749704 67.439995 120.000000 -24.059999 
72697116749704 67.439995 120.000000 -24.059999 
72697136749704 67.439995 120.000000 -24.059999 
72697156749704 67.439995 120.000000 -24.059999 
72697176749704 67.439995 120.000000 -24.059999 
72697196749704 67.439995 120.000000 -24.059999 
72697216749704 67.439995 120.000000 -24.059999 
72697236749704 67.439995 120.000000 -24.059999 
72697256749704 67.439995 120.000000 -24.059999 
72697276749704 67.439995 120.000000 -24.059999 
72697296749704 67.439995 120.000000 -24.059999 
72697316749704 67.439995 120.000000 -24.059999 
72697336749704 67.439995 120.000000 -24.059999 
72697356749704 67.439995 120.000000 -24.059999 
72697376749704 67.439995 120.000000 -24.059999 
72697396749704 67.439995 120.000000 -24.059999 
72697416749704 67.439995 120.000000 -24.059999 
72697436749704 67.439995 120.000000 -24.059999 
72697456749704 67.439995 120.000000 -24.059999 
72697476749704 67.559998 120.000000 -24.240000 
72697496749704 67.559998 120.000000 -24.240000 
72697516749704 67.559998 120.000000 -24.240000 
72697536749704 67.559998 120.000000 -24.240000 
72697556749704 67.559998 120.000000 -24.240000 
72697576749704 67.559998 120.000000 -24.240000 
72697596749704 67.559998 120.000000 -24.240000 
72697616749704 67.559998 120.000000 -24.240000 
72697636749704 67.559998 120.000000 -24.240000 
72697656749704 67.559998 120.000000 -24.240000 
72697676749704 67.559998 120.000000 -24.240000 
72697696749704 67.559998 120.000000 -24.240000 
72697716749704 67.559998 120.000000 -24.240000 
72697736749704 67.559998 120.000000 -24.240000 
72697756749704 67.559998 120.000000 -24.240000 
72697776749704 67.559998 120.000000 -24.240000 
72697796749704 67.559998 120.000000 -24.240000 
72697816749704 67.559998 120.000000 -24.240000 
72697836749704 67.559998 120.000000 -24.240000 
72697856749704 67.559998 120.000000 -24.240000 
72697876749704 67.559998 120.000000 -24.240000 
72697896749704 67.559998 120.000000 -24.240000 
72697916749704 67.559998 120.000000 -24.240000 
72697936749704 67.559998 120.000000 -24.240000 
72697956749704 67.559998 120.000000 -24.240000 
72697976749704 67.559998 120.000000 -24.240000 
72697996749704 67.559998 120.000000 -24.240000 
72698016749704 67.559998 120.000000 -24.240000 
72698036749704 67.559998 120.000000 -24.240000 
72698056749704 67.559998 120.000000 -24.240000 
72698076749704 67.559998 120.000000 -24.240000 
72698096749704 67.559998 120.000000 -24.240000 
72698116749704 67.559998 120.000000 -24.240000 
72698136749704 67.559998 120.000000 -24.240000 
72698156749704 67.559998 120.000000 -24.240000 
72698176749704 67.559998 120.000000 -24.240000 
72698196749704 67.559998 120.000000 -24.240000 
72698216749704 67.559998 120.000000 -24.240000 
72698236749704 67.559998 120.000000 -24.240000 
72698256749704 67.559998 120.000000 -24.240000 
72698276749704 67.559998 120.000000 -24.240000 
72698296749704 67.559998 120.000000 -24.240000 
72698316749704 67.559998 120.000000 -24.240000 
72698336749704 67.559998 120.000000 -24.240000 
72698356749704 67.559998 120.000000 -24.240000 
72698376749704 67.559998 120.000000 -24.240000 
72698396749704 67.559998 120.000000 -24.240000 
72698416749704 67.559998 120.000000 -24.240000 
72698436749704 67.559998 120.000000 -24.240000 
72698456749704 67.559998 120.000000 -24.240000 
72698476749704 67.559998 120.000000 -24.240000 
72698496749704 67.559998 120.000000 -24.240000 
72698516749704 67.559998 120.000000 -24.240000 
72698536749704 67.559998 120.000000 -24.240000 
72698556749704 67.559998 120.000000 -24.240000 
72698576749704 67.559998 120.000000 -24.240000 
72698596749704 67.559998 120.000000 -24.240000 
72698616749704 67.559998 120.000000 -24.240000 
72698636749704 67.559998 120.000000 -24.240000 
72698656749704 67.559998 120.000000 -24.240000 
72698676749704 67.559998 120.000000 -24.240000 
72698696749704 67.559998 120.000000 -24.240000 
72698716749704 67.559998 120.000000 -24.240000 
72698736749704 67.559998 120.000000 -24.240000 
72698756749704 67.559998 120.000000 -24.240000 
72698776749704 67.559998 120.000000 -24.240000 
72698796749704 67.559998 120.000000 -24.240000 
72698816749704 67.559998 120.000000 -24.240000 
72698836749704 67.559998 120.000000 -24.240000 
72698856749704 67.559998 120.000000 -24.240000 
72698876749704 67.559998 120.000000 -24.240000 
72698896749704 67.559998 120.000000 -24.240000 
72698916749704 67.559998 120.000000 -24.240000 
72698936749704 67.559998 120.000000 -24.240000 
72698956749704 67.559998 120.000000 -24.240000 
72698976749704 67.559998 120.000000 -24.240000 
72698996749704 67.559998 120.000000 -24.240000 
72699016749704 67.559998 120.000000 -24.240000 
72699036749704 67.559998 120.000000 -24.240000 
72699056749704 67.559998 120.000000 -24.240000 
72699076749704 67.559998 120.000000 -24.240000 
72699096749704 67.559998 120.000000 -24.240000 
72699116749704 67.559998 120.000000 -24.240000 
72699136749704 67.559998 120.000000 -24.240000 
72699156749704 67.559998 120.000000 -24.240000 
72699176749704 67.559998 120.000000 -24.240000 
72699196749704 67.559998 120.000000 -24.240000 
72699216749704 67.559998 120.000000 -24.240000 
72699236749704 67.559998 120.000000 -24.240000 
72699256749704 67.559998 120.000000 -24.240000 
72699276749704 67.559998 120.000000 -24.240000 
72699296749704 67.559998 120.000000 -24.240000 
72699316749704 67.559998 120.000000 -24.240000 
72699336749704 67.559998 120.000000 -24.240000 
72699356749704 67.559998 120.000000 -24.240000 
72699376749704 67.559998 120.000000 -24.240000 
72699396749704 67.559998 120.000000 -24.240000 
72699416749704 67.559998 120.000000 -24.240000 
72699436749704 67.559998 120.000000 -24.240000 
72699456749704 67.559998 120.000000 -24.240000 
72699476749704 67.559998 120.000000 -24.240000 
72699496749704 67.559998 120.000000 -24.240000 
72699516749704 67.559998 120.000000 -24.240000 
72699536749704 67.559998 120.000000 -24.240000 
72699556749704 67.559998 120.000000 -24.240000 
72699576749704 67.559998 120.000000 -24.240000 
72699596749704 67.559998 120.000000 -24.240000 
72699616749704 67.559998 120.000000 -24.240000 
72699636749704 67.559998 120.000000 -24.240000 
72699656749704 67.559998 120.000000 -24.240000 
72699676749704 67.559998 120.000000 -24.240000 
72699696749704 67.559998 120.000000 -24.240000 
72699716749704 67.559998 120.000000 -24.240000 
72699736749704 67.559998 120.000000 -24.240000 
72699756749704 67.559998 120.000000 -24.240000 
72699776749704 67.559998 120.000000 -24.240000 
72699796749704 67.559998 120.000000 -24.240000 
72699816749704 67.559998 120.000000 -24.240000 
72699836749704 67.559998 120.000000 -24.240000 
72699856749704 67.559998 120.000000 -24.240000 
72699876749704 67.559998 120.000000 -24.240000 
72699896749704 67.559998 120.000000 -24.240000 
72699916749704 67.559998 120.000000 -24.240000 
72699936749704 67.559998 120.000000 -24.240000 
72699956749704 67.559998 120.000000 -24.240000 
72699976749704 67.559998 120.000000 -24.240000 
72699996749704 67.559998 120.000000 -24.240000 
72700016749704 67.559998 120.000000 -24.240000 
72700036749704 67.559998 120.000000 -24.240000 
72700056749704 67.559998 120.000000 -24.240000 
72700076749704 67.559998 120.000000 -24.240000 
72700096749704 67.559998 120.000000 -24.240000 
72700116749704 67.559998 120.000000 -24.240000 
72700136749704 67.559998 120.000000 -24.240000 
72700156749704 67.559998 120.000000 -24.240000 
72700176749704 67.559998 120.000000 -24.240000 
72700196749704 67.559998 120.000000 -24.240000 
72700216749704 67.559998 120.000000 -24.240000 
72700236749704 67.559998 120.000000 -24.240000 
72700256749704 67.559998 120.000000 -24.240000 
72700276749704 67.559998 120.000000 -24.240000 
72700296749704 67.559998 120.000000 -24.240000 
72700316749704 67.559998 120.000000 -24.240000 
72700336749704 67.559998 120.000000 -24.240000 
72700356749704 67.559998 120.000000 -24.240000 
72700376749704 67.559998 120.000000 -24.240000 
72700396749704 67.559998 120.000000 -24.240000 
72700416749704 67.559998 120.000000 -24.240000 
72700436749704 67.559998 120.000000 -24.240000 
72700456749704 67.559998 120.000000 -24.240000 
72700476749704 67.559998 120.000000 -24.240000 
72700496749704 67.559998 120.000000 -24.240000 
72700516749704 67.559998 120.000000 -24.240000 
72700536749704 67.559998 120.000000 -24.240000 
72700556749704 67.739998 119.879997 -24.420000 
72700576749704 67.739998 119.879997 -24.420000 
72700596749704 67.739998 119.879997 -24.420000 
72700616749704 67.739998 119.879997 -24.420000 
72700636749704 67.739998 119.879997 -24.420000 
72700656749704 67.739998 119.879997 -24.420000 
72700676749704 67.739998 119.879997 -24.420000 
72700696749704 67.739998 119.879997 -24.420000 
72700716749704 67.739998 119.879997 -24.420000 
72700736749704 67.739998 119.879997 -24.420000 
72700756749704 67.739998 119.879997 -24.420000 
72700776749704 67.739998 119.879997 -24.420000 
72700796749704 67.739998 119.879997 -24.420000 
72700816749704 67.739998 119.879997 -24.420000 
72700836749704 67.739998 119.879997 -24.420000 
72700856749704 67.739998 119.879997 -24.420000 
72700876749704 67.739998 119.879997 -24.420000 
72700896749704 67.739998 119.879997 -24.420000 
72700916749704 67.739998 119.879997 -24.420000 
72700936749704 67.739998 119.879997 -24.420000 
72700956749704 67.739998 119.879997 -24.420000 
72700976749704 67.739998 119.879997 -24.420000 
72700996749704 67.739998 119.879997 -24.420000 
72701016749704 67.739998 119.879997 -24.420000 
72701036749704 67.739998 119.879997 -24.420000 
72701056749704 67.739998 119.879997 -24.420000 
72701076749704 67.739998 119.879997 -24.420000 
72701096749704 67.739998 119.879997 -24.420000 
72701116749704 67.739998 119.879997 -24.420000 
72701136749704 67.739998 119.879997 -24.420000 
72701156749704 67.739998 119.879997 -24.420000 
72701176749704 67.739998 119.879997 -24.420000 
72701196749704 67.739998 119.879997 -24.420000 
72701216749704 67.739998 119.879997 -24.420000 
72701236749704 67.739998 119.879997 -24.420000 
72701256749704 67.739998 119.879997 -24.420000 
72701276749704 67.739998 119.879997 -24.420000 
72701296749704 67.739998 119.879997 -24.420000 
72701316749704 67.739998 119.879997 -24.420000 
72701336749704 67.739998 119.879997 -24.420000 
72701356750722 67.739998 119.879997 -24.420000 
72701376749733 67.739998 119.879997 -24.420000 
72701396749733 67.739998 119.879997 -24.420000 
72701416749733 67.739998 119.879997 -24.420000 
72701436749733 67.739998 119.879997 -24.420000 
72701456749733 67.739998 119.879997 -24.420000 
72701476749733 67.739998 119.879997 -24.420000 
72701496749733 67.739998 119.879997 -24.420000 
72701516749733 67.739998 119.879997 -24.420000 
72701536749733 67.739998 119.879997 -24.420000 
72701556749733 67.739998 119.879997 -24.420000 
72701576749733 67.739998 119.879997 -24.420000 
72701596749733 67.739998 119.879997 -24.420000 
72701616749733 67.739998 119.879997 -24.420000 
72701636749733 67.739998 119.879997 -24.420000 
72701656749733 67.739998 119.879997 -24.420000 
72701676749733 67.739998 119.879997 -24.420000 
72701696749733 67.739998 119.879997 -24.420000 
72701716749733 67.739998 119.879997 -24.420000 
72701736749733 67.739998 119.879997 -24.420000 
72701756749733 67.739998 119.879997 -24.420000 
72701776749733 67.739998 119.879997 -24.420000 
72701796749733 67.739998 119.879997 -24.420000 
72701816749733 67.739998 119.879997 -24.420000 
72701836749733 67.739998 119.879997 -24.420000 
72701856749733 67.739998 119.879997 -24.420000 
72701876749733 67.739998 119.879997 -24.420000 
72701896749733 67.739998 119.879997 -24.420000 
72701916749733 67.739998 119.879997 -24.420000 
72701936749733 67.739998 119.879997 -24.420000 
72701956749733 67.739998 119.879997 -24.420000 
72701976749733 67.739998 119.879997 -24.420000 
72701996749733 67.739998 119.879997 -24.420000 
72702016749733 67.739998 119.879997 -24.420000 
72702036749733 67.739998 119.879997 -24.420000 
72702056749733 67.739998 119.879997 -24.420000 
72702076749733 67.739998 119.879997 -24.420000 
72702096749733 67.739998 119.879997 -24.420000 
72702116749733 67.739998 119.879997 -24.420000 
72702136749733 67.739998 119.879997 -24.420000 
72702156749733 67.739998 119.879997 -24.420000 
72702176749733 67.739998 119.879997 -24.420000 
72702196749733 67.739998 119.879997 -24.420000 
72702216749733 67.739998 119.879997 -24.420000 
72702236749733 67.739998 119.879997 -24.420000 
72702256749733 67.739998 119.879997 -24.420000 
72702276749733 67.739998 119.879997 -24.420000 
72702296749733 67.739998 119.879997 -24.420000 
72702316749733 67.739998 119.879997 -24.420000 
72702336749733 67.739998 119.879997 -24.420000 
72702356749733 67.739998 119.879997 -24.420000 
72702376749733 67.739998 119.879997 -24.420000 
72702396749733 67.739998 119.879997 -24.420000 
72702416749733 67.739998 119.879997 -24.420000 
72702436749733 67.739998 119.879997 -24.420000 
72702456749733 67.739998 119.879997 -24.420000 
72702476749733 67.739998 119.879997 -24.420000 
72702496749733 67.739998 119.879997 -24.420000 
72702516749733 67.739998 119.879997 -24.420000 
72702536749733 67.739998 119.879997 -24.420000 
72702556749733 67.739998 119.879997 -24.420000 
72702576749733 67.739998 119.879997 -24.420000 
72702596749733 67.739998 119.879997 -24.420000 
72702616749733 67.739998 119.879997 -24.420000 
72702636749733 67.739998 119.879997 -24.420000 
72702656749733 67.739998 119.879997 -24.420000 
72702676749733 67.739998 119.879997 -24.420000 
72702696749733 67.739998 119.879997 -24.420000 
72702716749733 67.739998 119.879997 -24.420000 
72702736749733 67.739998 119.879997 -24.420000 
72702756749733 67.739998 119.879997 -24.420000 
72702776749733 67.739998 119.879997 -24.420000 
72702796749733 67.739998 119.879997 -24.420000 
72702816749733 67.739998 119.879997 -24.420000 
72702836749733 67.739998 119.879997 -24.420000 
72702856749733 67.739998 119.879997 -24.420000 
72702876749733 67.739998 119.879997 -24.420000 
72702896749733 67.739998 119.879997 -24.420000 
72702916749733 67.739998 119.879997 -24.420000 
72702936749733 67.739998 119.879997 -24.420000 
72702956749733 67.739998 119.879997 -24.420000 
72702976749733 67.739998 119.879997 -24.420000 
72702996749733 67.739998 119.879997 -24.420000 
72703016749733 67.739998 119.879997 -24.420000 
72703036749733 67.739998 119.879997 -24.420000 
72703056749733 67.739998 119.879997 -24.420000 
72703076749733 67.739998 119.879997 -24.420000 
72703096749733 67.739998 119.879997 -24.420000 
72703116749733 67.739998 119.759995 -24.600000 
72703136749733 67.739998 119.759995 -24.600000 
72703156749733 67.739998 119.759995 -24.600000 
72703176749733 67.739998 119.759995 -24.600000 
72703196749733 67.739998 119.759995 -24.600000 
72703216749733 67.739998 119.759995 -24.600000 
72703236749733 67.739998 119.759995 -24.600000 
72703256749733 67.739998 119.759995 -24.600000 
72703276749733 67.739998 119.759995 -24.600000 
72703296749733 67.739998 119.759995 -24.600000 
72703316749733 67.739998 119.759995 -24.600000 
72703336749733 67.739998 119.759995 -24.600000 
72703356749733 67.739998 119.759995 -24.600000 
72703376749733 67.739998 119.759995 -24.600000 
72703396749733 67.739998 119.759995 -24.600000 
72703416749733 67.739998 119.759995 -24.600000 
72703436749733 67.739998 119.759995 -24.600000 
72703456749733 67.739998 119.759995 -24.600000 
72703476749733 67.739998 119.759995 -24.600000 
72703496749733 67.739998 119.759995 -24.600000 
72703516749733 67.739998 119.759995 -24.600000 
72703536749733 67.739998 119.759995 -24.600000 
72703556749733 67.739998 119.759995 -24.600000 
72703576749733 67.739998 119.759995 -24.600000 
72703596749733 67.739998 119.759995 -24.600000 
72703616749733 67.739998 119.759995 -24.600000 
72703636749733 67.739998 119.759995 -24.600000 
72703656749733 67.739998 119.759995 -24.600000 
72703676749733 67.739998 119.759995 -24.600000 
72703696749733 67.739998 119.759995 -24.600000 
72703716749733 67.739998 119.759995 -24.600000 
72703736749733 67.739998 119.759995 -24.600000 
72703756749733 67.739998 119.759995 -24.600000 
72703776749733 67.739998 119.759995 -24.600000 
72703796749733 67.739998 119.759995 -24.600000 
72703816749733 67.739998 119.759995 -24.600000 
72703836749733 67.739998 119.759995 -24.600000 
72703856749733 67.739998 119.759995 -24.600000 
72703876749733 67.739998 119.759995 -24.600000 
72703896749733 67.739998 119.759995 -24.600000 
72703916749733 67.739998 119.759995 -24.600000 
72703936749733 67.739998 119.759995 -24.600000 
72703956749733 67.739998 119.759995 -24.600000 
72703976749733 67.739998 119.759995 -24.600000 
72703996749733 67.739998 119.759995 -24.600000 
72704016749733 67.739998 119.759995 -24.600000 
72704036749733 67.739998 119.759995 -24.600000 
72704056749733 67.739998 119.759995 -24.600000 
72704076749733 67.739998 119.759995 -24.600000 
72704096749733 67.739998 119.759995 -24.600000 
72704116749733 67.739998 119.759995 -24.600000 
72704136749733 67.739998 119.759995 -24.600000 
72704156749733 67.739998 119.759995 -24.600000 
72704176749733 67.739998 119.759995 -24.600000 
72704196749733 67.739998 119.759995 -24.600000 
72704216749733 67.739998 119.759995 -24.600000 
72704236749733 67.739998 119.759995 -24.600000 
72704256749733 67.739998 119.759995 -24.600000 
72704276749733 67.739998 119.759995 -24.600000 
72704296749733 67.739998 119.759995 -24.600000 
72704316749733 67.739998 119.759995 -24.600000 
72704336749733 67.739998 119.759995 -24.600000 
72704356749733 67.739998 119.759995 -24.600000 
72704376749733 67.739998 119.759995 -24.600000 
72704396749733 67.739998 119.759995 -24.600000 
72704416749733 67.739998 119.759995 -24.600000 
72704436749733 67.739998 119.759995 -24.600000 
72704456749733 67.739998 119.759995 -24.600000 
72704476749733 67.739998 119.759995 -24.600000 
72704496749733 67.739998 119.759995 -24.600000 
72704516749733 67.739998 119.759995 -24.600000 
72704536749733 67.739998 119.759995 -24.600000 
72704556749733 67.739998 119.759995 -24.600000 
72704576749733 67.739998 119.759995 -24.600000 
72704596749733 67.739998 119.759995 -24.600000 
72704616749733 67.739998 119.759995 -24.600000 
72704636749733 67.739998 119.759995 -24.600000 
72704656749733 67.739998 119.759995 -24.600000 
72704676749733 67.739998 119.759995 -24.600000 
72704696749733 67.739998 119.759995 -24.600000 
72704716749733 67.739998 119.759995 -24.600000 
72704736749733 67.739998 119.759995 -24.600000 
72704756749733 67.739998 119.759995 -24.600000 
72704776749733 67.739998 119.759995 -24.600000 
72704796749733 67.739998 119.759995 -24.600000 
72704816749733 67.739998 119.759995 -24.600000 
72704836749733 67.739998 119.759995 -24.600000 
72704856749733 67.739998 119.759995 -24.600000 
72704876749733 67.739998 119.759995 -24.600000 
72704896749733 67.739998 119.759995 -24.600000 
72704916749733 67.739998 119.759995 -24.600000 
72704936749733 67.739998 119.759995 -24.600000 
72704956749733 67.739998 119.759995 -24.600000 
72704976749733 67.739998 119.759995 -24.600000 
72704996749733 67.739998 119.759995 -24.600000 
72705016749733 67.739998 119.759995 -24.600000 
72705036749733 67.739998 119.759995 -24.600000 
72705056749733 67.739998 119.759995 -24.600000 
72705076749733 67.739998 119.759995 -24.600000 
72705096749733 67.739998 119.759995 -24.600000 
72705116749733 67.739998 119.759995 -24.600000 
72705136749733 67.739998 119.759995 -24.600000 
72705156749733 67.739998 119.759995 -24.600000 
72705176749733 67.739998 119.759995 -24.600000 
72705196749733 67.739998 119.759995 -24.600000 
72705216749733 67.739998 119.759995 -24.600000 
72705236749733 67.739998 119.759995 -24.600000 
72705256749733 67.739998 119.759995 -24.600000 
72705276749733 67.739998 119.759995 -24.600000 
72705296749733 67.739998 119.759995 -24.600000 
72705316749733 67.739998 119.759995 -24.600000 
72705336749733 67.739998 119.759995 -24.600000 
72705356749733 67.739998 119.759995 -24.600000 
72705376749733 67.739998 119.759995 -24.600000 
72705396749733 67.739998 119.759995 -24.600000 
72705416749733 67.739998 119.759995 -24.600000 
72705436749733 67.739998 119.759995 -24.600000 
72705456749733 67.739998 119.759995 -24.600000 
72705476749733 67.739998 119.759995 -24.600000 
72705496749733 67.739998 119.759995 -24.600000 
72705516749733 67.739998 119.759995 -24.600000 
72705536749733 67.739998 119.759995 -24.600000 
72705556749733 67.739998 119.759995 -24.600000 
72705576749733 67.739998 119.759995 -24.600000 
72705596749733 67.739998 119.759995 -24.600000 
72705616749733 67.739998 119.759995 -24.600000 
72705636749733 67.739998 119.759995 -24.600000 
72705656749733 67.739998 119.759995 -24.600000 
72705676749733 67.739998 119.759995 -24.600000 
72705696749733 67.739998 119.759995 -24.600000 
72705716749733 67.739998 119.759995 -24.600000 
72705736749733 67.739998 119.759995 -24.600000 
72705756749733 67.739998 119.759995 -24.600000 
72705776749733 67.739998 119.759995 -24.600000 
72705796749733 67.739998 119.759995 -24.600000 
72705816749733 67.739998 119.759995 -24.600000 
72705836749733 67.739998 119.759995 -24.600000 
72705856749733 67.739998 119.759995 -24.600000 
72705876749733 67.739998 119.759995 -24.600000 
72705896749733 67.739998 119.759995 -24.600000 
72705916749733 67.739998 119.759995 -24.600000 
72705936749733 67.739998 119.759995 -24.600000 
72705956749733 67.739998 119.759995 -24.600000 
72705976749733 67.739998 119.759995 -24.600000 
72705996749733 67.500000 119.699997 -24.539999 
72706016749733 67.500000 119.699997 -24.539999 
72706036749733 67.500000 119.699997 -24.539999 
72706056749733 67.500000 119.699997 -24.539999 
72706076749733 67.500000 119.699997 -24.539999 
72706096749733 67.500000 119.699997 -24.539999 
72706116749733 67.500000 119.699997 -24.539999 
72706136749733 67.500000 119.699997 -24.539999 
72706156749733 67.500000 119.699997 -24.539999 
72706176749733 67.500000 119.699997 -24.539999 
72706196749733 67.500000 119.699997 -24.539999 
72706216749733 67.500000 119.699997 -24.539999 
72706236749733 67.500000 119.699997 -24.539999 
72706256749733 67.500000 119.699997 -24.539999 
72706276749733 67.500000 119.699997 -24.539999 
72706296749733 67.500000 119.699997 -24.539999 
72706316749733 67.500000 119.699997 -24.539999 
72706336749733 67.500000 119.699997 -24.539999 
72706356749733 67.500000 119.699997 -24.539999 
72706376749733 67.500000 119.699997 -24.539999 
72706396749733 67.500000 119.699997 -24.539999 
72706416749733 67.500000 119.699997 -24.539999 
72706436749733 67.500000 119.699997 -24.539999 
72706456749733 67.500000 119.699997 -24.539999 
72706476749733 67.500000 119.699997 -24.539999 
72706496749733 67.500000 119.699997 -24.539999 
72706516749733 67.500000 119.699997 -24.539999 
72706536749733 67.500000 119.699997 -24.539999 
72706556749733 67.500000 119.699997 -24.539999 
72706576749733 67.500000 119.699997 -24.539999 
72706596749733 67.500000 119.699997 -24.539999 
72706616749733 67.500000 119.699997 -24.539999 
72706636749733 67.500000 119.699997 -24.539999 
72706656749733 67.500000 119.699997 -24.539999 
72706676749733 67.500000 119.699997 -24.539999 
72706696749733 67.500000 119.699997 -24.539999 
72706716749733 67.500000 119.699997 -24.539999 
72706736749733 67.500000 119.699997 -24.539999 
72706756749733 67.500000 119.699997 -24.539999 
72706776749733 67.500000 119.699997 -24.539999 
72706796749733 67.500000 119.699997 -24.539999 
72706816749733 67.500000 119.699997 -24.539999 
72706836749733 67.500000 119.699997 -24.539999 
72706856749733 67.500000 119.699997 -24.539999 
72706876749733 67.500000 119.699997 -24.539999 
72706896749733 67.500000 119.699997 -24.539999 
72706916749733 67.379997 119.399994 -24.480000 
72706936749733 67.379997 119.399994 -24.480000 
72706956749733 67.379997 119.399994 -24.480000 
72706976749733 67.379997 119.399994 -24.480000 
72706996749733 67.379997 119.399994 -24.480000 
72707016749733 67.379997 119.399994 -24.480000 
72707036749733 67.379997 119.399994 -24.480000 
72707056749733 67.379997 119.399994 -24.480000 
72707076749733 67.379997 119.399994 -24.480000 
72707096749733 67.379997 119.399994 -24.480000 
72707116749733 67.379997 119.399994 -24.480000 
72707136749733 67.379997 119.399994 -24.480000 
72707156749733 67.379997 119.399994 -24.480000 
72707176749733 67.379997 119.399994 -24.480000 
72707196749733 67.379997 119.399994 -24.480000 
72707216749733 67.379997 119.399994 -24.480000 
72707236749733 67.379997 119.399994 -24.480000 
72707256749733 67.379997 119.399994 -24.480000 
72707276749733 67.379997 119.399994 -24.480000 
72707296749733 67.379997 119.399994 -24.480000 
72707316749733 67.379997 119.399994 -24.480000 
72707336749733 67.379997 119.399994 -24.480000 
72707356749733 67.379997 119.399994 -24.480000 
72707376749733 67.379997 119.399994 -24.480000 
72707396749733 67.379997 119.399994 -24.480000 
72707416749733 67.379997 119.399994 -24.480000 
72707436749733 67.379997 119.399994 -24.480000 
72707456749733 67.379997 119.399994 -24.480000 
72707476749733 67.379997 119.399994 -24.480000 
72707496749733 67.379997 119.399994 -24.480000 
72707516749733 67.320000 119.219994 -24.420000 
72707536749733 67.320000 119.219994 -24.420000 
72707556749733 67.320000 119.219994 -24.420000 
72707576749733 67.320000 119.219994 -24.420000 
72707596749733 67.320000 119.219994 -24.420000 
72707616749733 67.320000 119.219994 -24.420000 
72707636749733 67.320000 119.219994 -24.420000 
72707656749733 67.320000 119.219994 -24.420000 
72707676749733 67.320000 119.219994 -24.420000 
72707696749733 67.320000 119.219994 -24.420000 
72707716749733 67.320000 119.219994 -24.420000 
72707736749733 67.320000 119.219994 -24.420000 
72707756749733 67.320000 119.219994 -24.420000 
72707776749733 67.320000 119.219994 -24.420000 
72707796749733 67.320000 119.219994 -24.420000 
72707816749733 67.320000 119.219994 -24.420000 
72707836749733 67.320000 119.219994 -24.420000 
72707856749733 67.320000 119.219994 -24.420000 
72707876749733 67.320000 119.219994 -24.420000 
72707896749733 67.320000 119.219994 -24.420000 
72707916749733 67.320000 119.219994 -24.420000 
72707936749733 67.320000 119.219994 -24.420000 
72707956749733 67.320000 119.219994 -24.420000 
72707976749733 67.320000 119.219994 -24.420000 
72707996749733 67.320000 119.219994 -24.420000 
72708016749733 67.320000 119.219994 -24.420000 
72708036749733 67.320000 119.219994 -24.420000 
72708056749733 67.320000 119.219994 -24.420000 
72708076749733 67.320000 119.219994 -24.420000 
72708096749733 67.320000 119.219994 -24.420000 
72708116749733 67.320000 119.219994 -24.420000 
72708136749733 67.320000 119.219994 -24.420000 
72708156749733 67.320000 119.219994 -24.420000 
72708176749733 67.320000 119.219994 -24.420000 
72708196749733 67.320000 119.219994 -24.420000 
72708216749733 67.320000 119.219994 -24.420000 
72708236749733 67.320000 119.219994 -24.420000 
72708256749733 67.320000 119.219994 -24.420000 
72708276749733 67.320000 119.219994 -24.420000 
72708296749733 67.320000 119.219994 -24.420000 
72708316749733 67.320000 119.219994 -24.420000 
72708336749733 67.320000 119.219994 -24.420000 
72708356749733 67.320000 119.219994 -24.420000 
72708376749733 67.320000 119.219994 -24.420000 
72708396749733 67.320000 119.219994 -24.420000 
72708416749733 67.320000 119.219994 -24.420000 
72708436749733 67.320000 119.219994 -24.420000 
72708456749733 67.320000 119.219994 -24.420000 
72708476749733 67.320000 119.219994 -24.420000 
72708496749733 67.320000 119.219994 -24.420000 
72708516749733 67.320000 119.219994 -24.420000 
72708536749733 67.320000 119.219994 -24.420000 
72708556749733 67.320000 119.219994 -24.420000 
72708576749733 67.320000 119.219994 -24.420000 
72708596749733 67.320000 119.219994 -24.420000 
72708616749733 67.320000 119.219994 -24.420000 
72708636749733 67.320000 119.219994 -24.420000 
72708656749733 67.320000 119.219994 -24.420000 
72708676749733 67.320000 119.219994 -24.420000 
72708696749733 67.320000 119.219994 -24.420000 
72708716749733 67.320000 119.219994 -24.420000 
72708736749733 67.320000 119.219994 -24.420000 
72708756749733 67.320000 119.219994 -24.420000 
72708776749733 67.320000 119.219994 -24.420000 
72708796749733 67.320000 119.219994 -24.420000 
72708816749733 67.320000 119.219994 -24.420000 
72708836749733 67.320000 119.219994 -24.420000 
72708856749733 67.320000 119.219994 -24.420000 
72708876749733 67.320000 119.219994 -24.420000 
72708896749733 67.320000 119.219994 -24.420000 
72708916749733 67.320000 119.219994 -24.420000 
72708936749733 67.320000 119.219994 -24.420000 
72708956749733 67.320000 119.219994 -24.420000 
72708976749733 67.320000 119.219994 -24.420000 
72708996749733 67.320000 119.219994 -24.420000 
72709016749733 67.320000 119.219994 -24.420000 
72709036749733 67.320000 119.219994 -24.420000 
72709056749733 67.320000 119.219994 -24.420000 
72709076749733 67.320000 118.919998 -24.480000 
72709096749733 67.320000 118.919998 -24.480000 
72709116749733 67.320000 118.919998 -24.480000 
72709136749733 67.320000 118.919998 -24.480000 
72709156749733 67.320000 118.919998 -24.480000 
72709176749733 67.320000 118.919998 -24.480000 
72709196749733 67.320000 118.919998 -24.480000 
72709216749733 67.320000 118.919998 -24.480000 
72709236749733 67.320000 118.919998 -24.480000 
72709256749733 67.320000 118.919998 -24.480000 
72709276749733 67.320000 118.919998 -24.480000 
72709296749733 67.320000 118.919998 -24.480000 
72709316749733 67.320000 118.919998 -24.480000 
72709336749733 67.320000 118.919998 -24.480000 
72709356749733 67.320000 118.919998 -24.480000 
72709376749733 67.320000 118.919998 -24.480000 
72709396749733 67.320000 118.919998 -24.480000 
72709416749733 67.320000 118.919998 -24.480000 
72709436749733 67.320000 118.919998 -24.480000 
72709456749733 67.320000 118.919998 -24.480000 
72709476749733 67.320000 118.919998 -24.480000 
72709496749733 67.320000 118.919998 -24.480000 
72709516749733 67.320000 118.919998 -24.480000 
72709536749733 67.320000 118.919998 -24.480000 
72709556749733 67.320000 118.919998 -24.480000 
72709576749733 67.320000 118.919998 -24.480000 
72709596749733 67.320000 118.919998 -24.480000 
72709616749733 67.320000 118.919998 -24.480000 
72709636749733 67.320000 118.919998 -24.480000 
72709656749733 67.320000 118.919998 -24.480000 
72709676749733 67.320000 118.919998 -24.480000 
72709696749733 67.320000 118.919998 -24.480000 
72709716749733 67.320000 118.919998 -24.480000 
72709736749733 67.320000 118.919998 -24.480000 
72709756749733 67.320000 118.919998 -24.480000 
72709776749733 67.320000 118.919998 -24.480000 
72709796749733 67.320000 118.619995 -24.480000 
72709816749733 67.320000 118.619995 -24.480000 
72709836749733 67.320000 118.619995 -24.480000 
72709856749733 67.320000 118.619995 -24.480000 
72709876749733 67.320000 118.619995 -24.480000 
72709896749733 67.320000 118.619995 -24.480000 
72709916749733 67.320000 118.619995 -24.480000 
72709936749733 67.320000 118.619995 -24.480000 
72709956749733 67.320000 118.619995 -24.480000 
72709976749733 67.320000 118.619995 -24.480000 
72709996749733 67.320000 118.379997 -24.539999 
72710016749733 67.320000 118.379997 -24.539999 
72710036749733 67.320000 118.379997 -24.539999 
72710056749733 67.320000 118.379997 -24.539999 
72710076749733 67.320000 118.379997 -24.539999 
72710096749733 67.320000 118.379997 -24.539999 
72710116749733 67.320000 118.379997 -24.539999 
72710136749733 67.320000 118.379997 -24.539999 
72710156749733 67.320000 118.379997 -24.539999 
72710176749733 67.320000 118.379997 -24.539999 
72710196749733 67.320000 118.379997 -24.539999 
72710216749733 67.320000 118.379997 -24.539999 
72710236749733 67.320000 118.379997 -24.539999 
72710256749733 67.320000 118.379997 -24.539999 
72710276749733 67.320000 118.379997 -24.539999 
72710296749733 67.320000 118.379997 -24.539999 
72710316749733 67.320000 118.379997 -24.539999 
72710336749733 67.320000 118.379997 -24.539999 
72710356749733 67.320000 118.379997 -24.539999 
72710376749733 67.320000 118.379997 -24.539999 
72710396749733 67.320000 118.379997 -24.539999 
72710416749733 67.320000 118.379997 -24.539999 
72710436749733 67.320000 118.379997 -24.539999 
72710456749733 67.320000 118.379997 -24.539999 
72710476749733 67.320000 118.379997 -24.539999 
72710496749733 67.320000 118.379997 -24.539999 
72710516749733 67.320000 118.379997 -24.539999 
72710536749733 67.320000 118.379997 -24.539999 
72710556749733 67.320000 118.379997 -24.539999 
72710576749733 67.320000 118.379997 -24.539999 
72710596749733 67.320000 118.379997 -24.539999 
72710616749733 67.320000 118.379997 -24.539999 
72710636749733 67.320000 118.379997 -24.539999 
72710656749733 67.320000 118.379997 -24.539999 
72710676749733 67.320000 118.379997 -24.539999 
72710696749733 67.320000 118.379997 -24.539999 
72710716749733 67.320000 118.379997 -24.539999 
72710736749733 67.320000 118.379997 -24.539999 
72710756749733 67.199997 118.199997 -24.719999 
72710776749733 67.199997 118.199997 -24.719999 
72710796749733 67.199997 118.199997 -24.719999 
72710816749733 67.199997 118.199997 -24.719999 
72710836749733 67.199997 118.199997 -24.719999 
72710856749733 67.199997 118.199997 -24.719999 
72710876749733 67.199997 118.199997 -24.719999 
72710896749733 67.199997 118.199997 -24.719999 
72710916749733 67.199997 118.199997 -24.719999 
72710936749733 67.199997 118.199997 -24.719999 
72710956749733 67.199997 118.199997 -24.719999 
72710976749733 67.199997 118.199997 -24.719999 
72710996749733 67.199997 118.199997 -24.719999 
72711016749733 67.199997 118.199997 -24.719999 
72711036749733 67.199997 118.139999 -24.959999 
72711056749733 67.199997 118.139999 -24.959999 
72711076749733 67.199997 118.139999 -24.959999 
72711096749733 67.199997 118.139999 -24.959999 
72711116749733 67.199997 118.139999 -24.959999 
72711136749733 67.199997 118.139999 -24.959999 
72711156749733 67.199997 118.139999 -24.959999 
72711176749733 67.199997 118.139999 -24.959999 
72711196749733 67.199997 118.139999 -24.959999 
72711216749733 67.199997 118.139999 -24.959999 
72711236749733 67.199997 118.139999 -24.959999 
72711256749733 67.199997 118.139999 -24.959999 
72711276749733 67.199997 118.139999 -24.959999 
72711296749733 67.199997 118.139999 -24.959999 
72711316749733 67.199997 118.139999 -24.959999 
72711336749733 67.199997 118.139999 -24.959999 
72711356749733 67.199997 118.139999 -24.959999 
72711376749733 67.199997 118.139999 -24.959999 
72711396749733 67.199997 118.139999 -24.959999 
72711416749733 67.199997 118.139999 -24.959999 
72711436749733 67.199997 118.139999 -24.959999 
72711456749733 67.199997 118.139999 -24.959999 
72711476749733 67.199997 118.139999 -24.959999 
72711496749733 67.199997 118.139999 -24.959999 
72711516749733 67.199997 118.139999 -24.959999 
72711536749733 67.199997 118.139999 -24.959999 
72711556749733 67.199997 118.139999 -24.959999 
72711576749733 67.199997 118.139999 -24.959999 
72711596749733 67.199997 118.139999 -24.959999 
72711616749733 67.199997 118.139999 -24.959999 
72711636749733 67.199997 118.139999 -24.959999 
72711656749733 67.199997 118.139999 -24.959999 
72711676749733 67.199997 118.139999 -24.959999 
72711696749733 67.199997 118.139999 -24.959999 
72711716749733 67.199997 118.139999 -24.959999 
72711736749733 67.199997 118.139999 -24.959999 
72711756749733 67.199997 118.139999 -24.959999 
72711776749733 67.199997 118.139999 -24.959999 
72711796749733 67.199997 118.139999 -24.959999 
72711816749733 67.199997 118.139999 -24.959999 
72711836749733 67.199997 118.139999 -24.959999 
72711856749733 67.199997 118.139999 -24.959999 
72711876749733 67.199997 118.139999 -24.959999 
72711896749733 67.199997 118.139999 -24.959999 
72711916749733 67.199997 118.139999 -24.959999 
72711936749733 67.199997 118.139999 -24.959999 
72711956749733 67.199997 118.139999 -24.959999 
72711976749733 67.199997 118.139999 -24.959999 
72711996749733 67.199997 118.139999 -24.959999 
72712016749733 67.199997 118.139999 -24.959999 
72712036749733 67.199997 118.139999 -24.959999 
72712056749733 67.199997 118.139999 -24.959999 
72712076749733 67.199997 118.139999 -24.959999 
72712096749733 67.199997 118.139999 -24.959999 
72712116749733 67.199997 118.139999 -24.959999 
72712136749733 67.199997 118.139999 -24.959999 
72712156749733 67.199997 118.139999 -24.959999 
72712176749733 67.199997 118.139999 -24.959999 
72712196749733 67.199997 118.139999 -24.959999 
72712216749733 67.199997 118.139999 -24.959999 
72712236749733 67.199997 118.139999 -24.959999 
72712256749733 67.199997 118.139999 -24.959999 
72712276749733 67.199997 118.139999 -24.959999 
72712296749733 67.199997 118.139999 -24.959999 
72712316749733 67.199997 118.139999 -24.959999 
72712336749733 67.199997 118.139999 -24.959999 
72712356749733 67.199997 118.139999 -24.959999 
72712376749733 67.199997 118.139999 -24.959999 
72712396749733 67.199997 118.139999 -24.959999 
72712416749733 67.199997 118.139999 -24.959999 
72712436749733 67.199997 118.139999 -24.959999 
72712456749733 67.199997 118.139999 -24.959999 
72712476749733 67.199997 118.139999 -24.959999 
72712496749733 67.199997 118.139999 -24.959999 
72712516749733 67.199997 118.139999 -24.959999 
72712536749733 67.199997 118.139999 -24.959999 
72712556749733 67.199997 118.139999 -24.959999 
72712576749733 67.199997 118.139999 -24.959999 
72712596749733 67.199997 118.139999 -24.959999 
72712616749733 67.199997 118.139999 -24.959999 
72712636749733 67.199997 118.139999 -24.959999 
72712656749733 67.199997 118.139999 -24.959999 
72712676749733 67.199997 118.139999 -24.959999 
72712696749733 67.199997 118.139999 -24.959999 
72712716749733 67.199997 118.139999 -24.959999 
72712736749733 67.199997 118.139999 -24.959999 
72712756749733 67.199997 118.139999 -24.959999 
72712776749733 67.199997 118.139999 -24.959999 
72712796749733 67.199997 118.139999 -24.959999 
72712816749733 67.199997 118.139999 -24.959999 
72712836749733 67.199997 118.139999 -24.959999 
72712856749733 67.199997 118.139999 -24.959999 
72712876749733 67.199997 118.139999 -24.959999 
72712896749733 67.199997 118.139999 -24.959999 
72712916749733 67.199997 118.139999 -24.959999 
72712936749733 67.199997 118.139999 -24.959999 
72712956749733 67.199997 118.139999 -24.959999 
72712976749733 67.199997 118.139999 -24.959999 
72712996749733 67.199997 118.139999 -24.959999 
72713016749733 67.199997 118.139999 -24.959999 
72713036749733 67.199997 118.139999 -24.959999 
72713056749733 67.199997 118.139999 -24.959999 
72713076749733 67.199997 118.139999 -24.959999 
72713096749733 67.199997 118.139999 -24.959999 
72713116749733 67.199997 118.139999 -24.959999 
72713136749733 67.199997 118.139999 -24.959999 
72713156749733 67.199997 118.139999 -24.959999 
72713176749733 67.199997 118.139999 -24.959999 
72713196749733 67.199997 118.139999 -24.959999 
72713216749733 67.199997 118.139999 -24.959999 
72713236749733 67.199997 118.139999 -24.959999 
72713256749733 67.199997 118.139999 -24.959999 
72713276749733 67.199997 118.139999 -24.959999 
72713296749733 67.199997 118.139999 -24.959999 
72713316749733 67.199997 118.139999 -24.959999 
72713336749733 67.199997 118.139999 -24.959999 
72713356749733 67.199997 118.139999 -24.959999 
72713376749733 67.199997 118.139999 -24.959999 
72713396749733 67.199997 118.139999 -24.959999 
72713416749733 67.199997 118.139999 -24.959999 
72713436749733 67.199997 118.139999 -24.959999 
72713456749733 67.199997 118.139999 -24.959999 
72713476749733 67.199997 118.139999 -24.959999 
72713496749733 67.199997 118.139999 -24.959999 
72713516749733 67.080002 118.019997 -25.260000 
72713536749733 67.080002 118.019997 -25.260000 
72713556749733 67.080002 118.019997 -25.260000 
72713576749733 67.080002 118.019997 -25.260000 
72713596749733 67.080002 118.019997 -25.260000 
72713616749733 67.080002 118.019997 -25.260000 
72713636749733 67.080002 118.019997 -25.260000 
72713656749733 67.080002 118.019997 -25.260000 
72713676749733 67.080002 118.019997 -25.260000 
72713696749733 67.080002 118.019997 -25.260000 
72713716749733 67.080002 118.019997 -25.260000 
72713736749733 67.080002 118.019997 -25.260000 
72713756749733 67.080002 118.019997 -25.260000 
72713776749733 67.080002 118.019997 -25.260000 
72713796749733 67.080002 118.019997 -25.260000 
72713816749733 67.080002 118.019997 -25.260000 
72713836749733 67.080002 118.019997 -25.260000 
72713856749733 67.080002 118.019997 -25.260000 
72713876749733 67.080002 118.019997 -25.260000 
72713896749733 67.080002 118.019997 -25.260000 
72713916749733 67.080002 118.019997 -25.260000 
72713936749733 67.080002 118.019997 -25.260000 
72713956749733 67.080002 118.019997 -25.260000 
72713976749733 67.080002 118.019997 -25.260000 
72713996749733 67.080002 118.019997 -25.260000 
72714016749733 67.080002 118.019997 -25.260000 
72714036749733 67.080002 118.019997 -25.260000 
72714056749733 67.080002 118.019997 -25.260000 
72714076749733 67.080002 118.019997 -25.260000 
72714096749733 67.080002 118.019997 -25.260000 
72714116749733 67.080002 118.019997 -25.260000 
72714136749733 67.080002 118.019997 -25.260000 
72714156749733 67.080002 118.019997 -25.260000 
72714176749733 67.080002 118.019997 -25.260000 
72714196749733 67.080002 118.019997 -25.260000 
72714216749733 67.080002 118.019997 -25.260000 
72714236749733 67.080002 118.019997 -25.260000 
72714256749733 67.080002 118.019997 -25.260000 
72714276749733 67.080002 118.019997 -25.260000 
72714296749733 67.080002 118.019997 -25.260000 
72714316749733 67.080002 118.019997 -25.260000 
72714336749733 67.080002 118.019997 -25.260000 
72714356749733 67.080002 118.019997 -25.260000 
72714376749733 67.080002 118.019997 -25.260000 
72714396749733 67.080002 118.019997 -25.260000 
72714416749733 67.080002 118.019997 -25.260000 
72714436749733 67.080002 118.019997 -25.260000 
72714456749733 67.080002 118.019997 -25.260000 
72714476749733 67.080002 118.019997 -25.260000 
72714496749733 67.080002 118.019997 -25.260000 
72714516749733 67.080002 118.019997 -25.260000 
72714536749733 67.080002 118.019997 -25.260000 
72714556749733 67.080002 118.019997 -25.260000 
72714576749733 67.080002 118.019997 -25.260000 
72714596749733 67.080002 118.019997 -25.260000 
72714616749733 67.080002 118.019997 -25.260000 
72714636749733 67.080002 118.019997 -25.260000 
72714656749733 67.080002 118.019997 -25.260000 
72714676749733 67.080002 118.019997 -25.260000 
72714696749733 67.080002 118.019997 -25.260000 
72714716749733 67.080002 118.019997 -25.260000 
72714736749733 67.080002 118.019997 -25.260000 
72714756749733 67.080002 118.019997 -25.260000 
72714776749733 67.080002 118.019997 -25.260000 
72714796749733 67.080002 118.019997 -25.260000 
72714816749733 67.080002 118.019997 -25.260000 
72714836749733 67.080002 118.019997 -25.260000 
72714856749733 67.080002 118.019997 -25.260000 
72714876749733 67.080002 118.019997 -25.260000 
72714896749733 67.080002 118.019997 -25.260000 
72714916749733 67.080002 118.019997 -25.260000 
72714936749733 67.080002 118.019997 -25.260000 
72714956749733 67.080002 118.019997 -25.260000 
72714976749733 67.080002 118.019997 -25.260000 
72714996749733 67.080002 118.019997 -25.260000 
72715016749733 67.080002 118.019997 -25.260000 
72715036749733 67.080002 118.019997 -25.260000 
72715056749733 67.080002 118.019997 -25.260000 
72715076749733 67.080002 118.019997 -25.260000 
72715096749733 67.080002 118.019997 -25.260000 
72715116749733 67.080002 118.019997 -25.260000 
72715136749733 67.080002 118.019997 -25.260000 
72715156749733 67.080002 118.019997 -25.260000 
72715176749733 67.080002 118.019997 -25.260000 
72715196749733 67.080002 118.019997 -25.260000 
72715216749733 67.080002 118.019997 -25.260000 
72715236749733 67.080002 118.019997 -25.260000 
72715256749733 67.080002 118.019997 -25.260000 
72715276749733 67.080002 118.019997 -25.260000 
72715296749733 67.080002 118.019997 -25.260000 
72715316749733 67.080002 118.019997 -25.260000 
72715336749733 67.080002 118.019997 -25.260000 
72715356749733 67.080002 118.019997 -25.260000 
72715376749733 67.080002 118.019997 -25.260000 
72715396749733 67.080002 118.019997 -25.260000 
72715416749733 67.080002 118.019997 -25.260000 
72715436749733 67.080002 118.019997 -25.260000 
72715456749733 67.080002 118.019997 -25.260000 
72715476749733 67.080002 118.019997 -25.260000 
72715496749733 67.080002 118.019997 -25.260000 
72715516749733 67.139999 118.259995 -25.080000 
72715536749733 67.139999 118.259995 -25.080000 
72715556749733 67.139999 118.259995 -25.080000 
72715576749733 67.139999 118.259995 -25.080000 
72715596749733 67.139999 118.259995 -25.080000 
72715616749733 67.139999 118.259995 -25.080000 
72715636749733 67.139999 118.259995 -25.080000 
72715656749733 67.139999 118.259995 -25.080000 
72715676749733 67.139999 118.259995 -25.080000 
72715696749733 67.139999 118.259995 -25.080000 
72715716749733 67.139999 118.259995 -25.080000 
72715736749733 67.139999 118.259995 -25.080000 
72715756749733 67.139999 118.259995 -25.080000 
72715776749733 67.139999 118.259995 -25.080000 
72715796749733 67.139999 118.259995 -25.080000 
72715816749733 67.139999 118.259995 -25.080000 
72715836749733 67.139999 118.259995 -25.080000 
72715856749733 67.139999 118.259995 -25.080000 
72715876749733 67.139999 118.259995 -25.080000 
72715896749733 67.139999 118.259995 -25.080000 
72715916749733 67.139999 118.259995 -25.080000 
72715936749733 67.139999 118.259995 -25.080000 
72715956749733 67.139999 118.259995 -25.080000 
72715976749733 67.139999 118.259995 -25.080000 
72715996749733 67.139999 118.259995 -25.080000 
72716016749733 67.139999 118.259995 -25.080000 
72716036749733 67.139999 118.259995 -25.080000 
72716056749733 67.139999 118.259995 -25.080000 
72716076749733 67.139999 118.259995 -25.080000 
72716096749733 67.139999 118.259995 -25.080000 
72716116749733 67.139999 118.259995 -25.080000 
72716136749733 67.139999 118.259995 -25.080000 
72716156749733 67.139999 118.259995 -25.080000 
72716176749733 67.139999 118.259995 -25.080000 
72716196749733 67.139999 118.259995 -25.080000 
72716216749733 67.139999 118.259995 -25.080000 
72716236749733 67.139999 118.259995 -25.080000 
72716256749733 67.139999 118.259995 -25.080000 
72716276749733 67.139999 118.259995 -25.080000 
72716296749733 67.139999 118.259995 -25.080000 
72716316749733 67.139999 118.259995 -25.080000 
72716336749733 67.139999 118.259995 -25.080000 
72716356749733 67.139999 118.259995 -25.080000 
72716376749733 67.139999 118.259995 -25.080000 
72716396749733 67.139999 118.259995 -25.080000 
72716416749733 67.139999 118.259995 -25.080000 
72716436749733 67.139999 118.259995 -25.080000 
72716456749733 67.139999 118.259995 -25.080000 
72716476749733 67.139999 118.259995 -25.080000 
72716496749733 67.139999 118.259995 -25.080000 
72716516749733 67.139999 118.259995 -25.080000 
72716536749733 67.139999 118.259995 -25.080000 
72716556749733 67.139999 118.259995 -25.080000 
72716576749733 67.139999 118.259995 -25.080000 
72716596749733 67.139999 118.259995 -25.080000 
72716616749733 67.139999 118.259995 -25.080000 
72716636749733 67.139999 118.259995 -25.080000 
72716656749733 67.139999 118.259995 -25.080000 
72716676749733 67.139999 118.259995 -25.080000 
72716696749733 67.139999 118.259995 -25.080000 
72716716749733 67.139999 118.259995 -25.080000 
72716736749733 67.139999 118.259995 -25.080000 
72716756749733 67.139999 118.259995 -25.080000 
72716776749733 67.139999 118.259995 -25.080000 
72716796749733 67.139999 118.259995 -25.080000 
72716816749733 67.139999 118.259995 -25.080000 
72716836749733 67.139999 118.259995 -25.080000 
72716856749733 67.139999 118.259995 -25.080000 
72716876749733 67.139999 118.259995 -25.080000 
72716896749733 67.139999 118.259995 -25.080000 
72716916749733 67.139999 118.259995 -25.080000 
72716936749733 67.139999 118.259995 -25.080000 
72716956749733 67.139999 118.259995 -25.080000 
72716976749733 67.139999 118.259995 -25.080000 
72716996749733 67.139999 118.259995 -25.080000 
72717016749733 67.139999 118.259995 -25.080000 
72717036749733 67.139999 118.259995 -25.080000 
72717056749733 67.139999 118.259995 -25.080000 
72717076749733 67.139999 118.259995 -25.080000 
72717096749733 67.139999 118.259995 -25.080000 
72717116749733 67.139999 118.259995 -25.080000 
72717136749733 67.139999 118.259995 -25.080000 
72717156749733 67.139999 118.259995 -25.080000 
72717176749733 67.139999 118.259995 -25.080000 
72717196749733 67.139999 118.259995 -25.080000 
72717216749733 67.139999 118.259995 -25.080000 
72717236749733 67.139999 118.259995 -25.080000 
72717256749733 67.139999 118.259995 -25.080000 
72717276749733 67.139999 118.259995 -25.080000 
72717296749733 67.139999 118.259995 -25.080000 
72717316749733 67.139999 118.259995 -25.080000 
72717336749733 67.139999 118.259995 -25.080000 
72717356749733 67.139999 118.259995 -25.080000 
72717376749733 67.139999 118.259995 -25.080000 
72717396749733 67.139999 118.259995 -25.080000 
72717416749733 67.139999 118.259995 -25.080000 
72717436749733 67.139999 118.259995 -25.080000 
72717456749733 67.139999 118.259995 -25.080000 
72717476749733 67.139999 118.259995 -25.080000 
72717496749733 67.139999 118.259995 -25.080000 
72717516749733 67.139999 118.259995 -25.080000 
72717536749733 67.139999 118.259995 -25.080000 
72717556749733 67.139999 118.259995 -25.080000 
72717576749733 67.139999 118.259995 -25.080000 
72717596749733 67.139999 118.259995 -25.080000 
72717616749733 67.139999 118.259995 -25.080000 
72717636749733 67.139999 118.259995 -25.080000 
72717656749733 67.139999 118.259995 -25.080000 
72717676749733 67.139999 118.259995 -25.080000 
72717696749733 67.139999 118.259995 -25.080000 
72717716749733 67.139999 118.259995 -25.080000 
72717736749733 67.139999 118.259995 -25.080000 
72717756749733 67.139999 118.259995 -25.080000 
72717776749733 67.139999 118.259995 -25.080000 
72717796749733 67.139999 118.259995 -25.080000 
72717816749733 67.139999 118.259995 -25.080000 
72717836749733 67.139999 118.259995 -25.080000 
72717856749733 67.139999 118.259995 -25.080000 
72717876749733 67.139999 118.259995 -25.080000 
72717896749733 67.139999 118.259995 -25.080000 
72717916749733 67.139999 118.259995 -25.080000 
72717936749733 67.139999 118.259995 -25.080000 
72717956749733 67.139999 118.259995 -25.080000 
72717976749733 67.139999 118.259995 -25.080000 
72717996749733 67.139999 118.259995 -25.080000 
72718016749733 67.139999 118.259995 -25.080000 
72718036749733 67.139999 118.259995 -25.080000 
72718056749733 67.139999 118.259995 -25.080000 
72718076749733 67.139999 118.259995 -25.080000 
72718096749733 67.139999 118.259995 -25.080000 
72718116749733 67.139999 118.259995 -25.080000 
72718136749733 67.139999 118.259995 -25.080000 
72718156749733 67.139999 118.259995 -25.080000 
72718176749733 67.139999 118.259995 -25.080000 
72718196749733 67.139999 118.259995 -25.080000 
72718216749733 67.139999 118.259995 -25.080000 
72718236749733 67.139999 118.259995 -25.080000 
72718256749733 67.139999 118.259995 -25.080000 
72718276749733 67.139999 118.259995 -25.080000 
72718296749733 67.139999 118.259995 -25.080000 
72718316749733 67.139999 118.259995 -25.080000 
72718336749733 67.139999 118.259995 -25.080000 
72718356749733 67.139999 118.259995 -25.080000 
72718376749733 67.139999 118.259995 -25.080000 
72718396749733 67.139999 118.259995 -25.080000 
72718416749733 67.139999 118.259995 -25.080000 
72718436749733 67.139999 118.259995 -25.080000 
72718456749733 67.139999 118.259995 -25.080000 
72718476749733 67.139999 118.259995 -25.080000 
72718496749733 67.139999 118.259995 -25.080000 
72718516749733 67.139999 118.259995 -25.080000 
72718536749733 67.139999 118.259995 -25.080000 
72718556749733 67.139999 118.259995 -25.080000 
72718576749733 67.139999 118.259995 -25.080000 
72718596749733 67.139999 118.259995 -25.080000 
72718616749733 67.139999 118.259995 -25.080000 
72718636749733 67.139999 118.259995 -25.080000 
72718656749733 67.139999 118.259995 -25.080000 
72718676749733 67.139999 118.259995 -25.080000 
72718696749733 67.139999 118.259995 -25.080000 
72718716749733 67.139999 118.259995 -25.080000 
72718736749733 67.139999 118.259995 -25.080000 
72718756749733 67.139999 118.259995 -25.080000 
72718776749733 67.139999 118.259995 -25.080000 
72718796749733 67.139999 118.259995 -25.080000 
72718816749733 67.139999 118.259995 -25.080000 
72718836749733 67.139999 118.259995 -25.080000 
72718856749733 67.139999 118.259995 -25.080000 
72718876749733 67.139999 118.259995 -25.080000 
72718896749733 67.139999 118.259995 -25.080000 
72718916749733 67.139999 118.259995 -25.080000 
72718936749733 67.139999 118.259995 -25.080000 
72718956749733 67.139999 118.259995 -25.080000 
72718976749733 67.139999 118.259995 -25.080000 
72718996749733 67.139999 118.259995 -25.080000 
72719016749733 67.139999 118.259995 -25.080000 
72719036749733 67.139999 118.259995 -25.080000 
72719056749733 67.139999 118.259995 -25.080000 
72719076749733 67.139999 118.259995 -25.080000 
72719096749733 67.139999 118.259995 -25.080000 
72719116749733 67.139999 118.259995 -25.080000 
72719136749733 67.139999 118.259995 -25.080000 
72719156749733 67.139999 118.259995 -25.080000 
72719176749733 67.139999 118.259995 -25.080000 
72719196749733 67.139999 118.259995 -25.080000 
72719216749733 67.139999 118.259995 -25.080000 
72719236749733 67.139999 118.259995 -25.080000 
72719256749733 67.139999 118.259995 -25.080000 
72719276749733 67.139999 118.259995 -25.080000 
72719296749733 67.139999 118.259995 -25.080000 
72719316749733 67.139999 118.259995 -25.080000 
72719336749733 67.139999 118.259995 -25.080000 
72719356749733 67.139999 118.259995 -25.080000 
72719376749733 67.139999 118.259995 -25.080000 
72719396749733 67.139999 118.259995 -25.080000 
72719416749733 67.139999 118.259995 -25.080000 
72719436749733 67.139999 118.259995 -25.080000 
72719456749733 67.139999 118.259995 -25.080000 
