# Created at Fri Jan 31 08:53:22 GMT+01:00 2025 in Burnaby Canada 
72372876749349 64.439995 122.519997 -25.379999 
72372896749349 64.439995 122.519997 -25.379999 
72372916749349 64.439995 122.519997 -25.379999 
72372936749349 64.439995 122.519997 -25.379999 
72372956749349 64.439995 122.519997 -25.379999 
72372976749349 64.439995 122.519997 -25.379999 
72372996749349 64.439995 122.519997 -25.379999 
72373016749349 64.439995 122.519997 -25.379999 
72373036749349 64.439995 122.519997 -25.379999 
72373056749349 64.439995 122.519997 -25.379999 
72373076749349 64.439995 122.519997 -25.379999 
72373096749349 64.439995 122.519997 -25.379999 
72373116749349 64.439995 122.519997 -25.379999 
72373136749349 64.439995 122.519997 -25.379999 
72373156749349 64.439995 122.519997 -25.379999 
72373176749349 64.439995 122.519997 -25.379999 
72373196749349 64.439995 122.519997 -25.379999 
72373216749349 64.439995 122.519997 -25.379999 
72373236749349 64.439995 122.519997 -25.379999 
72373256749349 64.439995 122.519997 -25.379999 
72373276749349 64.439995 122.519997 -25.379999 
72373296749349 64.439995 122.519997 -25.379999 
72373316749349 64.439995 122.519997 -25.379999 
72373336749349 64.439995 122.519997 -25.379999 
72373356749349 64.439995 122.519997 -25.379999 
72373376749349 64.439995 122.519997 -25.379999 
72373396749349 64.439995 122.519997 -25.379999 
72373416749349 64.439995 122.519997 -25.379999 
72373436749349 64.439995 122.519997 -25.379999 
72373456749349 64.439995 122.519997 -25.379999 
72373476749349 64.439995 122.519997 -25.379999 
72373496749349 64.439995 122.519997 -25.379999 
72373516749349 64.439995 122.519997 -25.379999 
72373536749349 64.439995 122.519997 -25.379999 
72373556749349 64.439995 122.519997 -25.379999 
72373576749349 64.439995 122.519997 -25.379999 
72373596749349 64.439995 122.519997 -25.379999 
72373616749349 64.439995 122.519997 -25.379999 
72373636749349 64.439995 122.519997 -25.379999 
72373656749349 64.439995 122.519997 -25.379999 
72373676749349 64.439995 122.519997 -25.379999 
72373696749349 64.439995 122.519997 -25.379999 
72373716749349 64.439995 122.519997 -25.379999 
72373736749349 64.439995 122.519997 -25.379999 
72373756749349 64.559998 122.339996 -25.559999 
72373776749349 64.559998 122.339996 -25.559999 
72373796749349 64.559998 122.339996 -25.559999 
72373816749349 64.559998 122.339996 -25.559999 
72373836749349 64.559998 122.339996 -25.559999 
72373856749349 64.559998 122.339996 -25.559999 
72373876749349 64.680000 122.219994 -25.740000 
72373896749349 64.680000 122.219994 -25.740000 
72373916749349 64.680000 122.219994 -25.740000 
72373936749349 64.680000 122.219994 -25.740000 
72373956749349 64.680000 122.219994 -25.740000 
72373976749349 64.680000 122.219994 -25.740000 
72373996749349 64.680000 122.219994 -25.740000 
72374016749349 64.680000 122.219994 -25.740000 
72374036749349 64.680000 122.219994 -25.740000 
72374056749349 64.680000 122.219994 -25.740000 
72374076749349 64.680000 122.219994 -25.740000 
72374096749349 64.680000 122.219994 -25.740000 
72374116749349 64.919998 122.040001 -25.799999 
72374136749349 64.919998 122.040001 -25.799999 
72374156749349 64.919998 122.040001 -25.799999 
72374176749349 64.919998 122.040001 -25.799999 
72374196749349 64.919998 122.040001 -25.799999 
72374216749349 64.919998 122.040001 -25.799999 
72374236749349 64.919998 122.040001 -25.799999 
72374256749349 64.919998 122.040001 -25.799999 
72374276749349 64.919998 122.040001 -25.799999 
72374296749349 64.919998 122.040001 -25.799999 
72374316749349 64.919998 122.040001 -25.799999 
72374336749349 64.919998 122.040001 -25.799999 
72374356749349 64.919998 122.040001 -25.799999 
72374376749349 64.919998 122.040001 -25.799999 
72374396749349 64.919998 122.040001 -25.799999 
72374416749349 64.919998 122.040001 -25.799999 
72374436749349 64.919998 122.040001 -25.799999 
72374456749349 64.919998 122.040001 -25.799999 
72374476749349 64.919998 122.040001 -25.799999 
72374496749349 64.919998 122.040001 -25.799999 
72374516749349 64.919998 122.040001 -25.799999 
72374536749349 64.919998 122.040001 -25.799999 
72374556749349 64.919998 122.040001 -25.799999 
72374576749349 64.919998 122.040001 -25.799999 
72374596749349 64.919998 122.040001 -25.799999 
72374616749349 64.919998 122.040001 -25.799999 
72374636749349 64.919998 122.040001 -25.799999 
72374656749349 64.919998 122.040001 -25.799999 
72374676749349 64.919998 122.040001 -25.799999 
72374696749349 64.919998 122.040001 -25.799999 
72374716749349 64.919998 122.040001 -25.799999 
72374736749349 64.919998 122.040001 -25.799999 
72374756749349 64.919998 122.040001 -25.799999 
72374776749349 64.919998 122.040001 -25.799999 
72374796749349 64.919998 122.040001 -25.799999 
72374816749349 64.919998 122.040001 -25.799999 
72374836749349 64.919998 122.040001 -25.799999 
72374856749349 64.919998 122.040001 -25.799999 
72374876749349 64.919998 122.040001 -25.799999 
72374896749349 64.919998 122.040001 -25.799999 
72374916749349 64.919998 122.040001 -25.799999 
72374936749349 64.919998 122.040001 -25.799999 
72374956749349 64.919998 122.040001 -25.799999 
72374976749349 64.919998 122.040001 -25.799999 
72374996749349 64.919998 122.040001 -25.799999 
72375016749349 64.919998 122.040001 -25.799999 
72375036749349 64.919998 122.040001 -25.799999 
72375056749349 64.919998 122.040001 -25.799999 
72375076749349 64.919998 122.040001 -25.799999 
72375096749349 64.919998 122.040001 -25.799999 
72375116749349 64.919998 122.040001 -25.799999 
72375136749349 64.919998 122.040001 -25.799999 
72375156749349 64.919998 122.040001 -25.799999 
72375176749349 64.919998 122.040001 -25.799999 
72375196749349 64.919998 122.040001 -25.799999 
72375216749349 64.919998 122.040001 -25.799999 
72375236749349 65.159996 121.979996 -25.859999 
72375256749349 65.159996 121.979996 -25.859999 
72375276749349 65.159996 121.979996 -25.859999 
72375296749349 65.159996 121.979996 -25.859999 
72375316749349 65.159996 121.979996 -25.859999 
72375336749349 65.159996 121.979996 -25.859999 
72375356749349 65.159996 121.979996 -25.859999 
72375376749349 65.159996 121.979996 -25.859999 
72375396749349 65.159996 121.979996 -25.859999 
72375416749349 65.159996 121.979996 -25.859999 
72375436749349 65.159996 121.979996 -25.859999 
72375456749349 65.159996 121.979996 -25.859999 
72375476749349 65.159996 121.979996 -25.859999 
72375496749349 65.159996 121.979996 -25.859999 
72375516749349 65.159996 121.979996 -25.859999 
72375536749349 65.159996 121.979996 -25.859999 
72375556749349 65.159996 121.979996 -25.859999 
72375576749349 65.159996 121.979996 -25.859999 
72375596749349 65.159996 121.979996 -25.859999 
72375616749349 65.159996 121.979996 -25.859999 
72375636749349 65.159996 121.979996 -25.859999 
72375656749349 65.159996 121.979996 -25.859999 
72375676749349 65.159996 121.979996 -25.859999 
72375696749349 65.159996 121.979996 -25.859999 
72375716749349 65.159996 121.979996 -25.859999 
72375736749349 65.159996 121.979996 -25.859999 
72375756749349 65.519997 121.919998 -25.619999 
72375776749349 65.519997 121.919998 -25.619999 
72375796749349 65.519997 121.919998 -25.619999 
72375816749349 65.519997 121.919998 -25.619999 
72375836749349 65.519997 121.919998 -25.619999 
72375856749349 65.519997 121.919998 -25.619999 
72375876749349 65.519997 121.919998 -25.619999 
72375896749349 65.519997 121.919998 -25.619999 
72375916749349 65.519997 121.919998 -25.619999 
72375936749349 65.519997 121.919998 -25.619999 
72375956749349 65.519997 121.919998 -25.619999 
72375976749349 65.519997 121.919998 -25.619999 
72375996749349 65.519997 121.919998 -25.619999 
72376016749349 65.519997 121.919998 -25.619999 
72376036749349 65.519997 121.919998 -25.619999 
72376056749349 65.519997 121.919998 -25.619999 
72376076749349 65.519997 121.919998 -25.619999 
72376096749349 65.519997 121.919998 -25.619999 
72376116749349 65.519997 121.919998 -25.619999 
72376136749349 65.519997 121.919998 -25.619999 
72376156749349 65.519997 121.919998 -25.619999 
72376176749349 65.519997 121.919998 -25.619999 
72376196749349 65.519997 121.919998 -25.619999 
72376216749349 65.519997 121.919998 -25.619999 
72376236749349 65.519997 121.919998 -25.619999 
72376256749349 65.519997 121.919998 -25.619999 
72376276749349 65.519997 121.919998 -25.619999 
72376296749349 65.519997 121.919998 -25.619999 
72376316749349 65.519997 121.919998 -25.619999 
72376336749349 65.519997 121.919998 -25.619999 
72376356749349 65.519997 121.919998 -25.619999 
72376376749349 65.519997 121.919998 -25.619999 
72376396749349 65.519997 121.919998 -25.619999 
72376416749349 65.519997 121.919998 -25.619999 
72376436749349 65.519997 121.919998 -25.619999 
72376456749349 65.519997 121.919998 -25.619999 
72376476749349 65.519997 121.919998 -25.619999 
72376496749349 65.519997 121.919998 -25.619999 
72376516749349 65.519997 121.919998 -25.619999 
72376536749349 65.519997 121.919998 -25.619999 
72376556749349 65.519997 121.919998 -25.619999 
72376576749349 65.519997 121.919998 -25.619999 
72376596749349 65.519997 121.919998 -25.619999 
72376616749349 65.519997 121.919998 -25.619999 
72376636749349 65.519997 121.919998 -25.619999 
72376656749349 65.519997 121.919998 -25.619999 
72376676749349 65.519997 121.919998 -25.619999 
72376696749349 65.519997 121.919998 -25.619999 
72376716749349 65.519997 121.919998 -25.619999 
72376736749349 65.519997 121.919998 -25.619999 
72376756749349 65.519997 121.919998 -25.619999 
72376776749349 65.519997 121.919998 -25.619999 
72376796749349 65.519997 121.919998 -25.619999 
72376816749349 65.519997 121.919998 -25.619999 
72376836749349 65.519997 121.919998 -25.619999 
72376856749349 65.519997 121.919998 -25.619999 
72376876749349 65.519997 121.919998 -25.619999 
72376896749349 65.519997 121.919998 -25.619999 
72376916749349 65.519997 121.919998 -25.619999 
72376936749349 65.519997 121.919998 -25.619999 
72376956749349 65.519997 121.919998 -25.619999 
72376976749349 65.519997 121.919998 -25.619999 
72376996749349 65.519997 121.919998 -25.619999 
72377016749349 65.519997 121.919998 -25.619999 
72377036749349 65.519997 121.919998 -25.619999 
72377056749349 65.519997 121.919998 -25.619999 
72377076749349 65.519997 121.919998 -25.619999 
72377096749349 65.519997 121.919998 -25.619999 
72377116749349 65.519997 121.919998 -25.619999 
72377136749349 65.519997 121.919998 -25.619999 
72377156749349 65.519997 121.919998 -25.619999 
72377176749349 65.519997 121.919998 -25.619999 
72377196749349 65.519997 121.919998 -25.619999 
72377216749349 65.519997 121.919998 -25.619999 
72377236749349 65.519997 121.919998 -25.619999 
72377256749349 65.519997 121.919998 -25.619999 
72377276749349 65.519997 121.919998 -25.619999 
72377296749349 65.519997 121.919998 -25.619999 
72377316749349 65.519997 121.919998 -25.619999 
72377336749349 65.519997 121.919998 -25.619999 
72377356749349 65.519997 121.919998 -25.619999 
72377376749349 65.519997 121.919998 -25.619999 
72377396749349 65.519997 121.919998 -25.619999 
72377416749349 65.519997 121.919998 -25.619999 
72377436749349 65.519997 121.919998 -25.619999 
72377456749349 65.519997 121.919998 -25.619999 
72377476749349 65.519997 121.919998 -25.619999 
72377496749349 65.519997 121.919998 -25.619999 
72377516749349 65.519997 121.919998 -25.619999 
72377536749349 65.519997 121.919998 -25.619999 
72377556749349 65.519997 121.919998 -25.619999 
72377576749349 65.519997 121.919998 -25.619999 
72377596749349 65.519997 121.919998 -25.619999 
72377616749349 65.519997 121.919998 -25.619999 
72377636749349 65.519997 121.919998 -25.619999 
72377656749349 65.519997 121.919998 -25.619999 
72377676749349 65.519997 121.919998 -25.619999 
72377696749349 65.519997 121.919998 -25.619999 
72377716749349 65.519997 121.919998 -25.619999 
72377736749349 65.519997 121.919998 -25.619999 
72377756749349 65.519997 121.919998 -25.619999 
72377776749349 65.519997 121.919998 -25.619999 
72377796749349 65.519997 121.919998 -25.619999 
72377816749349 65.519997 121.919998 -25.619999 
72377836749349 65.519997 121.919998 -25.619999 
72377856749349 65.519997 121.919998 -25.619999 
72377876749349 65.519997 121.919998 -25.619999 
72377896749349 65.519997 121.919998 -25.619999 
72377916749349 65.519997 121.919998 -25.619999 
72377936749349 65.519997 121.919998 -25.619999 
72377956749349 65.519997 121.919998 -25.619999 
72377976749349 65.519997 121.919998 -25.619999 
72377996749349 65.519997 121.919998 -25.619999 
72378016749349 65.519997 121.919998 -25.619999 
72378036749349 65.519997 121.919998 -25.619999 
72378056749349 65.519997 121.919998 -25.619999 
72378076749349 65.519997 121.919998 -25.619999 
72378096749349 65.519997 121.919998 -25.619999 
72378116749349 65.519997 121.919998 -25.619999 
72378136749349 65.519997 121.919998 -25.619999 
72378156749349 65.519997 121.919998 -25.619999 
72378176749349 65.519997 121.919998 -25.619999 
72378196749349 65.519997 121.919998 -25.619999 
72378216749349 65.519997 121.919998 -25.619999 
72378236749349 65.519997 121.919998 -25.619999 
72378256749349 65.519997 121.919998 -25.619999 
72378276749349 65.519997 121.919998 -25.619999 
72378296749349 65.519997 121.919998 -25.619999 
72378316749349 65.519997 121.919998 -25.619999 
72378336749349 65.519997 121.919998 -25.619999 
72378356749349 65.519997 121.919998 -25.619999 
72378376749349 65.519997 121.919998 -25.619999 
72378396749349 65.519997 121.919998 -25.619999 
72378416749349 65.519997 121.919998 -25.619999 
72378436749349 65.519997 121.919998 -25.619999 
72378456749349 65.519997 121.919998 -25.619999 
72378476749349 65.519997 121.919998 -25.619999 
72378496749349 65.519997 121.919998 -25.619999 
72378516749349 65.519997 121.919998 -25.619999 
72378536749349 65.519997 121.919998 -25.619999 
72378556749349 65.519997 121.919998 -25.619999 
72378576749349 65.519997 121.919998 -25.619999 
72378596749349 65.519997 121.919998 -25.619999 
72378616749349 65.519997 121.919998 -25.619999 
72378636749349 65.519997 121.919998 -25.619999 
72378656749349 65.519997 121.919998 -25.619999 
72378676749349 65.519997 121.919998 -25.619999 
72378696749349 65.519997 121.919998 -25.619999 
72378716749349 65.519997 121.919998 -25.619999 
72378736749349 65.519997 121.919998 -25.619999 
72378756749349 65.519997 121.919998 -25.619999 
72378776749349 65.519997 121.919998 -25.619999 
72378796749349 65.519997 121.919998 -25.619999 
72378816749349 65.519997 121.919998 -25.619999 
72378836749349 65.519997 121.919998 -25.619999 
72378856749349 65.519997 121.919998 -25.619999 
72378876749349 65.519997 121.919998 -25.619999 
72378896749349 65.519997 121.919998 -25.619999 
72378916749349 65.519997 121.919998 -25.619999 
72378936749349 65.519997 121.919998 -25.619999 
72378956749349 65.519997 121.919998 -25.619999 
72378976749349 65.519997 121.919998 -25.619999 
72378996749349 65.519997 121.919998 -25.619999 
72379016749349 65.519997 121.919998 -25.619999 
72379036749349 65.519997 121.919998 -25.619999 
72379056749349 65.519997 121.919998 -25.619999 
72379076749349 65.519997 121.919998 -25.619999 
72379096749349 65.519997 121.919998 -25.619999 
72379116749349 65.519997 121.919998 -25.619999 
72379136749349 65.519997 121.919998 -25.619999 
72379156749349 65.519997 121.919998 -25.619999 
72379176749349 65.519997 121.919998 -25.619999 
72379196749349 65.519997 121.919998 -25.619999 
72379216749349 65.519997 121.919998 -25.619999 
72379236749349 65.519997 121.919998 -25.619999 
72379256749349 65.519997 121.919998 -25.619999 
72379276749349 65.519997 121.919998 -25.619999 
72379296749349 65.519997 121.919998 -25.619999 
72379316749349 65.519997 121.919998 -25.619999 
72379336749349 65.519997 121.919998 -25.619999 
72379356749349 65.519997 121.919998 -25.619999 
72379376749349 65.519997 121.919998 -25.619999 
72379396749349 65.519997 121.919998 -25.619999 
72379416749349 65.519997 121.919998 -25.619999 
72379436749349 65.519997 121.919998 -25.619999 
72379456749349 65.519997 121.919998 -25.619999 
72379476749349 65.519997 121.919998 -25.619999 
72379496749349 65.519997 121.919998 -25.619999 
72379516749349 65.519997 121.919998 -25.619999 
72379536749349 65.519997 121.919998 -25.619999 
72379556749349 65.519997 121.919998 -25.619999 
72379576749349 65.519997 121.919998 -25.619999 
72379596749349 65.519997 121.919998 -25.619999 
72379616749349 65.519997 121.919998 -25.619999 
72379636749349 65.519997 121.919998 -25.619999 
72379656749349 65.519997 121.919998 -25.619999 
72379676749349 65.519997 121.919998 -25.619999 
72379696749349 65.519997 121.919998 -25.619999 
72379716749349 65.519997 121.919998 -25.619999 
72379736749349 65.519997 121.919998 -25.619999 
72379756749349 65.519997 121.919998 -25.619999 
72379776749349 65.519997 121.919998 -25.619999 
72379796749349 65.519997 121.919998 -25.619999 
72379816749349 65.519997 121.919998 -25.619999 
72379836749349 65.519997 121.919998 -25.619999 
72379856749349 65.519997 121.919998 -25.619999 
72379876749349 65.519997 121.919998 -25.619999 
72379896749349 65.519997 121.919998 -25.619999 
72379916749349 65.519997 121.919998 -25.619999 
72379936749349 65.519997 121.919998 -25.619999 
72379956749349 65.519997 121.919998 -25.619999 
72379976749349 65.519997 121.919998 -25.619999 
72379996749349 65.519997 121.919998 -25.619999 
72380016749349 65.519997 121.919998 -25.619999 
72380036749349 65.519997 121.919998 -25.619999 
72380056749349 65.519997 121.919998 -25.619999 
72380076749349 65.519997 121.919998 -25.619999 
72380096749349 65.519997 121.919998 -25.619999 
72380116749349 65.519997 121.919998 -25.619999 
72380136749349 65.519997 121.919998 -25.619999 
72380156749349 65.519997 121.919998 -25.619999 
72380176749349 65.519997 121.919998 -25.619999 
72380196749349 65.519997 121.919998 -25.619999 
72380216749349 65.519997 121.919998 -25.619999 
72380236749349 65.519997 121.919998 -25.619999 
72380256749349 65.519997 121.919998 -25.619999 
72380276749349 65.820000 121.860001 -25.320000 
72380296749349 65.820000 121.860001 -25.320000 
72380316749349 65.820000 121.860001 -25.320000 
72380336749349 65.820000 121.860001 -25.320000 
72380356749349 65.820000 121.860001 -25.320000 
72380376749349 65.820000 121.860001 -25.320000 
72380396749349 65.820000 121.860001 -25.320000 
72380416749349 65.820000 121.860001 -25.320000 
72380436749349 65.820000 121.860001 -25.320000 
72380456749349 65.820000 121.860001 -25.320000 
72380476749349 65.820000 121.860001 -25.320000 
72380496749349 65.820000 121.860001 -25.320000 
72380516749349 65.820000 121.860001 -25.320000 
72380536749349 65.820000 121.860001 -25.320000 
72380556749349 65.820000 121.860001 -25.320000 
72380576749349 65.820000 121.860001 -25.320000 
72380596749349 65.820000 121.860001 -25.320000 
72380616749349 65.820000 121.860001 -25.320000 
72380636749349 65.820000 121.860001 -25.320000 
72380656749349 65.820000 121.860001 -25.320000 
72380676749349 65.820000 121.860001 -25.320000 
72380696749349 65.820000 121.860001 -25.320000 
72380716749349 65.820000 121.860001 -25.320000 
72380736749349 65.820000 121.860001 -25.320000 
72380756749349 65.820000 121.860001 -25.320000 
72380776749349 65.820000 121.860001 -25.320000 
72380796749349 65.820000 121.919998 -25.080000 
72380816749349 65.820000 121.919998 -25.080000 
72380836749349 65.820000 121.919998 -25.080000 
72380856749349 65.820000 121.919998 -25.080000 
72380876749349 65.820000 121.919998 -25.080000 
72380896749349 65.820000 121.919998 -25.080000 
72380916749349 65.820000 121.919998 -25.080000 
72380936749349 65.820000 121.919998 -25.080000 
72380956749349 65.820000 121.919998 -25.080000 
72380976749349 65.820000 121.919998 -25.080000 
72380996749349 65.820000 121.919998 -25.080000 
72381016749349 65.820000 121.919998 -25.080000 
72381036749349 65.820000 121.919998 -25.080000 
72381056749349 65.820000 121.919998 -25.080000 
72381076749349 65.820000 121.919998 -25.080000 
72381096749349 65.820000 121.919998 -25.080000 
72381116749349 65.820000 121.919998 -25.080000 
72381136749349 65.820000 121.919998 -25.080000 
72381156749349 65.820000 121.919998 -25.080000 
72381176749349 65.820000 121.919998 -25.080000 
72381196749349 65.820000 121.919998 -25.080000 
72381216749349 65.820000 121.919998 -25.080000 
72381236749349 65.820000 121.919998 -25.080000 
72381256749349 65.820000 121.919998 -25.080000 
72381276749349 65.820000 121.919998 -25.080000 
72381296749349 65.820000 121.919998 -25.080000 
72381316749349 65.820000 121.919998 -25.080000 
72381336749349 65.820000 121.919998 -25.080000 
72381356749349 65.820000 121.919998 -25.080000 
72381376749349 65.820000 121.919998 -25.080000 
72381396749349 65.820000 121.919998 -25.080000 
72381416749349 65.820000 121.919998 -25.080000 
72381436749349 65.939995 121.919998 -24.660000 
72381456749349 65.939995 121.919998 -24.660000 
72381476749349 65.939995 121.919998 -24.660000 
72381496749349 65.939995 121.919998 -24.660000 
72381516749349 65.939995 121.919998 -24.660000 
72381536749349 65.939995 121.919998 -24.660000 
72381556749349 65.939995 121.919998 -24.660000 
72381576749349 65.939995 121.919998 -24.660000 
72381596749349 65.939995 121.919998 -24.660000 
72381616749349 65.939995 121.919998 -24.660000 
72381636749349 65.939995 121.919998 -24.660000 
72381656749349 65.939995 121.919998 -24.660000 
72381676749349 65.939995 121.919998 -24.660000 
72381696749349 65.939995 121.919998 -24.660000 
72381716749349 65.939995 121.919998 -24.660000 
72381736749349 65.939995 121.919998 -24.660000 
72381756749349 65.939995 121.919998 -24.660000 
72381776749349 65.939995 121.919998 -24.660000 
72381796749349 65.939995 121.919998 -24.660000 
72381816749349 65.939995 121.919998 -24.660000 
72381836749349 65.939995 121.919998 -24.660000 
72381856749349 65.939995 121.919998 -24.660000 
72381876749349 65.939995 121.919998 -24.660000 
72381896749349 65.939995 121.919998 -24.660000 
72381916749349 65.939995 121.919998 -24.660000 
72381936749349 65.939995 121.919998 -24.660000 
72381956749349 65.939995 121.919998 -24.660000 
72381976749349 65.939995 121.919998 -24.660000 
72381996749349 65.939995 121.919998 -24.660000 
72382016749349 65.939995 121.919998 -24.660000 
72382036749349 65.939995 121.919998 -24.660000 
72382056749349 65.939995 121.919998 -24.660000 
72382076749349 65.939995 121.919998 -24.660000 
72382096749349 65.939995 121.919998 -24.660000 
72382116749349 65.939995 121.919998 -24.660000 
72382136749349 65.939995 121.919998 -24.660000 
72382156749349 65.939995 121.919998 -24.660000 
72382176749349 65.939995 121.919998 -24.660000 
72382196749349 65.939995 121.919998 -24.660000 
72382216749349 65.939995 121.919998 -24.660000 
72382236749349 65.939995 121.919998 -24.660000 
72382256749349 65.939995 121.919998 -24.660000 
72382276749349 65.939995 121.919998 -24.660000 
72382296749349 65.939995 121.919998 -24.660000 
72382316749349 65.939995 121.919998 -24.660000 
72382336749349 65.939995 121.919998 -24.660000 
72382356749349 65.939995 121.919998 -24.660000 
72382376749349 65.939995 121.919998 -24.660000 
72382396749349 65.939995 121.919998 -24.660000 
72382416749349 65.939995 121.919998 -24.660000 
72382436749349 65.939995 121.919998 -24.660000 
72382456749349 65.939995 121.919998 -24.660000 
72382476749349 65.939995 121.919998 -24.660000 
72382496749349 65.939995 121.919998 -24.660000 
72382516749349 65.939995 121.919998 -24.660000 
72382536749349 65.939995 121.919998 -24.660000 
72382556749349 65.939995 121.919998 -24.660000 
72382576749349 65.939995 121.919998 -24.660000 
72382596749349 65.939995 121.919998 -24.660000 
72382616749349 65.939995 121.919998 -24.660000 
72382636749349 65.939995 121.919998 -24.660000 
72382656749349 65.939995 121.919998 -24.660000 
72382676749349 65.879997 121.919998 -24.480000 
72382696749349 65.879997 121.919998 -24.480000 
72382716749349 65.879997 121.919998 -24.480000 
72382736749349 65.879997 121.919998 -24.480000 
72382756749349 65.879997 121.919998 -24.480000 
72382776749349 65.879997 121.919998 -24.480000 
72382796749349 65.879997 121.919998 -24.480000 
72382816749349 65.879997 121.919998 -24.480000 
72382836749349 65.879997 121.919998 -24.480000 
72382856749349 65.879997 121.919998 -24.480000 
72382876749349 65.879997 121.919998 -24.480000 
72382896749349 65.879997 121.919998 -24.480000 
72382916749349 65.879997 121.919998 -24.480000 
72382936749349 65.879997 121.919998 -24.480000 
72382956749349 65.879997 121.919998 -24.480000 
72382976749349 65.879997 121.919998 -24.480000 
72382996749349 65.879997 121.919998 -24.480000 
72383016749349 65.879997 121.919998 -24.480000 
72383036749349 65.879997 121.919998 -24.480000 
72383056749349 65.879997 121.919998 -24.480000 
72383076749349 65.879997 121.919998 -24.480000 
72383096749349 65.879997 121.919998 -24.480000 
72383116749349 65.879997 121.919998 -24.480000 
72383136749349 65.879997 121.919998 -24.480000 
72383156749349 65.879997 121.919998 -24.480000 
72383176749349 65.879997 121.919998 -24.480000 
72383196749349 65.879997 121.919998 -24.480000 
72383216749349 65.879997 121.919998 -24.480000 
72383236749349 65.879997 121.919998 -24.480000 
72383256749349 65.879997 121.919998 -24.480000 
72383276749349 65.879997 121.919998 -24.480000 
72383296749349 65.879997 121.919998 -24.480000 
72383316749349 65.879997 121.919998 -24.480000 
72383336749349 65.879997 121.919998 -24.480000 
72383356749349 65.879997 121.919998 -24.480000 
72383376749349 65.879997 121.919998 -24.480000 
72383396749349 65.879997 121.919998 -24.480000 
72383416749349 65.879997 121.919998 -24.480000 
72383436749349 65.879997 121.919998 -24.480000 
72383456749349 65.879997 121.919998 -24.480000 
72383476749349 65.879997 121.919998 -24.480000 
72383496749349 65.879997 121.919998 -24.480000 
72383516749349 65.879997 121.919998 -24.480000 
72383536749349 65.879997 121.919998 -24.480000 
72383556749349 65.879997 121.919998 -24.480000 
72383576749349 65.879997 121.919998 -24.480000 
72383596749349 65.879997 121.919998 -24.480000 
72383616749349 65.879997 121.919998 -24.480000 
72383636749349 65.879997 121.919998 -24.480000 
72383656749349 65.879997 121.919998 -24.480000 
72383676749349 65.879997 121.919998 -24.480000 
72383696749349 65.879997 121.919998 -24.480000 
72383716749349 65.879997 121.919998 -24.480000 
72383736749349 65.879997 121.919998 -24.480000 
72383756749349 65.879997 121.919998 -24.480000 
72383776749349 65.879997 121.919998 -24.480000 
72383796749349 65.879997 121.919998 -24.480000 
72383816749349 65.879997 121.919998 -24.480000 
72383836749349 65.879997 121.919998 -24.480000 
72383856749349 65.879997 121.919998 -24.480000 
72383876749349 65.879997 121.919998 -24.480000 
72383896749349 65.879997 121.919998 -24.480000 
72383916749349 65.879997 121.919998 -24.480000 
72383936749349 65.879997 121.919998 -24.480000 
72383956749349 65.879997 121.919998 -24.480000 
72383976749349 65.879997 121.919998 -24.480000 
72383996749349 65.879997 121.919998 -24.480000 
72384016749349 65.879997 121.919998 -24.480000 
72384036749349 65.879997 121.919998 -24.480000 
72384056749349 65.879997 121.919998 -24.480000 
72384076749349 65.879997 121.919998 -24.480000 
72384096749349 65.879997 121.919998 -24.480000 
72384116749349 65.879997 121.919998 -24.480000 
72384136749349 65.879997 121.919998 -24.480000 
72384156749349 65.879997 121.919998 -24.480000 
72384176749349 65.879997 121.919998 -24.480000 
72384196749349 65.879997 121.919998 -24.480000 
72384216749349 65.879997 121.919998 -24.480000 
72384236749349 65.879997 121.919998 -24.480000 
72384256749349 65.879997 121.919998 -24.480000 
72384276749349 65.879997 121.919998 -24.480000 
72384296749349 65.879997 121.919998 -24.480000 
72384316749349 65.879997 121.919998 -24.480000 
72384336749349 65.879997 121.919998 -24.480000 
72384356749349 65.879997 121.919998 -24.480000 
72384376749349 65.879997 121.919998 -24.480000 
72384396749349 65.879997 121.919998 -24.480000 
72384416749349 65.879997 121.919998 -24.480000 
72384436749349 65.879997 121.919998 -24.480000 
72384456749349 65.879997 121.919998 -24.480000 
72384476749349 65.879997 121.919998 -24.480000 
72384496749349 65.879997 121.919998 -24.480000 
72384516749349 65.879997 121.919998 -24.480000 
72384536749349 65.879997 121.919998 -24.480000 
72384556749349 65.879997 121.919998 -24.480000 
72384576749349 65.879997 121.919998 -24.480000 
72384596749349 65.879997 121.919998 -24.480000 
72384616749349 65.879997 121.919998 -24.480000 
72384636749349 65.879997 121.919998 -24.480000 
72384656749349 65.879997 121.919998 -24.480000 
72384676749349 65.879997 121.919998 -24.480000 
72384696749349 65.879997 121.919998 -24.480000 
72384716749349 65.879997 121.919998 -24.480000 
72384736749349 65.879997 121.919998 -24.480000 
72384756749349 65.879997 121.919998 -24.480000 
72384776749349 65.879997 121.919998 -24.480000 
72384796749349 65.879997 121.919998 -24.480000 
72384816749349 65.879997 121.919998 -24.480000 
72384836749349 65.879997 121.919998 -24.480000 
72384856749349 65.879997 121.919998 -24.480000 
72384876749349 65.879997 121.919998 -24.480000 
72384896749349 65.879997 121.919998 -24.480000 
72384916749349 65.879997 121.919998 -24.480000 
72384936749349 65.879997 121.919998 -24.480000 
72384956749349 65.879997 121.919998 -24.480000 
72384976749349 65.879997 121.919998 -24.480000 
72384996749349 65.879997 121.919998 -24.480000 
72385016749349 65.879997 121.919998 -24.480000 
72385036749349 65.879997 121.919998 -24.480000 
72385056749349 65.879997 121.919998 -24.480000 
72385076749349 65.879997 121.919998 -24.480000 
72385096749349 65.879997 121.919998 -24.480000 
72385116749349 65.879997 121.919998 -24.480000 
72385136749349 65.879997 121.919998 -24.480000 
72385156749349 65.879997 121.919998 -24.480000 
72385176749349 65.879997 121.919998 -24.480000 
72385196749349 65.879997 121.919998 -24.480000 
72385216749349 65.879997 121.919998 -24.480000 
72385236749349 65.879997 121.919998 -24.480000 
72385256749349 65.879997 121.919998 -24.480000 
72385276749349 65.879997 121.919998 -24.480000 
72385296749349 65.879997 121.919998 -24.480000 
72385316749349 65.879997 121.919998 -24.480000 
72385336749349 65.879997 121.919998 -24.480000 
72385356749349 65.879997 121.919998 -24.480000 
72385376749349 65.879997 121.919998 -24.480000 
72385396749349 65.879997 121.919998 -24.480000 
72385416749349 65.879997 121.919998 -24.480000 
72385436749349 65.879997 121.919998 -24.480000 
72385456749349 65.879997 121.919998 -24.480000 
72385476749349 65.879997 121.919998 -24.480000 
72385496749349 65.879997 121.919998 -24.480000 
72385516749349 65.879997 121.919998 -24.480000 
72385536749349 65.879997 121.919998 -24.480000 
72385556749349 65.879997 121.919998 -24.480000 
72385576749349 65.879997 121.919998 -24.480000 
72385596749349 65.879997 121.919998 -24.480000 
72385616749349 65.879997 121.919998 -24.480000 
72385636749349 65.879997 121.919998 -24.480000 
72385656749349 65.879997 121.919998 -24.480000 
72385676749349 65.879997 121.919998 -24.480000 
72385696749349 65.879997 121.919998 -24.480000 
72385716749349 65.879997 121.919998 -24.480000 
72385736749349 65.879997 121.919998 -24.480000 
72385756749349 65.879997 121.919998 -24.480000 
72385776749349 65.879997 121.919998 -24.480000 
72385796749349 65.879997 121.919998 -24.480000 
72385816749349 65.879997 121.919998 -24.480000 
72385836749349 65.879997 121.919998 -24.480000 
72385856749349 65.879997 121.919998 -24.480000 
72385876749349 65.879997 121.919998 -24.480000 
72385896749349 65.879997 121.919998 -24.480000 
72385916749349 65.879997 121.919998 -24.480000 
72385936749349 65.879997 121.919998 -24.480000 
72385956749349 65.879997 121.919998 -24.480000 
72385976749349 65.879997 121.919998 -24.480000 
72385996749349 65.879997 121.919998 -24.480000 
72386016749349 65.879997 121.919998 -24.480000 
72386036749349 65.879997 121.919998 -24.480000 
72386056749349 65.879997 121.919998 -24.480000 
72386076749349 65.879997 121.919998 -24.480000 
72386096749349 65.879997 121.919998 -24.480000 
72386116749349 65.879997 121.919998 -24.480000 
72386136749349 65.879997 121.919998 -24.480000 
72386156749349 65.879997 121.919998 -24.480000 
72386176749349 65.879997 121.919998 -24.480000 
72386196749349 65.879997 121.919998 -24.480000 
72386216749349 65.879997 121.919998 -24.480000 
72386236749349 65.879997 121.919998 -24.480000 
72386256749349 65.879997 121.919998 -24.480000 
72386276749349 65.879997 121.919998 -24.480000 
72386296749349 65.879997 121.919998 -24.480000 
72386316749349 65.879997 121.919998 -24.480000 
72386336749349 65.879997 121.919998 -24.480000 
72386356749349 65.879997 121.919998 -24.480000 
72386376749349 65.879997 121.919998 -24.480000 
72386396749349 65.879997 121.919998 -24.480000 
72386416749349 65.879997 121.919998 -24.480000 
72386436749349 65.879997 121.919998 -24.480000 
72386456749349 65.879997 121.919998 -24.480000 
72386476749349 65.879997 121.919998 -24.480000 
72386496749349 65.879997 121.919998 -24.480000 
72386516749349 65.879997 121.919998 -24.480000 
72386536749349 65.879997 121.919998 -24.480000 
72386556749349 65.879997 121.919998 -24.480000 
72386576749349 65.879997 121.919998 -24.480000 
72386596749349 65.879997 121.919998 -24.480000 
72386616749349 65.879997 121.919998 -24.480000 
72386636749349 65.879997 121.919998 -24.480000 
72386656749349 65.879997 121.919998 -24.480000 
72386676749349 65.879997 121.919998 -24.480000 
72386696749349 65.879997 121.919998 -24.480000 
72386716749349 65.879997 121.919998 -24.480000 
72386736749349 65.879997 121.919998 -24.480000 
72386756749349 65.879997 121.919998 -24.480000 
72386776749349 65.879997 121.919998 -24.480000 
72386796749349 65.879997 121.919998 -24.480000 
72386816749349 65.879997 121.919998 -24.480000 
72386836749349 65.879997 121.919998 -24.480000 
72386856749349 65.879997 121.919998 -24.480000 
72386876749349 65.879997 121.919998 -24.480000 
72386896749349 65.879997 121.919998 -24.480000 
72386916749349 65.879997 121.919998 -24.480000 
72386936749349 65.879997 121.919998 -24.480000 
72386956749349 65.879997 121.919998 -24.480000 
72386976749349 65.879997 121.919998 -24.480000 
72386996749349 65.879997 121.919998 -24.480000 
72387016749349 65.879997 121.919998 -24.480000 
72387036749349 65.879997 121.919998 -24.480000 
72387056749349 65.879997 121.919998 -24.480000 
72387076749349 65.879997 121.919998 -24.480000 
72387096749349 65.879997 121.919998 -24.480000 
72387116749349 65.879997 121.919998 -24.480000 
72387136749349 65.879997 121.919998 -24.480000 
72387156749349 65.879997 121.919998 -24.480000 
72387176749349 65.879997 121.919998 -24.480000 
72387196749349 65.879997 121.919998 -24.480000 
72387216749349 65.879997 121.919998 -24.480000 
72387236749349 65.879997 121.919998 -24.480000 
72387256749349 65.879997 121.919998 -24.480000 
72387276749349 65.879997 121.919998 -24.480000 
72387296749349 65.879997 121.919998 -24.480000 
72387316749349 65.879997 121.919998 -24.480000 
72387336749349 65.879997 121.919998 -24.480000 
72387356749349 65.879997 121.919998 -24.480000 
72387376749349 65.879997 121.919998 -24.480000 
72387396749349 65.879997 121.919998 -24.480000 
72387416749349 65.879997 121.919998 -24.480000 
72387436749349 65.879997 121.919998 -24.480000 
72387456749349 65.879997 121.919998 -24.480000 
72387476749349 65.879997 121.919998 -24.480000 
72387496749349 65.879997 121.919998 -24.480000 
72387516749349 65.879997 121.919998 -24.480000 
72387536749349 65.879997 121.919998 -24.480000 
72387556749349 65.879997 121.919998 -24.480000 
72387576749349 65.879997 121.919998 -24.480000 
72387596749349 65.879997 121.919998 -24.480000 
72387616749349 65.879997 121.919998 -24.480000 
72387636749349 65.879997 121.919998 -24.480000 
72387656749349 65.879997 121.919998 -24.480000 
72387676749349 65.879997 121.919998 -24.480000 
72387696749349 65.879997 121.919998 -24.480000 
72387716749349 65.879997 121.919998 -24.480000 
72387736749349 65.879997 121.919998 -24.480000 
72387756749349 65.879997 121.919998 -24.480000 
72387776749349 65.879997 121.919998 -24.480000 
72387796749349 65.879997 121.919998 -24.480000 
72387816749349 65.879997 121.919998 -24.480000 
72387836749349 65.879997 121.919998 -24.480000 
72387856749349 65.879997 121.919998 -24.480000 
72387876749349 65.879997 121.919998 -24.480000 
72387896749349 65.879997 121.919998 -24.480000 
72387916749349 65.879997 121.919998 -24.480000 
72387936749349 65.879997 121.919998 -24.480000 
72387956749349 65.879997 121.919998 -24.480000 
72387976749349 65.879997 121.919998 -24.480000 
72387996749349 65.879997 121.919998 -24.480000 
72388016749349 65.879997 121.919998 -24.480000 
72388036749349 65.879997 121.919998 -24.480000 
72388056749349 65.879997 121.919998 -24.480000 
72388076749349 65.879997 121.919998 -24.480000 
72388096749349 65.879997 121.919998 -24.480000 
72388116749349 65.879997 121.919998 -24.480000 
72388136749349 65.879997 121.919998 -24.480000 
72388156749349 65.879997 121.919998 -24.480000 
72388176749349 65.879997 121.919998 -24.480000 
72388196749349 65.879997 121.919998 -24.480000 
72388216749349 65.879997 121.919998 -24.480000 
72388236749349 65.879997 121.919998 -24.480000 
72388256749349 65.879997 121.919998 -24.480000 
72388276749349 65.879997 121.919998 -24.480000 
72388296749349 65.879997 121.919998 -24.480000 
72388316749349 65.879997 121.919998 -24.480000 
72388336749349 65.879997 121.919998 -24.480000 
72388356749349 65.879997 121.919998 -24.480000 
72388376749349 65.879997 121.919998 -24.480000 
72388396749349 65.879997 121.919998 -24.480000 
72388416749349 65.879997 121.919998 -24.480000 
72388436749349 65.879997 121.919998 -24.480000 
72388456749349 65.879997 121.919998 -24.480000 
72388476749349 65.879997 121.919998 -24.480000 
72388496749349 65.879997 121.919998 -24.480000 
72388516749349 65.879997 121.919998 -24.480000 
72388536749349 65.879997 121.919998 -24.480000 
72388556749349 65.879997 121.919998 -24.480000 
72388576749349 65.879997 121.919998 -24.480000 
72388596749349 65.879997 121.919998 -24.480000 
72388616749349 65.879997 121.919998 -24.480000 
72388636749349 65.879997 121.919998 -24.480000 
72388656749349 65.879997 121.919998 -24.480000 
72388676749349 65.879997 121.919998 -24.480000 
72388696749349 65.879997 121.919998 -24.480000 
72388716749349 65.879997 121.919998 -24.480000 
72388736749349 65.879997 121.919998 -24.480000 
72388756749349 65.879997 121.919998 -24.480000 
72388776749349 65.879997 121.919998 -24.480000 
72388796749349 65.879997 121.919998 -24.480000 
72388816749349 65.879997 121.919998 -24.480000 
72388836749349 65.879997 121.919998 -24.480000 
72388856749349 65.879997 121.919998 -24.480000 
72388876749349 65.879997 121.919998 -24.480000 
72388896749349 65.879997 121.919998 -24.480000 
72388916749349 65.879997 121.919998 -24.480000 
72388936749349 65.879997 121.919998 -24.480000 
72388956749349 65.879997 121.919998 -24.480000 
72388976749349 65.879997 121.919998 -24.480000 
72388996749349 65.879997 121.919998 -24.480000 
72389016749349 65.879997 121.919998 -24.480000 
72389036749349 65.879997 121.919998 -24.480000 
72389056749349 65.879997 121.919998 -24.480000 
72389076749349 65.879997 121.919998 -24.480000 
72389096749349 65.879997 121.919998 -24.480000 
72389116749349 65.879997 121.919998 -24.480000 
72389136749349 65.879997 121.919998 -24.480000 
72389156749349 65.879997 121.919998 -24.480000 
72389176749349 65.879997 121.919998 -24.480000 
72389196749349 65.879997 121.919998 -24.480000 
72389216749349 65.879997 121.919998 -24.480000 
72389236749349 65.879997 121.919998 -24.480000 
72389256749349 65.879997 121.919998 -24.480000 
72389276749349 65.939995 121.739998 -24.660000 
72389296749349 65.939995 121.739998 -24.660000 
72389316749349 65.939995 121.739998 -24.660000 
72389336749349 65.939995 121.739998 -24.660000 
72389356749349 65.939995 121.739998 -24.660000 
72389376749349 65.939995 121.739998 -24.660000 
72389396749349 65.939995 121.739998 -24.660000 
72389416749349 65.939995 121.739998 -24.660000 
72389436749349 65.939995 121.739998 -24.660000 
72389456749349 65.939995 121.739998 -24.660000 
72389476749349 65.939995 121.739998 -24.660000 
72389496749349 65.939995 121.739998 -24.660000 
72389516749349 65.939995 121.739998 -24.660000 
72389536749349 65.939995 121.739998 -24.660000 
72389556749349 65.939995 121.739998 -24.660000 
72389576749349 65.939995 121.739998 -24.660000 
72389596749349 65.939995 121.739998 -24.660000 
72389616749349 65.939995 121.739998 -24.660000 
72389636749349 66.059998 121.500000 -24.959999 
72389656749349 66.059998 121.500000 -24.959999 
72389676749349 66.059998 121.500000 -24.959999 
72389696749349 66.059998 121.500000 -24.959999 
72389716749349 66.059998 121.500000 -24.959999 
72389736749349 66.059998 121.500000 -24.959999 
72389756749349 66.059998 121.500000 -24.959999 
72389776749349 66.059998 121.500000 -24.959999 
72389796749349 66.059998 121.500000 -24.959999 
72389816749349 66.059998 121.500000 -24.959999 
72389836749349 66.059998 121.500000 -24.959999 
72389856749349 66.059998 121.500000 -24.959999 
72389876749349 66.059998 121.500000 -24.959999 
72389896749349 66.059998 121.500000 -24.959999 
72389916749349 66.059998 121.500000 -24.959999 
72389936749349 66.059998 121.500000 -24.959999 
72389956749349 66.059998 121.500000 -24.959999 
72389976749349 66.059998 121.500000 -24.959999 
72389996749349 66.059998 121.500000 -24.959999 
72390016749349 66.059998 121.500000 -24.959999 
72390036749349 66.059998 121.500000 -24.959999 
72390056749349 66.059998 121.500000 -24.959999 
72390076749349 66.059998 121.500000 -24.959999 
72390096749349 66.059998 121.500000 -24.959999 
72390116749349 66.059998 121.500000 -24.959999 
72390136749349 66.059998 121.500000 -24.959999 
72390156749349 66.059998 121.500000 -24.959999 
72390176749349 66.059998 121.500000 -24.959999 
72390196749349 66.059998 121.500000 -24.959999 
72390216749349 66.059998 121.500000 -24.959999 
72390236749349 66.059998 121.500000 -24.959999 
72390256749349 66.059998 121.500000 -24.959999 
72390276749349 66.059998 121.500000 -24.959999 
72390296749349 66.059998 121.500000 -24.959999 
72390316749349 66.059998 121.500000 -24.959999 
72390336749349 66.059998 121.500000 -24.959999 
72390356749349 66.059998 121.500000 -24.959999 
72390376749349 66.059998 121.500000 -24.959999 
72390396749349 66.059998 121.500000 -24.959999 
72390416749349 66.059998 121.500000 -24.959999 
72390436749349 66.059998 121.500000 -24.959999 
72390456749349 66.059998 121.500000 -24.959999 
72390476749349 66.059998 121.500000 -24.959999 
72390496749349 66.059998 121.500000 -24.959999 
72390516749349 66.059998 121.500000 -24.959999 
72390536749349 66.059998 121.500000 -24.959999 
72390556749349 66.059998 121.500000 -24.959999 
72390576749349 66.059998 121.500000 -24.959999 
72390596749349 66.059998 121.500000 -24.959999 
72390616749349 66.059998 121.500000 -24.959999 
72390636749349 66.059998 121.500000 -24.959999 
72390656749349 66.059998 121.500000 -24.959999 
72390676749349 66.059998 121.500000 -24.959999 
72390696749349 66.059998 121.500000 -24.959999 
72390716749349 66.059998 121.500000 -24.959999 
72390736749349 66.059998 121.500000 -24.959999 
72390756749349 66.059998 121.500000 -24.959999 
72390776749349 66.059998 121.500000 -24.959999 
72390796749349 66.059998 121.500000 -24.959999 
72390816749349 66.059998 121.500000 -24.959999 
72390836749349 66.059998 121.500000 -24.959999 
72390856749349 66.059998 121.500000 -24.959999 
72390876749349 66.059998 121.500000 -24.959999 
72390896749349 66.059998 121.500000 -24.959999 
72390916749349 66.059998 121.500000 -24.959999 
72390936749349 66.059998 121.500000 -24.959999 
72390956749349 66.059998 121.500000 -24.959999 
72390976749349 66.059998 121.500000 -24.959999 
72390996749349 66.059998 121.500000 -24.959999 
72391016749349 66.059998 121.500000 -24.959999 
72391036749349 66.059998 121.500000 -24.959999 
72391056749349 66.059998 121.500000 -24.959999 
72391076749349 66.059998 121.500000 -24.959999 
72391096749349 66.059998 121.500000 -24.959999 
72391116749349 66.059998 121.500000 -24.959999 
72391136749349 66.059998 121.500000 -24.959999 
72391156749349 66.059998 121.500000 -24.959999 
72391176749349 66.059998 121.500000 -24.959999 
72391196749349 66.059998 121.500000 -24.959999 
72391216749349 66.059998 121.500000 -24.959999 
72391236749349 66.059998 121.500000 -24.959999 
72391256749349 66.059998 121.500000 -24.959999 
72391276749349 66.059998 121.500000 -24.959999 
72391296749349 66.059998 121.500000 -24.959999 
72391316749349 66.059998 121.500000 -24.959999 
72391336749349 66.059998 121.500000 -24.959999 
72391356749349 66.059998 121.500000 -24.959999 
72391376749349 66.059998 121.500000 -24.959999 
72391396749349 66.059998 121.500000 -24.959999 
72391416749349 66.059998 121.500000 -24.959999 
72391436749349 66.059998 121.500000 -24.959999 
72391456749349 66.059998 121.500000 -24.959999 
72391476749349 66.059998 121.500000 -24.959999 
72391496749349 66.059998 121.500000 -24.959999 
72391516749349 66.059998 121.500000 -24.959999 
72391536749349 66.059998 121.500000 -24.959999 
72391556749349 66.059998 121.500000 -24.959999 
72391576749349 66.059998 121.500000 -24.959999 
72391596749349 66.059998 121.500000 -24.959999 
72391616749349 66.059998 121.500000 -24.959999 
72391636749349 66.059998 121.500000 -24.959999 
72391656749349 66.059998 121.500000 -24.959999 
72391676749349 66.059998 121.500000 -24.959999 
72391696749349 66.059998 121.500000 -24.959999 
72391716749349 66.059998 121.500000 -24.959999 
72391736749349 66.059998 121.500000 -24.959999 
72391756749349 66.059998 121.500000 -24.959999 
72391776749349 66.059998 121.500000 -24.959999 
72391796749349 66.059998 121.500000 -24.959999 
72391816749349 66.059998 121.500000 -24.959999 
72391836749349 66.059998 121.500000 -24.959999 
72391856749349 66.059998 121.500000 -24.959999 
72391876749349 66.059998 121.500000 -24.959999 
72391896749349 66.059998 121.500000 -24.959999 
72391916749349 66.059998 121.500000 -24.959999 
72391936749349 66.059998 121.500000 -24.959999 
72391956749349 66.059998 121.500000 -24.959999 
72391976749349 66.059998 121.500000 -24.959999 
72391996749349 66.059998 121.500000 -24.959999 
72392016749349 66.059998 121.500000 -24.959999 
72392036749349 66.059998 121.500000 -24.959999 
72392056749349 66.059998 121.500000 -24.959999 
72392076749349 66.059998 121.500000 -24.959999 
72392096749349 66.059998 121.500000 -24.959999 
72392116749349 66.059998 121.500000 -24.959999 
72392136749349 66.059998 121.500000 -24.959999 
72392156749349 66.059998 121.500000 -24.959999 
72392176749349 66.059998 121.500000 -24.959999 
72392196749349 66.059998 121.500000 -24.959999 
72392216749349 66.059998 121.500000 -24.959999 
72392236749349 66.059998 121.500000 -24.959999 
72392256749349 66.059998 121.500000 -24.959999 
72392276749349 66.059998 121.500000 -24.959999 
72392296749349 66.059998 121.500000 -24.959999 
72392316749349 66.059998 121.500000 -24.959999 
72392336749349 66.059998 121.500000 -24.959999 
72392356749349 66.059998 121.500000 -24.959999 
72392376749349 66.059998 121.500000 -24.959999 
72392396749349 66.059998 121.500000 -24.959999 
72392416749349 66.059998 121.500000 -24.959999 
72392436749349 66.059998 121.500000 -24.959999 
72392456749349 66.059998 121.500000 -24.959999 
72392476749349 66.059998 121.500000 -24.959999 
72392496749349 66.059998 121.500000 -24.959999 
72392516749349 66.059998 121.500000 -24.959999 
72392536749349 66.059998 121.500000 -24.959999 
72392556749349 66.059998 121.500000 -24.959999 
72392576749349 66.059998 121.500000 -24.959999 
72392596749349 66.059998 121.500000 -24.959999 
72392616749349 66.059998 121.500000 -24.959999 
72392636749349 66.059998 121.500000 -24.959999 
72392656749349 66.059998 121.500000 -24.959999 
72392676749349 66.059998 121.500000 -24.959999 
72392696749349 66.059998 121.500000 -24.959999 
72392716749349 66.059998 121.500000 -24.959999 
72392736749349 66.059998 121.500000 -24.959999 
72392756749349 66.059998 121.500000 -24.959999 
72392776749349 66.059998 121.500000 -24.959999 
72392796749349 66.059998 121.500000 -24.959999 
72392816749349 66.059998 121.500000 -24.959999 
72392836749349 66.059998 121.500000 -24.959999 
72392856749349 66.059998 121.500000 -24.959999 
72392876749349 66.059998 121.500000 -24.959999 
72392896749349 66.059998 121.500000 -24.959999 
72392916749349 66.059998 121.500000 -24.959999 
72392936749349 66.059998 121.500000 -24.959999 
72392956749349 66.059998 121.500000 -24.959999 
72392976749349 66.059998 121.500000 -24.959999 
72392996749349 66.059998 121.500000 -24.959999 
72393016749349 66.059998 121.500000 -24.959999 
72393036749349 66.059998 121.500000 -24.959999 
72393056749349 66.059998 121.500000 -24.959999 
72393076749349 66.059998 121.500000 -24.959999 
72393096749349 66.059998 121.500000 -24.959999 
72393116749349 66.059998 121.500000 -24.959999 
72393136749349 66.059998 121.500000 -24.959999 
72393156749349 66.059998 121.500000 -24.959999 
72393176749349 66.059998 121.500000 -24.959999 
72393196749349 66.059998 121.500000 -24.959999 
72393216749349 66.059998 121.500000 -24.959999 
72393236749349 66.119995 121.439995 -25.139999 
72393256749349 66.119995 121.439995 -25.139999 
72393276749349 66.119995 121.439995 -25.139999 
72393296749349 66.119995 121.439995 -25.139999 
72393316749349 66.119995 121.439995 -25.139999 
72393336749349 66.119995 121.439995 -25.139999 
72393356749349 66.119995 121.439995 -25.139999 
72393376749349 66.119995 121.439995 -25.139999 
72393396749349 66.119995 121.439995 -25.139999 
72393416749349 66.119995 121.439995 -25.139999 
72393436749349 66.119995 121.439995 -25.139999 
72393456749349 66.119995 121.439995 -25.139999 
72393476749349 66.119995 121.439995 -25.139999 
72393496749349 66.119995 121.439995 -25.139999 
72393516749349 66.119995 121.439995 -25.139999 
72393536749349 66.119995 121.439995 -25.139999 
72393556749349 66.119995 121.439995 -25.139999 
72393576749349 66.119995 121.439995 -25.139999 
72393596749349 66.119995 121.439995 -25.139999 
72393616749349 66.119995 121.439995 -25.139999 
72393636749349 66.119995 121.439995 -25.139999 
72393656749349 66.119995 121.439995 -25.139999 
72393676749349 66.119995 121.439995 -25.139999 
72393696749349 66.119995 121.439995 -25.139999 
72393716749349 66.119995 121.439995 -25.139999 
72393736749349 66.119995 121.439995 -25.139999 
72393756749349 66.119995 121.439995 -25.139999 
72393776749349 66.119995 121.439995 -25.139999 
72393796749349 66.119995 121.439995 -25.139999 
72393816749349 66.119995 121.439995 -25.139999 
72393836749349 66.119995 121.439995 -25.139999 
72393856749349 66.119995 121.439995 -25.139999 
72393876749349 66.119995 121.439995 -25.139999 
72393896749349 66.119995 121.439995 -25.139999 
72393916749349 66.119995 121.439995 -25.139999 
72393936749349 66.119995 121.439995 -25.139999 
72393956749349 66.119995 121.439995 -25.139999 
72393976749349 66.119995 121.439995 -25.139999 
72393996749349 66.119995 121.439995 -25.139999 
72394016749349 66.119995 121.439995 -25.139999 
72394036749349 66.119995 121.439995 -25.139999 
72394056749349 66.119995 121.439995 -25.139999 
72394076749349 66.119995 121.439995 -25.139999 
72394096749349 66.119995 121.439995 -25.139999 
72394116749349 66.119995 121.439995 -25.139999 
72394136749349 66.119995 121.439995 -25.139999 
72394156749349 66.119995 121.439995 -25.139999 
72394176749349 66.119995 121.439995 -25.139999 
72394196749349 66.119995 121.439995 -25.139999 
72394216749349 66.119995 121.439995 -25.139999 
72394236749349 66.119995 121.439995 -25.139999 
72394256749349 66.119995 121.439995 -25.139999 
72394276749349 66.119995 121.439995 -25.139999 
72394296749349 66.119995 121.439995 -25.139999 
72394316749349 66.119995 121.439995 -25.139999 
72394336749349 66.119995 121.439995 -25.139999 
72394356749349 66.119995 121.439995 -25.139999 
72394376749349 66.119995 121.439995 -25.139999 
72394396749349 66.119995 121.439995 -25.139999 
72394416749349 66.119995 121.439995 -25.139999 
72394436749349 66.119995 121.439995 -25.139999 
72394456749349 66.119995 121.439995 -25.139999 
72394476749349 66.119995 121.439995 -25.139999 
72394496749349 66.119995 121.439995 -25.139999 
72394516749349 66.119995 121.439995 -25.139999 
72394536749349 66.119995 121.439995 -25.139999 
72394556749349 66.119995 121.439995 -25.139999 
72394576749349 66.119995 121.439995 -25.139999 
72394596749349 66.119995 121.439995 -25.139999 
72394616749349 66.119995 121.439995 -25.139999 
72394636749349 66.119995 121.439995 -25.139999 
72394656749349 66.119995 121.439995 -25.139999 
72394676749349 66.119995 121.439995 -25.139999 
72394696749349 66.119995 121.439995 -25.139999 
72394716749349 66.119995 121.439995 -25.139999 
72394736749349 66.119995 121.439995 -25.139999 
72394756749349 66.119995 121.439995 -25.139999 
72394776749349 66.119995 121.439995 -25.139999 
72394796749349 66.119995 121.439995 -25.139999 
72394816749349 66.119995 121.439995 -25.139999 
72394836749349 66.119995 121.439995 -25.139999 
72394856749349 66.119995 121.439995 -25.139999 
72394876749349 66.119995 121.439995 -25.139999 
72394896749349 66.119995 121.439995 -25.139999 
72394916749349 66.119995 121.439995 -25.139999 
72394936749349 66.119995 121.439995 -25.139999 
72394956749349 66.119995 121.439995 -25.139999 
72394976749349 66.119995 121.439995 -25.139999 
72394996749349 66.119995 121.439995 -25.139999 
72395016749349 66.119995 121.439995 -25.139999 
72395036749349 66.119995 121.439995 -25.139999 
72395056749349 66.119995 121.439995 -25.139999 
72395076749349 66.119995 121.439995 -25.139999 
72395096749349 66.119995 121.439995 -25.139999 
72395116749349 66.119995 121.439995 -25.139999 
72395136749349 66.119995 121.439995 -25.139999 
72395156749349 66.119995 121.439995 -25.139999 
72395176749349 66.119995 121.439995 -25.139999 
72395196749349 66.119995 121.439995 -25.139999 
72395216749349 66.119995 121.439995 -25.139999 
72395236749349 66.119995 121.439995 -25.139999 
72395256749349 66.119995 121.439995 -25.139999 
72395276749349 66.119995 121.439995 -25.139999 
72395296749349 66.119995 121.439995 -25.139999 
72395316749349 66.119995 121.439995 -25.139999 
72395336749349 66.119995 121.439995 -25.139999 
72395356749349 66.119995 121.439995 -25.139999 
72395376749349 66.119995 121.439995 -25.139999 
72395396749349 66.119995 121.439995 -25.139999 
72395416749349 66.119995 121.439995 -25.139999 
72395436749349 66.180000 121.619995 -25.139999 
72395456749349 66.180000 121.619995 -25.139999 
72395476749349 66.180000 121.619995 -25.139999 
72395496749349 66.180000 121.619995 -25.139999 
72395516749349 66.180000 121.619995 -25.139999 
72395536749349 66.180000 121.619995 -25.139999 
72395556749349 66.180000 121.619995 -25.139999 
72395576749349 66.180000 121.619995 -25.139999 
72395596749349 66.180000 121.619995 -25.139999 
72395616749349 66.180000 121.619995 -25.139999 
72395636749349 66.180000 121.619995 -25.139999 
72395656749349 66.180000 121.619995 -25.139999 
72395676749349 66.180000 121.619995 -25.139999 
72395696749349 66.180000 121.619995 -25.139999 
72395716749349 66.180000 121.619995 -25.139999 
72395736749349 66.180000 121.619995 -25.139999 
72395756749349 66.180000 121.619995 -25.139999 
72395776749349 66.180000 121.619995 -25.139999 
72395796749349 66.180000 121.619995 -25.139999 
72395816749349 66.180000 121.619995 -25.139999 
72395836749349 66.180000 121.619995 -25.139999 
72395856749349 66.180000 121.619995 -25.139999 
72395876749349 66.180000 121.619995 -25.139999 
72395896749349 66.180000 121.619995 -25.139999 
72395916749349 66.180000 121.619995 -25.139999 
72395936749349 66.180000 121.619995 -25.139999 
72395956749349 66.180000 121.619995 -25.139999 
72395976749349 66.180000 121.619995 -25.139999 
72395996749349 66.180000 121.619995 -25.139999 
72396016749349 66.180000 121.619995 -25.139999 
72396036749349 66.180000 121.619995 -25.139999 
72396056749349 66.180000 121.619995 -25.139999 
72396076749349 66.180000 121.619995 -25.139999 
72396096749349 66.180000 121.619995 -25.139999 
72396116749349 66.180000 121.619995 -25.139999 
72396136749349 66.180000 121.619995 -25.139999 
72396156749349 66.180000 121.619995 -25.139999 
72396176749349 66.180000 121.619995 -25.139999 
72396196749349 66.180000 121.619995 -25.139999 
72396216749349 66.180000 121.619995 -25.139999 
72396236749349 66.180000 121.619995 -25.139999 
72396256749349 66.180000 121.619995 -25.139999 
72396276749349 66.180000 121.619995 -25.139999 
72396296749349 66.180000 121.619995 -25.139999 
72396316749349 66.180000 121.619995 -25.139999 
72396336749349 66.180000 121.619995 -25.139999 
72396356749349 66.180000 121.619995 -25.139999 
72396376749349 66.180000 121.619995 -25.139999 
72396396749349 66.180000 121.619995 -25.139999 
72396416749349 66.180000 121.619995 -25.139999 
72396436749349 66.180000 121.619995 -25.139999 
72396456749349 66.180000 121.619995 -25.139999 
72396476749349 66.180000 121.619995 -25.139999 
72396496749349 66.180000 121.619995 -25.139999 
72396516749349 66.180000 121.619995 -25.139999 
72396536749349 66.180000 121.619995 -25.139999 
72396556749349 66.180000 121.619995 -25.139999 
72396576749349 66.180000 121.619995 -25.139999 
72396596749349 66.180000 121.619995 -25.139999 
72396616749349 66.180000 121.619995 -25.139999 
72396636749349 66.180000 121.619995 -25.139999 
72396656749349 66.180000 121.619995 -25.139999 
72396676749349 66.180000 121.619995 -25.139999 
72396696749349 66.180000 121.619995 -25.139999 
72396716749349 66.180000 121.619995 -25.139999 
72396736749349 66.180000 121.619995 -25.139999 
72396756749349 66.180000 121.619995 -25.139999 
72396776749349 66.180000 121.619995 -25.139999 
72396796749349 66.180000 121.619995 -25.139999 
72396816749349 66.180000 121.619995 -25.139999 
72396836749349 66.180000 121.619995 -25.139999 
72396856749349 66.180000 121.619995 -25.139999 
72396876749349 66.180000 121.619995 -25.139999 
72396896749349 66.180000 121.619995 -25.139999 
72396916749349 66.180000 121.619995 -25.139999 
72396936749349 66.180000 121.619995 -25.139999 
72396956749349 66.180000 121.619995 -25.139999 
72396976749349 66.180000 121.619995 -25.139999 
72396996749349 66.180000 121.619995 -25.139999 
72397016749349 66.180000 121.619995 -25.139999 
72397036749349 66.180000 121.619995 -25.139999 
72397056749349 66.180000 121.619995 -25.139999 
72397076749349 66.180000 121.619995 -25.139999 
72397096749349 66.180000 121.619995 -25.139999 
72397116749349 66.180000 121.619995 -25.139999 
72397136749349 66.180000 121.619995 -25.139999 
72397156749349 66.180000 121.619995 -25.139999 
72397176749349 66.180000 121.619995 -25.139999 
72397196749349 66.180000 121.619995 -25.139999 
72397216749349 66.180000 121.619995 -25.139999 
72397236749349 66.180000 121.619995 -25.139999 
72397256749349 66.180000 121.619995 -25.139999 
72397276749349 66.180000 121.619995 -25.139999 
72397296749349 66.180000 121.619995 -25.139999 
72397316749349 66.180000 121.619995 -25.139999 
72397336749349 66.180000 121.619995 -25.139999 
72397356749349 66.180000 121.619995 -25.139999 
72397376749349 66.180000 121.619995 -25.139999 
72397396749349 66.180000 121.619995 -25.139999 
72397416749349 66.180000 121.619995 -25.139999 
72397436749349 66.180000 121.619995 -25.139999 
72397456749349 66.180000 121.619995 -25.139999 
72397476749349 66.180000 121.619995 -25.139999 
72397496749349 66.180000 121.619995 -25.139999 
72397516749349 66.180000 121.619995 -25.139999 
72397536749349 66.180000 121.619995 -25.139999 
72397556749349 66.180000 121.619995 -25.139999 
72397576749349 66.180000 121.619995 -25.139999 
72397596749349 66.180000 121.619995 -25.139999 
72397616749349 66.180000 121.619995 -25.139999 
72397636749349 66.180000 121.619995 -25.139999 
72397656749349 66.180000 121.619995 -25.139999 
72397676749349 66.180000 121.619995 -25.139999 
72397696749349 66.180000 121.619995 -25.139999 
72397716749349 66.180000 121.619995 -25.139999 
72397736749349 66.180000 121.619995 -25.139999 
72397756749349 66.180000 121.619995 -25.139999 
72397776749349 66.180000 121.619995 -25.139999 
72397796749349 66.180000 121.619995 -25.139999 
72397816749349 66.180000 121.619995 -25.139999 
72397836749349 66.180000 121.619995 -25.139999 
72397856749349 66.180000 121.619995 -25.139999 
72397876749349 66.180000 121.619995 -25.139999 
72397896749349 66.180000 121.619995 -25.139999 
72397916749349 66.180000 121.619995 -25.139999 
72397936749349 66.180000 121.619995 -25.139999 
72397956749349 66.180000 121.619995 -25.139999 
72397976749349 66.180000 121.619995 -25.139999 
72397996749349 66.180000 121.619995 -25.139999 
72398016749349 66.180000 121.619995 -25.139999 
72398036749349 66.180000 121.619995 -25.139999 
72398056749349 66.180000 121.619995 -25.139999 
72398076749349 66.180000 121.619995 -25.139999 
72398096749349 66.180000 121.619995 -25.139999 
72398116749349 66.180000 121.619995 -25.139999 
72398136749349 66.180000 121.619995 -25.139999 
72398156749349 66.180000 121.619995 -25.139999 
72398176749349 66.180000 121.619995 -25.139999 
72398196749349 66.180000 121.619995 -25.139999 
72398216749349 66.180000 121.619995 -25.139999 
72398236749349 66.180000 121.619995 -25.139999 
72398256749349 66.180000 121.619995 -25.139999 
72398276749349 66.180000 121.799995 -24.959999 
72398296749349 66.180000 121.799995 -24.959999 
72398316749349 66.180000 121.799995 -24.959999 
72398336749349 66.180000 121.799995 -24.959999 
72398356749349 66.180000 121.799995 -24.959999 
72398376749349 66.180000 121.799995 -24.959999 
72398396749349 66.180000 121.799995 -24.959999 
72398416749349 66.180000 121.799995 -24.959999 
72398436749349 66.180000 121.799995 -24.959999 
72398456749349 66.180000 121.799995 -24.959999 
72398476749349 66.180000 121.799995 -24.959999 
72398496749349 66.180000 121.799995 -24.959999 
72398516749349 66.180000 121.799995 -24.959999 
72398536749349 66.180000 121.799995 -24.959999 
72398556749349 66.180000 121.799995 -24.959999 
72398576749349 66.180000 121.799995 -24.959999 
72398596749349 66.180000 121.799995 -24.959999 
72398616749349 66.180000 121.799995 -24.959999 
72398636749349 66.180000 121.799995 -24.959999 
72398656749349 66.180000 121.799995 -24.959999 
72398676749349 66.180000 121.799995 -24.959999 
72398696749349 66.180000 121.799995 -24.959999 
72398716749349 66.180000 121.799995 -24.959999 
72398736749349 66.180000 121.799995 -24.959999 
72398756749349 66.180000 121.799995 -24.959999 
72398776749349 66.180000 121.799995 -24.959999 
72398796749349 66.180000 121.799995 -24.959999 
72398816749349 66.180000 121.799995 -24.959999 
72398836749349 66.180000 121.799995 -24.959999 
72398856749349 66.180000 121.799995 -24.959999 
72398876749349 66.180000 121.799995 -24.959999 
72398896749349 66.180000 121.799995 -24.959999 
72398916749349 66.180000 121.799995 -24.959999 
72398936749349 66.180000 121.799995 -24.959999 
72398956749349 66.180000 121.799995 -24.959999 
72398976749349 66.180000 121.799995 -24.959999 
72398996749349 66.180000 121.799995 -24.959999 
72399016749349 66.180000 121.799995 -24.959999 
72399036749349 66.180000 121.799995 -24.959999 
72399056749349 66.180000 121.799995 -24.959999 
72399076749349 66.180000 121.799995 -24.959999 
72399096749349 66.180000 121.799995 -24.959999 
72399116749349 66.180000 121.799995 -24.959999 
72399136749349 66.180000 121.799995 -24.959999 
72399156749349 66.180000 121.799995 -24.959999 
72399176749349 66.180000 121.799995 -24.959999 
72399196749349 66.180000 121.799995 -24.959999 
72399216749349 66.180000 121.799995 -24.959999 
72399236749349 66.180000 121.799995 -24.959999 
72399256749349 66.180000 121.799995 -24.959999 
72399276749349 66.180000 121.799995 -24.959999 
72399296749349 66.180000 121.799995 -24.959999 
72399316749349 66.180000 121.799995 -24.959999 
72399336749349 66.180000 121.799995 -24.959999 
72399356749349 66.180000 121.799995 -24.959999 
72399376749349 66.180000 121.799995 -24.959999 
72399396749349 66.180000 121.799995 -24.959999 
72399416749349 66.180000 121.799995 -24.959999 
72399436749349 66.180000 121.799995 -24.959999 
72399456749349 66.180000 121.799995 -24.959999 
72399476749349 66.180000 121.799995 -25.199999 
72399496749349 66.180000 121.799995 -25.199999 
72399516749349 66.180000 121.799995 -25.199999 
72399536749349 66.180000 121.799995 -25.199999 
72399556749349 66.180000 121.799995 -25.199999 
72399576749349 66.180000 121.799995 -25.199999 
72399596749349 66.180000 121.799995 -25.199999 
72399616749349 66.180000 121.799995 -25.199999 
72399636749349 66.180000 121.799995 -25.199999 
72399656749349 66.180000 121.799995 -25.199999 
72399676749349 66.180000 121.799995 -25.199999 
72399696749349 66.180000 121.799995 -25.199999 
72399716749349 66.180000 121.799995 -25.199999 
72399736749349 66.180000 121.799995 -25.199999 
72399756749349 66.180000 121.799995 -25.199999 
72399776749349 66.180000 121.799995 -25.199999 
72399796749349 66.180000 121.799995 -25.199999 
72399816749349 66.180000 121.799995 -25.199999 
72399836749349 66.180000 121.799995 -25.199999 
72399856749349 66.180000 121.799995 -25.199999 
72399876749349 66.180000 121.799995 -25.199999 
72399896749349 66.180000 121.799995 -25.199999 
72399916749349 66.180000 121.799995 -25.199999 
72399936749349 66.180000 121.799995 -25.199999 
72399956749349 66.180000 121.799995 -25.199999 
72399976749349 66.180000 121.799995 -25.199999 
72399996749349 66.180000 121.799995 -25.199999 
72400016749349 66.180000 121.799995 -25.199999 
72400036749349 66.180000 121.799995 -25.199999 
72400056749349 66.180000 121.799995 -25.199999 
72400076749349 66.180000 121.680000 -25.379999 
72400096749349 66.180000 121.680000 -25.379999 
72400116749349 66.180000 121.680000 -25.379999 
72400136749349 66.180000 121.680000 -25.379999 
72400156749349 66.180000 121.680000 -25.379999 
72400176749349 66.180000 121.680000 -25.379999 
72400196749349 66.180000 121.680000 -25.379999 
72400216749349 66.180000 121.680000 -25.379999 
72400236749349 66.180000 121.680000 -25.379999 
72400256749349 66.180000 121.680000 -25.379999 
72400276749349 66.180000 121.680000 -25.379999 
72400296749349 66.180000 121.680000 -25.379999 
72400316749349 66.180000 121.680000 -25.379999 
72400336749349 66.180000 121.680000 -25.379999 
72400356749349 66.180000 121.680000 -25.379999 
72400376749349 66.180000 121.680000 -25.379999 
72400396749349 66.180000 121.680000 -25.379999 
72400416749349 66.180000 121.680000 -25.379999 
72400436749349 66.180000 121.680000 -25.379999 
72400456749349 66.180000 121.680000 -25.379999 
72400476749349 66.180000 121.680000 -25.379999 
72400496749349 66.180000 121.680000 -25.379999 
72400516749349 66.180000 121.680000 -25.379999 
72400536749349 66.180000 121.680000 -25.379999 
72400556749349 66.180000 121.680000 -25.379999 
72400576749349 66.180000 121.680000 -25.379999 
72400596749349 66.180000 121.680000 -25.379999 
72400616749349 66.180000 121.680000 -25.379999 
72400636749349 66.180000 121.680000 -25.379999 
72400656749349 66.180000 121.680000 -25.379999 
72400676749349 66.180000 121.680000 -25.379999 
72400696749349 66.180000 121.680000 -25.379999 
72400716749349 66.180000 121.680000 -25.379999 
72400736749349 66.180000 121.680000 -25.379999 
72400756749349 66.180000 121.680000 -25.379999 
72400776749349 66.180000 121.680000 -25.379999 
72400796749349 66.180000 121.680000 -25.379999 
72400816749349 66.180000 121.680000 -25.379999 
72400836749349 66.180000 121.680000 -25.379999 
72400856749349 66.180000 121.680000 -25.379999 
72400876749349 66.180000 121.680000 -25.379999 
72400896749349 66.180000 121.680000 -25.379999 
72400916749349 66.180000 121.680000 -25.379999 
72400936749349 66.180000 121.680000 -25.379999 
72400956749349 66.180000 121.680000 -25.379999 
72400976749349 66.180000 121.680000 -25.379999 
72400996749349 66.180000 121.680000 -25.379999 
72401016749349 66.180000 121.680000 -25.379999 
72401036749349 66.180000 121.680000 -25.379999 
72401056749349 66.180000 121.680000 -25.379999 
72401076749349 66.180000 121.680000 -25.379999 
72401096749349 66.180000 121.680000 -25.379999 
72401116749349 66.180000 121.680000 -25.379999 
72401136749349 66.180000 121.680000 -25.379999 
72401156749349 66.180000 121.680000 -25.379999 
72401176749349 66.180000 121.680000 -25.379999 
72401196749349 66.180000 121.680000 -25.379999 
72401216749349 66.180000 121.680000 -25.379999 
72401236749349 66.180000 121.860001 -25.500000 
72401256749349 66.180000 121.860001 -25.500000 
72401276749349 66.180000 121.860001 -25.500000 
72401296749349 66.180000 121.860001 -25.500000 
72401316749349 66.180000 121.860001 -25.500000 
72401336749349 66.180000 121.860001 -25.500000 
72401356749349 66.180000 121.860001 -25.500000 
72401376750784 66.180000 121.860001 -25.500000 
72401396750784 66.180000 121.860001 -25.500000 
72401416750784 66.180000 121.860001 -25.500000 
72401436750784 66.180000 121.860001 -25.500000 
72401456750784 66.180000 121.860001 -25.500000 
72401476750784 66.180000 121.860001 -25.500000 
72401496750784 66.180000 121.860001 -25.500000 
72401516750784 66.180000 121.860001 -25.500000 
72401536750784 66.180000 121.860001 -25.500000 
72401556750784 66.180000 121.860001 -25.500000 
72401576750784 66.180000 121.860001 -25.500000 
72401596750784 66.180000 121.860001 -25.500000 
72401616750784 66.180000 121.860001 -25.500000 
72401636750784 66.180000 121.860001 -25.500000 
72401656750784 66.180000 121.860001 -25.500000 
72401676750784 66.180000 121.860001 -25.500000 
72401696750784 66.180000 121.860001 -25.500000 
72401716750784 66.180000 121.860001 -25.500000 
72401736750784 66.180000 121.860001 -25.500000 
72401756750784 66.180000 121.860001 -25.500000 
72401776750784 66.180000 121.860001 -25.500000 
72401796750784 66.180000 121.799995 -25.320000 
72401816750784 66.180000 121.799995 -25.320000 
72401836750784 66.180000 121.799995 -25.320000 
72401856750784 66.180000 121.799995 -25.320000 
72401876750784 66.180000 121.799995 -25.320000 
72401896750784 66.180000 121.799995 -25.320000 
72401916750784 66.180000 121.799995 -25.320000 
72401936750784 66.180000 121.799995 -25.320000 
72401956750784 66.180000 121.799995 -25.320000 
72401976750784 66.180000 121.799995 -25.320000 
72401996750784 66.180000 121.799995 -25.320000 
72402016750784 66.180000 121.799995 -25.320000 
72402036750784 66.180000 121.799995 -25.320000 
72402056750784 66.180000 121.799995 -25.320000 
72402076750784 66.180000 121.799995 -25.320000 
72402096750784 66.180000 121.799995 -25.320000 
72402116750784 66.180000 121.799995 -25.320000 
72402136750784 66.180000 121.799995 -25.320000 
72402156750784 66.180000 121.799995 -25.320000 
72402176750784 66.180000 121.799995 -25.320000 
72402196750784 66.180000 121.799995 -25.320000 
72402216750784 66.180000 121.799995 -25.320000 
72402236750784 66.180000 121.799995 -25.320000 
72402256750784 66.180000 121.799995 -25.320000 
72402276750784 66.180000 121.799995 -25.320000 
72402296750784 66.180000 121.799995 -25.320000 
72402316750784 66.180000 121.799995 -25.320000 
72402336750784 66.180000 121.799995 -25.320000 
72402356750784 66.180000 121.799995 -25.320000 
72402376750784 66.180000 121.799995 -25.320000 
72402396750784 66.180000 121.799995 -25.320000 
72402416750784 66.180000 121.799995 -25.320000 
72402436750784 66.180000 121.799995 -25.320000 
72402456750784 66.180000 121.799995 -25.320000 
72402476750784 66.180000 121.799995 -25.320000 
72402496750784 66.180000 121.799995 -25.320000 
72402516750784 66.180000 121.799995 -25.320000 
72402536750784 66.180000 121.799995 -25.320000 
72402556750784 66.180000 121.799995 -25.320000 
72402576750784 66.180000 121.799995 -25.320000 
72402596750784 66.180000 121.799995 -25.320000 
72402616750784 66.180000 121.799995 -25.320000 
72402636750784 66.180000 121.799995 -25.320000 
72402656750784 66.180000 121.799995 -25.320000 
72402676750784 66.180000 121.799995 -25.320000 
72402696750784 66.180000 121.799995 -25.320000 
72402716750784 66.180000 121.799995 -25.320000 
72402736750784 66.180000 121.799995 -25.320000 
72402756750784 66.180000 121.799995 -25.320000 
72402776750784 66.180000 121.799995 -25.320000 
72402796750784 66.180000 121.799995 -25.320000 
72402816750784 66.180000 121.799995 -25.320000 
72402836750784 66.180000 121.799995 -25.320000 
72402856750784 66.180000 121.799995 -25.320000 
72402876750784 66.180000 121.799995 -25.320000 
72402896750784 66.180000 121.799995 -25.320000 
72402916750784 66.180000 121.799995 -25.320000 
72402936750784 66.180000 121.799995 -25.320000 
72402956750784 66.180000 121.799995 -25.320000 
72402976750784 66.180000 121.799995 -25.320000 
72402996750784 66.180000 121.860001 -25.080000 
72403016750784 66.180000 121.860001 -25.080000 
72403036750784 66.180000 121.860001 -25.080000 
72403056750784 66.180000 121.860001 -25.080000 
72403076750784 66.180000 121.860001 -25.080000 
72403096750784 66.180000 121.860001 -25.080000 
72403116750784 66.180000 121.860001 -25.080000 
72403136750784 66.180000 121.860001 -25.080000 
72403156750784 66.180000 121.860001 -25.080000 
72403176750784 66.180000 121.860001 -25.080000 
72403196750784 66.180000 121.860001 -25.080000 
72403216750784 66.180000 121.860001 -25.080000 
72403236750784 66.180000 121.860001 -25.080000 
72403256750784 66.180000 121.860001 -25.080000 
72403276750784 66.180000 121.860001 -25.080000 
72403296750784 66.180000 121.860001 -25.080000 
72403316750784 66.180000 121.860001 -25.080000 
72403336750784 66.180000 121.860001 -25.080000 
72403356750784 66.180000 121.860001 -25.080000 
72403376750784 66.180000 121.860001 -25.080000 
72403396750784 66.180000 121.860001 -25.080000 
72403416750784 66.180000 121.860001 -25.080000 
72403436750784 66.180000 121.860001 -25.080000 
72403456750784 66.180000 121.860001 -25.080000 
72403476750784 66.180000 121.860001 -25.080000 
72403496750784 66.180000 121.860001 -25.080000 
72403516750784 66.180000 121.860001 -25.080000 
72403536750784 66.180000 121.860001 -25.080000 
72403556750784 66.180000 121.860001 -25.080000 
72403576750784 66.180000 121.860001 -25.080000 
72403596750784 66.180000 121.860001 -25.080000 
72403616750784 66.180000 121.860001 -25.080000 
72403636750784 66.180000 121.860001 -25.080000 
72403656750784 66.180000 121.860001 -25.080000 
72403676750784 66.180000 121.860001 -25.080000 
72403696750784 66.180000 121.860001 -25.080000 
72403716750784 66.180000 121.860001 -25.080000 
72403736750784 66.180000 121.860001 -25.080000 
72403756750784 66.180000 121.860001 -25.080000 
72403776750784 66.180000 121.860001 -25.080000 
72403796750784 66.180000 121.860001 -25.080000 
72403816750784 66.180000 121.860001 -25.080000 
72403836750784 66.180000 121.860001 -25.080000 
72403856750784 66.180000 121.860001 -25.080000 
72403876750784 66.180000 121.860001 -25.080000 
72403896750784 66.180000 121.860001 -25.080000 
72403916750784 66.180000 121.860001 -25.080000 
72403936750784 66.180000 121.860001 -25.080000 
72403956750784 66.180000 121.860001 -25.080000 
72403976750784 66.180000 121.860001 -25.080000 
72403996750784 66.180000 121.860001 -25.080000 
72404016750784 66.180000 121.860001 -25.080000 
72404036750784 66.180000 121.860001 -25.080000 
72404056750784 66.180000 121.860001 -25.080000 
72404076750784 66.180000 121.860001 -25.080000 
72404096750784 66.180000 121.860001 -25.080000 
72404116750784 66.180000 121.860001 -25.080000 
72404136750784 66.180000 121.860001 -25.080000 
72404156750784 66.180000 121.860001 -25.080000 
72404176750784 66.180000 121.860001 -25.080000 
72404196750784 66.180000 121.860001 -25.080000 
72404216750784 66.180000 121.860001 -25.080000 
72404236750784 66.180000 121.860001 -25.080000 
72404256750784 66.180000 121.860001 -25.080000 
72404276750784 66.180000 121.860001 -25.080000 
72404296750784 66.180000 121.860001 -25.080000 
72404316750784 66.180000 121.860001 -25.080000 
72404336750784 66.180000 121.860001 -25.080000 
72404356750784 66.180000 121.860001 -25.080000 
72404376750784 66.180000 121.860001 -25.080000 
72404396750784 66.180000 121.860001 -25.080000 
72404416750784 66.180000 121.860001 -25.080000 
72404436750784 66.180000 121.860001 -25.080000 
72404456750784 66.180000 121.860001 -25.080000 
72404476750784 66.180000 121.860001 -25.080000 
72404496750784 66.180000 121.860001 -25.080000 
72404516750784 66.180000 121.860001 -25.080000 
72404536750784 66.180000 121.860001 -25.080000 
72404556750784 66.180000 121.860001 -25.080000 
72404576750784 66.180000 121.860001 -25.080000 
72404596750784 66.180000 121.860001 -25.080000 
72404616750784 66.180000 121.860001 -25.080000 
72404636750784 66.180000 121.860001 -25.080000 
72404656750784 66.180000 121.860001 -25.080000 
72404676750784 66.180000 121.860001 -25.080000 
72404696750784 66.180000 121.860001 -25.080000 
72404716750784 66.180000 121.860001 -25.080000 
72404736750784 66.180000 121.860001 -25.080000 
72404756750784 66.180000 121.860001 -25.080000 
72404776750784 66.180000 121.860001 -25.080000 
72404796750784 66.180000 121.860001 -25.080000 
72404816750784 66.180000 121.860001 -25.080000 
72404836750784 66.180000 121.860001 -25.080000 
72404856750784 66.180000 121.860001 -25.080000 
72404876750784 66.180000 121.860001 -25.080000 
72404896750784 66.180000 121.860001 -25.080000 
72404916750784 66.180000 121.860001 -25.080000 
72404936750784 66.180000 121.860001 -25.080000 
72404956750784 66.180000 121.860001 -25.080000 
72404976750784 66.180000 121.860001 -25.080000 
72404996750784 66.180000 121.860001 -25.080000 
72405016750784 66.180000 121.860001 -25.080000 
72405036750784 66.180000 121.860001 -25.080000 
72405056750784 66.180000 121.860001 -25.080000 
72405076750784 66.180000 121.860001 -25.080000 
72405096750784 66.180000 121.860001 -25.080000 
72405116750784 66.180000 121.860001 -25.080000 
72405136750784 66.180000 121.860001 -25.080000 
72405156750784 66.180000 121.860001 -25.080000 
72405176750784 66.180000 121.860001 -25.080000 
72405196750784 66.180000 121.860001 -25.080000 
72405216750784 66.180000 121.860001 -25.080000 
72405236750784 66.180000 121.860001 -25.080000 
72405256750784 66.180000 121.860001 -25.080000 
72405276750784 66.180000 121.860001 -25.080000 
72405296750784 66.180000 121.860001 -25.080000 
72405316750784 66.180000 121.860001 -25.080000 
72405336750784 66.180000 121.860001 -25.080000 
72405356750784 66.180000 121.860001 -25.080000 
72405376750784 66.180000 121.860001 -25.080000 
72405396750784 66.180000 121.860001 -25.080000 
72405416750784 66.180000 121.860001 -25.080000 
72405436750784 66.180000 121.860001 -25.080000 
72405456750784 66.180000 121.860001 -25.080000 
72405476750784 66.180000 121.860001 -25.080000 
72405496750784 66.180000 121.860001 -25.080000 
72405516750784 66.180000 121.860001 -25.080000 
72405536750784 66.180000 121.860001 -25.080000 
72405556750784 66.180000 121.860001 -25.080000 
72405576750784 66.180000 121.860001 -25.080000 
72405596750784 66.180000 121.860001 -25.080000 
72405616750784 66.180000 121.860001 -25.080000 
72405636750784 66.180000 121.860001 -25.080000 
72405656750784 66.180000 121.860001 -25.080000 
72405676750784 66.180000 121.860001 -25.080000 
72405696750784 66.180000 121.860001 -25.080000 
72405716750784 66.180000 121.860001 -25.080000 
72405736750784 66.180000 121.860001 -25.080000 
72405756750784 66.180000 121.860001 -25.080000 
72405776750784 66.180000 121.860001 -25.080000 
72405796750784 66.180000 121.860001 -25.080000 
72405816750784 66.180000 121.860001 -25.080000 
72405836750784 66.180000 121.860001 -25.080000 
72405856750784 66.180000 121.860001 -25.080000 
72405876750784 66.180000 121.860001 -25.080000 
72405896750784 66.180000 121.860001 -25.080000 
72405916750784 66.180000 121.860001 -25.080000 
72405936750784 66.180000 121.860001 -25.080000 
72405956750784 66.180000 121.860001 -25.080000 
72405976750784 66.180000 121.860001 -25.080000 
72405996750784 66.180000 121.860001 -25.080000 
72406016750784 66.180000 121.860001 -25.080000 
72406036750784 66.180000 121.860001 -25.080000 
72406056750784 66.180000 121.860001 -25.080000 
72406076750784 66.180000 121.860001 -25.080000 
72406096750784 66.180000 121.860001 -25.080000 
72406116750784 66.180000 121.860001 -25.080000 
72406136750784 66.180000 121.860001 -25.080000 
72406156750784 66.180000 121.860001 -25.080000 
72406176750784 66.180000 121.860001 -25.080000 
72406196750784 66.180000 121.860001 -25.080000 
72406216750784 66.180000 121.860001 -25.080000 
72406236750784 66.059998 121.619995 -25.740000 
72406256750784 66.059998 121.619995 -25.740000 
72406276750784 66.059998 121.619995 -25.740000 
72406296750784 66.059998 121.619995 -25.740000 
72406316750784 66.059998 121.619995 -25.740000 
72406336750784 66.059998 121.619995 -25.740000 
72406356750784 66.059998 121.619995 -25.740000 
72406376750784 66.059998 121.619995 -25.740000 
72406396750784 66.059998 121.739998 -26.459999 
72406416750784 66.059998 121.739998 -26.459999 
72406436750784 66.059998 121.739998 -26.459999 
72406456750784 66.059998 121.739998 -26.459999 
72406476750784 66.059998 121.739998 -26.459999 
72406496750784 66.059998 121.739998 -26.459999 
72406516750784 66.180000 122.040001 -27.000000 
72406536750784 66.180000 122.040001 -27.000000 
72406556750784 66.180000 122.040001 -27.000000 
72406576750784 66.180000 122.040001 -27.000000 
72406596750784 66.180000 122.040001 -27.000000 
72406616750784 66.180000 122.040001 -27.000000 
72406636750784 66.180000 122.040001 -27.000000 
72406656750784 66.180000 122.040001 -27.000000 
72406676750784 66.180000 122.040001 -27.000000 
72406696750784 66.180000 122.040001 -27.000000 
72406716750784 66.180000 122.040001 -27.000000 
72406736750784 66.180000 122.040001 -27.000000 
72406756750784 66.180000 122.040001 -27.000000 
72406776750784 66.180000 122.040001 -27.000000 
72406796750784 66.180000 122.040001 -27.000000 
72406816750784 66.180000 122.040001 -27.000000 
72406836750784 66.180000 122.040001 -27.000000 
72406856750784 66.180000 122.040001 -27.000000 
72406876750784 66.180000 122.040001 -27.000000 
72406896750784 66.180000 122.040001 -27.000000 
72406916750784 66.180000 122.040001 -27.000000 
72406936750784 66.180000 122.040001 -27.000000 
72406956750784 66.180000 122.040001 -27.000000 
72406976750784 66.180000 122.040001 -27.000000 
72406996750784 66.180000 122.040001 -27.000000 
72407016750784 66.180000 122.040001 -27.000000 
72407036750784 66.180000 122.040001 -27.000000 
72407056750784 66.180000 122.040001 -27.000000 
72407076750784 66.180000 122.040001 -27.000000 
72407096750784 66.180000 122.040001 -27.000000 
72407116750784 66.180000 122.040001 -27.000000 
72407136750784 66.180000 122.040001 -27.000000 
72407156750784 66.180000 122.040001 -27.000000 
72407176750784 66.180000 122.040001 -27.000000 
72407196750784 66.180000 122.040001 -27.000000 
72407216750784 66.180000 122.040001 -27.000000 
72407236750784 66.180000 122.040001 -27.000000 
72407256750784 66.180000 122.040001 -27.000000 
72407276750784 66.180000 122.040001 -27.000000 
72407296750784 66.180000 122.040001 -27.000000 
72407316750784 66.180000 122.040001 -27.000000 
72407336750784 66.180000 122.040001 -27.000000 
72407356750784 66.180000 122.040001 -27.000000 
72407376750784 66.180000 122.040001 -27.000000 
72407396750784 66.180000 122.040001 -27.000000 
72407416750784 66.180000 122.040001 -27.000000 
72407436750784 66.180000 122.040001 -27.000000 
72407456750784 66.180000 122.040001 -27.000000 
72407476750784 66.180000 122.040001 -27.000000 
72407496750784 66.180000 122.040001 -27.000000 
72407516750784 66.180000 122.040001 -27.000000 
72407536750784 66.180000 122.040001 -27.000000 
72407556750784 66.180000 122.040001 -27.000000 
72407576750784 66.180000 122.040001 -27.000000 
72407596750784 66.180000 122.040001 -27.000000 
72407616750784 66.180000 122.040001 -27.000000 
72407636750784 66.180000 122.040001 -27.000000 
72407656750784 66.180000 122.040001 -27.000000 
72407676750784 66.180000 122.040001 -27.000000 
72407696750784 66.180000 122.040001 -27.000000 
72407716750784 66.180000 122.040001 -27.000000 
72407736750784 66.180000 122.040001 -27.000000 
72407756750784 66.180000 122.040001 -27.000000 
72407776750784 66.180000 122.040001 -27.000000 
72407796750784 66.180000 122.040001 -27.000000 
72407816750784 66.180000 122.040001 -27.000000 
72407836750784 66.180000 122.040001 -27.000000 
72407856750784 66.180000 122.040001 -27.000000 
72407876750784 66.180000 122.040001 -27.000000 
72407896750784 66.180000 122.040001 -27.000000 
72407916750784 66.180000 122.040001 -27.000000 
72407936750784 66.180000 122.040001 -27.000000 
72407956750784 66.180000 122.040001 -27.000000 
72407976750784 66.180000 122.040001 -27.000000 
72407996750784 66.180000 122.040001 -27.000000 
72408016750784 66.180000 122.040001 -27.000000 
72408036750784 66.180000 122.040001 -27.000000 
72408056750784 66.180000 122.040001 -27.000000 
72408076750784 66.180000 122.040001 -27.000000 
72408096750784 66.180000 122.040001 -27.000000 
72408116750784 66.180000 122.040001 -27.000000 
72408136750784 66.180000 122.040001 -27.000000 
72408156750784 66.180000 122.040001 -27.000000 
72408176750784 66.180000 122.040001 -27.000000 
72408196750784 66.180000 122.040001 -27.000000 
72408216750784 66.180000 122.040001 -27.000000 
72408236750784 66.180000 122.040001 -27.000000 
72408256750784 66.180000 122.040001 -27.000000 
