# Created at Fri Jan 31 08:57:40 GMT+01:00 2025 in Burnaby Canada 
72630576749727 68.939995 119.759995 -23.939999 
72630596749727 68.939995 119.759995 -23.939999 
72630616749727 68.939995 119.759995 -23.939999 
72630636749727 68.939995 119.759995 -23.939999 
72630656749727 68.939995 119.759995 -23.939999 
72630676749727 68.939995 119.759995 -23.939999 
72630696749727 68.939995 119.759995 -23.939999 
72630716749727 68.939995 119.759995 -23.939999 
72630736749727 68.939995 119.759995 -23.939999 
72630756749727 68.939995 119.759995 -23.939999 
72630776749727 68.939995 119.759995 -23.939999 
72630796749727 68.939995 119.759995 -23.939999 
72630816749727 68.939995 119.759995 -23.939999 
72630836749727 68.939995 119.759995 -23.939999 
72630856749727 68.939995 119.759995 -23.939999 
72630876749727 68.939995 119.759995 -23.939999 
72630896749727 68.939995 119.759995 -23.939999 
72630916749727 68.939995 119.759995 -23.939999 
72630936749727 68.939995 119.759995 -23.939999 
72630956749727 68.939995 119.759995 -23.939999 
72630976749727 68.939995 119.759995 -23.939999 
72630996749727 68.939995 119.759995 -23.939999 
72631016749727 68.939995 119.759995 -23.939999 
72631036749727 68.939995 119.759995 -23.939999 
72631056749727 68.939995 119.759995 -23.939999 
72631076749727 68.939995 119.759995 -23.939999 
72631096749727 68.939995 119.759995 -23.939999 
72631116749727 68.939995 119.759995 -23.939999 
72631136749727 68.939995 119.759995 -23.939999 
72631156749727 68.939995 119.759995 -23.939999 
72631176749727 68.939995 119.759995 -23.939999 
72631196749727 68.939995 119.759995 -23.939999 
72631216749727 68.939995 119.759995 -23.939999 
72631236749727 68.939995 119.759995 -23.939999 
72631256749727 68.939995 119.759995 -23.939999 
72631276749727 68.939995 119.759995 -23.939999 
72631296749727 68.939995 119.759995 -23.939999 
72631316749727 68.939995 119.759995 -23.939999 
72631336749727 68.939995 119.759995 -23.939999 
72631356749727 68.939995 119.759995 -23.939999 
72631376749727 68.939995 119.759995 -23.939999 
72631396749727 68.939995 119.759995 -23.939999 
72631416749727 68.939995 119.759995 -23.939999 
72631436749727 68.939995 119.759995 -23.939999 
72631456749727 68.939995 119.759995 -23.939999 
72631476749727 68.939995 119.759995 -23.939999 
72631496749727 68.939995 119.759995 -23.939999 
72631516749727 68.939995 119.759995 -23.939999 
72631536749727 68.939995 119.759995 -23.939999 
72631556749727 68.939995 119.759995 -23.939999 
72631576749727 68.939995 119.759995 -23.939999 
72631596749727 68.939995 119.759995 -23.939999 
72631616749727 68.939995 119.759995 -23.939999 
72631636749727 68.939995 119.759995 -23.939999 
72631656749727 68.939995 119.759995 -23.939999 
72631676749727 68.939995 119.759995 -23.939999 
72631696749727 68.939995 119.759995 -23.939999 
72631716749727 68.939995 119.759995 -23.939999 
72631736749727 68.939995 119.759995 -23.939999 
72631756749727 68.939995 119.759995 -23.939999 
72631776749727 68.939995 119.759995 -23.939999 
72631796749727 68.939995 119.759995 -23.939999 
72631816749727 68.939995 119.759995 -23.939999 
72631836749727 68.939995 119.759995 -23.939999 
72631856749727 68.939995 119.759995 -23.939999 
72631876749727 68.939995 119.759995 -23.939999 
72631896749727 68.939995 119.759995 -23.939999 
72631916749727 68.939995 119.759995 -23.939999 
72631936749727 68.939995 119.759995 -23.939999 
72631956749727 68.939995 119.759995 -23.939999 
72631976749727 68.939995 119.759995 -23.939999 
72631996749727 68.939995 119.759995 -23.939999 
72632016749727 68.939995 119.759995 -23.939999 
72632036749727 68.939995 119.759995 -23.939999 
72632056749727 68.939995 119.759995 -23.939999 
72632076749727 68.939995 119.759995 -23.939999 
72632096749727 68.939995 119.759995 -23.939999 
72632116749727 68.939995 119.759995 -23.939999 
72632136749727 68.939995 119.759995 -23.939999 
72632156749727 68.939995 119.759995 -23.939999 
72632176749727 68.939995 119.759995 -23.939999 
72632196749727 68.939995 119.759995 -23.939999 
72632216749727 68.939995 119.759995 -23.939999 
72632236749727 68.939995 119.759995 -23.939999 
72632256749727 68.939995 119.759995 -23.939999 
72632276749727 68.939995 119.759995 -23.939999 
72632296749727 68.939995 119.759995 -23.939999 
72632316749727 68.939995 119.759995 -23.939999 
72632336749727 68.939995 119.759995 -23.939999 
72632356749727 68.939995 119.759995 -23.939999 
72632376749727 68.939995 119.759995 -23.939999 
72632396749727 68.939995 119.759995 -23.939999 
72632416749727 68.939995 119.759995 -23.939999 
72632436749727 68.939995 119.759995 -23.939999 
72632456749727 68.939995 119.759995 -23.939999 
72632476749727 68.939995 119.759995 -23.939999 
72632496749727 68.939995 119.759995 -23.939999 
72632516749727 68.939995 119.759995 -23.939999 
72632536749727 68.939995 119.759995 -23.939999 
72632556749727 68.939995 119.759995 -23.939999 
72632576749727 68.939995 119.759995 -23.939999 
72632596749727 68.939995 119.759995 -23.939999 
72632616749727 68.939995 119.759995 -23.939999 
72632636749727 68.939995 119.759995 -23.939999 
72632656749727 68.939995 119.759995 -23.939999 
72632676749727 68.939995 119.759995 -23.939999 
72632696749727 68.939995 119.759995 -23.939999 
72632716749727 68.939995 119.759995 -23.939999 
72632736749727 68.939995 119.759995 -23.939999 
72632756749727 68.939995 119.759995 -23.939999 
72632776749727 68.939995 119.759995 -23.939999 
72632796749727 68.939995 119.759995 -23.939999 
72632816749727 68.939995 119.759995 -23.939999 
72632836749727 68.939995 119.759995 -23.939999 
72632856749727 68.939995 119.759995 -23.939999 
72632876749727 68.939995 119.759995 -23.939999 
72632896749727 68.939995 119.759995 -23.939999 
72632916749727 68.939995 119.759995 -23.939999 
72632936749727 68.939995 119.759995 -23.939999 
72632956749727 68.939995 119.759995 -23.939999 
72632976749727 68.939995 119.759995 -23.939999 
72632996749727 68.939995 119.759995 -23.939999 
72633016749727 68.939995 119.759995 -23.939999 
72633036749727 68.939995 119.759995 -23.939999 
72633056749727 68.939995 119.759995 -23.939999 
72633076749727 68.939995 119.759995 -23.939999 
72633096749727 68.939995 119.759995 -23.939999 
72633116749727 68.939995 119.759995 -23.939999 
72633136749727 68.939995 119.759995 -23.939999 
72633156749727 68.939995 119.759995 -23.939999 
72633176749727 68.939995 119.759995 -23.939999 
72633196749727 68.939995 119.759995 -23.939999 
72633216749727 68.939995 119.759995 -23.939999 
72633236749727 68.939995 119.759995 -23.939999 
72633256749727 68.939995 119.759995 -23.939999 
72633276749727 68.939995 119.759995 -23.939999 
72633296749727 68.939995 119.759995 -23.939999 
72633316749727 68.939995 119.759995 -23.939999 
72633336749727 68.939995 119.759995 -23.939999 
72633356749727 68.939995 119.759995 -23.939999 
72633376749727 68.939995 119.759995 -23.939999 
72633396749727 68.939995 119.759995 -23.939999 
72633416749727 68.939995 119.759995 -23.939999 
72633436749727 68.939995 119.759995 -23.939999 
72633456749727 68.939995 119.759995 -23.939999 
72633476749727 68.939995 119.759995 -23.939999 
72633496749727 68.939995 119.759995 -23.939999 
72633516749727 68.939995 119.759995 -23.939999 
72633536749727 68.939995 119.759995 -23.939999 
72633556749727 68.939995 119.759995 -23.939999 
72633576749727 68.939995 119.759995 -23.939999 
72633596749727 68.939995 119.759995 -23.939999 
72633616749727 68.939995 119.759995 -23.939999 
72633636749727 68.939995 119.759995 -23.939999 
72633656749727 68.939995 119.759995 -23.939999 
72633676749727 68.939995 119.759995 -23.939999 
72633696749727 68.939995 119.759995 -23.939999 
72633716749727 68.939995 119.759995 -23.939999 
72633736749727 68.939995 119.759995 -23.939999 
72633756749727 68.939995 119.759995 -23.939999 
72633776749727 68.939995 119.759995 -23.939999 
72633796749727 68.939995 119.759995 -23.939999 
72633816749727 68.939995 119.759995 -23.939999 
72633836749727 68.939995 119.759995 -23.939999 
72633856749727 68.939995 119.759995 -23.939999 
72633876749727 68.820000 120.059998 -23.760000 
72633896749727 68.820000 120.059998 -23.760000 
72633916749727 68.820000 120.059998 -23.760000 
72633936749727 68.820000 120.059998 -23.760000 
72633956749727 68.820000 120.059998 -23.760000 
72633976749727 68.820000 120.059998 -23.760000 
72633996749727 68.820000 120.059998 -23.760000 
72634016749727 68.820000 120.059998 -23.760000 
72634036749727 68.820000 120.059998 -23.760000 
72634056749727 68.820000 120.059998 -23.760000 
72634076749727 68.639999 120.419998 -23.639999 
72634096749727 68.639999 120.419998 -23.639999 
72634116749727 68.639999 120.419998 -23.639999 
72634136749727 68.639999 120.419998 -23.639999 
72634156749727 68.639999 120.419998 -23.639999 
72634176749727 68.639999 120.419998 -23.639999 
72634196749727 68.639999 120.419998 -23.639999 
72634216749727 68.639999 120.419998 -23.639999 
72634236749727 68.639999 120.419998 -23.639999 
72634256749727 68.639999 120.419998 -23.639999 
72634276749727 68.639999 120.419998 -23.639999 
72634296749727 68.639999 120.419998 -23.639999 
72634316749727 68.639999 120.419998 -23.639999 
72634336749727 68.639999 120.419998 -23.639999 
72634356749727 68.639999 120.419998 -23.639999 
72634376749727 68.639999 120.419998 -23.639999 
72634396749727 68.639999 120.419998 -23.639999 
72634416749727 68.639999 120.419998 -23.639999 
72634436749727 68.639999 120.419998 -23.639999 
72634456749727 68.639999 120.419998 -23.639999 
72634476749727 68.639999 120.419998 -23.639999 
72634496749727 68.639999 120.419998 -23.639999 
72634516749727 68.639999 120.419998 -23.639999 
72634536749727 68.639999 120.419998 -23.639999 
72634556749727 68.639999 120.419998 -23.639999 
72634576749727 68.639999 120.419998 -23.639999 
72634596749727 68.639999 120.419998 -23.639999 
72634616749727 68.639999 120.419998 -23.639999 
72634636749727 68.639999 120.419998 -23.639999 
72634656749727 68.639999 120.419998 -23.639999 
72634676749727 68.639999 120.419998 -23.639999 
72634696749727 68.639999 120.419998 -23.639999 
72634716749727 68.639999 120.419998 -23.639999 
72634736749727 68.639999 120.419998 -23.639999 
72634756749727 68.639999 120.419998 -23.639999 
72634776749727 68.639999 120.419998 -23.639999 
72634796749727 68.639999 120.419998 -23.639999 
72634816749727 68.639999 120.419998 -23.639999 
72634836749727 68.639999 120.419998 -23.639999 
72634856749727 68.639999 120.419998 -23.639999 
72634876749727 68.639999 120.419998 -23.639999 
72634896749727 68.639999 120.419998 -23.639999 
72634916749727 68.639999 120.419998 -23.639999 
72634936749727 68.639999 120.419998 -23.639999 
72634956749727 68.639999 120.419998 -23.639999 
72634976749727 68.639999 120.419998 -23.639999 
72634996749727 68.639999 120.419998 -23.639999 
72635016749727 68.639999 120.419998 -23.639999 
72635036749727 68.639999 120.419998 -23.639999 
72635056749727 68.639999 120.419998 -23.639999 
72635076749727 68.519997 120.419998 -23.939999 
72635096749727 68.519997 120.419998 -23.939999 
72635116749727 68.519997 120.419998 -23.939999 
72635136749727 68.519997 120.419998 -23.939999 
72635156749727 68.519997 120.419998 -23.939999 
72635176749727 68.519997 120.419998 -23.939999 
72635196749727 68.519997 120.419998 -23.939999 
72635216749727 68.519997 120.419998 -23.939999 
72635236749727 68.519997 120.419998 -23.939999 
72635256749727 68.519997 120.419998 -23.939999 
72635276749727 68.519997 120.419998 -23.939999 
72635296749727 68.519997 120.419998 -23.939999 
72635316749727 68.519997 120.419998 -23.939999 
72635336749727 68.519997 120.419998 -23.939999 
72635356749727 68.519997 120.419998 -23.939999 
72635376749727 68.519997 120.419998 -23.939999 
72635396749727 68.519997 120.419998 -23.939999 
72635416749727 68.519997 120.419998 -23.939999 
72635436749727 68.519997 120.419998 -23.939999 
72635456749727 68.519997 120.419998 -23.939999 
72635476749727 68.519997 120.419998 -23.939999 
72635496749727 68.519997 120.419998 -23.939999 
72635516749727 68.519997 120.419998 -23.939999 
72635536749727 68.519997 120.419998 -23.939999 
72635556749727 68.519997 120.419998 -23.939999 
72635576749727 68.519997 120.419998 -23.939999 
72635596749727 68.519997 120.419998 -23.939999 
72635616749727 68.519997 120.419998 -23.939999 
72635636749727 68.519997 120.419998 -23.939999 
72635656749727 68.519997 120.419998 -23.939999 
72635676749727 68.519997 120.419998 -23.939999 
72635696749727 68.519997 120.419998 -23.939999 
72635716749727 68.519997 120.419998 -23.939999 
72635736749727 68.519997 120.419998 -23.939999 
72635756749727 68.519997 120.419998 -23.939999 
72635776749727 68.519997 120.419998 -23.939999 
72635796749727 68.519997 120.419998 -23.939999 
72635816749727 68.519997 120.419998 -23.939999 
72635836749727 68.519997 120.419998 -23.939999 
72635856749727 68.519997 120.419998 -23.939999 
72635876749727 68.519997 120.419998 -23.939999 
72635896749727 68.519997 120.419998 -23.939999 
72635916749727 68.519997 120.419998 -23.939999 
72635936749727 68.519997 120.419998 -23.939999 
72635956749727 68.519997 120.419998 -23.939999 
72635976749727 68.519997 120.419998 -23.939999 
72635996749727 68.519997 120.419998 -23.939999 
72636016749727 68.519997 120.419998 -23.939999 
72636036749727 68.519997 120.419998 -23.939999 
72636056749727 68.519997 120.419998 -23.939999 
72636076749727 68.519997 120.419998 -23.939999 
72636096749727 68.519997 120.419998 -23.939999 
72636116749727 68.519997 120.419998 -23.939999 
72636136749727 68.519997 120.419998 -23.939999 
72636156749727 68.519997 120.419998 -23.939999 
72636176749727 68.519997 120.419998 -23.939999 
72636196749727 68.519997 120.419998 -23.939999 
72636216749727 68.519997 120.419998 -23.939999 
72636236749727 68.519997 120.419998 -23.939999 
72636256749727 68.519997 120.419998 -23.939999 
72636276749727 68.519997 120.419998 -23.939999 
72636296749727 68.519997 120.419998 -23.939999 
72636316749727 68.519997 120.419998 -23.939999 
72636336749727 68.519997 120.419998 -23.939999 
72636356749727 68.519997 120.419998 -23.939999 
72636376749727 68.519997 120.419998 -23.939999 
72636396749727 68.519997 120.419998 -23.939999 
72636416749727 68.519997 120.419998 -23.939999 
72636436749727 68.519997 120.419998 -23.939999 
72636456749727 68.519997 120.419998 -23.939999 
72636476749727 68.519997 120.419998 -23.939999 
72636496749727 68.519997 120.419998 -23.939999 
72636516749727 68.519997 120.419998 -23.939999 
72636536749727 68.519997 120.419998 -23.939999 
72636556749727 68.519997 120.419998 -23.939999 
72636576749727 68.519997 120.419998 -23.939999 
72636596749727 68.519997 120.419998 -23.939999 
72636616749727 68.519997 120.419998 -23.939999 
72636636749727 68.519997 120.419998 -23.939999 
72636656749727 68.519997 120.419998 -23.939999 
72636676749727 68.519997 120.419998 -23.939999 
72636696749727 68.519997 120.419998 -23.939999 
72636716749727 68.519997 120.419998 -23.939999 
72636736749727 68.519997 120.419998 -23.939999 
72636756749727 68.519997 120.419998 -23.939999 
72636776749727 68.519997 120.419998 -23.939999 
72636796749727 68.519997 120.419998 -23.939999 
72636816749727 68.519997 120.419998 -23.939999 
72636836749727 68.519997 120.419998 -23.939999 
72636856749727 68.519997 120.419998 -23.939999 
72636876749727 68.519997 120.419998 -23.939999 
72636896749727 68.519997 120.419998 -23.939999 
72636916749727 68.519997 120.419998 -23.939999 
72636936749727 68.519997 120.419998 -23.939999 
72636956749727 68.519997 120.419998 -23.939999 
72636976749727 68.519997 120.419998 -23.939999 
72636996749727 68.519997 120.419998 -23.939999 
72637016749727 68.519997 120.419998 -23.939999 
72637036749727 68.519997 120.419998 -23.939999 
72637056749727 68.519997 120.419998 -23.939999 
72637076749727 68.519997 120.419998 -23.939999 
72637096749727 68.519997 120.419998 -23.939999 
72637116749727 68.519997 120.419998 -23.939999 
72637136749727 68.519997 120.419998 -23.939999 
72637156749727 68.519997 120.419998 -23.939999 
72637176749727 68.519997 120.419998 -23.939999 
72637196749727 68.519997 120.419998 -23.939999 
72637216749727 68.519997 120.419998 -23.939999 
72637236749727 68.519997 120.419998 -23.939999 
72637256749727 68.519997 120.419998 -23.939999 
72637276749727 68.519997 120.419998 -23.939999 
72637296749727 68.519997 120.419998 -23.939999 
72637316749727 68.519997 120.419998 -23.939999 
72637336749727 68.519997 120.419998 -23.939999 
72637356749727 68.519997 120.419998 -23.939999 
72637376749727 68.519997 120.419998 -23.939999 
72637396749727 68.519997 120.419998 -23.939999 
72637416749727 68.519997 120.419998 -23.939999 
72637436749727 68.519997 120.419998 -23.939999 
72637456749727 68.519997 120.419998 -23.939999 
72637476749727 68.519997 120.419998 -23.939999 
72637496749727 68.519997 120.419998 -23.939999 
72637516749727 68.519997 120.419998 -23.939999 
72637536749727 68.519997 120.419998 -23.939999 
72637556749727 68.519997 120.419998 -23.939999 
72637576749727 68.519997 120.419998 -23.939999 
72637596749727 68.519997 120.419998 -23.939999 
72637616749727 68.519997 120.419998 -23.939999 
72637636749727 68.519997 120.419998 -23.939999 
72637656749727 68.519997 120.419998 -23.939999 
72637676749727 68.519997 120.419998 -23.939999 
72637696749727 68.519997 120.419998 -23.939999 
72637716749727 68.519997 120.419998 -23.939999 
72637736749727 68.519997 120.419998 -23.939999 
72637756749727 68.519997 120.419998 -23.939999 
72637776749727 68.519997 120.419998 -23.939999 
72637796749727 68.519997 120.419998 -23.939999 
72637816749727 68.519997 120.419998 -23.939999 
72637836749727 68.519997 120.419998 -23.939999 
72637856749727 68.519997 120.419998 -23.939999 
72637876749727 68.639999 120.360001 -24.119999 
72637896749727 68.639999 120.360001 -24.119999 
72637916749727 68.639999 120.360001 -24.119999 
72637936749727 68.639999 120.360001 -24.119999 
72637956749727 68.639999 120.360001 -24.119999 
72637976749727 68.639999 120.360001 -24.119999 
72637996749727 68.639999 120.360001 -24.119999 
72638016749727 68.639999 120.360001 -24.119999 
72638036749727 68.639999 120.360001 -24.119999 
72638056749727 68.639999 120.360001 -24.119999 
72638076749727 68.639999 120.360001 -24.119999 
72638096749727 68.639999 120.360001 -24.119999 
72638116749727 68.639999 120.360001 -24.119999 
72638136749727 68.639999 120.360001 -24.119999 
72638156749727 68.760002 120.119995 -24.299999 
72638176749727 68.760002 120.119995 -24.299999 
72638196749727 68.760002 120.119995 -24.299999 
72638216749727 68.760002 120.119995 -24.299999 
72638236749727 68.760002 120.119995 -24.299999 
72638256749727 68.760002 120.119995 -24.299999 
72638276749727 68.760002 120.119995 -24.299999 
72638296749727 68.760002 120.119995 -24.299999 
72638316749727 68.760002 120.119995 -24.299999 
72638336749727 68.760002 120.119995 -24.299999 
72638356749727 68.760002 120.119995 -24.299999 
72638376749727 68.760002 120.119995 -24.299999 
72638396749727 68.760002 120.119995 -24.299999 
72638416749727 68.760002 120.119995 -24.299999 
72638436749727 68.760002 120.119995 -24.299999 
72638456749727 68.760002 120.119995 -24.299999 
72638476749727 68.760002 120.119995 -24.299999 
72638496749727 68.760002 120.119995 -24.299999 
72638516749727 68.760002 120.119995 -24.299999 
72638536749727 68.760002 120.119995 -24.299999 
72638556749727 68.760002 120.119995 -24.299999 
72638576749727 68.760002 120.119995 -24.299999 
72638596749727 68.760002 120.119995 -24.299999 
72638616749727 68.760002 120.119995 -24.299999 
72638636749727 68.760002 120.119995 -24.299999 
72638656749727 68.760002 120.119995 -24.299999 
72638676749727 68.760002 120.119995 -24.299999 
72638696749727 68.760002 120.119995 -24.299999 
72638716749727 68.760002 120.119995 -24.299999 
72638736749727 68.760002 120.119995 -24.299999 
72638756749727 68.760002 120.119995 -24.299999 
72638776749727 68.760002 120.119995 -24.299999 
72638796749727 68.760002 120.119995 -24.299999 
72638816749727 68.760002 120.119995 -24.299999 
72638836749727 68.760002 120.119995 -24.299999 
72638856749727 68.760002 120.119995 -24.299999 
72638876749727 68.760002 120.119995 -24.299999 
72638896749727 68.760002 120.119995 -24.299999 
72638916749727 68.760002 120.119995 -24.299999 
72638936749727 68.760002 120.119995 -24.299999 
72638956749727 68.760002 120.119995 -24.299999 
72638976749727 68.760002 120.119995 -24.299999 
72638996749727 68.760002 120.119995 -24.299999 
72639016749727 68.760002 120.119995 -24.299999 
72639036749727 68.760002 120.119995 -24.299999 
72639056749727 68.760002 120.119995 -24.299999 
72639076749727 68.760002 120.119995 -24.299999 
72639096749727 68.760002 120.119995 -24.299999 
72639116749727 68.760002 120.119995 -24.299999 
72639136749727 68.760002 120.119995 -24.299999 
72639156749727 68.699997 120.000000 -24.119999 
72639176749727 68.699997 120.000000 -24.119999 
72639196749727 68.699997 120.000000 -24.119999 
72639216749727 68.699997 120.000000 -24.119999 
72639236749727 68.699997 120.000000 -24.119999 
72639256749727 68.699997 120.000000 -24.119999 
72639276749727 68.699997 120.000000 -24.119999 
72639296749727 68.699997 120.000000 -24.119999 
72639316749727 68.699997 120.000000 -24.119999 
72639336749727 68.699997 120.000000 -24.119999 
72639356749727 68.699997 120.000000 -24.119999 
72639376749727 68.699997 120.000000 -24.119999 
72639396749727 68.699997 120.000000 -24.119999 
72639416749727 68.699997 120.000000 -24.119999 
72639436749727 68.699997 120.000000 -24.119999 
72639456749727 68.699997 120.000000 -24.119999 
72639476749727 68.699997 120.000000 -24.119999 
72639496749727 68.699997 120.000000 -24.119999 
72639516749727 68.699997 120.000000 -24.119999 
72639536749727 68.699997 120.000000 -24.119999 
72639556749727 68.699997 120.000000 -24.119999 
72639576749727 68.699997 120.000000 -24.119999 
72639596749727 68.699997 120.000000 -24.119999 
72639616749727 68.699997 120.000000 -24.119999 
72639636749727 68.699997 120.000000 -24.119999 
72639656749727 68.699997 120.000000 -24.119999 
72639676749727 68.699997 120.000000 -24.119999 
72639696749727 68.699997 120.000000 -24.119999 
72639716749727 68.699997 120.000000 -24.119999 
72639736749727 68.699997 120.000000 -24.119999 
72639756749727 68.699997 120.000000 -24.119999 
72639776749727 68.699997 120.000000 -24.119999 
72639796749727 68.699997 120.000000 -24.119999 
72639816749727 68.699997 120.000000 -24.119999 
72639836749727 68.699997 120.000000 -24.119999 
72639856749727 68.699997 120.000000 -24.119999 
72639876749727 68.699997 120.000000 -24.119999 
72639896749727 68.699997 120.000000 -24.119999 
72639916749727 68.699997 120.000000 -24.119999 
72639936749727 68.699997 120.000000 -24.119999 
72639956749727 68.699997 120.000000 -24.119999 
72639976749727 68.699997 120.000000 -24.119999 
72639996749727 68.699997 120.000000 -24.119999 
72640016749727 68.699997 120.000000 -24.119999 
72640036749727 68.699997 120.000000 -24.119999 
72640056749727 68.699997 120.000000 -24.119999 
72640076749727 68.699997 120.000000 -24.119999 
72640096749727 68.699997 120.000000 -24.119999 
72640116749727 68.699997 120.000000 -24.119999 
72640136749727 68.699997 120.000000 -24.119999 
72640156749727 68.699997 120.000000 -24.119999 
72640176749727 68.699997 120.000000 -24.119999 
72640196749727 68.580002 119.759995 -23.939999 
72640216749727 68.580002 119.759995 -23.939999 
72640236749727 68.580002 119.759995 -23.939999 
72640256749727 68.580002 119.759995 -23.939999 
72640276749727 68.580002 119.759995 -23.939999 
72640296749727 68.580002 119.759995 -23.939999 
72640316749727 68.580002 119.759995 -23.939999 
72640336749727 68.580002 119.759995 -23.939999 
72640356749727 68.580002 119.759995 -23.939999 
72640376749727 68.580002 119.759995 -23.939999 
72640396749727 68.580002 119.759995 -23.939999 
72640416749727 68.580002 119.759995 -23.939999 
72640436749727 68.580002 119.759995 -23.939999 
72640456749727 68.580002 119.759995 -23.939999 
72640476749727 68.580002 119.759995 -23.939999 
72640496749727 68.580002 119.759995 -23.939999 
72640516749727 68.580002 119.759995 -23.939999 
72640536749727 68.580002 119.759995 -23.939999 
72640556749727 68.580002 119.759995 -23.939999 
72640576749727 68.580002 119.759995 -23.939999 
72640596749727 68.580002 119.759995 -23.939999 
72640616749727 68.580002 119.759995 -23.939999 
72640636749727 68.580002 119.759995 -23.939999 
72640656749727 68.580002 119.759995 -23.939999 
72640676749727 68.580002 119.759995 -23.939999 
72640696749727 68.580002 119.759995 -23.939999 
72640716749727 68.580002 119.759995 -23.939999 
72640736749727 68.580002 119.759995 -23.939999 
72640756749727 68.580002 119.759995 -23.939999 
72640776749727 68.580002 119.759995 -23.939999 
72640796749727 68.580002 119.759995 -23.939999 
72640816749727 68.580002 119.759995 -23.939999 
72640836749727 68.580002 119.759995 -23.939999 
72640856749727 68.580002 119.759995 -23.939999 
72640876749727 68.580002 119.759995 -23.939999 
72640896749727 68.580002 119.759995 -23.939999 
72640916749727 68.580002 119.759995 -23.939999 
72640936749727 68.580002 119.759995 -23.939999 
72640956749727 68.580002 119.759995 -23.939999 
72640976749727 68.580002 119.759995 -23.939999 
72640996749727 68.580002 119.759995 -23.939999 
72641016749727 68.580002 119.759995 -23.939999 
72641036749727 68.580002 119.759995 -23.939999 
72641056749727 68.580002 119.759995 -23.939999 
72641076749727 68.580002 119.759995 -23.939999 
72641096749727 68.580002 119.759995 -23.939999 
72641116749727 68.580002 119.759995 -23.939999 
72641136749727 68.580002 119.759995 -23.939999 
72641156749727 68.580002 119.759995 -23.939999 
72641176749727 68.580002 119.759995 -23.939999 
72641196749727 68.580002 119.759995 -23.939999 
72641216749727 68.580002 119.759995 -23.939999 
72641236749727 68.519997 119.939995 -23.699999 
72641256749727 68.519997 119.939995 -23.699999 
72641276749727 68.519997 119.939995 -23.699999 
72641296749727 68.519997 119.939995 -23.699999 
72641316749727 68.519997 119.939995 -23.699999 
72641336749727 68.519997 119.939995 -23.699999 
72641356750485 68.519997 119.939995 -23.699999 
72641376749704 68.519997 119.939995 -23.699999 
72641396749704 68.519997 119.939995 -23.699999 
72641416749704 68.519997 119.939995 -23.699999 
72641436749704 68.519997 119.939995 -23.699999 
72641456749704 68.519997 119.939995 -23.699999 
72641476749704 68.519997 119.939995 -23.699999 
72641496749704 68.519997 119.939995 -23.699999 
72641516749704 68.519997 119.939995 -23.699999 
72641536749704 68.519997 119.939995 -23.699999 
72641556749704 68.519997 119.939995 -23.699999 
72641576749704 68.519997 119.939995 -23.699999 
72641596749704 68.519997 119.939995 -23.699999 
72641616749704 68.519997 119.939995 -23.699999 
72641636749704 68.519997 119.939995 -23.699999 
72641656749704 68.519997 119.939995 -23.699999 
72641676749704 68.519997 119.939995 -23.699999 
72641696749704 68.519997 119.939995 -23.699999 
72641716749704 68.519997 119.939995 -23.699999 
72641736749704 68.519997 119.939995 -23.699999 
72641756749704 68.519997 119.939995 -23.699999 
72641776749704 68.519997 119.939995 -23.699999 
72641796749704 68.519997 119.939995 -23.699999 
72641816749704 68.519997 119.939995 -23.699999 
72641836749704 68.519997 119.939995 -23.699999 
72641856749704 68.519997 119.939995 -23.699999 
72641876749704 68.519997 119.939995 -23.699999 
72641896749704 68.519997 119.939995 -23.699999 
72641916749704 68.519997 119.939995 -23.699999 
72641936749704 68.519997 119.939995 -23.699999 
72641956749704 68.519997 119.939995 -23.699999 
72641976749704 68.519997 119.939995 -23.699999 
72641996749704 68.519997 119.939995 -23.699999 
72642016749704 68.519997 119.939995 -23.699999 
72642036749704 68.519997 119.939995 -23.699999 
72642056749704 68.519997 119.939995 -23.699999 
72642076749704 68.519997 119.939995 -23.699999 
72642096749704 68.519997 119.939995 -23.699999 
72642116749704 68.519997 119.939995 -23.699999 
72642136749704 68.519997 119.939995 -23.699999 
72642156749704 68.519997 119.939995 -23.699999 
72642176749704 68.519997 119.939995 -23.699999 
72642196749704 68.519997 119.939995 -23.699999 
72642216749704 68.519997 119.939995 -23.699999 
72642236749704 68.459999 120.059998 -23.519999 
72642256749704 68.459999 120.059998 -23.519999 
72642276749704 68.459999 120.059998 -23.519999 
72642296749704 68.459999 120.059998 -23.519999 
72642316749704 68.459999 120.059998 -23.519999 
72642336749704 68.459999 120.059998 -23.519999 
72642356749704 68.459999 120.059998 -23.519999 
72642376749704 68.459999 120.059998 -23.519999 
72642396749704 68.459999 120.059998 -23.519999 
72642416749704 68.459999 120.059998 -23.519999 
72642436749704 68.459999 120.059998 -23.519999 
72642456749704 68.459999 120.059998 -23.519999 
72642476749704 68.459999 120.059998 -23.519999 
72642496749704 68.459999 120.059998 -23.519999 
72642516749704 68.459999 120.059998 -23.519999 
72642536749704 68.459999 120.059998 -23.519999 
72642556749704 68.459999 120.059998 -23.519999 
72642576749704 68.459999 120.059998 -23.519999 
72642596749704 68.459999 120.059998 -23.519999 
72642616749704 68.459999 120.059998 -23.519999 
72642636749704 68.459999 120.059998 -23.519999 
72642656749704 68.459999 120.059998 -23.519999 
72642676749704 68.459999 120.059998 -23.519999 
72642696749704 68.459999 120.059998 -23.519999 
72642716749704 68.459999 120.059998 -23.519999 
72642736749704 68.459999 120.059998 -23.519999 
72642756749704 68.459999 120.059998 -23.519999 
72642776749704 68.459999 120.059998 -23.519999 
72642796749704 68.459999 120.059998 -23.519999 
72642816749704 68.459999 120.059998 -23.519999 
72642836749704 68.459999 120.059998 -23.519999 
72642856749704 68.459999 120.059998 -23.519999 
72642876749704 68.459999 120.059998 -23.519999 
72642896749704 68.459999 120.059998 -23.519999 
72642916749704 68.459999 120.059998 -23.519999 
72642936749704 68.459999 120.059998 -23.519999 
72642956749704 68.459999 120.059998 -23.519999 
72642976749704 68.459999 120.059998 -23.519999 
72642996749704 68.459999 120.059998 -23.519999 
72643016749704 68.459999 120.059998 -23.519999 
72643036749704 68.459999 120.059998 -23.519999 
72643056749704 68.459999 120.059998 -23.519999 
72643076749704 68.459999 120.059998 -23.519999 
72643096749704 68.459999 120.059998 -23.519999 
72643116749704 68.459999 120.059998 -23.519999 
72643136749704 68.459999 120.059998 -23.519999 
72643156749704 68.459999 120.059998 -23.519999 
72643176749704 68.459999 120.059998 -23.519999 
72643196749704 68.459999 120.059998 -23.519999 
72643216749704 68.459999 120.059998 -23.519999 
72643236749704 68.459999 120.059998 -23.519999 
72643256749704 68.459999 120.059998 -23.519999 
72643276749704 68.459999 120.059998 -23.519999 
72643296749704 68.459999 120.059998 -23.519999 
72643316749704 68.459999 120.059998 -23.519999 
72643336749704 68.459999 120.059998 -23.519999 
72643356749704 68.459999 120.059998 -23.519999 
72643376749704 68.459999 120.059998 -23.519999 
72643396749704 68.459999 120.059998 -23.519999 
72643416749704 68.459999 120.059998 -23.519999 
72643436749704 68.459999 120.059998 -23.519999 
72643456749704 68.459999 120.059998 -23.519999 
72643476749704 68.459999 120.059998 -23.519999 
72643496749704 68.459999 120.059998 -23.519999 
72643516749704 68.459999 120.059998 -23.519999 
72643536749704 68.459999 120.059998 -23.519999 
72643556749704 68.459999 120.059998 -23.519999 
72643576749704 68.459999 120.059998 -23.519999 
72643596749704 68.459999 120.059998 -23.519999 
72643616749704 68.459999 120.059998 -23.519999 
72643636749704 68.459999 120.059998 -23.519999 
72643656749704 68.459999 120.059998 -23.519999 
72643676749704 68.459999 120.059998 -23.519999 
72643696749704 68.459999 120.059998 -23.519999 
72643716749704 68.459999 120.059998 -23.519999 
72643736749704 68.459999 120.059998 -23.519999 
72643756749704 68.459999 120.059998 -23.519999 
72643776749704 68.459999 120.059998 -23.519999 
72643796749704 68.459999 120.059998 -23.519999 
72643816749704 68.459999 120.059998 -23.519999 
72643836749704 68.459999 120.059998 -23.519999 
72643856749704 68.459999 120.059998 -23.519999 
72643876749704 68.459999 120.059998 -23.519999 
72643896749704 68.459999 120.059998 -23.519999 
72643916749704 68.459999 120.059998 -23.519999 
72643936749704 68.459999 120.059998 -23.519999 
72643956749704 68.459999 120.059998 -23.519999 
72643976749704 68.459999 120.059998 -23.519999 
72643996749704 68.459999 120.059998 -23.519999 
72644016749704 68.459999 120.059998 -23.519999 
72644036749704 68.459999 120.059998 -23.519999 
72644056749704 68.459999 120.059998 -23.519999 
72644076749704 68.459999 120.059998 -23.519999 
72644096749704 68.459999 120.059998 -23.519999 
72644116749704 68.459999 120.059998 -23.519999 
72644136749704 68.459999 120.059998 -23.519999 
72644156749704 68.459999 120.059998 -23.519999 
72644176749704 68.459999 120.059998 -23.519999 
72644196749704 68.459999 120.059998 -23.519999 
72644216749704 68.459999 120.059998 -23.519999 
72644236749704 68.459999 120.059998 -23.519999 
72644256749704 68.459999 120.059998 -23.519999 
72644276749704 68.459999 120.059998 -23.519999 
72644296749704 68.459999 120.059998 -23.519999 
72644316749704 68.459999 120.059998 -23.519999 
72644336749704 68.459999 120.059998 -23.519999 
72644356749704 68.459999 120.059998 -23.519999 
72644376749704 68.459999 120.059998 -23.519999 
72644396749704 68.459999 120.059998 -23.519999 
72644416749704 68.459999 120.059998 -23.519999 
72644436749704 68.459999 120.059998 -23.519999 
72644456749704 68.459999 120.059998 -23.519999 
72644476749704 68.459999 120.059998 -23.519999 
72644496749704 68.459999 120.059998 -23.519999 
72644516749704 68.459999 120.059998 -23.519999 
72644536749704 68.459999 120.059998 -23.519999 
72644556749704 68.459999 120.059998 -23.519999 
72644576749704 68.459999 120.059998 -23.519999 
72644596749704 68.459999 120.059998 -23.519999 
72644616749704 68.459999 120.059998 -23.519999 
72644636749704 68.459999 120.059998 -23.519999 
72644656749704 68.459999 120.059998 -23.519999 
72644676749704 68.459999 120.059998 -23.519999 
72644696749704 68.459999 120.059998 -23.519999 
72644716749704 68.459999 120.059998 -23.519999 
72644736749704 68.459999 120.059998 -23.519999 
72644756749704 68.459999 120.059998 -23.519999 
72644776749704 68.459999 120.059998 -23.519999 
72644796749704 68.459999 120.059998 -23.519999 
72644816749704 68.459999 120.059998 -23.519999 
72644836749704 68.459999 120.059998 -23.519999 
72644856749704 68.459999 120.059998 -23.519999 
72644876749704 68.459999 120.059998 -23.519999 
72644896749704 68.459999 120.059998 -23.519999 
72644916749704 68.459999 120.059998 -23.519999 
72644936749704 68.459999 120.059998 -23.519999 
72644956749704 68.459999 120.059998 -23.519999 
72644976749704 68.459999 120.059998 -23.519999 
72644996749704 68.459999 120.059998 -23.519999 
72645016749704 68.459999 120.059998 -23.519999 
72645036749704 68.459999 120.059998 -23.519999 
72645056749704 68.459999 120.059998 -23.519999 
72645076749704 68.459999 120.059998 -23.519999 
72645096749704 68.459999 120.059998 -23.519999 
72645116749704 68.459999 120.059998 -23.519999 
72645136749704 68.459999 120.059998 -23.519999 
72645156749704 68.459999 120.059998 -23.519999 
72645176749704 68.459999 120.059998 -23.519999 
72645196749704 68.459999 120.059998 -23.519999 
72645216749704 68.459999 120.059998 -23.519999 
72645236749704 68.459999 120.059998 -23.519999 
72645256749704 68.459999 120.059998 -23.519999 
72645276749704 68.459999 120.059998 -23.519999 
72645296749704 68.459999 120.059998 -23.519999 
72645316749704 68.459999 120.059998 -23.519999 
72645336749704 68.459999 120.059998 -23.519999 
72645356749704 68.459999 120.059998 -23.519999 
72645376749704 68.459999 120.059998 -23.519999 
72645396749704 68.459999 120.059998 -23.519999 
72645416749704 68.459999 120.059998 -23.519999 
72645436749704 68.459999 120.059998 -23.519999 
72645456749704 68.459999 120.059998 -23.519999 
72645476749704 68.459999 120.059998 -23.519999 
72645496749704 68.459999 120.059998 -23.519999 
72645516749704 68.459999 120.059998 -23.519999 
72645536749704 68.459999 120.059998 -23.519999 
72645556749704 68.459999 120.059998 -23.519999 
72645576749704 68.459999 120.059998 -23.519999 
72645596749704 68.459999 120.059998 -23.519999 
72645616749704 68.459999 120.059998 -23.519999 
72645636749704 68.459999 120.059998 -23.519999 
72645656749704 68.459999 120.059998 -23.519999 
72645676749704 68.459999 120.059998 -23.519999 
72645696749704 68.459999 120.059998 -23.519999 
72645716749704 68.459999 120.059998 -23.519999 
72645736749704 68.459999 120.059998 -23.519999 
72645756749704 68.459999 120.059998 -23.519999 
72645776749704 68.459999 120.059998 -23.519999 
72645796749704 68.459999 120.059998 -23.519999 
72645816749704 68.459999 120.059998 -23.519999 
72645836749704 68.459999 120.059998 -23.519999 
72645856749704 68.459999 120.059998 -23.519999 
72645876749704 68.459999 120.059998 -23.519999 
72645896749704 68.459999 120.059998 -23.519999 
72645916749704 68.459999 120.059998 -23.519999 
72645936749704 68.459999 120.059998 -23.519999 
72645956749704 68.459999 120.059998 -23.519999 
72645976749704 68.459999 120.059998 -23.519999 
72645996749704 68.459999 120.059998 -23.519999 
72646016749704 68.459999 120.059998 -23.519999 
72646036749704 68.459999 120.059998 -23.519999 
72646056749704 68.459999 120.059998 -23.519999 
72646076749704 68.459999 120.059998 -23.519999 
72646096749704 68.459999 120.059998 -23.519999 
72646116749704 68.459999 120.059998 -23.519999 
72646136749704 68.459999 120.059998 -23.519999 
72646156749704 68.459999 120.059998 -23.519999 
72646176749704 68.459999 120.059998 -23.519999 
72646196749704 68.459999 120.059998 -23.519999 
72646216749704 68.459999 120.059998 -23.519999 
72646236749704 68.459999 120.059998 -23.519999 
72646256749704 68.459999 120.059998 -23.519999 
72646276749704 68.459999 120.059998 -23.519999 
72646296749704 68.459999 120.059998 -23.519999 
72646316749704 68.459999 120.059998 -23.519999 
72646336749704 68.459999 120.059998 -23.519999 
72646356749704 68.459999 120.059998 -23.519999 
72646376749704 68.459999 120.059998 -23.519999 
72646396749704 68.459999 120.059998 -23.519999 
72646416749704 68.459999 120.059998 -23.519999 
72646436749704 68.459999 120.059998 -23.519999 
72646456749704 68.459999 120.059998 -23.519999 
72646476749704 68.459999 120.059998 -23.519999 
72646496749704 68.459999 120.059998 -23.519999 
72646516749704 68.459999 120.059998 -23.519999 
72646536749704 68.459999 120.059998 -23.519999 
72646556749704 68.459999 120.059998 -23.519999 
72646576749704 68.459999 120.059998 -23.519999 
72646596749704 68.459999 120.059998 -23.519999 
72646616749704 68.459999 120.059998 -23.519999 
72646636749704 68.459999 120.059998 -23.519999 
72646656749704 68.459999 120.059998 -23.519999 
72646676749704 68.459999 120.059998 -23.519999 
72646696749704 68.459999 120.059998 -23.519999 
72646716749704 68.459999 120.059998 -23.519999 
72646736749704 68.459999 120.059998 -23.519999 
72646756749704 68.459999 120.059998 -23.519999 
72646776749704 68.459999 120.059998 -23.519999 
72646796749704 68.459999 120.059998 -23.519999 
72646816749704 68.459999 120.059998 -23.519999 
72646836749704 68.459999 120.059998 -23.519999 
72646856749704 68.459999 120.059998 -23.519999 
72646876749704 68.459999 120.059998 -23.519999 
72646896749704 68.459999 120.059998 -23.519999 
72646916749704 68.459999 120.059998 -23.519999 
72646936749704 68.459999 120.059998 -23.519999 
72646956749704 68.459999 120.059998 -23.519999 
72646976749704 68.459999 120.059998 -23.519999 
72646996749704 68.459999 120.059998 -23.519999 
72647016749704 68.459999 120.059998 -23.519999 
72647036749704 68.459999 120.059998 -23.519999 
72647056749704 68.459999 120.059998 -23.519999 
72647076749704 68.459999 120.059998 -23.699999 
72647096749704 68.459999 120.059998 -23.699999 
72647116749704 68.459999 120.059998 -23.699999 
72647136749704 68.459999 120.059998 -23.699999 
72647156749704 68.459999 120.059998 -23.699999 
72647176749704 68.459999 120.059998 -23.699999 
72647196749704 68.459999 120.059998 -23.699999 
72647216749704 68.459999 120.059998 -23.699999 
72647236749704 68.459999 120.059998 -23.699999 
72647256749704 68.459999 120.059998 -23.699999 
72647276749704 68.459999 120.059998 -23.699999 
72647296749704 68.459999 120.059998 -23.699999 
72647316749704 68.459999 120.059998 -23.699999 
72647336749704 68.459999 120.059998 -23.699999 
72647356749704 68.459999 120.059998 -23.699999 
72647376749704 68.459999 120.059998 -23.699999 
72647396749704 68.459999 120.059998 -23.699999 
72647416749704 68.459999 120.059998 -23.699999 
72647436749704 68.459999 120.059998 -23.699999 
72647456749704 68.459999 120.059998 -23.699999 
72647476749704 68.459999 120.059998 -23.699999 
72647496749704 68.459999 120.059998 -23.699999 
72647516749704 68.459999 120.059998 -23.699999 
72647536749704 68.459999 120.059998 -23.699999 
72647556749704 68.459999 120.059998 -23.699999 
72647576749704 68.459999 120.059998 -23.699999 
72647596749704 68.459999 120.059998 -23.699999 
72647616749704 68.459999 120.059998 -23.699999 
72647636749704 68.459999 120.059998 -23.699999 
72647656749704 68.459999 120.059998 -23.699999 
72647676749704 68.459999 120.059998 -23.699999 
72647696749704 68.459999 120.059998 -23.699999 
72647716749704 68.459999 120.059998 -23.699999 
72647736749704 68.459999 120.059998 -23.699999 
72647756749704 68.459999 120.059998 -23.699999 
72647776749704 68.459999 120.059998 -23.699999 
72647796749704 68.459999 120.059998 -23.699999 
72647816749704 68.459999 120.059998 -23.699999 
72647836749704 68.459999 120.059998 -23.699999 
72647856749704 68.459999 120.059998 -23.699999 
72647876749704 68.459999 120.059998 -23.699999 
72647896749704 68.459999 120.059998 -23.699999 
72647916749704 68.459999 120.059998 -23.699999 
72647936749704 68.459999 120.059998 -23.699999 
72647956749704 68.459999 120.059998 -23.699999 
72647976749704 68.459999 120.059998 -23.699999 
72647996749704 68.459999 120.059998 -23.699999 
72648016749704 68.459999 120.059998 -23.699999 
72648036749704 68.459999 120.059998 -23.699999 
72648056749704 68.459999 120.059998 -23.699999 
72648076749704 68.459999 120.059998 -23.699999 
72648096749704 68.459999 120.059998 -23.699999 
72648116749704 68.459999 120.059998 -23.699999 
72648136749704 68.459999 120.059998 -23.699999 
72648156749704 68.459999 120.059998 -23.699999 
72648176749704 68.459999 120.059998 -23.699999 
72648196749704 68.459999 120.059998 -23.699999 
72648216749704 68.459999 120.059998 -23.699999 
72648236749704 68.459999 120.059998 -23.699999 
72648256749704 68.459999 120.059998 -23.699999 
72648276749704 68.459999 120.059998 -23.699999 
72648296749704 68.459999 120.059998 -23.699999 
72648316749704 68.459999 120.059998 -23.699999 
72648336749704 68.459999 120.059998 -23.699999 
72648356749704 68.459999 120.059998 -23.699999 
72648376749704 68.459999 120.059998 -23.699999 
72648396749704 68.459999 120.059998 -23.699999 
72648416749704 68.459999 120.059998 -23.699999 
72648436749704 68.459999 120.059998 -23.699999 
72648456749704 68.459999 120.059998 -23.699999 
72648476749704 68.459999 120.059998 -23.699999 
72648496749704 68.459999 120.059998 -23.699999 
72648516749704 68.459999 120.059998 -23.699999 
72648536749704 68.459999 120.059998 -23.699999 
72648556749704 68.459999 120.059998 -23.699999 
72648576749704 68.459999 120.059998 -23.699999 
72648596749704 68.459999 120.059998 -23.699999 
72648616749704 68.459999 120.059998 -23.699999 
72648636749704 68.459999 120.059998 -23.699999 
72648656749704 68.459999 120.059998 -23.699999 
72648676749704 68.459999 120.059998 -23.699999 
72648696749704 68.459999 120.059998 -23.699999 
72648716749704 68.459999 120.059998 -23.699999 
72648736749704 68.459999 120.059998 -23.699999 
72648756749704 68.459999 120.059998 -23.699999 
72648776749704 68.459999 120.059998 -23.699999 
72648796749704 68.459999 120.059998 -23.699999 
72648816749704 68.459999 120.059998 -23.699999 
72648836749704 68.459999 120.059998 -23.699999 
72648856749704 68.459999 120.059998 -23.699999 
72648876749704 68.459999 120.059998 -23.699999 
72648896749704 68.459999 120.059998 -23.699999 
72648916749704 68.459999 120.059998 -23.699999 
72648936749704 68.459999 120.059998 -23.699999 
72648956749704 68.459999 120.059998 -23.699999 
72648976749704 68.459999 120.059998 -23.699999 
72648996749704 68.459999 120.059998 -23.699999 
72649016749704 68.459999 120.059998 -23.699999 
72649036749704 68.459999 120.059998 -23.699999 
72649056749704 68.459999 120.059998 -23.699999 
72649076749704 68.459999 120.059998 -23.699999 
72649096749704 68.459999 120.059998 -23.699999 
72649116749704 68.459999 120.059998 -23.699999 
72649136749704 68.459999 120.059998 -23.699999 
72649156749704 68.459999 120.059998 -23.699999 
72649176749704 68.459999 120.059998 -23.699999 
72649196749704 68.459999 120.059998 -23.699999 
72649216749704 68.459999 120.059998 -23.699999 
72649236749704 68.459999 120.059998 -23.699999 
72649256749704 68.459999 120.059998 -23.699999 
72649276749704 68.459999 120.059998 -23.699999 
72649296749704 68.459999 120.059998 -23.699999 
72649316749704 68.459999 120.059998 -23.699999 
72649336749704 68.459999 120.059998 -23.699999 
72649356749704 68.459999 120.059998 -23.699999 
72649376749704 68.459999 120.059998 -23.699999 
72649396749704 68.459999 120.059998 -23.699999 
72649416749704 68.459999 120.059998 -23.699999 
72649436749704 68.459999 120.059998 -23.699999 
72649456749704 68.459999 120.059998 -23.699999 
72649476749704 68.459999 120.059998 -23.699999 
72649496749704 68.459999 120.059998 -23.699999 
72649516749704 68.459999 120.059998 -23.699999 
72649536749704 68.459999 120.059998 -23.699999 
72649556749704 68.459999 120.059998 -23.699999 
72649576749704 68.459999 120.059998 -23.699999 
72649596749704 68.459999 120.059998 -23.699999 
72649616749704 68.459999 120.059998 -23.699999 
72649636749704 68.459999 120.059998 -23.699999 
72649656749704 68.459999 120.059998 -23.699999 
72649676749704 68.459999 120.059998 -23.699999 
72649696749704 68.459999 120.059998 -23.699999 
72649716749704 68.459999 120.059998 -23.699999 
72649736749704 68.459999 120.059998 -23.699999 
72649756749704 68.459999 120.059998 -23.699999 
72649776749704 68.459999 120.059998 -23.699999 
72649796749704 68.459999 120.059998 -23.699999 
72649816749704 68.459999 120.059998 -23.699999 
72649836749704 68.459999 120.059998 -23.699999 
72649856749704 68.459999 120.059998 -23.699999 
72649876749704 68.459999 120.059998 -23.699999 
72649896749704 68.459999 120.059998 -23.699999 
72649916749704 68.459999 120.059998 -23.699999 
72649936749704 68.459999 120.059998 -23.699999 
72649956749704 68.459999 120.059998 -23.699999 
72649976749704 68.459999 120.059998 -23.699999 
72649996749704 68.459999 120.059998 -23.699999 
72650016749704 68.459999 120.059998 -23.699999 
72650036749704 68.459999 120.059998 -23.699999 
72650056749704 68.459999 120.059998 -23.699999 
72650076749704 68.459999 120.059998 -23.699999 
72650096749704 68.459999 120.059998 -23.699999 
72650116749704 68.459999 120.059998 -23.699999 
72650136749704 68.459999 120.059998 -23.699999 
72650156749704 68.459999 120.059998 -23.699999 
72650176749704 68.459999 120.059998 -23.699999 
72650196749704 68.459999 120.059998 -23.699999 
72650216749704 68.459999 120.059998 -23.699999 
72650236749704 68.459999 120.059998 -23.699999 
72650256749704 68.459999 120.059998 -23.699999 
72650276749704 68.459999 120.059998 -23.699999 
72650296749704 68.459999 120.059998 -23.699999 
72650316749704 68.459999 120.059998 -23.699999 
72650336749704 68.459999 120.059998 -23.699999 
72650356749704 68.459999 120.059998 -23.699999 
72650376749704 68.459999 120.059998 -23.699999 
72650396749704 68.459999 120.059998 -23.699999 
72650416749704 68.459999 120.059998 -23.699999 
72650436749704 68.459999 120.059998 -23.699999 
72650456749704 68.459999 120.059998 -23.699999 
72650476749704 68.459999 120.059998 -23.699999 
72650496749704 68.459999 120.059998 -23.699999 
72650516749704 68.459999 120.059998 -23.699999 
72650536749704 68.459999 120.059998 -23.699999 
72650556749704 68.459999 120.059998 -23.699999 
72650576749704 68.459999 120.059998 -23.699999 
72650596749704 68.459999 120.059998 -23.699999 
72650616749704 68.459999 120.059998 -23.699999 
72650636749704 68.459999 120.059998 -23.699999 
72650656749704 68.459999 120.059998 -23.699999 
72650676749704 68.459999 120.059998 -23.699999 
72650696749704 68.459999 120.059998 -23.699999 
72650716749704 68.459999 120.059998 -23.699999 
72650736749704 68.459999 120.059998 -23.699999 
72650756749704 68.459999 120.059998 -23.699999 
72650776749704 68.459999 120.059998 -23.699999 
72650796749704 68.459999 120.059998 -23.699999 
72650816749704 68.459999 120.059998 -23.699999 
72650836749704 68.459999 120.059998 -23.699999 
72650856749704 68.459999 120.059998 -23.699999 
72650876749704 68.459999 120.059998 -23.699999 
72650896749704 68.459999 120.059998 -23.699999 
72650916749704 68.459999 120.059998 -23.699999 
72650936749704 68.459999 120.059998 -23.699999 
72650956749704 68.459999 120.059998 -23.699999 
72650976749704 68.459999 120.059998 -23.699999 
72650996749704 68.279999 120.180000 -23.580000 
72651016749704 68.279999 120.180000 -23.580000 
72651036749704 68.279999 120.180000 -23.580000 
72651056749704 68.279999 120.180000 -23.580000 
72651076749704 68.279999 120.180000 -23.580000 
72651096749704 68.279999 120.180000 -23.580000 
72651116749704 68.279999 120.180000 -23.580000 
72651136749704 68.279999 120.180000 -23.580000 
72651156749704 68.279999 120.180000 -23.580000 
72651176749704 68.279999 120.180000 -23.580000 
72651196749704 68.279999 120.180000 -23.580000 
72651216749704 68.279999 120.180000 -23.580000 
72651236749704 68.279999 120.180000 -23.580000 
72651256749704 68.279999 120.180000 -23.580000 
72651276749704 68.279999 120.180000 -23.580000 
72651296749704 68.279999 120.180000 -23.580000 
72651316749704 68.279999 120.180000 -23.580000 
72651336749704 68.279999 120.180000 -23.580000 
72651356749704 68.279999 120.180000 -23.580000 
72651376749704 68.279999 120.180000 -23.580000 
72651396749704 68.279999 120.180000 -23.580000 
72651416749704 68.279999 120.180000 -23.580000 
72651436749704 68.279999 120.180000 -23.580000 
72651456749704 68.279999 120.180000 -23.580000 
72651476749704 68.279999 120.180000 -23.580000 
72651496749704 68.279999 120.180000 -23.580000 
72651516749704 68.279999 120.180000 -23.580000 
72651536749704 68.279999 120.180000 -23.580000 
72651556749704 68.279999 120.180000 -23.580000 
72651576749704 68.279999 120.180000 -23.580000 
72651596749704 68.279999 120.180000 -23.580000 
72651616749704 68.279999 120.180000 -23.580000 
72651636749704 68.279999 120.180000 -23.580000 
72651656749704 68.279999 120.180000 -23.580000 
72651676749704 68.279999 120.180000 -23.580000 
72651696749704 68.279999 120.180000 -23.580000 
72651716749704 68.279999 120.180000 -23.580000 
72651736749704 68.279999 120.180000 -23.580000 
72651756749704 68.279999 120.180000 -23.580000 
72651776749704 68.279999 120.180000 -23.580000 
72651796749704 68.279999 120.180000 -23.580000 
72651816749704 68.279999 120.180000 -23.580000 
72651836749704 68.279999 120.180000 -23.580000 
72651856749704 68.279999 120.180000 -23.580000 
72651876749704 68.279999 120.180000 -23.580000 
72651896749704 68.279999 120.180000 -23.580000 
72651916749704 68.279999 120.180000 -23.580000 
72651936749704 68.279999 120.180000 -23.580000 
72651956749704 68.279999 120.180000 -23.580000 
72651976749704 68.279999 120.180000 -23.580000 
72651996749704 68.220001 120.180000 -23.340000 
72652016749704 68.220001 120.180000 -23.340000 
72652036749704 68.220001 120.180000 -23.340000 
72652056749704 68.220001 120.180000 -23.340000 
72652076749704 68.220001 120.180000 -23.340000 
72652096749704 68.220001 120.180000 -23.340000 
72652116749704 68.220001 120.180000 -23.340000 
72652136749704 68.220001 120.180000 -23.340000 
72652156749704 68.220001 120.180000 -23.340000 
72652176749704 68.220001 120.180000 -23.340000 
72652196749704 68.220001 120.180000 -23.340000 
72652216749704 68.220001 120.180000 -23.340000 
72652236749704 68.220001 120.180000 -23.340000 
72652256749704 68.220001 120.180000 -23.340000 
72652276749704 68.220001 120.180000 -23.340000 
72652296749704 68.220001 120.180000 -23.340000 
72652316749704 68.220001 120.180000 -23.340000 
72652336749704 68.220001 120.180000 -23.340000 
72652356749704 68.220001 120.180000 -23.340000 
72652376749704 68.220001 120.180000 -23.340000 
72652396749704 68.220001 120.180000 -23.340000 
72652416749704 68.220001 120.180000 -23.340000 
72652436749704 68.220001 120.180000 -23.340000 
72652456749704 68.220001 120.180000 -23.340000 
72652476749704 68.220001 120.180000 -23.340000 
72652496749704 68.220001 120.180000 -23.340000 
72652516749704 68.220001 120.180000 -23.340000 
72652536749704 68.220001 120.180000 -23.340000 
72652556749704 68.220001 120.180000 -23.340000 
72652576749704 68.220001 120.180000 -23.340000 
72652596749704 68.220001 120.180000 -23.340000 
72652616749704 68.220001 120.180000 -23.340000 
72652636749704 68.220001 120.180000 -23.340000 
72652656749704 68.220001 120.180000 -23.340000 
72652676749704 67.919998 120.299995 -23.400000 
72652696749704 67.919998 120.299995 -23.400000 
72652716749704 67.919998 120.299995 -23.400000 
72652736749704 67.919998 120.299995 -23.400000 
72652756749704 67.919998 120.299995 -23.400000 
72652776749704 67.919998 120.299995 -23.400000 
72652796749704 67.919998 120.299995 -23.400000 
72652816749704 67.919998 120.299995 -23.400000 
72652836749704 67.919998 120.299995 -23.400000 
72652856749704 67.919998 120.299995 -23.400000 
72652876749704 67.919998 120.299995 -23.400000 
72652896749704 67.919998 120.299995 -23.400000 
72652916749704 67.919998 120.299995 -23.400000 
72652936749704 67.919998 120.299995 -23.400000 
72652956749704 67.919998 120.299995 -23.400000 
72652976749704 67.919998 120.299995 -23.400000 
72652996749704 67.680000 120.419998 -23.639999 
72653016749704 67.680000 120.419998 -23.639999 
72653036749704 67.680000 120.419998 -23.639999 
72653056749704 67.680000 120.419998 -23.639999 
72653076749704 67.680000 120.419998 -23.639999 
72653096749704 67.680000 120.419998 -23.639999 
72653116749704 67.680000 120.419998 -23.639999 
72653136749704 67.680000 120.419998 -23.639999 
72653156749704 67.500000 120.599998 -23.939999 
72653176749704 67.500000 120.599998 -23.939999 
72653196749704 67.500000 120.599998 -23.939999 
72653216749704 67.500000 120.599998 -23.939999 
72653236749704 67.500000 120.599998 -23.939999 
72653256749704 67.500000 120.599998 -23.939999 
72653276749704 67.500000 120.599998 -23.939999 
72653296749704 67.500000 120.599998 -23.939999 
72653316749704 67.500000 120.599998 -23.939999 
72653336749704 67.500000 120.599998 -23.939999 
72653356749704 67.500000 120.599998 -23.939999 
72653376749704 67.500000 120.599998 -23.939999 
72653396749704 67.500000 120.599998 -23.939999 
72653416749704 67.500000 120.599998 -23.939999 
72653436749704 67.500000 120.599998 -23.939999 
72653456749704 67.500000 120.599998 -23.939999 
72653476749704 67.500000 120.599998 -23.939999 
72653496749704 67.500000 120.599998 -23.939999 
72653516749704 67.500000 120.599998 -23.939999 
72653536749704 67.500000 120.599998 -23.939999 
72653556749704 67.500000 120.599998 -23.939999 
72653576749704 67.500000 120.599998 -23.939999 
72653596749704 67.260002 120.779999 -24.119999 
72653616749704 67.260002 120.779999 -24.119999 
72653636749704 67.260002 120.779999 -24.119999 
72653656749704 67.260002 120.779999 -24.119999 
72653676749704 67.260002 120.779999 -24.119999 
72653696749704 67.260002 120.779999 -24.119999 
72653716749704 67.260002 120.779999 -24.119999 
72653736749704 67.260002 120.779999 -24.119999 
72653756749704 67.260002 120.779999 -24.119999 
72653776749704 67.260002 120.779999 -24.119999 
72653796749704 67.260002 120.779999 -24.119999 
72653816749704 67.260002 120.779999 -24.119999 
72653836749704 67.260002 120.779999 -24.119999 
72653856749704 67.260002 120.779999 -24.119999 
72653876749704 67.260002 120.779999 -24.119999 
72653896749704 67.260002 120.779999 -24.119999 
72653916749704 67.260002 120.779999 -24.119999 
72653936749704 67.260002 120.779999 -24.119999 
72653956749704 67.260002 120.779999 -24.119999 
72653976749704 67.260002 120.779999 -24.119999 
72653996749704 67.260002 120.779999 -24.119999 
72654016749704 67.260002 120.779999 -24.119999 
72654036749704 67.260002 120.779999 -24.119999 
72654056749704 67.260002 120.779999 -24.119999 
72654076749704 67.260002 120.779999 -24.119999 
72654096749704 67.260002 120.779999 -24.119999 
72654116749704 67.260002 120.779999 -24.119999 
72654136749704 67.260002 120.779999 -24.119999 
72654156749704 67.260002 120.779999 -24.119999 
72654176749704 67.260002 120.779999 -24.119999 
72654196749704 67.260002 120.779999 -24.119999 
72654216749704 67.260002 120.779999 -24.119999 
72654236749704 67.260002 120.779999 -24.119999 
72654256749704 67.260002 120.779999 -24.119999 
72654276749704 67.260002 120.779999 -24.119999 
72654296749704 67.260002 120.779999 -24.119999 
72654316749704 67.260002 120.779999 -24.119999 
72654336749704 67.260002 120.779999 -24.119999 
72654356749704 67.260002 120.779999 -24.119999 
72654376749704 67.260002 120.779999 -24.119999 
72654396749704 67.260002 120.779999 -24.119999 
72654416749704 67.260002 120.779999 -24.119999 
72654436749704 67.260002 120.779999 -24.119999 
72654456749704 67.260002 120.779999 -24.119999 
72654476749704 67.260002 120.779999 -24.119999 
72654496749704 67.260002 120.779999 -24.119999 
72654516749704 67.260002 120.779999 -24.119999 
72654536749704 67.260002 120.779999 -24.119999 
72654556749704 67.260002 120.779999 -24.119999 
72654576749704 67.260002 120.779999 -24.119999 
72654596749704 67.260002 120.779999 -24.119999 
72654616749704 67.260002 120.779999 -24.119999 
72654636749704 67.260002 120.779999 -24.119999 
72654656749704 67.260002 120.779999 -24.119999 
72654676749704 67.260002 120.779999 -24.119999 
72654696749704 67.260002 120.779999 -24.119999 
72654716749704 67.260002 120.779999 -24.119999 
72654736749704 67.260002 120.779999 -24.119999 
72654756749704 67.260002 120.779999 -24.119999 
72654776749704 67.260002 120.779999 -24.119999 
72654796749704 67.260002 120.779999 -24.119999 
72654816749704 67.260002 120.779999 -24.119999 
72654836749704 67.260002 120.779999 -24.119999 
72654856749704 67.260002 120.779999 -24.119999 
72654876749704 67.260002 120.779999 -24.119999 
72654896749704 67.260002 120.779999 -24.119999 
72654916749704 67.260002 120.779999 -24.119999 
72654936749704 67.260002 120.779999 -24.119999 
72654956749704 67.260002 120.779999 -24.119999 
72654976749704 67.260002 120.779999 -24.119999 
72654996749704 67.260002 120.779999 -24.119999 
72655016749704 67.260002 120.779999 -24.119999 
72655036749704 67.260002 120.779999 -24.119999 
72655056749704 67.260002 120.779999 -24.119999 
72655076749704 67.260002 120.779999 -24.119999 
72655096749704 67.260002 120.779999 -24.119999 
72655116749704 67.260002 120.779999 -24.119999 
72655136749704 67.260002 120.779999 -24.119999 
72655156749704 67.260002 120.779999 -24.119999 
72655176749704 67.260002 120.779999 -24.119999 
72655196749704 67.260002 120.779999 -24.119999 
72655216749704 67.260002 120.779999 -24.119999 
72655236749704 67.260002 120.779999 -24.119999 
72655256749704 67.260002 120.779999 -24.119999 
72655276749704 67.260002 120.779999 -24.119999 
72655296749704 67.260002 120.779999 -24.119999 
72655316749704 67.260002 120.779999 -24.119999 
72655336749704 67.260002 120.779999 -24.119999 
72655356749704 67.260002 120.779999 -24.119999 
72655376749704 67.260002 120.779999 -24.119999 
72655396749704 67.260002 120.779999 -24.119999 
72655416749704 67.260002 120.779999 -24.119999 
72655436749704 67.260002 120.779999 -24.119999 
72655456749704 67.260002 120.779999 -24.119999 
72655476749704 67.260002 120.779999 -24.119999 
72655496749704 67.260002 120.779999 -24.119999 
72655516749704 67.260002 120.779999 -24.119999 
72655536749704 67.260002 120.779999 -24.119999 
72655556749704 67.260002 120.779999 -24.119999 
72655576749704 67.260002 120.779999 -24.119999 
72655596749704 67.260002 120.779999 -24.119999 
72655616749704 67.260002 120.779999 -24.119999 
72655636749704 67.260002 120.779999 -24.119999 
72655656749704 67.260002 120.779999 -24.119999 
72655676749704 67.260002 120.779999 -24.119999 
72655696749704 67.260002 120.779999 -24.119999 
72655716749704 67.260002 120.779999 -24.119999 
72655736749704 67.260002 120.779999 -24.119999 
72655756749704 67.260002 120.779999 -24.119999 
72655776749704 67.260002 120.779999 -24.119999 
72655796749704 67.379997 121.019997 -24.299999 
72655816749704 67.379997 121.019997 -24.299999 
72655836749704 67.379997 121.019997 -24.299999 
72655856749704 67.379997 121.019997 -24.299999 
72655876749704 67.379997 121.019997 -24.299999 
72655896749704 67.379997 121.019997 -24.299999 
72655916749704 67.379997 121.019997 -24.299999 
72655936749704 67.379997 121.019997 -24.299999 
72655956749704 67.379997 121.019997 -24.299999 
72655976749704 67.379997 121.019997 -24.299999 
72655996749704 67.379997 121.019997 -24.299999 
72656016749704 67.379997 121.019997 -24.299999 
72656036749704 67.379997 121.019997 -24.299999 
72656056749704 67.379997 121.019997 -24.299999 
72656076749704 67.379997 121.019997 -24.299999 
72656096749704 67.379997 121.019997 -24.299999 
72656116749704 67.379997 121.019997 -24.299999 
72656136749704 67.379997 121.019997 -24.299999 
72656156749704 67.379997 121.019997 -24.299999 
72656176749704 67.379997 121.019997 -24.299999 
72656196749704 67.379997 121.019997 -24.299999 
72656216749704 67.379997 121.019997 -24.299999 
72656236749704 67.379997 121.019997 -24.299999 
72656256749704 67.379997 121.019997 -24.299999 
72656276749704 67.379997 121.019997 -24.299999 
72656296749704 67.379997 121.019997 -24.299999 
72656316749704 67.379997 121.019997 -24.299999 
72656336749704 67.379997 121.019997 -24.299999 
72656356749704 67.379997 121.019997 -24.299999 
72656376749704 67.379997 121.019997 -24.299999 
72656396749704 67.379997 121.019997 -24.299999 
72656416749704 67.379997 121.019997 -24.299999 
72656436749704 67.379997 121.019997 -24.299999 
72656456749704 67.379997 121.019997 -24.299999 
72656476749704 67.379997 121.019997 -24.299999 
72656496749704 67.379997 121.019997 -24.299999 
72656516749704 67.379997 121.019997 -24.299999 
72656536749704 67.379997 121.019997 -24.299999 
72656556749704 67.379997 121.019997 -24.299999 
72656576749704 67.379997 121.019997 -24.299999 
72656596749704 67.379997 121.019997 -24.299999 
72656616749704 67.379997 121.019997 -24.299999 
72656636749704 67.379997 121.019997 -24.299999 
72656656749704 67.379997 121.019997 -24.299999 
72656676749704 67.379997 121.019997 -24.299999 
72656696749704 67.379997 121.019997 -24.299999 
72656716749704 67.379997 121.019997 -24.299999 
72656736749704 67.379997 121.019997 -24.299999 
72656756749704 67.379997 121.019997 -24.299999 
72656776749704 67.379997 121.019997 -24.299999 
72656796749704 67.379997 121.019997 -24.299999 
72656816749704 67.379997 121.019997 -24.299999 
72656836749704 67.379997 121.019997 -24.299999 
72656856749704 67.379997 121.019997 -24.299999 
72656876749704 67.379997 121.019997 -24.299999 
72656896749704 67.379997 121.019997 -24.299999 
72656916749704 67.379997 121.019997 -24.299999 
72656936749704 67.379997 121.019997 -24.299999 
72656956749704 67.379997 121.019997 -24.299999 
72656976749704 67.379997 121.019997 -24.299999 
72656996749704 67.379997 121.019997 -24.299999 
72657016749704 67.379997 121.019997 -24.299999 
72657036749704 67.379997 121.019997 -24.299999 
72657056749704 67.379997 121.019997 -24.299999 
72657076749704 67.379997 121.019997 -24.299999 
72657096749704 67.379997 121.019997 -24.299999 
72657116749704 67.379997 121.019997 -24.299999 
72657136749704 67.379997 121.019997 -24.299999 
72657156749704 67.379997 121.019997 -24.299999 
72657176749704 67.379997 121.019997 -24.299999 
72657196749704 67.379997 121.019997 -24.299999 
72657216749704 67.379997 121.019997 -24.299999 
72657236749704 67.379997 121.019997 -24.299999 
72657256749704 67.379997 121.019997 -24.299999 
72657276749704 67.379997 121.019997 -24.299999 
72657296749704 67.379997 121.019997 -24.299999 
72657316749704 67.379997 121.019997 -24.299999 
72657336749704 67.379997 121.019997 -24.299999 
72657356749704 67.379997 121.019997 -24.299999 
72657376749704 67.379997 121.019997 -24.299999 
72657396749704 67.379997 121.019997 -24.299999 
72657416749704 67.379997 121.019997 -24.299999 
72657436749704 67.379997 121.019997 -24.299999 
72657456749704 67.379997 121.019997 -24.299999 
72657476749704 67.379997 121.019997 -24.299999 
72657496749704 67.379997 121.019997 -24.299999 
72657516749704 67.379997 121.019997 -24.299999 
72657536749704 67.379997 121.019997 -24.299999 
72657556749704 67.379997 121.019997 -24.299999 
72657576749704 67.379997 121.019997 -24.299999 
72657596749704 67.379997 121.019997 -24.299999 
72657616749704 67.379997 121.019997 -24.299999 
72657636749704 67.379997 121.019997 -24.299999 
72657656749704 67.379997 121.019997 -24.299999 
72657676749704 67.379997 121.019997 -24.299999 
72657696749704 67.379997 121.019997 -24.299999 
72657716749704 67.379997 121.019997 -24.299999 
72657736749704 67.379997 121.019997 -24.299999 
72657756749704 67.379997 121.019997 -24.299999 
72657776749704 67.379997 121.019997 -24.299999 
72657796749704 67.379997 121.019997 -24.299999 
72657816749704 67.379997 121.019997 -24.299999 
72657836749704 67.379997 121.019997 -24.299999 
72657856749704 67.379997 121.019997 -24.299999 
72657876749704 67.379997 121.019997 -24.299999 
72657896749704 67.379997 121.019997 -24.299999 
72657916749704 67.379997 121.019997 -24.299999 
72657936749704 67.379997 121.019997 -24.299999 
72657956749704 67.379997 121.019997 -24.299999 
72657976749704 67.379997 121.019997 -24.299999 
72657996749704 67.379997 121.019997 -24.299999 
72658016749704 67.379997 121.019997 -24.299999 
72658036749704 67.379997 121.019997 -24.299999 
72658056749704 67.379997 121.019997 -24.299999 
72658076749704 67.379997 121.019997 -24.299999 
72658096749704 67.379997 121.019997 -24.299999 
72658116749704 67.379997 121.019997 -24.299999 
72658136749704 67.379997 121.019997 -24.299999 
72658156749704 67.379997 121.019997 -24.299999 
72658176749704 67.379997 121.019997 -24.299999 
72658196749704 67.379997 121.019997 -24.299999 
72658216749704 67.379997 121.019997 -24.299999 
72658236749704 67.379997 121.019997 -24.299999 
72658256749704 67.379997 121.019997 -24.299999 
72658276749704 67.379997 121.019997 -24.299999 
72658296749704 67.379997 121.019997 -24.299999 
72658316749704 67.379997 121.019997 -24.299999 
72658336749704 67.379997 121.019997 -24.299999 
72658356749704 67.379997 121.019997 -24.299999 
72658376749704 67.379997 121.019997 -24.299999 
72658396749704 67.379997 121.019997 -24.299999 
72658416749704 67.379997 121.019997 -24.299999 
72658436749704 67.379997 121.019997 -24.299999 
72658456749704 67.379997 121.019997 -24.299999 
72658476749704 67.379997 121.019997 -24.299999 
72658496749704 67.379997 121.019997 -24.299999 
72658516749704 67.379997 121.019997 -24.299999 
72658536749704 67.379997 121.019997 -24.299999 
72658556749704 67.379997 121.019997 -24.299999 
72658576749704 67.379997 121.019997 -24.299999 
72658596749704 67.379997 121.019997 -24.299999 
72658616749704 67.379997 121.019997 -24.299999 
72658636749704 67.379997 121.019997 -24.299999 
72658656749704 67.379997 121.019997 -24.299999 
72658676749704 67.379997 121.019997 -24.299999 
72658696749704 67.379997 121.019997 -24.299999 
72658716749704 67.379997 121.019997 -24.299999 
72658736749704 67.379997 121.019997 -24.299999 
72658756749704 67.379997 121.019997 -24.299999 
72658776749704 67.379997 121.019997 -24.299999 
72658796749704 67.379997 121.019997 -24.299999 
72658816749704 67.379997 121.019997 -24.299999 
72658836749704 67.379997 121.019997 -24.299999 
72658856749704 67.379997 121.019997 -24.299999 
72658876749704 67.379997 121.019997 -24.299999 
72658896749704 67.379997 121.019997 -24.299999 
72658916749704 67.379997 121.019997 -24.299999 
72658936749704 67.379997 121.019997 -24.299999 
72658956749704 67.379997 121.019997 -24.299999 
72658976749704 67.379997 121.019997 -24.299999 
72658996749704 67.379997 121.019997 -24.299999 
72659016749704 67.379997 121.019997 -24.299999 
72659036749704 67.379997 121.019997 -24.299999 
72659056749704 67.379997 121.019997 -24.299999 
72659076749704 67.379997 121.019997 -24.299999 
72659096749704 67.379997 121.019997 -24.299999 
72659116749704 67.379997 121.019997 -24.299999 
72659136749704 67.379997 121.019997 -24.299999 
72659156749704 67.379997 121.019997 -24.299999 
72659176749704 67.379997 121.019997 -24.299999 
72659196749704 67.379997 121.019997 -24.299999 
72659216749704 67.379997 121.019997 -24.299999 
72659236749704 67.379997 121.019997 -24.299999 
72659256749704 67.379997 121.019997 -24.299999 
72659276749704 67.379997 121.019997 -24.299999 
72659296749704 67.379997 121.019997 -24.299999 
72659316749704 67.379997 121.019997 -24.299999 
72659336749704 67.379997 121.019997 -24.299999 
72659356749704 67.379997 121.019997 -24.299999 
72659376749704 67.379997 121.019997 -24.299999 
72659396749704 67.379997 121.019997 -24.299999 
72659416749704 67.379997 121.019997 -24.299999 
72659436749704 67.379997 121.019997 -24.299999 
72659456749704 67.379997 121.019997 -24.299999 
72659476749704 67.379997 121.019997 -24.299999 
72659496749704 67.379997 121.019997 -24.299999 
72659516749704 67.379997 121.019997 -24.299999 
72659536749704 67.379997 121.019997 -24.299999 
72659556749704 67.379997 121.019997 -24.299999 
72659576749704 67.379997 121.019997 -24.299999 
72659596749704 67.379997 121.019997 -24.299999 
72659616749704 67.379997 121.019997 -24.299999 
72659636749704 67.379997 121.019997 -24.299999 
72659656749704 67.379997 121.019997 -24.299999 
72659676749704 67.379997 121.019997 -24.299999 
72659696749704 67.379997 121.019997 -24.299999 
72659716749704 67.379997 121.019997 -24.299999 
72659736749704 67.379997 121.019997 -24.299999 
72659756749704 67.379997 121.019997 -24.299999 
72659776749704 67.379997 121.019997 -24.299999 
72659796749704 67.379997 121.019997 -24.299999 
72659816749704 67.379997 121.019997 -24.299999 
72659836749704 67.379997 121.019997 -24.299999 
72659856749704 67.379997 121.019997 -24.299999 
72659876749704 67.379997 121.019997 -24.299999 
72659896749704 67.379997 121.019997 -24.299999 
72659916749704 67.379997 121.019997 -24.299999 
72659936749704 67.379997 121.019997 -24.299999 
72659956749704 67.379997 121.019997 -24.299999 
72659976749704 67.379997 121.019997 -24.299999 
72659996749704 67.379997 121.019997 -24.299999 
72660016749704 67.379997 121.019997 -24.299999 
72660036749704 67.379997 121.019997 -24.299999 
72660056749704 67.379997 121.019997 -24.299999 
72660076749704 67.379997 121.019997 -24.299999 
72660096749704 67.379997 121.019997 -24.299999 
72660116749704 67.379997 121.019997 -24.299999 
72660136749704 67.379997 121.019997 -24.299999 
72660156749704 67.379997 121.019997 -24.299999 
72660176749704 67.379997 121.019997 -24.299999 
72660196749704 67.379997 121.019997 -24.299999 
72660216749704 67.379997 121.019997 -24.299999 
72660236749704 67.379997 121.019997 -24.299999 
72660256749704 67.379997 121.019997 -24.299999 
72660276749704 67.379997 121.019997 -24.299999 
72660296749704 67.379997 121.019997 -24.299999 
72660316749704 67.379997 121.019997 -24.299999 
72660336749704 67.379997 121.019997 -24.299999 
72660356749704 67.379997 121.019997 -24.299999 
72660376749704 67.379997 121.019997 -24.299999 
72660396749704 67.379997 121.019997 -24.299999 
72660416749704 67.379997 121.019997 -24.299999 
72660436749704 67.379997 121.019997 -24.299999 
72660456749704 67.379997 121.019997 -24.299999 
72660476749704 67.379997 121.019997 -24.299999 
72660496749704 67.379997 121.019997 -24.299999 
72660516749704 67.379997 121.019997 -24.299999 
72660536749704 67.379997 121.019997 -24.299999 
72660556749704 67.379997 121.019997 -24.299999 
72660576749704 67.379997 121.019997 -24.299999 
72660596749704 67.559998 120.899994 -24.180000 
72660616749704 67.559998 120.899994 -24.180000 
72660636749704 67.559998 120.899994 -24.180000 
72660656749704 67.559998 120.899994 -24.180000 
72660676749704 67.559998 120.899994 -24.180000 
72660696749704 67.559998 120.899994 -24.180000 
72660716749704 67.559998 120.899994 -24.180000 
72660736749704 67.559998 120.899994 -24.180000 
72660756749704 67.559998 120.899994 -24.180000 
72660776749704 67.559998 120.899994 -24.180000 
72660796749704 67.559998 120.899994 -24.180000 
72660816749704 67.559998 120.899994 -24.180000 
72660836749704 67.559998 120.899994 -24.180000 
72660856749704 67.559998 120.899994 -24.180000 
72660876749704 67.559998 120.899994 -24.180000 
72660896749704 67.559998 120.899994 -24.180000 
72660916749704 67.680000 120.839996 -23.939999 
72660936749704 67.680000 120.839996 -23.939999 
72660956749704 67.680000 120.839996 -23.939999 
72660976749704 67.680000 120.839996 -23.939999 
72660996749704 67.680000 120.839996 -23.939999 
72661016749704 67.680000 120.839996 -23.939999 
72661036749704 67.680000 120.839996 -23.939999 
72661056749704 67.680000 120.839996 -23.939999 
72661076749704 67.680000 120.839996 -23.939999 
72661096749704 67.680000 120.839996 -23.939999 
72661116749704 67.680000 120.839996 -23.939999 
72661136749704 67.680000 120.839996 -23.939999 
72661156749704 67.680000 120.839996 -23.939999 
72661176749704 67.680000 120.839996 -23.939999 
72661196749704 67.680000 120.839996 -23.939999 
72661216749704 67.680000 120.839996 -23.939999 
72661236749704 67.680000 120.839996 -23.939999 
72661256749704 67.680000 120.839996 -23.939999 
72661276749704 67.680000 120.839996 -23.939999 
72661296749704 67.680000 120.839996 -23.939999 
72661316749704 67.680000 120.839996 -23.939999 
72661336749704 67.680000 120.839996 -23.939999 
72661356749704 67.680000 120.839996 -23.939999 
72661376749704 67.680000 120.839996 -23.939999 
72661396749704 67.680000 120.839996 -23.939999 
72661416749704 67.680000 120.839996 -23.939999 
72661436749704 67.680000 120.839996 -23.939999 
72661456749704 67.680000 120.839996 -23.939999 
72661476749704 67.680000 120.839996 -23.939999 
72661496749704 67.680000 120.839996 -23.939999 
72661516749704 67.680000 120.839996 -23.939999 
72661536749704 67.680000 120.839996 -23.939999 
72661556749704 67.680000 120.839996 -23.939999 
72661576749704 67.680000 120.839996 -23.939999 
72661596749704 67.680000 120.839996 -23.939999 
72661616749704 67.680000 120.839996 -23.939999 
72661636749704 67.680000 120.839996 -23.939999 
72661656749704 67.680000 120.839996 -23.939999 
72661676749704 67.680000 120.839996 -23.939999 
72661696749704 67.680000 120.839996 -23.939999 
72661716749704 67.680000 120.839996 -23.939999 
72661736749704 67.680000 120.839996 -23.939999 
72661756749704 67.680000 120.839996 -23.939999 
72661776749704 67.680000 120.839996 -23.939999 
72661796749704 67.680000 120.839996 -23.939999 
72661816749704 67.680000 120.839996 -23.939999 
72661836749704 67.680000 120.839996 -23.939999 
72661856749704 67.680000 120.839996 -23.939999 
72661876749704 67.680000 120.839996 -23.939999 
72661896749704 67.680000 120.839996 -23.939999 
72661916749704 67.680000 120.839996 -23.939999 
72661936749704 67.680000 120.839996 -23.939999 
72661956749704 67.680000 120.839996 -23.939999 
72661976749704 67.680000 120.839996 -23.939999 
72661996749704 67.680000 120.839996 -23.939999 
72662016749704 67.680000 120.839996 -23.939999 
72662036749704 67.680000 120.839996 -23.939999 
72662056749704 67.680000 120.839996 -23.939999 
72662076749704 67.680000 120.839996 -23.939999 
72662096749704 67.680000 120.839996 -23.939999 
72662116749704 67.680000 120.839996 -23.939999 
72662136749704 67.680000 120.839996 -23.939999 
72662156749704 67.680000 120.839996 -23.939999 
72662176749704 67.680000 120.839996 -23.939999 
72662196749704 67.680000 120.839996 -23.939999 
72662216749704 67.680000 120.839996 -23.939999 
72662236749704 67.680000 120.839996 -23.939999 
72662256749704 67.680000 120.839996 -23.939999 
72662276749704 67.680000 120.839996 -23.939999 
72662296749704 67.680000 120.839996 -23.939999 
72662316749704 67.680000 120.839996 -23.939999 
72662336749704 67.680000 120.839996 -23.939999 
72662356749704 67.680000 120.839996 -23.939999 
72662376749704 67.680000 120.839996 -23.939999 
72662396749704 67.680000 120.839996 -23.939999 
72662416749704 67.680000 120.839996 -23.939999 
72662436749704 67.680000 120.839996 -23.939999 
72662456749704 67.680000 120.839996 -23.939999 
72662476749704 67.680000 120.839996 -23.939999 
72662496749704 67.680000 120.839996 -23.939999 
72662516749704 67.680000 120.839996 -23.939999 
72662536749704 67.680000 120.839996 -23.939999 
72662556749704 67.680000 120.839996 -23.939999 
72662576749704 67.680000 120.839996 -23.939999 
72662596749704 67.680000 120.839996 -23.939999 
72662616749704 67.680000 120.839996 -23.939999 
72662636749704 67.680000 120.839996 -23.939999 
72662656749704 67.680000 120.839996 -23.939999 
72662676749704 67.680000 120.839996 -23.939999 
72662696749704 67.680000 120.839996 -23.939999 
72662716749704 67.680000 120.839996 -23.939999 
72662736749704 67.680000 120.839996 -23.939999 
72662756749704 67.680000 120.839996 -23.939999 
72662776749704 67.680000 120.839996 -23.939999 
72662796749704 67.680000 120.839996 -23.939999 
72662816749704 67.680000 120.839996 -23.939999 
72662836749704 67.680000 120.839996 -23.939999 
72662856749704 67.680000 120.839996 -23.939999 
72662876749704 67.680000 120.839996 -23.939999 
72662896749704 67.680000 120.839996 -23.939999 
72662916749704 67.680000 120.839996 -23.939999 
72662936749704 67.680000 120.839996 -23.939999 
72662956749704 67.680000 120.839996 -23.939999 
72662976749704 67.680000 120.839996 -23.939999 
72662996749704 67.680000 120.839996 -23.939999 
72663016749704 67.680000 120.839996 -23.939999 
72663036749704 67.680000 120.839996 -23.939999 
72663056749704 67.680000 120.839996 -23.939999 
72663076749704 67.680000 120.839996 -23.939999 
72663096749704 67.680000 120.839996 -23.939999 
72663116749704 67.680000 120.839996 -23.939999 
72663136749704 67.680000 120.839996 -23.939999 
72663156749704 67.680000 120.839996 -23.939999 
72663176749704 67.680000 120.839996 -23.939999 
72663196749704 67.680000 120.839996 -23.939999 
72663216749704 67.680000 120.839996 -23.939999 
72663236749704 67.680000 120.839996 -23.939999 
72663256749704 67.680000 120.839996 -23.939999 
72663276749704 67.680000 120.839996 -23.939999 
72663296749704 67.680000 120.839996 -23.939999 
72663316749704 67.680000 120.839996 -23.939999 
72663336749704 67.680000 120.839996 -23.939999 
72663356749704 67.680000 120.839996 -23.939999 
72663376749704 67.680000 120.839996 -23.939999 
72663396749704 67.680000 120.839996 -23.939999 
72663416749704 67.680000 120.839996 -23.939999 
72663436749704 67.680000 120.839996 -23.939999 
72663456749704 67.680000 120.839996 -23.939999 
72663476749704 67.680000 120.839996 -23.939999 
72663496749704 67.680000 120.839996 -23.939999 
72663516749704 67.680000 120.839996 -23.939999 
72663536749704 67.680000 120.839996 -23.939999 
72663556749704 67.680000 120.839996 -23.939999 
72663576749704 67.680000 120.839996 -23.939999 
72663596749704 67.680000 120.839996 -23.939999 
72663616749704 67.680000 120.839996 -23.939999 
72663636749704 67.680000 120.839996 -23.939999 
72663656749704 67.680000 120.839996 -23.939999 
72663676749704 67.680000 120.839996 -23.939999 
72663696749704 67.680000 120.839996 -23.939999 
72663716749704 67.680000 120.839996 -23.939999 
72663736749704 67.680000 120.839996 -23.939999 
72663756749704 67.680000 120.839996 -23.939999 
72663776749704 67.680000 120.839996 -23.939999 
72663796749704 67.680000 120.839996 -23.939999 
72663816749704 67.680000 120.839996 -23.939999 
72663836749704 67.680000 120.839996 -23.939999 
72663856749704 67.680000 120.839996 -23.939999 
72663876749704 67.680000 120.839996 -23.939999 
72663896749704 67.680000 120.839996 -23.939999 
72663916749704 67.680000 120.839996 -23.939999 
72663936749704 67.680000 120.839996 -23.939999 
72663956749704 67.680000 120.839996 -23.939999 
72663976749704 67.680000 120.839996 -23.939999 
72663996749704 67.680000 120.839996 -23.939999 
72664016749704 67.680000 120.839996 -23.939999 
72664036749704 67.680000 120.839996 -23.939999 
72664056749704 67.680000 120.839996 -23.939999 
72664076749704 67.680000 120.839996 -23.939999 
72664096749704 67.680000 120.839996 -23.939999 
72664116749704 67.680000 120.839996 -23.939999 
72664136749704 67.680000 120.839996 -23.939999 
72664156749704 67.680000 120.839996 -23.939999 
72664176749704 67.680000 120.839996 -23.939999 
72664196749704 67.680000 120.839996 -23.939999 
72664216749704 67.680000 120.839996 -23.939999 
72664236749704 67.680000 120.839996 -23.939999 
72664256749704 67.680000 120.839996 -23.939999 
72664276749704 67.680000 120.839996 -23.939999 
72664296749704 67.680000 120.839996 -23.939999 
72664316749704 67.680000 120.839996 -23.939999 
72664336749704 67.680000 120.839996 -23.939999 
72664356749704 67.680000 120.839996 -23.939999 
72664376749704 67.680000 120.839996 -23.939999 
72664396749704 67.680000 120.839996 -23.939999 
72664416749704 67.680000 120.839996 -23.939999 
72664436749704 67.680000 120.839996 -23.939999 
72664456749704 67.680000 120.839996 -23.939999 
72664476749704 67.680000 120.839996 -23.939999 
72664496749704 67.680000 120.839996 -23.939999 
72664516749704 67.680000 120.839996 -23.939999 
72664536749704 67.680000 120.839996 -23.939999 
72664556749704 67.680000 120.839996 -23.939999 
72664576749704 67.680000 120.839996 -23.939999 
72664596749704 67.680000 120.839996 -23.939999 
72664616749704 67.680000 120.839996 -23.939999 
72664636749704 67.680000 120.839996 -23.939999 
72664656749704 67.680000 120.839996 -23.939999 
72664676749704 67.680000 120.839996 -23.939999 
72664696749704 67.680000 120.839996 -23.939999 
72664716749704 67.680000 120.839996 -23.939999 
72664736749704 67.680000 120.839996 -23.939999 
72664756749704 67.680000 120.839996 -23.939999 
72664776749704 67.680000 120.839996 -23.939999 
72664796749704 67.680000 120.839996 -23.939999 
72664816749704 67.680000 120.839996 -23.939999 
72664836749704 67.680000 120.839996 -23.939999 
72664856749704 67.680000 120.839996 -23.939999 
72664876749704 67.680000 120.839996 -23.939999 
72664896749704 67.680000 120.839996 -23.939999 
72664916749704 67.680000 120.839996 -23.939999 
72664936749704 67.680000 120.839996 -23.939999 
72664956749704 67.680000 120.839996 -23.939999 
72664976749704 67.680000 120.839996 -23.939999 
72664996749704 67.680000 120.839996 -23.939999 
72665016749704 67.680000 120.839996 -23.939999 
72665036749704 67.680000 120.839996 -23.939999 
72665056749704 67.680000 120.839996 -23.939999 
72665076749704 67.680000 120.839996 -23.939999 
72665096749704 67.680000 120.839996 -23.939999 
72665116749704 67.680000 120.839996 -23.939999 
