# Created at Fri Jan 31 08:47:40 GMT+01:00 2025 in Burnaby Canada 
72030256750007 68.159996 119.219994 -26.639999 
72030276750007 68.159996 119.219994 -26.639999 
72030296750007 68.159996 119.219994 -26.639999 
72030316750007 68.159996 119.219994 -26.639999 
72030336750007 68.159996 119.219994 -26.639999 
72030356750007 68.159996 119.219994 -26.639999 
72030376750007 68.159996 119.219994 -26.639999 
72030396750007 68.159996 119.219994 -26.639999 
72030416750007 68.159996 119.219994 -26.639999 
72030436750007 68.159996 119.219994 -26.639999 
72030456750007 68.159996 119.219994 -26.639999 
72030476750007 68.159996 119.219994 -26.639999 
72030496750007 68.159996 119.219994 -26.639999 
72030516750007 68.159996 119.219994 -26.639999 
72030536750007 68.159996 119.219994 -26.639999 
72030556750007 68.159996 119.219994 -26.639999 
72030576750007 68.159996 119.219994 -26.639999 
72030596750007 68.159996 119.219994 -26.639999 
72030616750007 68.159996 119.219994 -26.639999 
72030636750007 68.159996 119.219994 -26.639999 
72030656750007 68.159996 119.219994 -26.639999 
72030676750007 68.159996 119.219994 -26.639999 
72030696750007 68.159996 119.219994 -26.639999 
72030716750007 68.159996 119.219994 -26.639999 
72030736750007 68.159996 119.219994 -26.639999 
72030756750007 68.159996 119.219994 -26.639999 
72030776750007 68.159996 119.219994 -26.639999 
72030796750007 67.860001 118.979996 -26.459999 
72030816750007 67.860001 118.979996 -26.459999 
72030836750007 67.860001 118.979996 -26.459999 
72030856750007 67.860001 118.979996 -26.459999 
72030876750007 67.500000 118.739998 -26.279999 
72030896750007 67.500000 118.739998 -26.279999 
72030916750007 67.500000 118.739998 -26.279999 
72030936750007 67.500000 118.739998 -26.279999 
72030956750007 67.500000 118.739998 -26.279999 
72030976750007 67.500000 118.739998 -26.279999 
72030996750007 67.500000 118.739998 -26.279999 
72031016750007 67.500000 118.739998 -26.279999 
72031036750007 67.500000 118.739998 -26.279999 
72031056750007 67.500000 118.739998 -26.279999 
72031076750007 67.500000 118.739998 -26.279999 
72031096750007 67.500000 118.739998 -26.279999 
72031116750007 67.500000 118.739998 -26.279999 
72031136750007 67.500000 118.739998 -26.279999 
72031156750007 67.500000 118.739998 -26.279999 
72031176750007 67.500000 118.739998 -26.279999 
72031196750007 67.500000 118.739998 -26.279999 
72031216750007 67.500000 118.739998 -26.279999 
72031236750007 67.500000 118.739998 -26.279999 
72031256750007 67.500000 118.739998 -26.279999 
72031276750007 67.500000 118.739998 -26.279999 
72031296750007 67.500000 118.739998 -26.279999 
72031316750007 67.500000 118.739998 -26.279999 
72031336750007 67.500000 118.739998 -26.279999 
72031356750007 67.500000 118.739998 -26.279999 
72031376750007 67.500000 118.739998 -26.279999 
72031396750007 67.500000 118.739998 -26.279999 
72031416750007 67.500000 118.739998 -26.279999 
72031436750007 67.500000 118.739998 -26.279999 
72031456750007 67.500000 118.739998 -26.279999 
72031476750007 67.500000 118.739998 -26.279999 
72031496750007 67.500000 118.739998 -26.279999 
72031516750007 67.500000 118.739998 -26.279999 
72031536750007 67.500000 118.739998 -26.279999 
72031556750007 67.500000 118.739998 -26.279999 
72031576750007 67.500000 118.739998 -26.279999 
72031596750007 67.500000 118.739998 -26.279999 
72031616750007 67.500000 118.739998 -26.279999 
72031636750007 67.500000 118.739998 -26.279999 
72031656750007 67.500000 118.739998 -26.279999 
72031676750007 67.500000 118.739998 -26.279999 
72031696750007 67.500000 118.739998 -26.279999 
72031716750007 67.500000 118.739998 -26.279999 
72031736750007 67.500000 118.739998 -26.279999 
72031756750007 67.500000 118.739998 -26.279999 
72031776750007 67.500000 118.739998 -26.279999 
72031796750007 67.500000 118.739998 -26.279999 
72031816750007 67.500000 118.739998 -26.279999 
72031836750007 67.500000 118.739998 -26.279999 
72031856750007 67.500000 118.739998 -26.279999 
72031876750007 67.500000 118.739998 -26.279999 
72031896750007 67.500000 118.739998 -26.279999 
72031916750007 67.500000 118.739998 -26.279999 
72031936750007 67.500000 118.739998 -26.279999 
72031956750007 67.500000 118.739998 -26.279999 
72031976750007 67.500000 118.739998 -26.279999 
72031996750007 67.500000 118.739998 -26.279999 
72032016750007 67.500000 118.739998 -26.279999 
72032036750007 67.500000 118.739998 -26.279999 
72032056750007 67.500000 118.739998 -26.279999 
72032076750007 67.500000 118.739998 -26.279999 
72032096750007 67.500000 118.739998 -26.279999 
72032116750007 67.500000 118.739998 -26.279999 
72032136750007 67.500000 118.739998 -26.279999 
72032156750007 67.500000 118.739998 -26.279999 
72032176750007 67.500000 118.739998 -26.279999 
72032196750007 67.500000 118.739998 -26.279999 
72032216750007 67.500000 118.739998 -26.279999 
72032236750007 67.500000 118.739998 -26.279999 
72032256750007 67.500000 118.739998 -26.279999 
72032276750007 67.500000 118.739998 -26.279999 
72032296750007 67.500000 118.739998 -26.279999 
72032316750007 67.500000 118.739998 -26.279999 
72032336750007 67.500000 118.739998 -26.279999 
72032356750007 67.500000 118.739998 -26.279999 
72032376750007 67.500000 118.739998 -26.279999 
72032396750007 67.500000 118.739998 -26.279999 
72032416750007 67.500000 118.739998 -26.279999 
72032436750007 67.500000 118.739998 -26.279999 
72032456750007 67.500000 118.739998 -26.279999 
72032476750007 67.500000 118.739998 -26.279999 
72032496750007 67.500000 118.739998 -26.279999 
72032516750007 67.500000 118.739998 -26.279999 
72032536750007 67.500000 118.739998 -26.279999 
72032556750007 67.500000 118.739998 -26.279999 
72032576750007 67.500000 118.739998 -26.279999 
72032596750007 67.500000 118.739998 -26.279999 
72032616750007 67.500000 118.739998 -26.279999 
72032636750007 67.500000 118.739998 -26.279999 
72032656750007 67.500000 118.739998 -26.279999 
72032676750007 67.500000 118.739998 -26.279999 
72032696750007 67.500000 118.739998 -26.279999 
72032716750007 67.500000 118.739998 -26.279999 
72032736750007 67.500000 118.739998 -26.279999 
72032756750007 67.500000 118.739998 -26.279999 
72032776750007 67.500000 118.739998 -26.279999 
72032796750007 67.500000 118.739998 -26.279999 
72032816750007 67.500000 118.739998 -26.279999 
72032836750007 67.500000 118.739998 -26.279999 
72032856750007 67.500000 118.739998 -26.279999 
72032876750007 67.500000 118.739998 -26.279999 
72032896750007 67.500000 118.739998 -26.279999 
72032916750007 67.500000 118.739998 -26.279999 
72032936750007 67.500000 118.739998 -26.279999 
72032956750007 67.500000 118.739998 -26.279999 
72032976750007 67.500000 118.739998 -26.279999 
72032996750007 67.500000 118.739998 -26.279999 
72033016750007 67.500000 118.739998 -26.279999 
72033036750007 67.500000 118.739998 -26.279999 
72033056750007 67.500000 118.739998 -26.279999 
72033076750007 67.500000 118.739998 -26.279999 
72033096750007 67.500000 118.739998 -26.279999 
72033116750007 67.619995 118.559998 -26.219999 
72033136750007 67.619995 118.559998 -26.219999 
72033156750007 67.619995 118.559998 -26.219999 
72033176750007 67.619995 118.559998 -26.219999 
72033196750007 67.619995 118.559998 -26.219999 
72033216750007 67.619995 118.559998 -26.219999 
72033236750007 67.619995 118.559998 -26.219999 
72033256750007 67.619995 118.559998 -26.219999 
72033276750007 67.619995 118.559998 -26.219999 
72033296750007 67.619995 118.559998 -26.219999 
72033316750007 67.619995 118.559998 -26.219999 
72033336750007 67.619995 118.559998 -26.219999 
72033356750007 67.619995 118.559998 -26.219999 
72033376750007 67.619995 118.559998 -26.219999 
72033396750007 67.619995 118.559998 -26.219999 
72033416750007 67.619995 118.559998 -26.219999 
72033436750007 67.619995 118.559998 -26.219999 
72033456750007 67.619995 118.559998 -26.219999 
72033476750007 67.619995 118.559998 -26.219999 
72033496750007 67.619995 118.559998 -26.219999 
72033516750007 67.619995 118.559998 -26.219999 
72033536750007 67.619995 118.559998 -26.219999 
72033556750007 67.619995 118.559998 -26.219999 
72033576750007 67.619995 118.559998 -26.219999 
72033596750007 67.619995 118.559998 -26.219999 
72033616750007 67.619995 118.559998 -26.219999 
72033636750007 67.619995 118.559998 -26.219999 
72033656750007 67.619995 118.559998 -26.219999 
72033676750007 67.619995 118.559998 -26.219999 
72033696750007 67.619995 118.559998 -26.219999 
72033716750007 67.619995 118.559998 -26.219999 
72033736750007 67.619995 118.559998 -26.219999 
72033756750007 67.680000 118.500000 -26.459999 
72033776750007 67.680000 118.500000 -26.459999 
72033796750007 67.680000 118.500000 -26.459999 
72033816750007 67.680000 118.500000 -26.459999 
72033836750007 67.680000 118.500000 -26.459999 
72033856750007 67.680000 118.500000 -26.459999 
72033876750007 67.680000 118.500000 -26.459999 
72033896750007 67.680000 118.500000 -26.459999 
72033916750007 67.680000 118.500000 -26.459999 
72033936750007 67.680000 118.500000 -26.459999 
72033956750007 67.680000 118.500000 -26.459999 
72033976750007 67.680000 118.500000 -26.459999 
72033996750007 67.680000 118.500000 -26.459999 
72034016750007 67.680000 118.500000 -26.459999 
72034036750007 67.680000 118.500000 -26.459999 
72034056750007 67.680000 118.500000 -26.459999 
72034076750007 67.680000 118.500000 -26.459999 
72034096750007 67.680000 118.500000 -26.459999 
72034116750007 67.680000 118.500000 -26.459999 
72034136750007 67.680000 118.500000 -26.459999 
72034156750007 67.680000 118.500000 -26.459999 
72034176750007 67.680000 118.500000 -26.459999 
72034196750007 67.680000 118.500000 -26.459999 
72034216750007 67.680000 118.500000 -26.459999 
72034236750007 67.680000 118.500000 -26.459999 
72034256750007 67.680000 118.500000 -26.459999 
72034276750007 67.680000 118.500000 -26.459999 
72034296750007 67.680000 118.500000 -26.459999 
72034316750007 67.680000 118.500000 -26.459999 
72034336750007 67.680000 118.500000 -26.459999 
72034356750007 67.860001 118.439995 -26.519999 
72034376750007 67.860001 118.439995 -26.519999 
72034396750007 67.860001 118.439995 -26.519999 
72034416750007 67.860001 118.439995 -26.519999 
72034436750007 67.860001 118.439995 -26.519999 
72034456750007 67.860001 118.439995 -26.519999 
72034476750007 67.860001 118.439995 -26.519999 
72034496750007 67.860001 118.439995 -26.519999 
72034516750007 67.860001 118.439995 -26.519999 
72034536750007 67.860001 118.439995 -26.519999 
72034556750007 67.860001 118.439995 -26.519999 
72034576750007 67.860001 118.439995 -26.519999 
72034596750007 67.860001 118.439995 -26.519999 
72034616750007 67.860001 118.439995 -26.519999 
72034636750007 67.860001 118.439995 -26.519999 
72034656750007 67.860001 118.439995 -26.519999 
72034676750007 67.860001 118.439995 -26.519999 
72034696750007 67.860001 118.439995 -26.519999 
72034716750007 67.860001 118.439995 -26.519999 
72034736750007 67.860001 118.439995 -26.519999 
72034756750007 67.860001 118.439995 -26.519999 
72034776750007 67.860001 118.439995 -26.519999 
72034796750007 67.860001 118.439995 -26.519999 
72034816750007 67.860001 118.439995 -26.519999 
72034836750007 67.860001 118.439995 -26.519999 
72034856750007 67.860001 118.439995 -26.519999 
72034876750007 67.860001 118.439995 -26.519999 
72034896750007 67.860001 118.439995 -26.519999 
72034916750007 67.860001 118.439995 -26.519999 
72034936750007 67.860001 118.439995 -26.519999 
72034956750007 67.860001 118.439995 -26.519999 
72034976750007 67.860001 118.439995 -26.519999 
72034996750007 67.860001 118.439995 -26.519999 
72035016750007 67.860001 118.439995 -26.519999 
72035036750007 67.860001 118.439995 -26.519999 
72035056750007 67.860001 118.439995 -26.519999 
72035076750007 67.860001 118.439995 -26.519999 
72035096750007 67.860001 118.439995 -26.519999 
72035116750007 67.860001 118.439995 -26.519999 
72035136750007 67.860001 118.439995 -26.519999 
72035156750007 67.860001 118.439995 -26.519999 
72035176750007 67.860001 118.439995 -26.519999 
72035196750007 67.860001 118.439995 -26.519999 
72035216750007 67.860001 118.439995 -26.519999 
72035236750007 67.860001 118.439995 -26.519999 
72035256750007 67.860001 118.439995 -26.519999 
72035276750007 67.860001 118.439995 -26.519999 
72035296750007 67.860001 118.439995 -26.519999 
72035316750007 67.860001 118.439995 -26.519999 
72035336750007 67.860001 118.439995 -26.519999 
72035356750007 67.860001 118.439995 -26.519999 
72035376750007 67.860001 118.439995 -26.519999 
72035396750007 67.860001 118.439995 -26.519999 
72035416750007 67.860001 118.439995 -26.519999 
72035436750007 67.860001 118.439995 -26.519999 
72035456750007 67.860001 118.439995 -26.519999 
72035476750007 67.860001 118.439995 -26.519999 
72035496750007 67.860001 118.439995 -26.519999 
72035516750007 67.860001 118.439995 -26.519999 
72035536750007 67.860001 118.439995 -26.519999 
72035556750007 67.860001 118.439995 -26.519999 
72035576750007 67.860001 118.439995 -26.519999 
72035596750007 67.860001 118.439995 -26.519999 
72035616750007 67.860001 118.439995 -26.519999 
72035636750007 67.860001 118.439995 -26.519999 
72035656750007 67.860001 118.439995 -26.519999 
72035676750007 67.860001 118.439995 -26.519999 
72035696750007 67.860001 118.439995 -26.519999 
72035716750007 67.860001 118.439995 -26.519999 
72035736750007 67.860001 118.439995 -26.519999 
72035756750007 67.860001 118.439995 -26.519999 
72035776750007 67.860001 118.439995 -26.519999 
72035796750007 67.860001 118.439995 -26.519999 
72035816750007 67.860001 118.439995 -26.519999 
72035836750007 67.860001 118.439995 -26.519999 
72035856750007 67.860001 118.439995 -26.519999 
72035876750007 67.860001 118.439995 -26.519999 
72035896750007 67.860001 118.439995 -26.519999 
72035916750007 67.860001 118.439995 -26.519999 
72035936750007 67.860001 118.439995 -26.519999 
72035956750007 67.860001 118.439995 -26.519999 
72035976750007 67.860001 118.439995 -26.519999 
72035996750007 67.860001 118.439995 -26.519999 
72036016750007 67.860001 118.439995 -26.519999 
72036036750007 67.860001 118.439995 -26.519999 
72036056750007 67.860001 118.439995 -26.519999 
72036076750007 67.860001 118.439995 -26.519999 
72036096750007 67.860001 118.439995 -26.519999 
72036116750007 67.860001 118.439995 -26.519999 
72036136750007 67.860001 118.439995 -26.519999 
72036156750007 67.860001 118.439995 -26.519999 
72036176750007 67.860001 118.439995 -26.519999 
72036196750007 67.860001 118.439995 -26.519999 
72036216750007 67.860001 118.439995 -26.519999 
72036236750007 67.860001 118.439995 -26.519999 
72036256750007 67.860001 118.439995 -26.519999 
72036276750007 67.860001 118.439995 -26.519999 
72036296750007 67.860001 118.439995 -26.519999 
72036316750007 67.860001 118.439995 -26.519999 
72036336750007 67.860001 118.439995 -26.519999 
72036356750007 67.860001 118.439995 -26.519999 
72036376750007 67.860001 118.439995 -26.519999 
72036396750007 67.860001 118.439995 -26.519999 
72036416750007 67.860001 118.439995 -26.519999 
72036436750007 67.860001 118.439995 -26.519999 
72036456750007 67.860001 118.439995 -26.519999 
72036476750007 67.860001 118.439995 -26.519999 
72036496750007 67.860001 118.439995 -26.519999 
72036516750007 67.860001 118.439995 -26.519999 
72036536750007 67.860001 118.439995 -26.519999 
72036556750007 67.860001 118.439995 -26.519999 
72036576750007 67.860001 118.439995 -26.519999 
72036596750007 67.860001 118.439995 -26.519999 
72036616750007 67.860001 118.439995 -26.519999 
72036636750007 67.860001 118.439995 -26.519999 
72036656750007 67.860001 118.439995 -26.519999 
72036676750007 67.860001 118.439995 -26.519999 
72036696750007 67.860001 118.439995 -26.519999 
72036716750007 67.860001 118.439995 -26.519999 
72036736750007 67.860001 118.439995 -26.519999 
72036756750007 67.860001 118.439995 -26.519999 
72036776750007 67.860001 118.439995 -26.519999 
72036796750007 67.860001 118.439995 -26.519999 
72036816750007 67.860001 118.439995 -26.519999 
72036836750007 67.860001 118.439995 -26.519999 
72036856750007 67.860001 118.439995 -26.519999 
72036876750007 67.860001 118.439995 -26.519999 
72036896750007 67.860001 118.439995 -26.519999 
72036916750007 67.860001 118.439995 -26.519999 
72036936750007 67.860001 118.439995 -26.519999 
72036956750007 67.860001 118.439995 -26.519999 
72036976750007 67.860001 118.439995 -26.519999 
72036996750007 67.860001 118.439995 -26.519999 
72037016750007 67.860001 118.439995 -26.519999 
72037036750007 67.860001 118.439995 -26.519999 
72037056750007 67.860001 118.439995 -26.519999 
72037076750007 67.860001 118.439995 -26.519999 
72037096750007 67.860001 118.439995 -26.519999 
72037116750007 67.860001 118.439995 -26.519999 
72037136750007 67.860001 118.439995 -26.519999 
72037156750007 67.860001 118.439995 -26.519999 
72037176750007 67.860001 118.439995 -26.519999 
72037196750007 67.860001 118.439995 -26.519999 
72037216750007 67.860001 118.439995 -26.519999 
72037236750007 67.860001 118.439995 -26.519999 
72037256750007 67.860001 118.439995 -26.519999 
72037276750007 67.919998 118.619995 -26.580000 
72037296750007 67.919998 118.619995 -26.580000 
72037316750007 67.919998 118.619995 -26.580000 
72037336750007 67.919998 118.619995 -26.580000 
72037356750007 67.919998 118.619995 -26.580000 
72037376750007 67.919998 118.619995 -26.580000 
72037396750007 67.919998 118.619995 -26.580000 
72037416750007 67.919998 118.619995 -26.580000 
72037436750007 67.919998 118.619995 -26.580000 
72037456750007 67.919998 118.619995 -26.580000 
72037476750007 67.919998 118.619995 -26.580000 
72037496750007 67.919998 118.619995 -26.580000 
72037516750007 67.919998 118.619995 -26.580000 
72037536750007 67.919998 118.619995 -26.580000 
72037556750007 67.919998 118.619995 -26.580000 
72037576750007 67.919998 118.619995 -26.580000 
72037596750007 67.919998 118.619995 -26.580000 
72037616750007 67.919998 118.619995 -26.580000 
72037636750007 67.919998 118.619995 -26.580000 
72037656750007 67.919998 118.619995 -26.580000 
72037676750007 67.919998 118.619995 -26.580000 
72037696750007 67.919998 118.619995 -26.580000 
72037716750007 67.919998 118.619995 -26.580000 
72037736750007 67.919998 118.619995 -26.580000 
72037756750007 67.919998 118.619995 -26.580000 
72037776750007 67.919998 118.619995 -26.580000 
72037796750007 67.919998 118.619995 -26.580000 
72037816750007 67.919998 118.619995 -26.580000 
72037836750007 67.919998 118.619995 -26.580000 
72037856750007 67.919998 118.619995 -26.580000 
72037876750007 67.919998 118.860001 -26.639999 
72037896750007 67.919998 118.860001 -26.639999 
72037916750007 67.919998 118.860001 -26.639999 
72037936750007 67.919998 118.860001 -26.639999 
72037956750007 67.919998 118.860001 -26.639999 
72037976750007 67.919998 118.860001 -26.639999 
72037996750007 67.919998 118.860001 -26.639999 
72038016750007 67.919998 118.860001 -26.639999 
72038036750007 67.919998 118.860001 -26.639999 
72038056750007 67.919998 118.860001 -26.639999 
72038076750007 67.919998 118.860001 -26.639999 
72038096750007 67.919998 118.860001 -26.639999 
72038116750007 67.919998 118.860001 -26.639999 
72038136750007 67.919998 118.860001 -26.639999 
72038156750007 67.919998 118.860001 -26.639999 
72038176750007 67.919998 118.860001 -26.639999 
72038196750007 67.919998 118.860001 -26.639999 
72038216750007 67.919998 118.860001 -26.639999 
72038236750007 67.919998 118.860001 -26.639999 
72038256750007 67.919998 118.860001 -26.639999 
72038276750007 67.919998 118.860001 -26.639999 
72038296750007 67.919998 118.860001 -26.639999 
72038316750007 67.919998 118.860001 -26.639999 
72038336750007 67.919998 118.860001 -26.639999 
72038356750007 67.919998 118.860001 -26.639999 
72038376750007 67.919998 118.860001 -26.639999 
72038396750007 67.919998 118.860001 -26.639999 
72038416750007 67.919998 118.860001 -26.639999 
72038436750007 67.919998 118.860001 -26.639999 
72038456750007 67.919998 118.860001 -26.639999 
72038476750007 67.919998 119.219994 -26.820000 
72038496750007 67.919998 119.219994 -26.820000 
72038516750007 67.919998 119.219994 -26.820000 
72038536750007 67.919998 119.219994 -26.820000 
72038556750007 67.919998 119.219994 -26.820000 
72038576750007 67.919998 119.219994 -26.820000 
72038596750007 67.919998 119.219994 -26.820000 
72038616750007 67.919998 119.219994 -26.820000 
72038636750007 67.919998 119.219994 -26.820000 
72038656750007 67.919998 119.219994 -26.820000 
72038676750007 67.919998 119.219994 -26.820000 
72038696750007 67.919998 119.219994 -26.820000 
72038716750007 67.919998 119.219994 -26.820000 
72038736750007 67.919998 119.219994 -26.820000 
72038756750007 67.919998 119.219994 -26.820000 
72038776750007 67.919998 119.219994 -26.820000 
72038796750007 67.919998 119.219994 -26.820000 
72038816750007 67.919998 119.219994 -26.820000 
72038836750007 67.919998 119.219994 -26.820000 
72038856750007 67.919998 119.219994 -26.820000 
72038876750007 67.919998 119.219994 -26.820000 
72038896750007 67.919998 119.219994 -26.820000 
72038916750007 67.919998 119.219994 -26.820000 
72038936750007 67.919998 119.219994 -26.820000 
72038956750007 67.919998 119.219994 -26.820000 
72038976750007 67.919998 119.219994 -26.820000 
72038996750007 67.919998 119.219994 -26.820000 
72039016750007 67.919998 119.219994 -26.820000 
72039036750007 67.919998 119.219994 -26.820000 
72039056750007 67.919998 119.219994 -26.820000 
72039076750007 67.979996 119.399994 -26.820000 
72039096750007 67.979996 119.399994 -26.820000 
72039116750007 67.979996 119.399994 -26.820000 
72039136750007 67.979996 119.399994 -26.820000 
72039156750007 67.979996 119.399994 -26.820000 
72039176750007 67.979996 119.399994 -26.820000 
72039196750007 67.979996 119.399994 -26.820000 
72039216750007 67.979996 119.399994 -26.820000 
72039236750007 67.979996 119.399994 -26.820000 
72039256750007 67.979996 119.399994 -26.820000 
72039276750007 67.979996 119.399994 -26.820000 
72039296750007 67.979996 119.399994 -26.820000 
72039316750007 67.979996 119.399994 -26.820000 
72039336750007 67.979996 119.399994 -26.820000 
72039356750007 67.979996 119.399994 -26.820000 
72039376750007 67.979996 119.399994 -26.820000 
72039396750007 67.979996 119.399994 -26.820000 
72039416750007 67.979996 119.399994 -26.820000 
72039436750007 67.979996 119.399994 -26.820000 
72039456750007 67.979996 119.399994 -26.820000 
72039476750007 67.979996 119.399994 -26.820000 
72039496750007 67.979996 119.399994 -26.820000 
72039516750007 67.979996 119.399994 -26.820000 
72039536750007 67.979996 119.399994 -26.820000 
72039556750007 67.979996 119.399994 -26.820000 
72039576750007 67.979996 119.399994 -26.820000 
72039596750007 67.979996 119.399994 -26.820000 
72039616750007 67.979996 119.399994 -26.820000 
72039636750007 67.919998 119.579994 -26.879999 
72039656750007 67.919998 119.579994 -26.879999 
72039676750007 67.919998 119.579994 -26.879999 
72039696750007 67.919998 119.579994 -26.879999 
72039716750007 67.919998 119.579994 -26.879999 
72039736750007 67.919998 119.579994 -26.879999 
72039756750007 67.919998 119.579994 -26.879999 
72039776750007 67.919998 119.579994 -26.879999 
72039796750007 67.919998 119.579994 -26.879999 
72039816750007 67.919998 119.579994 -26.879999 
72039836750007 67.919998 119.579994 -26.879999 
72039856750007 67.919998 119.579994 -26.879999 
72039876750007 67.919998 119.579994 -26.879999 
72039896750007 67.919998 119.579994 -26.879999 
72039916750007 67.919998 119.579994 -26.879999 
72039936750007 67.919998 119.579994 -26.879999 
72039956750007 67.919998 119.579994 -26.879999 
72039976750007 67.919998 119.579994 -26.879999 
72039996750007 67.919998 119.579994 -26.879999 
72040016750007 67.919998 119.579994 -26.879999 
72040036750007 67.919998 119.579994 -26.879999 
72040056750007 67.919998 119.579994 -26.879999 
72040076750007 67.919998 119.579994 -26.879999 
72040096750007 67.919998 119.579994 -26.879999 
72040116750007 67.919998 119.579994 -26.879999 
72040136750007 67.919998 119.579994 -26.879999 
72040156750007 67.919998 119.579994 -26.879999 
72040176750007 67.919998 119.579994 -26.879999 
72040196750007 67.919998 119.579994 -26.879999 
72040216750007 67.919998 119.579994 -26.879999 
72040236750007 67.919998 119.579994 -26.879999 
72040256750007 67.919998 119.579994 -26.879999 
72040276750007 67.919998 119.579994 -26.879999 
72040296750007 67.919998 119.579994 -26.879999 
72040316750007 67.919998 119.579994 -26.879999 
72040336750007 67.919998 119.579994 -26.879999 
72040356750007 67.919998 119.579994 -26.879999 
72040376750007 67.919998 119.579994 -26.879999 
72040396750007 67.919998 119.579994 -26.879999 
72040416750007 67.919998 119.579994 -26.879999 
72040436750007 67.919998 119.579994 -26.879999 
72040456750007 67.919998 119.579994 -26.879999 
72040476750007 67.919998 119.579994 -26.879999 
72040496750007 67.919998 119.579994 -26.879999 
72040516750007 67.919998 119.579994 -26.879999 
72040536750007 67.919998 119.579994 -26.879999 
72040556750007 67.919998 119.579994 -26.879999 
72040576750007 67.919998 119.579994 -26.879999 
72040596750007 67.919998 119.579994 -26.879999 
72040616750007 67.919998 119.579994 -26.879999 
72040636750007 67.919998 119.579994 -26.879999 
72040656750007 67.919998 119.579994 -26.879999 
72040676750007 67.919998 119.579994 -26.879999 
72040696750007 67.919998 119.579994 -26.879999 
72040716750007 67.919998 119.579994 -26.879999 
72040736750007 67.919998 119.579994 -26.879999 
72040756750007 67.919998 119.579994 -26.879999 
72040776750007 67.919998 119.579994 -26.879999 
72040796750007 67.919998 119.579994 -26.879999 
72040816750007 67.919998 119.579994 -26.879999 
72040836750007 67.919998 119.579994 -26.879999 
72040856750007 67.919998 119.579994 -26.879999 
72040876750007 67.919998 119.579994 -26.879999 
72040896750007 67.919998 119.579994 -26.879999 
72040916750007 67.919998 119.579994 -26.879999 
72040936750007 67.919998 119.579994 -26.879999 
72040956750007 67.919998 119.579994 -26.879999 
72040976750007 67.919998 119.579994 -26.879999 
72040996750007 67.919998 119.579994 -26.879999 
72041016750007 67.919998 119.579994 -26.879999 
72041036750007 67.919998 119.579994 -26.879999 
72041056750007 67.919998 119.579994 -26.879999 
72041076750007 67.919998 119.579994 -26.879999 
72041096750007 67.919998 119.579994 -26.879999 
72041116750007 67.919998 119.579994 -26.879999 
72041136750007 67.919998 119.579994 -26.879999 
72041156750007 67.919998 119.579994 -26.879999 
72041176750007 67.919998 119.579994 -26.879999 
72041196750007 67.919998 119.579994 -26.879999 
72041216750007 67.919998 119.579994 -26.879999 
72041236750007 67.919998 119.579994 -26.879999 
72041256750007 67.919998 119.579994 -26.879999 
72041276750007 67.919998 119.579994 -26.879999 
72041296750007 67.919998 119.579994 -26.879999 
72041316750007 67.919998 119.579994 -26.879999 
72041336750007 67.919998 119.579994 -26.879999 
72041356750401 67.919998 119.579994 -26.879999 
72041376749567 67.919998 119.579994 -26.879999 
72041396749567 67.919998 119.579994 -26.879999 
72041416749567 67.919998 119.579994 -26.879999 
72041436749567 67.919998 119.579994 -26.879999 
72041456749567 67.919998 119.579994 -26.879999 
72041476749567 67.860001 119.699997 -26.699999 
72041496749567 67.860001 119.699997 -26.699999 
72041516749567 67.860001 119.699997 -26.699999 
72041536749567 67.860001 119.699997 -26.699999 
72041556749567 67.860001 119.699997 -26.699999 
72041576749567 67.860001 119.699997 -26.699999 
72041596749567 67.860001 119.699997 -26.699999 
72041616749567 67.860001 119.699997 -26.699999 
72041636749567 67.860001 119.699997 -26.699999 
72041656749567 67.860001 119.699997 -26.699999 
72041676749567 67.860001 119.699997 -26.699999 
72041696749567 67.860001 119.699997 -26.699999 
72041716749567 67.860001 119.699997 -26.699999 
72041736749567 67.860001 119.699997 -26.699999 
72041756749567 67.860001 119.699997 -26.699999 
72041776749567 67.860001 119.699997 -26.699999 
72041796749567 67.860001 119.699997 -26.699999 
72041816749567 67.860001 119.699997 -26.699999 
72041836749567 67.860001 119.699997 -26.699999 
72041856749567 67.860001 119.699997 -26.699999 
72041876749567 67.860001 119.699997 -26.699999 
72041896749567 67.860001 119.699997 -26.699999 
72041916749567 67.860001 119.699997 -26.699999 
72041936749567 67.860001 119.699997 -26.699999 
72041956749567 67.860001 119.699997 -26.699999 
72041976749567 67.860001 119.699997 -26.699999 
72041996749567 67.860001 119.699997 -26.699999 
72042016749567 67.860001 119.699997 -26.699999 
72042036749567 67.860001 119.699997 -26.699999 
72042056749567 67.860001 119.699997 -26.699999 
72042076749567 67.860001 119.699997 -26.699999 
72042096749567 67.860001 119.699997 -26.699999 
72042116749567 67.860001 119.699997 -26.699999 
72042136749567 67.860001 119.699997 -26.699999 
72042156749567 67.860001 119.699997 -26.699999 
72042176749567 67.860001 119.699997 -26.699999 
72042196749567 67.860001 119.699997 -26.699999 
72042216749567 67.860001 119.699997 -26.699999 
72042236749567 67.860001 119.699997 -26.699999 
72042256749567 67.860001 119.699997 -26.699999 
72042276749567 67.860001 119.699997 -26.699999 
72042296749567 67.860001 119.699997 -26.699999 
72042316749567 67.860001 119.699997 -26.699999 
72042336749567 67.860001 119.699997 -26.699999 
72042356749567 67.860001 119.699997 -26.699999 
72042376749567 67.860001 119.699997 -26.699999 
72042396749567 67.860001 119.699997 -26.699999 
72042416749567 67.860001 119.699997 -26.699999 
72042436749567 67.860001 119.699997 -26.699999 
72042456749567 67.860001 119.699997 -26.699999 
72042476749567 67.860001 119.699997 -26.699999 
72042496749567 67.860001 119.699997 -26.699999 
72042516749567 67.860001 119.699997 -26.699999 
72042536749567 67.860001 119.699997 -26.699999 
72042556749567 67.860001 119.699997 -26.699999 
72042576749567 67.860001 119.699997 -26.699999 
72042596749567 67.860001 119.699997 -26.699999 
72042616749567 67.860001 119.699997 -26.699999 
72042636749567 67.860001 119.699997 -26.699999 
72042656749567 67.860001 119.699997 -26.699999 
72042676749567 67.860001 119.699997 -26.699999 
72042696749567 67.860001 119.699997 -26.699999 
72042716749567 67.860001 119.699997 -26.699999 
72042736749567 67.860001 119.699997 -26.699999 
72042756749567 67.860001 119.699997 -26.699999 
72042776749567 67.860001 119.699997 -26.699999 
72042796749567 67.860001 119.699997 -26.699999 
72042816749567 67.860001 119.699997 -26.699999 
72042836749567 67.860001 119.699997 -26.699999 
72042856749567 67.860001 119.699997 -26.699999 
72042876749567 67.860001 119.699997 -26.699999 
72042896749567 67.860001 119.699997 -26.699999 
72042916749567 67.860001 119.699997 -26.699999 
72042936749567 67.860001 119.699997 -26.699999 
72042956749567 67.860001 119.699997 -26.699999 
72042976749567 67.860001 119.699997 -26.699999 
72042996749567 67.860001 119.699997 -26.699999 
72043016749567 67.860001 119.699997 -26.699999 
72043036749567 67.860001 119.699997 -26.699999 
72043056749567 67.860001 119.699997 -26.699999 
72043076749567 67.860001 119.699997 -26.699999 
72043096749567 67.860001 119.699997 -26.699999 
72043116749567 67.860001 119.699997 -26.699999 
72043136749567 67.860001 119.699997 -26.699999 
72043156749567 67.860001 119.699997 -26.699999 
72043176749567 67.860001 119.699997 -26.699999 
72043196749567 67.860001 119.699997 -26.699999 
72043216749567 67.860001 119.699997 -26.699999 
72043236749567 67.860001 119.699997 -26.699999 
72043256749567 67.860001 119.699997 -26.699999 
72043276749567 67.860001 119.699997 -26.699999 
72043296749567 67.860001 119.699997 -26.699999 
72043316749567 67.860001 119.699997 -26.699999 
72043336749567 67.860001 119.699997 -26.699999 
72043356749567 67.860001 119.699997 -26.699999 
72043376749567 67.860001 119.699997 -26.699999 
72043396749567 67.860001 119.699997 -26.699999 
72043416749567 67.860001 119.699997 -26.699999 
72043436749567 67.860001 119.699997 -26.699999 
72043456749567 67.860001 119.699997 -26.699999 
72043476749567 67.860001 119.699997 -26.699999 
72043496749567 67.860001 119.699997 -26.699999 
72043516749567 67.860001 119.699997 -26.699999 
72043536749567 67.860001 119.699997 -26.699999 
72043556749567 67.860001 119.699997 -26.699999 
72043576749567 67.860001 119.699997 -26.699999 
72043596749567 67.860001 119.699997 -26.699999 
72043616749567 67.860001 119.699997 -26.699999 
72043636749567 67.860001 119.699997 -26.699999 
72043656749567 67.860001 119.699997 -26.699999 
72043676749567 67.860001 119.699997 -26.699999 
72043696749567 67.860001 119.699997 -26.699999 
72043716749567 67.860001 119.699997 -26.699999 
72043736749567 67.860001 119.699997 -26.699999 
72043756749567 67.860001 119.699997 -26.699999 
72043776749567 67.860001 119.699997 -26.699999 
72043796749567 67.860001 119.699997 -26.699999 
72043816749567 67.860001 119.699997 -26.699999 
72043836749567 67.860001 119.699997 -26.699999 
72043856749567 67.860001 119.699997 -26.699999 
72043876749567 67.860001 119.699997 -26.699999 
72043896749567 67.860001 119.699997 -26.699999 
72043916749567 67.860001 119.699997 -26.699999 
72043936749567 67.860001 119.699997 -26.699999 
72043956749567 67.860001 119.699997 -26.699999 
72043976749567 67.860001 119.699997 -26.699999 
72043996749567 67.860001 119.699997 -26.699999 
72044016749567 67.860001 119.699997 -26.699999 
72044036749567 67.860001 119.699997 -26.699999 
72044056749567 67.860001 119.699997 -26.699999 
72044076749567 67.860001 119.699997 -26.699999 
72044096749567 67.860001 119.699997 -26.699999 
72044116749567 67.860001 119.699997 -26.699999 
72044136749567 67.860001 119.699997 -26.699999 
72044156749567 67.860001 119.699997 -26.699999 
72044176749567 67.860001 119.699997 -26.699999 
72044196749567 67.860001 119.699997 -26.699999 
72044216749567 67.860001 119.699997 -26.699999 
72044236749567 67.860001 119.699997 -26.699999 
72044256749567 67.860001 119.699997 -26.699999 
72044276749567 67.860001 119.699997 -26.699999 
72044296749567 67.860001 119.699997 -26.699999 
72044316749567 67.860001 119.699997 -26.699999 
72044336749567 67.860001 119.699997 -26.699999 
72044356749567 67.860001 119.699997 -26.699999 
72044376749567 67.860001 119.699997 -26.699999 
72044396749567 67.860001 119.699997 -26.699999 
72044416749567 67.860001 119.699997 -26.699999 
72044436749567 67.860001 119.699997 -26.699999 
72044456749567 67.860001 119.699997 -26.699999 
72044476749567 67.860001 119.699997 -26.699999 
72044496749567 67.860001 119.699997 -26.699999 
72044516749567 67.860001 119.699997 -26.699999 
72044536749567 67.860001 119.699997 -26.699999 
72044556749567 67.860001 119.699997 -26.699999 
72044576749567 67.860001 119.699997 -26.699999 
72044596749567 67.860001 119.699997 -26.699999 
72044616749567 67.860001 119.699997 -26.699999 
72044636749567 67.860001 119.699997 -26.699999 
72044656749567 67.860001 119.699997 -26.699999 
72044676749567 67.860001 119.699997 -26.699999 
72044696749567 67.860001 119.699997 -26.699999 
72044716749567 67.860001 119.699997 -26.699999 
72044736749567 67.860001 119.699997 -26.699999 
72044756749567 67.860001 119.699997 -26.699999 
72044776749567 67.860001 119.699997 -26.699999 
72044796749567 67.860001 119.699997 -26.699999 
72044816749567 67.860001 119.699997 -26.699999 
72044836749567 67.860001 119.699997 -26.699999 
72044856749567 67.860001 119.699997 -26.699999 
72044876749567 67.860001 119.699997 -26.699999 
72044896749567 67.860001 119.699997 -26.699999 
72044916749567 67.860001 119.699997 -26.699999 
72044936749567 67.860001 119.699997 -26.699999 
72044956749567 67.860001 119.699997 -26.699999 
72044976749567 67.860001 119.699997 -26.699999 
72044996749567 67.860001 119.699997 -26.699999 
72045016749567 67.860001 119.699997 -26.699999 
72045036749567 67.860001 119.699997 -26.699999 
72045056749567 67.860001 119.699997 -26.699999 
72045076749567 67.860001 119.699997 -26.699999 
72045096749567 67.860001 119.699997 -26.699999 
72045116749567 67.860001 119.699997 -26.699999 
72045136749567 67.860001 119.699997 -26.699999 
72045156749567 67.860001 119.699997 -26.699999 
72045176749567 67.860001 119.699997 -26.699999 
72045196749567 67.860001 119.699997 -26.699999 
72045216749567 67.860001 119.699997 -26.699999 
72045236749567 67.860001 119.699997 -26.699999 
72045256749567 67.860001 119.699997 -26.699999 
72045276749567 67.860001 119.699997 -26.699999 
72045296749567 67.860001 119.699997 -26.699999 
72045316749567 67.860001 119.699997 -26.699999 
72045336749567 67.860001 119.699997 -26.699999 
72045356749567 67.860001 119.699997 -26.400000 
72045376749567 67.860001 119.699997 -26.400000 
72045396749567 67.860001 119.699997 -26.400000 
72045416749567 67.860001 119.699997 -26.400000 
72045436749567 67.860001 119.699997 -26.400000 
72045456749567 67.860001 119.699997 -26.400000 
72045476749567 67.860001 119.699997 -26.400000 
72045496749567 67.860001 119.699997 -26.400000 
72045516749567 67.860001 119.699997 -26.400000 
72045536749567 67.860001 119.699997 -26.400000 
72045556749567 67.919998 119.639999 -26.219999 
72045576749567 67.919998 119.639999 -26.219999 
72045596749567 67.919998 119.639999 -26.219999 
72045616749567 67.919998 119.639999 -26.219999 
72045636749567 67.919998 119.639999 -26.219999 
72045656749567 67.919998 119.639999 -26.219999 
72045676749567 67.919998 119.639999 -26.219999 
72045696749567 67.919998 119.639999 -26.219999 
72045716749567 67.919998 119.639999 -26.219999 
72045736749567 67.919998 119.639999 -26.219999 
72045756749567 67.919998 119.639999 -26.219999 
72045776749567 67.919998 119.639999 -26.219999 
72045796749567 67.919998 119.639999 -26.219999 
72045816749567 67.919998 119.639999 -26.219999 
72045836749567 67.919998 119.639999 -26.219999 
72045856749567 67.919998 119.639999 -26.219999 
72045876749567 67.919998 119.639999 -26.219999 
72045896749567 67.919998 119.639999 -26.219999 
72045916749567 67.919998 119.639999 -26.219999 
72045936749567 67.919998 119.639999 -26.219999 
72045956749567 67.919998 119.639999 -26.219999 
72045976749567 67.919998 119.639999 -26.219999 
72045996749567 67.919998 119.639999 -26.219999 
72046016749567 67.919998 119.639999 -26.219999 
72046036749567 67.919998 119.639999 -26.219999 
72046056749567 67.919998 119.639999 -26.219999 
72046076749567 67.919998 119.639999 -26.219999 
72046096749567 67.919998 119.639999 -26.219999 
72046116749567 67.919998 119.639999 -26.219999 
72046136749567 67.919998 119.639999 -26.219999 
72046156749567 67.919998 119.639999 -26.219999 
72046176749567 67.919998 119.639999 -26.219999 
72046196749567 67.919998 119.639999 -26.219999 
72046216749567 67.919998 119.639999 -26.219999 
72046236749567 67.919998 119.639999 -26.219999 
72046256749567 67.919998 119.639999 -26.219999 
72046276749567 67.919998 119.639999 -26.219999 
72046296749567 67.919998 119.639999 -26.219999 
72046316749567 67.919998 119.639999 -26.219999 
72046336749567 67.919998 119.639999 -26.219999 
72046356749567 67.919998 119.639999 -26.219999 
72046376749567 67.919998 119.639999 -26.219999 
72046396749567 67.919998 119.639999 -26.219999 
72046416749567 67.919998 119.639999 -26.219999 
72046436749567 67.919998 119.639999 -26.219999 
72046456749567 67.919998 119.639999 -26.219999 
72046476749567 67.919998 119.639999 -26.219999 
72046496749567 67.919998 119.639999 -26.219999 
72046516749567 67.919998 119.639999 -26.219999 
72046536749567 67.919998 119.639999 -26.219999 
72046556749567 67.919998 119.639999 -26.219999 
72046576749567 67.919998 119.639999 -26.219999 
72046596749567 67.919998 119.639999 -26.219999 
72046616749567 67.919998 119.639999 -26.219999 
72046636749567 67.919998 119.639999 -26.219999 
72046656749567 67.919998 119.639999 -26.219999 
72046676749567 67.919998 119.639999 -26.219999 
72046696749567 67.919998 119.639999 -26.219999 
72046716749567 67.919998 119.639999 -26.219999 
72046736749567 67.919998 119.639999 -26.219999 
72046756749567 67.919998 119.639999 -26.219999 
72046776749567 67.919998 119.639999 -26.219999 
72046796749567 67.919998 119.639999 -26.219999 
72046816749567 67.919998 119.639999 -26.219999 
72046836749567 67.919998 119.639999 -26.219999 
72046856749567 67.919998 119.639999 -26.219999 
72046876749567 67.919998 119.639999 -26.219999 
72046896749567 67.919998 119.639999 -26.219999 
72046916749567 67.919998 119.639999 -26.219999 
72046936749567 67.919998 119.639999 -26.219999 
72046956749567 67.919998 119.639999 -26.219999 
72046976749567 67.919998 119.639999 -26.219999 
72046996749567 67.919998 119.639999 -26.219999 
72047016749567 67.919998 119.639999 -26.219999 
72047036749567 67.919998 119.639999 -26.219999 
72047056749567 67.919998 119.639999 -26.219999 
72047076749567 67.919998 119.639999 -26.219999 
72047096749567 67.919998 119.639999 -26.219999 
72047116749567 67.919998 119.639999 -26.219999 
72047136749567 67.919998 119.639999 -26.219999 
72047156749567 67.919998 119.639999 -26.219999 
72047176749567 67.919998 119.639999 -26.219999 
72047196749567 67.919998 119.639999 -26.219999 
72047216749567 67.919998 119.639999 -26.219999 
72047236749567 67.919998 119.639999 -26.219999 
72047256749567 67.919998 119.639999 -26.219999 
72047276749567 67.919998 119.639999 -26.219999 
72047296749567 67.919998 119.639999 -26.219999 
72047316749567 67.919998 119.639999 -26.219999 
72047336749567 67.919998 119.639999 -26.219999 
72047356749567 67.919998 119.639999 -26.219999 
72047376749567 67.919998 119.639999 -26.219999 
72047396749567 67.919998 119.639999 -26.219999 
72047416749567 67.919998 119.639999 -26.219999 
72047436749567 67.919998 119.639999 -26.219999 
72047456749567 67.919998 119.639999 -26.219999 
72047476749567 67.919998 119.639999 -26.219999 
72047496749567 67.919998 119.639999 -26.219999 
72047516749567 67.919998 119.639999 -26.219999 
72047536749567 67.919998 119.639999 -26.219999 
72047556749567 67.919998 119.639999 -26.219999 
72047576749567 67.919998 119.639999 -26.219999 
72047596749567 67.919998 119.639999 -26.219999 
72047616749567 67.919998 119.639999 -26.219999 
72047636749567 67.919998 119.639999 -26.219999 
72047656749567 67.919998 119.639999 -26.219999 
72047676749567 67.919998 119.639999 -26.219999 
72047696749567 67.919998 119.639999 -26.219999 
72047716749567 67.919998 119.639999 -26.219999 
72047736749567 67.919998 119.639999 -26.219999 
72047756749567 67.919998 119.639999 -26.219999 
72047776749567 67.919998 119.639999 -26.219999 
72047796749567 67.919998 119.639999 -26.219999 
72047816749567 67.919998 119.639999 -26.219999 
72047836749567 67.919998 119.639999 -26.219999 
72047856749567 67.919998 119.639999 -26.219999 
72047876749567 67.919998 119.639999 -26.219999 
72047896749567 67.919998 119.639999 -26.219999 
72047916749567 67.919998 119.639999 -26.219999 
72047936749567 67.919998 119.639999 -26.219999 
72047956749567 67.919998 119.639999 -26.219999 
72047976749567 67.919998 119.639999 -26.219999 
72047996749567 67.919998 119.639999 -26.219999 
72048016749567 67.919998 119.639999 -26.219999 
72048036749567 67.919998 119.639999 -26.219999 
72048056749567 67.919998 119.639999 -26.219999 
72048076749567 67.919998 119.639999 -26.219999 
72048096749567 67.919998 119.639999 -26.219999 
72048116749567 67.919998 119.639999 -26.219999 
72048136749567 67.919998 119.639999 -26.219999 
72048156749567 67.919998 119.639999 -26.219999 
72048176749567 67.919998 119.639999 -26.219999 
72048196749567 67.919998 119.639999 -26.219999 
72048216749567 67.919998 119.639999 -26.219999 
72048236749567 67.919998 119.639999 -26.219999 
72048256749567 67.919998 119.639999 -26.219999 
72048276749567 67.919998 119.639999 -26.219999 
72048296749567 67.919998 119.639999 -26.219999 
72048316749567 67.919998 119.639999 -26.219999 
72048336749567 67.919998 119.639999 -26.219999 
72048356749567 67.919998 119.639999 -26.219999 
72048376749567 67.919998 119.639999 -26.219999 
72048396749567 67.919998 119.639999 -26.219999 
72048416749567 67.919998 119.639999 -26.219999 
72048436749567 67.919998 119.639999 -26.219999 
72048456749567 67.919998 119.639999 -26.219999 
72048476749567 67.919998 119.639999 -26.219999 
72048496749567 67.919998 119.639999 -26.219999 
72048516749567 67.919998 119.639999 -26.219999 
72048536749567 67.919998 119.639999 -26.219999 
72048556749567 67.919998 119.639999 -26.219999 
72048576749567 67.919998 119.639999 -26.219999 
72048596749567 67.919998 119.639999 -26.219999 
72048616749567 67.919998 119.639999 -26.219999 
72048636749567 67.919998 119.639999 -26.219999 
72048656749567 67.919998 119.639999 -26.219999 
72048676749567 67.919998 119.639999 -26.219999 
72048696749567 67.919998 119.639999 -26.219999 
72048716749567 67.919998 119.639999 -26.219999 
72048736749567 67.919998 119.639999 -26.219999 
72048756749567 67.919998 119.639999 -26.219999 
72048776749567 67.919998 119.639999 -26.219999 
72048796749567 67.919998 119.639999 -26.219999 
72048816749567 67.919998 119.639999 -26.219999 
72048836749567 67.919998 119.639999 -26.219999 
72048856749567 67.919998 119.639999 -26.219999 
72048876749567 67.919998 119.639999 -26.219999 
72048896749567 67.919998 119.639999 -26.219999 
72048916749567 67.919998 119.639999 -26.219999 
72048936749567 67.919998 119.639999 -26.219999 
72048956749567 67.919998 119.639999 -26.219999 
72048976749567 67.919998 119.639999 -26.219999 
72048996749567 67.919998 119.639999 -26.219999 
72049016749567 67.919998 119.639999 -26.219999 
72049036749567 67.919998 119.639999 -26.219999 
72049056749567 67.919998 119.639999 -26.219999 
72049076749567 67.919998 119.639999 -26.219999 
72049096749567 67.919998 119.639999 -26.219999 
72049116749567 67.919998 119.639999 -26.219999 
72049136749567 67.919998 119.639999 -26.219999 
72049156749567 67.919998 119.639999 -26.219999 
72049176749567 67.919998 119.639999 -26.219999 
72049196749567 67.919998 119.639999 -26.219999 
72049216749567 67.919998 119.639999 -26.219999 
72049236749567 67.919998 119.639999 -26.219999 
72049256749567 67.919998 119.639999 -26.219999 
72049276749567 67.919998 119.639999 -26.219999 
72049296749567 67.919998 119.639999 -26.219999 
72049316749567 67.919998 119.639999 -26.219999 
72049336749567 67.919998 119.639999 -26.219999 
72049356749567 67.919998 119.639999 -26.219999 
72049376749567 67.919998 119.639999 -26.219999 
72049396749567 67.919998 119.639999 -26.219999 
72049416749567 67.919998 119.639999 -26.219999 
72049436749567 67.919998 119.639999 -26.219999 
72049456749567 67.919998 119.639999 -26.219999 
72049476749567 67.919998 119.639999 -26.219999 
72049496749567 67.919998 119.639999 -26.219999 
72049516749567 67.919998 119.639999 -26.219999 
72049536749567 67.919998 119.639999 -26.219999 
72049556749567 67.919998 119.639999 -26.219999 
72049576749567 67.919998 119.639999 -26.219999 
72049596749567 67.919998 119.639999 -26.219999 
72049616749567 67.919998 119.639999 -26.219999 
72049636749567 67.919998 119.639999 -26.219999 
72049656749567 67.919998 119.639999 -26.219999 
72049676749567 67.919998 119.639999 -26.219999 
72049696749567 67.919998 119.639999 -26.219999 
72049716749567 67.919998 119.639999 -26.219999 
72049736749567 67.919998 119.639999 -26.219999 
72049756749567 67.979996 119.519997 -26.039999 
72049776749567 67.979996 119.519997 -26.039999 
72049796749567 67.979996 119.519997 -26.039999 
72049816749567 67.979996 119.519997 -26.039999 
72049836749567 67.979996 119.519997 -26.039999 
72049856749567 67.979996 119.519997 -26.039999 
72049876749567 67.979996 119.519997 -26.039999 
72049896749567 67.979996 119.519997 -26.039999 
72049916749567 67.979996 119.519997 -26.039999 
72049936749567 67.979996 119.519997 -26.039999 
72049956749567 67.979996 119.519997 -26.039999 
72049976749567 67.979996 119.519997 -26.039999 
72049996749567 67.979996 119.519997 -26.039999 
72050016749567 67.979996 119.519997 -26.039999 
72050036749567 67.979996 119.519997 -26.039999 
72050056749567 67.979996 119.519997 -26.039999 
72050076749567 67.979996 119.519997 -26.039999 
72050096749567 67.979996 119.519997 -26.039999 
72050116749567 67.979996 119.519997 -26.039999 
72050136749567 67.979996 119.519997 -26.039999 
72050156749567 67.979996 119.519997 -26.039999 
72050176749567 67.979996 119.519997 -26.039999 
72050196749567 67.979996 119.519997 -26.039999 
72050216749567 67.979996 119.519997 -26.039999 
72050236749567 67.979996 119.519997 -26.039999 
72050256749567 67.979996 119.519997 -26.039999 
72050276749567 67.979996 119.519997 -26.039999 
72050296749567 67.979996 119.519997 -26.039999 
72050316749567 67.979996 119.519997 -26.039999 
72050336749567 67.979996 119.519997 -26.039999 
72050356749567 67.979996 119.519997 -26.039999 
72050376749567 67.979996 119.519997 -26.039999 
72050396749567 67.979996 119.519997 -26.039999 
72050416749567 67.979996 119.519997 -26.039999 
72050436749567 67.979996 119.519997 -26.039999 
72050456749567 67.979996 119.519997 -26.039999 
72050476749567 67.979996 119.519997 -26.039999 
72050496749567 67.979996 119.519997 -26.039999 
72050516749567 67.979996 119.519997 -26.039999 
72050536749567 67.979996 119.519997 -26.039999 
72050556749567 67.979996 119.519997 -26.039999 
72050576749567 67.979996 119.519997 -26.039999 
72050596749567 67.979996 119.519997 -26.039999 
72050616749567 67.979996 119.519997 -26.039999 
72050636749567 67.979996 119.519997 -26.039999 
72050656749567 67.979996 119.519997 -26.039999 
72050676749567 67.979996 119.519997 -26.039999 
72050696749567 67.979996 119.519997 -26.039999 
72050716749567 67.979996 119.519997 -26.039999 
72050736749567 67.979996 119.519997 -26.039999 
72050756749567 67.979996 119.519997 -26.039999 
72050776749567 67.979996 119.519997 -26.039999 
72050796749567 67.979996 119.519997 -26.039999 
72050816749567 67.979996 119.519997 -26.039999 
72050836749567 67.979996 119.519997 -26.039999 
72050856749567 67.979996 119.519997 -26.039999 
72050876749567 67.979996 119.519997 -26.039999 
72050896749567 67.979996 119.519997 -26.039999 
72050916749567 67.979996 119.519997 -26.039999 
72050936749567 67.979996 119.519997 -26.039999 
72050956749567 67.979996 119.519997 -26.039999 
72050976749567 67.979996 119.519997 -26.039999 
72050996749567 67.979996 119.519997 -26.039999 
72051016749567 67.979996 119.519997 -26.039999 
72051036749567 67.979996 119.519997 -26.039999 
72051056749567 67.979996 119.519997 -26.039999 
72051076749567 67.979996 119.519997 -26.039999 
72051096749567 67.979996 119.519997 -26.039999 
72051116749567 67.979996 119.519997 -26.039999 
72051136749567 67.979996 119.519997 -26.039999 
72051156749567 67.979996 119.519997 -26.039999 
72051176749567 67.979996 119.519997 -26.039999 
72051196749567 67.979996 119.519997 -26.039999 
72051216749567 67.979996 119.519997 -26.039999 
72051236749567 67.979996 119.519997 -26.039999 
72051256749567 67.979996 119.519997 -26.039999 
72051276749567 67.979996 119.519997 -26.039999 
72051296749567 67.979996 119.519997 -26.039999 
72051316749567 67.979996 119.339996 -26.039999 
72051336749567 67.979996 119.339996 -26.039999 
72051356749567 67.979996 119.339996 -26.039999 
72051376749567 67.979996 119.339996 -26.039999 
72051396749567 67.979996 119.339996 -26.039999 
72051416749567 67.979996 119.339996 -26.039999 
72051436749567 67.979996 119.339996 -26.039999 
72051456749567 67.979996 119.339996 -26.039999 
72051476749567 67.979996 119.339996 -26.039999 
72051496749567 67.979996 119.339996 -26.039999 
72051516749567 67.979996 119.339996 -26.039999 
72051536749567 67.979996 119.339996 -26.039999 
72051556749567 67.979996 119.339996 -26.039999 
72051576749567 67.979996 119.339996 -26.039999 
72051596749567 67.979996 119.339996 -26.039999 
72051616749567 67.979996 119.339996 -26.039999 
72051636749567 67.979996 119.339996 -26.039999 
72051656749567 67.979996 119.339996 -26.039999 
72051676749567 67.979996 119.339996 -26.039999 
72051696749567 67.979996 119.339996 -26.039999 
72051716749567 67.979996 119.339996 -26.039999 
72051736749567 67.979996 119.339996 -26.039999 
72051756749567 67.979996 119.339996 -26.039999 
72051776749567 67.979996 119.339996 -26.039999 
72051796749567 67.979996 119.339996 -26.039999 
72051816749567 67.979996 119.339996 -26.039999 
72051836749567 67.979996 119.339996 -26.039999 
72051856749567 67.979996 119.339996 -26.039999 
72051876749567 67.979996 119.339996 -26.039999 
72051896749567 67.979996 119.339996 -26.039999 
72051916749567 67.979996 119.339996 -26.039999 
72051936749567 67.979996 119.339996 -26.039999 
72051956749567 67.979996 119.339996 -26.039999 
72051976749567 67.979996 119.339996 -26.039999 
72051996749567 67.979996 119.339996 -26.039999 
72052016749567 67.979996 119.339996 -26.039999 
72052036749567 67.979996 119.339996 -26.039999 
72052056749567 67.979996 119.339996 -26.039999 
72052076749567 67.979996 119.339996 -26.039999 
72052096749567 67.979996 119.339996 -26.039999 
72052116749567 67.979996 119.339996 -26.039999 
72052136749567 67.979996 119.339996 -26.039999 
72052156749567 67.979996 119.339996 -26.039999 
72052176749567 67.979996 119.339996 -26.039999 
72052196749567 67.979996 119.339996 -26.039999 
72052216749567 67.979996 119.339996 -26.039999 
72052236749567 67.979996 119.339996 -26.039999 
72052256749567 67.979996 119.339996 -26.039999 
72052276749567 67.979996 119.339996 -26.039999 
72052296749567 67.979996 119.339996 -26.039999 
72052316749567 67.979996 119.339996 -26.039999 
72052336749567 67.979996 119.339996 -26.039999 
72052356749567 67.979996 119.339996 -26.039999 
72052376749567 67.979996 119.339996 -26.039999 
72052396749567 67.979996 119.339996 -26.039999 
72052416749567 67.979996 119.339996 -26.039999 
72052436749567 67.979996 119.339996 -26.039999 
72052456749567 67.979996 119.339996 -26.039999 
72052476749567 67.979996 119.339996 -26.039999 
72052496749567 67.979996 119.339996 -26.039999 
72052516749567 67.979996 119.339996 -26.039999 
72052536749567 67.979996 119.339996 -26.039999 
72052556749567 67.979996 119.339996 -26.039999 
72052576749567 67.979996 119.339996 -26.039999 
72052596749567 67.979996 119.339996 -26.039999 
72052616749567 67.979996 119.339996 -26.039999 
72052636749567 67.979996 119.339996 -26.039999 
72052656749567 67.979996 119.339996 -26.039999 
72052676749567 67.979996 119.339996 -26.039999 
72052696749567 67.979996 119.339996 -26.039999 
72052716749567 67.979996 119.339996 -26.039999 
72052736749567 67.979996 119.339996 -26.039999 
72052756749567 67.979996 119.339996 -26.039999 
72052776749567 67.979996 119.339996 -26.039999 
72052796749567 67.979996 119.339996 -26.039999 
72052816749567 67.979996 119.339996 -26.039999 
72052836749567 67.979996 119.339996 -26.039999 
72052856749567 67.979996 119.339996 -26.039999 
72052876749567 67.979996 119.339996 -26.039999 
72052896749567 67.979996 119.339996 -26.039999 
72052916749567 67.979996 119.339996 -26.039999 
72052936749567 67.979996 119.339996 -26.039999 
72052956749567 67.979996 119.339996 -26.039999 
72052976749567 67.979996 119.339996 -26.039999 
72052996749567 67.979996 119.339996 -26.039999 
72053016749567 67.979996 119.339996 -26.039999 
72053036749567 67.979996 119.339996 -26.039999 
72053056749567 67.979996 119.339996 -26.039999 
72053076749567 67.979996 119.339996 -26.039999 
72053096749567 67.979996 119.339996 -26.039999 
72053116749567 67.979996 119.339996 -26.039999 
72053136749567 67.979996 119.339996 -26.039999 
72053156749567 67.979996 119.339996 -26.039999 
72053176749567 67.979996 119.339996 -26.039999 
72053196749567 67.919998 119.339996 -25.799999 
72053216749567 67.919998 119.339996 -25.799999 
72053236749567 67.919998 119.339996 -25.799999 
72053256749567 67.919998 119.339996 -25.799999 
72053276749567 67.919998 119.339996 -25.799999 
72053296749567 67.919998 119.339996 -25.799999 
72053316749567 67.919998 119.339996 -25.799999 
72053336749567 67.919998 119.339996 -25.799999 
72053356749567 67.919998 119.339996 -25.799999 
72053376749567 67.919998 119.339996 -25.799999 
72053396749567 67.919998 119.339996 -25.799999 
72053416749567 67.919998 119.339996 -25.799999 
72053436749567 67.919998 119.339996 -25.799999 
72053456749567 67.919998 119.339996 -25.799999 
72053476749567 67.919998 119.339996 -25.799999 
72053496749567 67.919998 119.339996 -25.799999 
72053516749567 67.919998 119.339996 -25.799999 
72053536749567 67.919998 119.339996 -25.799999 
72053556749567 67.919998 119.339996 -25.799999 
72053576749567 67.919998 119.339996 -25.799999 
72053596749567 67.919998 119.339996 -25.799999 
72053616749567 67.919998 119.339996 -25.799999 
72053636749567 67.919998 119.339996 -25.799999 
72053656749567 67.919998 119.339996 -25.799999 
72053676749567 67.919998 119.339996 -25.799999 
72053696749567 67.919998 119.339996 -25.799999 
72053716749567 67.919998 119.339996 -25.799999 
72053736749567 67.919998 119.339996 -25.799999 
72053756749567 67.619995 119.399994 -25.740000 
72053776749567 67.619995 119.399994 -25.740000 
72053796749567 67.619995 119.399994 -25.740000 
72053816749567 67.619995 119.399994 -25.740000 
72053836749567 67.619995 119.399994 -25.740000 
72053856749567 67.619995 119.399994 -25.740000 
72053876749567 67.619995 119.399994 -25.740000 
72053896749567 67.619995 119.399994 -25.740000 
72053916749567 67.619995 119.399994 -25.740000 
72053936749567 67.619995 119.399994 -25.740000 
72053956749567 67.619995 119.399994 -25.740000 
72053976749567 67.619995 119.399994 -25.740000 
72053996749567 67.619995 119.399994 -25.740000 
72054016749567 67.619995 119.399994 -25.740000 
72054036749567 67.619995 119.399994 -25.740000 
72054056749567 67.619995 119.399994 -25.740000 
72054076749567 67.619995 119.399994 -25.740000 
72054096749567 67.619995 119.399994 -25.740000 
72054116749567 67.619995 119.399994 -25.740000 
72054136749567 67.619995 119.399994 -25.740000 
72054156749567 67.619995 119.399994 -25.740000 
72054176749567 67.619995 119.399994 -25.740000 
72054196749567 67.619995 119.399994 -25.740000 
72054216749567 67.619995 119.399994 -25.740000 
72054236749567 67.619995 119.399994 -25.740000 
72054256749567 67.619995 119.399994 -25.740000 
72054276749567 67.619995 119.399994 -25.740000 
72054296749567 67.619995 119.399994 -25.740000 
72054316749567 67.619995 119.399994 -25.740000 
72054336749567 67.619995 119.399994 -25.740000 
72054356749567 67.320000 119.399994 -25.740000 
72054376749567 67.320000 119.399994 -25.740000 
72054396749567 67.320000 119.399994 -25.740000 
72054416749567 67.320000 119.399994 -25.740000 
72054436749567 67.320000 119.399994 -25.740000 
72054456749567 67.320000 119.399994 -25.740000 
72054476749567 67.320000 119.399994 -25.740000 
72054496749567 67.320000 119.399994 -25.740000 
72054516749567 67.320000 119.399994 -25.740000 
72054536749567 67.320000 119.399994 -25.740000 
72054556749567 67.320000 119.399994 -25.740000 
72054576749567 67.320000 119.399994 -25.740000 
72054596749567 67.320000 119.399994 -25.740000 
72054616749567 67.320000 119.399994 -25.740000 
72054636749567 67.320000 119.399994 -25.740000 
72054656749567 67.320000 119.399994 -25.740000 
72054676749567 67.320000 119.399994 -25.740000 
72054696749567 67.320000 119.399994 -25.740000 
72054716749567 67.320000 119.399994 -25.740000 
72054736749567 67.320000 119.399994 -25.740000 
72054756749567 67.320000 119.399994 -25.740000 
72054776749567 67.320000 119.399994 -25.740000 
72054796749567 67.320000 119.399994 -25.740000 
72054816749567 67.320000 119.399994 -25.740000 
72054836749567 67.320000 119.399994 -25.740000 
72054856749567 67.320000 119.399994 -25.740000 
72054876749567 67.320000 119.399994 -25.740000 
72054896749567 67.320000 119.399994 -25.740000 
72054916749567 67.320000 119.399994 -25.740000 
72054936749567 67.320000 119.399994 -25.740000 
72054956749567 67.019997 119.459999 -25.799999 
72054976749567 67.019997 119.459999 -25.799999 
72054996749567 67.019997 119.459999 -25.799999 
72055016749567 67.019997 119.459999 -25.799999 
72055036749567 67.019997 119.459999 -25.799999 
72055056749567 67.019997 119.459999 -25.799999 
72055076749567 67.019997 119.459999 -25.799999 
72055096749567 67.019997 119.459999 -25.799999 
72055116749567 67.019997 119.459999 -25.799999 
72055136749567 67.019997 119.459999 -25.799999 
72055156749567 67.019997 119.459999 -25.799999 
72055176749567 67.019997 119.459999 -25.799999 
72055196749567 67.019997 119.459999 -25.799999 
72055216749567 67.019997 119.459999 -25.799999 
72055236749567 67.019997 119.459999 -25.799999 
72055256749567 67.019997 119.459999 -25.799999 
72055276749567 67.019997 119.459999 -25.799999 
72055296749567 67.019997 119.459999 -25.799999 
72055316749567 67.019997 119.459999 -25.799999 
72055336749567 67.019997 119.459999 -25.799999 
72055356749567 67.019997 119.459999 -25.799999 
72055376749567 67.019997 119.459999 -25.799999 
72055396749567 67.019997 119.459999 -25.799999 
72055416749567 67.019997 119.459999 -25.799999 
72055436749567 67.019997 119.459999 -25.799999 
72055456749567 67.019997 119.459999 -25.799999 
72055476749567 67.019997 119.459999 -25.799999 
72055496749567 67.019997 119.459999 -25.799999 
72055516749567 67.019997 119.459999 -25.799999 
72055536749567 67.019997 119.459999 -25.799999 
72055556749567 66.720001 119.339996 -25.859999 
72055576749567 66.720001 119.339996 -25.859999 
72055596749567 66.720001 119.339996 -25.859999 
72055616749567 66.720001 119.339996 -25.859999 
72055636749567 66.720001 119.339996 -25.859999 
72055656749567 66.720001 119.339996 -25.859999 
72055676749567 66.720001 119.339996 -25.859999 
72055696749567 66.720001 119.339996 -25.859999 
72055716749567 66.720001 119.339996 -25.859999 
72055736749567 66.720001 119.339996 -25.859999 
72055756749567 66.720001 119.339996 -25.859999 
72055776749567 66.720001 119.339996 -25.859999 
72055796749567 66.720001 119.339996 -25.859999 
72055816749567 66.720001 119.339996 -25.859999 
72055836749567 66.720001 119.339996 -25.859999 
72055856749567 66.720001 119.339996 -25.859999 
72055876749567 66.720001 119.339996 -25.859999 
72055896749567 66.720001 119.339996 -25.859999 
72055916749567 66.720001 119.339996 -25.859999 
72055936749567 66.720001 119.339996 -25.859999 
72055956749567 66.720001 119.339996 -25.859999 
72055976749567 66.720001 119.339996 -25.859999 
72055996749567 66.720001 119.339996 -25.859999 
72056016749567 66.720001 119.339996 -25.859999 
72056036749567 66.720001 119.339996 -25.859999 
72056056749567 66.720001 119.339996 -25.859999 
72056076749567 66.720001 119.339996 -25.859999 
72056096749567 66.720001 119.339996 -25.859999 
72056116749567 66.720001 119.339996 -25.859999 
72056136749567 66.720001 119.339996 -25.859999 
72056156749567 66.720001 119.339996 -25.859999 
72056176749567 66.720001 119.339996 -25.859999 
72056196749567 66.720001 119.339996 -25.859999 
72056216749567 66.720001 119.339996 -25.859999 
72056236749567 66.720001 119.339996 -25.859999 
72056256749567 66.720001 119.339996 -25.859999 
72056276749567 66.720001 119.339996 -25.859999 
72056296749567 66.720001 119.339996 -25.859999 
72056316749567 66.720001 119.339996 -25.859999 
72056336749567 66.720001 119.339996 -25.859999 
72056356749567 66.720001 119.339996 -25.859999 
72056376749567 66.720001 119.339996 -25.859999 
72056396749567 66.720001 119.339996 -25.859999 
72056416749567 66.720001 119.339996 -25.859999 
72056436749567 66.720001 119.339996 -25.859999 
72056456749567 66.720001 119.339996 -25.859999 
72056476749567 66.720001 119.339996 -25.859999 
72056496749567 66.720001 119.339996 -25.859999 
72056516749567 66.720001 119.339996 -25.859999 
72056536749567 66.720001 119.339996 -25.859999 
72056556749567 66.720001 119.339996 -25.859999 
72056576749567 66.720001 119.339996 -25.859999 
72056596749567 66.720001 119.339996 -25.859999 
72056616749567 66.720001 119.339996 -25.859999 
72056636749567 66.720001 119.339996 -25.859999 
72056656749567 66.720001 119.339996 -25.859999 
72056676749567 66.720001 119.339996 -25.859999 
72056696749567 66.720001 119.339996 -25.859999 
72056716749567 66.720001 119.339996 -25.859999 
72056736749567 66.720001 119.339996 -25.859999 
72056756749567 66.720001 119.579994 -26.219999 
72056776749567 66.720001 119.579994 -26.219999 
72056796749567 66.720001 119.579994 -26.219999 
72056816749567 66.720001 119.579994 -26.219999 
72056836749567 66.720001 119.579994 -26.219999 
72056856749567 66.720001 119.579994 -26.219999 
72056876749567 66.720001 119.579994 -26.219999 
72056896749567 66.720001 119.579994 -26.219999 
72056916749567 66.720001 119.579994 -26.219999 
72056936749567 66.720001 119.579994 -26.219999 
72056956749567 66.720001 119.579994 -26.219999 
72056976749567 66.720001 119.579994 -26.219999 
72056996749567 66.720001 119.579994 -26.219999 
72057016749567 66.720001 119.579994 -26.219999 
72057036749567 66.720001 119.579994 -26.219999 
72057056749567 66.720001 119.579994 -26.219999 
72057076749567 66.720001 119.579994 -26.219999 
72057096749567 66.720001 119.579994 -26.219999 
72057116749567 66.720001 119.579994 -26.219999 
72057136749567 66.720001 119.579994 -26.219999 
72057156749567 66.720001 119.579994 -26.219999 
72057176749567 66.720001 119.579994 -26.219999 
72057196749567 66.720001 119.579994 -26.219999 
72057216749567 66.720001 119.579994 -26.219999 
72057236749567 66.720001 119.579994 -26.219999 
72057256749567 66.720001 119.579994 -26.219999 
72057276749567 66.720001 119.579994 -26.219999 
72057296749567 66.720001 119.579994 -26.219999 
72057316749567 66.720001 119.579994 -26.219999 
72057336749567 66.720001 119.579994 -26.219999 
72057356749567 66.720001 119.579994 -26.219999 
72057376749567 66.720001 119.579994 -26.219999 
72057396749567 66.720001 119.579994 -26.219999 
72057416749567 66.720001 119.579994 -26.219999 
72057436749567 66.720001 119.579994 -26.219999 
72057456749567 66.720001 119.579994 -26.219999 
72057476749567 66.720001 119.579994 -26.219999 
72057496749567 66.720001 119.579994 -26.219999 
72057516749567 66.720001 119.579994 -26.219999 
72057536749567 66.720001 119.579994 -26.219999 
72057556749567 66.720001 119.579994 -26.219999 
72057576749567 66.720001 119.579994 -26.219999 
72057596749567 66.720001 119.579994 -26.219999 
72057616749567 66.720001 119.579994 -26.219999 
72057636749567 66.720001 119.579994 -26.219999 
72057656749567 66.720001 119.579994 -26.219999 
72057676749567 66.720001 119.579994 -26.219999 
72057696749567 66.720001 119.579994 -26.219999 
72057716749567 66.720001 119.579994 -26.219999 
72057736749567 66.720001 119.579994 -26.219999 
72057756749567 66.720001 119.579994 -26.219999 
72057776749567 66.720001 119.579994 -26.219999 
72057796749567 66.720001 119.579994 -26.219999 
72057816749567 66.720001 119.579994 -26.219999 
72057836749567 66.720001 119.579994 -26.219999 
72057856749567 66.720001 119.579994 -26.219999 
72057876749567 66.720001 119.579994 -26.219999 
72057896749567 66.720001 119.579994 -26.219999 
72057916749567 66.720001 119.579994 -26.219999 
72057936749567 66.720001 119.579994 -26.219999 
72057956749567 66.720001 119.579994 -26.219999 
72057976749567 66.720001 119.579994 -26.219999 
72057996749567 66.720001 119.579994 -26.219999 
72058016749567 66.720001 119.579994 -26.219999 
72058036749567 66.720001 119.579994 -26.219999 
72058056749567 66.720001 119.579994 -26.219999 
72058076749567 66.720001 119.579994 -26.219999 
72058096749567 66.720001 119.579994 -26.219999 
72058116749567 66.720001 119.579994 -26.219999 
72058136749567 66.720001 119.579994 -26.219999 
72058156749567 66.720001 119.579994 -26.219999 
72058176749567 66.720001 119.579994 -26.219999 
72058196749567 66.720001 119.579994 -26.219999 
72058216749567 66.720001 119.579994 -26.219999 
72058236749567 66.720001 119.579994 -26.219999 
72058256749567 66.720001 119.579994 -26.219999 
72058276749567 66.720001 119.579994 -26.219999 
72058296749567 66.720001 119.579994 -26.219999 
72058316749567 66.720001 119.579994 -26.219999 
72058336749567 66.720001 119.579994 -26.219999 
72058356749567 66.720001 119.579994 -26.219999 
72058376749567 66.720001 119.579994 -26.219999 
72058396749567 66.720001 119.579994 -26.219999 
72058416749567 66.720001 119.579994 -26.219999 
72058436749567 66.720001 119.579994 -26.219999 
72058456749567 66.720001 119.579994 -26.219999 
72058476749567 66.720001 119.579994 -26.219999 
72058496749567 66.720001 119.579994 -26.219999 
72058516749567 66.720001 119.579994 -26.219999 
72058536749567 66.720001 119.579994 -26.219999 
72058556749567 66.720001 119.579994 -26.219999 
72058576749567 66.720001 119.579994 -26.219999 
72058596749567 66.720001 119.579994 -26.219999 
72058616749567 66.720001 119.579994 -26.219999 
72058636749567 66.720001 119.579994 -26.219999 
72058656749567 66.720001 119.579994 -26.219999 
72058676749567 66.720001 119.579994 -26.219999 
72058696749567 66.720001 119.579994 -26.219999 
72058716749567 66.720001 119.579994 -26.219999 
72058736749567 66.720001 119.579994 -26.219999 
72058756749567 66.720001 119.579994 -26.219999 
72058776749567 66.720001 119.579994 -26.219999 
72058796749567 66.720001 119.579994 -26.219999 
72058816749567 66.720001 119.579994 -26.219999 
72058836749567 66.720001 119.579994 -26.219999 
72058856749567 66.720001 119.579994 -26.219999 
72058876749567 66.720001 119.519997 -26.400000 
72058896749567 66.720001 119.519997 -26.400000 
72058916749567 66.720001 119.519997 -26.400000 
72058936749567 66.720001 119.519997 -26.400000 
72058956749567 66.720001 119.519997 -26.400000 
72058976749567 66.720001 119.519997 -26.400000 
72058996749567 66.720001 119.519997 -26.400000 
72059016749567 66.720001 119.519997 -26.400000 
72059036749567 66.720001 119.519997 -26.400000 
72059056749567 66.720001 119.519997 -26.400000 
72059076749567 66.720001 119.519997 -26.400000 
72059096749567 66.720001 119.519997 -26.400000 
72059116749567 66.720001 119.519997 -26.400000 
72059136749567 66.720001 119.519997 -26.400000 
72059156749567 66.720001 119.519997 -26.400000 
72059176749567 66.720001 119.519997 -26.400000 
72059196749567 66.720001 119.519997 -26.400000 
72059216749567 66.720001 119.519997 -26.400000 
72059236749567 66.720001 119.519997 -26.400000 
72059256749567 66.720001 119.519997 -26.400000 
72059276749567 66.720001 119.519997 -26.400000 
72059296749567 66.720001 119.519997 -26.400000 
72059316749567 66.720001 119.519997 -26.400000 
72059336749567 66.720001 119.519997 -26.400000 
72059356749567 66.720001 119.519997 -26.400000 
72059376749567 66.720001 119.519997 -26.400000 
72059396749567 66.720001 119.519997 -26.400000 
72059416749567 66.720001 119.519997 -26.400000 
72059436749567 66.720001 119.519997 -26.400000 
72059456749567 66.720001 119.519997 -26.400000 
72059476749567 66.720001 119.519997 -26.400000 
72059496749567 66.720001 119.519997 -26.400000 
72059516749567 66.720001 119.519997 -26.400000 
72059536749567 66.720001 119.519997 -26.400000 
72059556749567 66.720001 119.519997 -26.400000 
72059576749567 66.720001 119.519997 -26.400000 
72059596749567 66.720001 119.519997 -26.400000 
72059616749567 66.720001 119.519997 -26.400000 
72059636749567 66.720001 119.519997 -26.400000 
72059656749567 66.720001 119.519997 -26.400000 
72059676749567 66.720001 119.519997 -26.400000 
72059696749567 66.720001 119.519997 -26.400000 
72059716749567 66.720001 119.519997 -26.400000 
72059736749567 66.720001 119.519997 -26.400000 
72059756749567 66.720001 119.519997 -26.400000 
72059776749567 66.720001 119.519997 -26.400000 
72059796749567 66.720001 119.519997 -26.400000 
72059816749567 66.720001 119.519997 -26.400000 
72059836749567 66.720001 119.519997 -26.400000 
72059856749567 66.720001 119.519997 -26.400000 
72059876749567 66.720001 119.519997 -26.400000 
72059896749567 66.720001 119.519997 -26.400000 
72059916749567 66.720001 119.519997 -26.400000 
72059936749567 66.720001 119.519997 -26.400000 
72059956749567 66.720001 119.519997 -26.400000 
72059976749567 66.720001 119.519997 -26.400000 
72059996749567 66.720001 119.519997 -26.400000 
72060016749567 66.720001 119.519997 -26.400000 
72060036749567 66.720001 119.519997 -26.400000 
72060056749567 66.720001 119.519997 -26.400000 
72060076749567 66.720001 119.519997 -26.400000 
72060096749567 66.720001 119.519997 -26.400000 
72060116749567 66.720001 119.519997 -26.400000 
72060136749567 66.720001 119.519997 -26.400000 
72060156749567 66.720001 119.519997 -26.400000 
72060176749567 66.720001 119.519997 -26.400000 
72060196749567 66.720001 119.519997 -26.400000 
72060216749567 66.720001 119.519997 -26.400000 
72060236749567 66.720001 119.519997 -26.400000 
72060256749567 66.720001 119.519997 -26.400000 
72060276749567 66.720001 119.519997 -26.400000 
72060296749567 66.720001 119.519997 -26.400000 
72060316749567 66.720001 119.519997 -26.400000 
72060336749567 66.720001 119.519997 -26.400000 
72060356749567 66.720001 119.519997 -26.400000 
72060376749567 66.720001 119.519997 -26.400000 
72060396749567 66.720001 119.519997 -26.400000 
72060416749567 66.720001 119.519997 -26.400000 
72060436749567 66.720001 119.519997 -26.400000 
72060456749567 66.720001 119.519997 -26.400000 
72060476749567 66.720001 119.519997 -26.400000 
72060496749567 66.720001 119.519997 -26.400000 
72060516749567 66.720001 119.519997 -26.400000 
72060536749567 66.720001 119.519997 -26.400000 
72060556749567 66.720001 119.519997 -26.400000 
72060576749567 66.720001 119.519997 -26.400000 
72060596749567 66.720001 119.519997 -26.400000 
72060616749567 66.720001 119.519997 -26.400000 
72060636749567 66.720001 119.519997 -26.400000 
72060656749567 66.720001 119.519997 -26.400000 
72060676749567 66.720001 119.519997 -26.400000 
72060696749567 66.720001 119.519997 -26.400000 
72060716749567 66.720001 119.519997 -26.400000 
72060736749567 66.720001 119.519997 -26.400000 
72060756749567 66.720001 119.519997 -26.400000 
72060776749567 66.720001 119.519997 -26.400000 
72060796749567 66.720001 119.519997 -26.400000 
72060816749567 66.720001 119.519997 -26.400000 
72060836749567 66.720001 119.519997 -26.400000 
72060856749567 66.720001 119.519997 -26.400000 
72060876749567 66.720001 119.519997 -26.400000 
72060896749567 66.720001 119.519997 -26.400000 
72060916749567 66.720001 119.519997 -26.400000 
72060936749567 66.720001 119.519997 -26.400000 
72060956749567 66.720001 119.519997 -26.400000 
72060976749567 66.720001 119.519997 -26.400000 
72060996749567 66.720001 119.519997 -26.400000 
72061016749567 66.720001 119.519997 -26.400000 
72061036749567 66.720001 119.519997 -26.400000 
72061056749567 66.720001 119.519997 -26.400000 
72061076749567 66.720001 119.519997 -26.400000 
72061096749567 66.720001 119.519997 -26.400000 
72061116749567 66.720001 119.519997 -26.400000 
72061136749567 66.720001 119.519997 -26.400000 
72061156749567 66.720001 119.519997 -26.400000 
72061176749567 66.720001 119.519997 -26.400000 
72061196749567 66.720001 119.519997 -26.400000 
72061216749567 66.720001 119.519997 -26.400000 
72061236749567 66.720001 119.519997 -26.400000 
72061256749567 66.720001 119.519997 -26.400000 
72061276749567 66.720001 119.519997 -26.400000 
72061296749567 66.720001 119.519997 -26.400000 
72061316749567 66.720001 119.519997 -26.400000 
72061336749567 66.720001 119.519997 -26.400000 
72061356749567 66.720001 119.519997 -26.400000 
72061376749567 66.720001 119.519997 -26.400000 
72061396749567 66.720001 119.519997 -26.400000 
72061416749567 66.720001 119.519997 -26.400000 
72061436749567 66.720001 119.519997 -26.400000 
72061456749567 66.720001 119.519997 -26.400000 
72061476749567 66.720001 119.519997 -26.400000 
72061496749567 66.720001 119.519997 -26.400000 
72061516749567 66.720001 119.519997 -26.400000 
72061536749567 66.720001 119.519997 -26.400000 
72061556749567 66.720001 119.519997 -26.400000 
72061576749567 66.720001 119.519997 -26.400000 
72061596749567 66.720001 119.519997 -26.400000 
72061616749567 66.720001 119.519997 -26.400000 
72061636749567 66.720001 119.519997 -26.400000 
72061656749567 66.720001 119.519997 -26.400000 
72061676749567 66.720001 119.519997 -26.400000 
72061696749567 66.720001 119.519997 -26.400000 
72061716749567 66.720001 119.519997 -26.400000 
72061736749567 66.720001 119.519997 -26.400000 
72061756749567 66.720001 119.519997 -26.400000 
72061776749567 66.720001 119.519997 -26.400000 
72061796749567 66.720001 119.519997 -26.400000 
72061816749567 66.720001 119.519997 -26.400000 
72061836749567 66.720001 119.519997 -26.400000 
72061856749567 66.720001 119.519997 -26.400000 
72061876749567 66.720001 119.519997 -26.400000 
72061896749567 66.720001 119.519997 -26.400000 
72061916749567 66.720001 119.519997 -26.400000 
72061936749567 66.720001 119.519997 -26.400000 
72061956749567 66.720001 119.519997 -26.400000 
72061976749567 66.720001 119.519997 -26.400000 
72061996749567 66.720001 119.519997 -26.400000 
72062016749567 66.720001 119.519997 -26.400000 
72062036749567 66.720001 119.519997 -26.400000 
72062056749567 66.720001 119.519997 -26.400000 
72062076749567 66.720001 119.519997 -26.400000 
72062096749567 66.720001 119.519997 -26.400000 
72062116749567 66.720001 119.519997 -26.400000 
72062136749567 66.720001 119.519997 -26.400000 
72062156749567 66.720001 119.519997 -26.400000 
72062176749567 66.720001 119.519997 -26.400000 
72062196749567 66.720001 119.519997 -26.400000 
72062216749567 66.720001 119.519997 -26.400000 
72062236749567 66.720001 119.519997 -26.400000 
72062256749567 66.720001 119.519997 -26.400000 
72062276749567 66.720001 119.519997 -26.400000 
72062296749567 66.720001 119.519997 -26.400000 
72062316749567 66.720001 119.519997 -26.400000 
72062336749567 66.720001 119.519997 -26.400000 
72062356749567 66.720001 119.519997 -26.400000 
72062376749567 66.720001 119.519997 -26.400000 
72062396749567 66.720001 119.519997 -26.400000 
72062416749567 66.720001 119.519997 -26.400000 
72062436749567 66.720001 119.519997 -26.400000 
72062456749567 66.720001 119.519997 -26.400000 
72062476749567 66.720001 119.339996 -26.400000 
72062496749567 66.720001 119.339996 -26.400000 
72062516749567 66.720001 119.339996 -26.400000 
72062536749567 66.720001 119.339996 -26.400000 
72062556749567 66.720001 119.339996 -26.400000 
72062576749567 66.720001 119.339996 -26.400000 
72062596749567 66.720001 119.339996 -26.400000 
72062616749567 66.720001 119.339996 -26.400000 
72062636749567 66.540001 119.279999 -26.459999 
72062656749567 66.540001 119.279999 -26.459999 
72062676749567 66.540001 119.279999 -26.459999 
72062696749567 66.540001 119.279999 -26.459999 
72062716749567 66.540001 119.279999 -26.459999 
72062736749567 66.540001 119.279999 -26.459999 
72062756749567 66.540001 119.279999 -26.459999 
72062776749567 66.540001 119.279999 -26.459999 
72062796749567 66.540001 119.279999 -26.459999 
72062816749567 66.540001 119.279999 -26.459999 
72062836749567 66.540001 119.279999 -26.459999 
72062856749567 66.540001 119.279999 -26.459999 
72062876749567 66.540001 119.279999 -26.459999 
72062896749567 66.540001 119.279999 -26.459999 
72062916749567 66.360001 119.219994 -26.580000 
72062936749567 66.360001 119.219994 -26.580000 
72062956749567 66.360001 119.219994 -26.580000 
72062976749567 66.360001 119.219994 -26.580000 
72062996749567 66.360001 119.219994 -26.580000 
72063016749567 66.360001 119.219994 -26.580000 
72063036749567 66.360001 119.219994 -26.580000 
72063056749567 66.360001 119.219994 -26.580000 
72063076749567 66.360001 119.219994 -26.580000 
72063096749567 66.360001 119.219994 -26.580000 
72063116749567 66.360001 119.219994 -26.580000 
72063136749567 66.360001 119.219994 -26.580000 
72063156749567 66.360001 119.219994 -26.580000 
72063176749567 66.360001 119.219994 -26.580000 
72063196749567 66.360001 119.219994 -26.580000 
72063216749567 66.360001 119.219994 -26.580000 
72063236749567 66.360001 119.219994 -26.580000 
72063256749567 66.360001 119.219994 -26.580000 
72063276749567 66.360001 119.219994 -26.580000 
72063296749567 66.360001 119.219994 -26.580000 
72063316749567 66.360001 119.219994 -26.580000 
72063336749567 66.360001 119.219994 -26.580000 
72063356749567 66.360001 119.219994 -26.580000 
72063376749567 66.360001 119.219994 -26.580000 
72063396749567 66.360001 119.219994 -26.580000 
72063416749567 66.360001 119.219994 -26.580000 
72063436749567 66.360001 119.219994 -26.580000 
72063456749567 66.360001 119.219994 -26.580000 
72063476749567 66.360001 119.219994 -26.580000 
72063496749567 66.360001 119.219994 -26.580000 
72063516749567 66.360001 119.219994 -26.580000 
