# Created at Fri Jan 31 09:00:26 GMT+01:00 2025 in Burnaby Canada 
72796556750126 66.779999 117.059998 -24.539999 
72796576750126 66.779999 117.059998 -24.539999 
72796596750126 66.779999 117.059998 -24.539999 
72796616750126 66.779999 117.059998 -24.539999 
72796636750126 66.779999 117.059998 -24.539999 
72796656750126 66.779999 117.059998 -24.539999 
72796676750126 66.779999 117.059998 -24.539999 
72796696750126 66.779999 117.059998 -24.539999 
72796716750126 66.779999 117.059998 -24.539999 
72796736750126 66.779999 117.059998 -24.539999 
72796756750126 66.779999 117.059998 -24.539999 
72796776750126 66.779999 117.059998 -24.539999 
72796796750126 66.779999 117.059998 -24.539999 
72796816750126 66.779999 117.059998 -24.539999 
72796836750126 66.779999 117.059998 -24.539999 
72796856750126 66.779999 117.059998 -24.539999 
72796876750126 66.779999 117.059998 -24.539999 
72796896750126 66.779999 117.059998 -24.539999 
72796916750126 66.779999 117.059998 -24.539999 
72796936750126 66.779999 117.059998 -24.539999 
72796956750126 66.779999 117.059998 -24.539999 
72796976750126 66.779999 117.059998 -24.539999 
72796996750126 66.779999 117.059998 -24.539999 
72797016750126 66.779999 117.059998 -24.539999 
72797036750126 66.779999 117.059998 -24.539999 
72797056750126 66.779999 117.059998 -24.539999 
72797076750126 66.779999 117.059998 -24.539999 
72797096750126 66.779999 117.059998 -24.539999 
72797116750126 66.779999 117.059998 -24.539999 
72797136750126 66.779999 117.059998 -24.539999 
72797156750126 66.779999 117.059998 -24.539999 
72797176750126 66.779999 117.059998 -24.539999 
72797196750126 66.720001 117.599998 -24.660000 
72797216750126 66.720001 117.599998 -24.660000 
72797236750126 66.720001 117.599998 -24.660000 
72797256750126 66.720001 117.599998 -24.660000 
72797276750126 66.720001 117.599998 -24.660000 
72797296750126 66.720001 117.599998 -24.660000 
72797316750126 66.720001 117.599998 -24.660000 
72797336750126 66.720001 117.599998 -24.660000 
72797356750126 66.720001 117.599998 -24.660000 
72797376750126 66.720001 117.599998 -24.660000 
72797396750126 66.720001 117.599998 -24.660000 
72797416750126 66.720001 117.599998 -24.660000 
72797436750126 66.720001 117.599998 -24.660000 
72797456750126 66.720001 117.599998 -24.660000 
72797476750126 66.720001 117.599998 -24.660000 
72797496750126 66.720001 117.599998 -24.660000 
72797516750126 66.720001 117.599998 -24.660000 
72797536750126 66.720001 117.599998 -24.660000 
72797556750126 66.720001 117.599998 -24.660000 
72797576750126 66.720001 117.599998 -24.660000 
72797596750126 66.720001 117.599998 -24.660000 
72797616750126 66.720001 117.599998 -24.660000 
72797636750126 66.720001 117.599998 -24.660000 
72797656750126 66.720001 117.599998 -24.660000 
72797676750126 66.720001 117.599998 -24.660000 
72797696750126 66.720001 117.599998 -24.660000 
72797716750126 66.720001 117.599998 -24.660000 
72797736750126 66.720001 117.599998 -24.660000 
72797756750126 66.720001 117.599998 -24.660000 
72797776750126 66.720001 117.599998 -24.660000 
72797796750126 66.720001 117.599998 -24.660000 
72797816750126 66.720001 117.599998 -24.660000 
72797836750126 66.720001 117.599998 -24.660000 
72797856750126 66.720001 117.599998 -24.660000 
72797876750126 66.720001 117.599998 -24.660000 
72797896750126 66.720001 117.599998 -24.660000 
72797916750126 66.720001 117.599998 -24.660000 
72797936750126 66.720001 117.599998 -24.660000 
72797956750126 66.720001 117.599998 -24.660000 
72797976750126 66.720001 117.599998 -24.660000 
72797996750126 66.720001 117.599998 -24.660000 
72798016750126 66.720001 117.599998 -24.660000 
72798036750126 66.720001 117.599998 -24.660000 
72798056750126 66.720001 117.599998 -24.660000 
72798076750126 66.720001 117.599998 -24.660000 
72798096750126 66.720001 117.599998 -24.660000 
72798116750126 66.720001 117.599998 -24.660000 
72798136750126 66.720001 117.599998 -24.660000 
72798156750126 66.720001 117.599998 -24.660000 
72798176750126 66.720001 117.599998 -24.660000 
72798196750126 66.720001 117.599998 -24.660000 
72798216750126 66.720001 117.599998 -24.660000 
72798236750126 66.720001 117.599998 -24.660000 
72798256750126 66.720001 117.599998 -24.660000 
72798276750126 66.720001 117.599998 -24.660000 
72798296750126 66.720001 117.599998 -24.660000 
72798316750126 66.720001 117.599998 -24.660000 
72798336750126 66.720001 117.599998 -24.660000 
72798356750126 66.720001 117.599998 -24.660000 
72798376750126 66.720001 117.599998 -24.660000 
72798396750126 66.720001 117.599998 -24.660000 
72798416750126 66.720001 117.599998 -24.660000 
72798436750126 66.720001 117.599998 -24.660000 
72798456750126 66.720001 117.599998 -24.660000 
72798476750126 66.720001 117.599998 -24.660000 
72798496750126 66.720001 117.599998 -24.660000 
72798516750126 66.720001 117.599998 -24.660000 
72798536750126 66.720001 117.599998 -24.660000 
72798556750126 66.720001 117.599998 -24.660000 
72798576750126 66.720001 117.599998 -24.660000 
72798596750126 66.720001 117.599998 -24.660000 
72798616750126 66.720001 117.599998 -24.660000 
72798636750126 66.720001 117.599998 -24.660000 
72798656750126 66.720001 117.599998 -24.660000 
72798676750126 66.540001 117.959999 -24.840000 
72798696750126 66.540001 117.959999 -24.840000 
72798716750126 66.540001 117.959999 -24.840000 
72798736750126 66.540001 117.959999 -24.840000 
72798756750126 66.540001 117.959999 -24.840000 
72798776750126 66.540001 117.959999 -24.840000 
72798796750126 66.540001 117.959999 -24.840000 
72798816750126 66.540001 117.959999 -24.840000 
72798836750126 66.540001 117.959999 -24.840000 
72798856750126 66.540001 117.959999 -24.840000 
72798876750126 66.479996 117.839996 -25.080000 
72798896750126 66.479996 117.839996 -25.080000 
72798916750126 66.479996 117.839996 -25.080000 
72798936750126 66.479996 117.839996 -25.080000 
72798956750126 66.479996 117.839996 -25.080000 
72798976750126 66.479996 117.839996 -25.080000 
72798996750126 66.479996 117.839996 -25.080000 
72799016750126 66.479996 117.839996 -25.080000 
72799036750126 66.479996 117.839996 -25.080000 
72799056750126 66.479996 117.839996 -25.080000 
72799076750126 66.479996 117.839996 -25.080000 
72799096750126 66.479996 117.839996 -25.080000 
72799116750126 66.479996 117.839996 -25.080000 
72799136750126 66.479996 117.839996 -25.080000 
72799156750126 66.479996 117.839996 -25.080000 
72799176750126 66.479996 117.839996 -25.080000 
72799196750126 66.599998 117.779999 -24.840000 
72799216750126 66.599998 117.779999 -24.840000 
72799236750126 66.599998 117.779999 -24.840000 
72799256750126 66.599998 117.779999 -24.840000 
72799276750126 66.599998 117.779999 -24.840000 
72799296750126 66.599998 117.779999 -24.840000 
72799316750126 66.599998 117.779999 -24.840000 
72799336750126 66.599998 117.779999 -24.840000 
72799356750126 66.599998 117.779999 -24.840000 
72799376750126 66.599998 117.779999 -24.840000 
72799396750126 66.599998 117.779999 -24.840000 
72799416750126 66.599998 117.779999 -24.840000 
72799436750126 66.659996 117.899994 -24.600000 
72799456750126 66.659996 117.899994 -24.600000 
72799476750126 66.659996 117.899994 -24.600000 
72799496750126 66.659996 117.899994 -24.600000 
72799516750126 66.659996 117.899994 -24.600000 
72799536750126 66.659996 117.899994 -24.600000 
72799556750126 66.659996 117.899994 -24.600000 
72799576750126 66.659996 117.899994 -24.600000 
72799596750126 66.659996 117.899994 -24.600000 
72799616750126 66.659996 117.899994 -24.600000 
72799636750126 66.659996 117.899994 -24.600000 
72799656750126 66.659996 117.899994 -24.600000 
72799676750126 66.659996 117.899994 -24.600000 
72799696750126 66.659996 117.899994 -24.600000 
72799716750126 66.659996 117.899994 -24.600000 
72799736750126 66.659996 117.899994 -24.600000 
72799756750126 66.659996 117.899994 -24.600000 
72799776750126 66.659996 117.899994 -24.600000 
72799796750126 66.659996 117.899994 -24.600000 
72799816750126 66.659996 117.899994 -24.600000 
72799836750126 66.659996 117.899994 -24.600000 
72799856750126 66.659996 117.899994 -24.600000 
72799876750126 66.659996 117.899994 -24.600000 
72799896750126 66.659996 117.899994 -24.600000 
72799916750126 66.659996 117.899994 -24.600000 
72799936750126 66.659996 117.899994 -24.600000 
72799956750126 66.659996 118.139999 -24.359999 
72799976750126 66.659996 118.139999 -24.359999 
72799996750126 66.659996 118.139999 -24.359999 
72800016750126 66.659996 118.139999 -24.359999 
72800036750126 66.659996 118.139999 -24.359999 
72800056750126 66.659996 118.139999 -24.359999 
72800076750126 66.659996 118.139999 -24.359999 
72800096750126 66.659996 118.139999 -24.359999 
72800116750126 66.659996 118.139999 -24.359999 
72800136750126 66.659996 118.139999 -24.359999 
72800156750126 66.659996 118.139999 -24.359999 
72800176750126 66.659996 118.139999 -24.359999 
72800196750126 66.659996 118.139999 -24.359999 
72800216750126 66.659996 118.139999 -24.359999 
72800236750126 66.659996 118.139999 -24.359999 
72800256750126 66.659996 118.139999 -24.359999 
72800276750126 66.659996 118.139999 -24.359999 
72800296750126 66.659996 118.139999 -24.359999 
72800316750126 66.659996 118.139999 -24.359999 
72800336750126 66.659996 118.139999 -24.359999 
72800356750126 66.659996 118.139999 -24.359999 
72800376750126 66.659996 118.139999 -24.359999 
72800396750126 66.659996 118.139999 -24.359999 
72800416750126 66.659996 118.139999 -24.359999 
72800436750126 66.659996 118.139999 -24.359999 
72800456750126 66.659996 118.139999 -24.359999 
72800476750126 66.659996 118.139999 -24.359999 
72800496750126 66.659996 118.139999 -24.359999 
72800516750126 66.659996 118.139999 -24.359999 
72800536750126 66.659996 118.139999 -24.359999 
72800556750126 66.659996 118.139999 -24.359999 
72800576750126 66.659996 118.139999 -24.359999 
72800596750126 66.659996 118.139999 -24.359999 
72800616750126 66.659996 118.139999 -24.359999 
72800636750126 66.720001 118.320000 -24.180000 
72800656750126 66.720001 118.320000 -24.180000 
72800676750126 66.720001 118.320000 -24.180000 
72800696750126 66.720001 118.320000 -24.180000 
72800716750126 66.720001 118.320000 -24.180000 
72800736750126 66.720001 118.320000 -24.180000 
72800756750126 66.720001 118.320000 -24.180000 
72800776750126 66.720001 118.320000 -24.180000 
72800796750126 66.720001 118.320000 -24.180000 
72800816750126 66.720001 118.320000 -24.180000 
72800836750126 66.720001 118.320000 -24.180000 
72800856750126 66.720001 118.320000 -24.180000 
72800876750126 66.720001 118.320000 -24.180000 
72800896750126 66.720001 118.320000 -24.180000 
72800916750126 66.720001 118.320000 -24.180000 
72800936750126 66.720001 118.320000 -24.180000 
72800956750126 66.720001 118.320000 -24.180000 
72800976750126 66.720001 118.320000 -24.180000 
72800996750126 66.720001 118.320000 -24.180000 
72801016750126 66.720001 118.320000 -24.180000 
72801036750126 66.720001 118.320000 -24.180000 
72801056750126 66.720001 118.320000 -24.180000 
72801076750126 66.720001 118.320000 -24.180000 
72801096750126 66.720001 118.320000 -24.180000 
72801116750126 66.720001 118.320000 -24.180000 
72801136750126 66.720001 118.320000 -24.180000 
72801156750126 66.720001 118.320000 -24.180000 
72801176750126 66.720001 118.320000 -24.180000 
72801196750126 66.720001 118.320000 -24.180000 
72801216750126 66.720001 118.320000 -24.180000 
72801236750126 66.720001 118.320000 -24.180000 
72801256750126 66.720001 118.320000 -24.180000 
72801276750126 66.720001 118.320000 -24.180000 
72801296750126 66.720001 118.320000 -24.180000 
72801316750126 66.720001 118.320000 -24.180000 
72801336750126 66.720001 118.320000 -24.180000 
72801356750126 66.720001 118.320000 -24.180000 
72801376750126 66.720001 118.320000 -24.180000 
72801396750126 66.720001 118.320000 -24.180000 
72801416750126 66.720001 118.320000 -24.180000 
72801436750126 66.720001 118.320000 -24.180000 
72801456750126 66.720001 118.320000 -24.180000 
72801476750126 66.720001 118.320000 -24.180000 
72801496750126 66.720001 118.320000 -24.180000 
72801516750126 66.720001 118.320000 -24.180000 
72801536750126 66.720001 118.320000 -24.180000 
72801556750126 66.720001 118.320000 -24.180000 
72801576750126 66.720001 118.320000 -24.180000 
72801596750126 66.720001 118.320000 -24.180000 
72801616750126 66.720001 118.320000 -24.180000 
72801636750126 66.720001 118.320000 -24.180000 
72801656750126 66.720001 118.320000 -24.180000 
72801676750126 66.720001 118.320000 -24.180000 
72801696750126 66.720001 118.320000 -24.180000 
72801716750126 66.720001 118.320000 -24.180000 
72801736750126 66.720001 118.320000 -24.180000 
72801756750126 66.720001 118.680000 -24.240000 
72801776750126 66.720001 118.680000 -24.240000 
72801796750126 66.720001 118.680000 -24.240000 
72801816750126 66.720001 118.680000 -24.240000 
72801836750126 66.720001 118.680000 -24.240000 
72801856750126 66.720001 118.680000 -24.240000 
72801876750126 66.720001 118.680000 -24.240000 
72801896750126 66.720001 118.680000 -24.240000 
72801916750126 66.720001 118.680000 -24.240000 
72801936750126 66.720001 118.680000 -24.240000 
72801956750126 66.720001 118.680000 -24.240000 
72801976750126 66.720001 118.680000 -24.240000 
72801996750126 66.720001 118.680000 -24.240000 
72802016750126 66.720001 118.680000 -24.240000 
72802036750126 66.720001 118.680000 -24.240000 
72802056750126 66.720001 118.680000 -24.240000 
72802076750126 66.720001 118.680000 -24.240000 
72802096750126 66.720001 118.680000 -24.240000 
72802116750126 66.720001 118.680000 -24.240000 
72802136750126 66.720001 118.680000 -24.240000 
72802156750126 66.720001 118.680000 -24.240000 
72802176750126 66.720001 118.680000 -24.240000 
72802196750126 66.720001 118.680000 -24.240000 
72802216750126 66.720001 118.680000 -24.240000 
72802236750126 66.720001 118.680000 -24.240000 
72802256750126 66.720001 118.680000 -24.240000 
72802276750126 66.720001 118.680000 -24.240000 
72802296750126 66.720001 118.680000 -24.240000 
72802316750126 66.720001 118.680000 -24.240000 
72802336750126 66.720001 118.680000 -24.240000 
72802356750126 66.720001 118.680000 -24.240000 
72802376750126 66.720001 118.680000 -24.240000 
72802396750126 66.720001 118.680000 -24.240000 
72802416750126 66.720001 118.680000 -24.240000 
72802436750126 66.720001 118.680000 -24.240000 
72802456750126 66.720001 118.680000 -24.240000 
72802476750126 66.720001 118.680000 -24.240000 
72802496750126 66.720001 118.680000 -24.240000 
72802516750126 66.720001 118.680000 -24.240000 
72802536750126 66.720001 118.680000 -24.240000 
72802556750126 66.720001 118.680000 -24.240000 
72802576750126 66.720001 118.680000 -24.240000 
72802596750126 66.720001 118.680000 -24.240000 
72802616750126 66.720001 118.680000 -24.240000 
72802636750126 66.720001 118.680000 -24.240000 
72802656750126 66.720001 118.680000 -24.240000 
72802676750126 66.720001 118.680000 -24.240000 
72802696750126 66.720001 118.680000 -24.240000 
72802716750126 66.720001 118.680000 -24.240000 
72802736750126 66.720001 118.680000 -24.240000 
72802756750126 66.720001 118.680000 -24.240000 
72802776750126 66.720001 118.680000 -24.240000 
72802796750126 66.720001 118.680000 -24.240000 
72802816750126 66.720001 118.680000 -24.240000 
72802836750126 66.720001 118.680000 -24.240000 
72802856750126 66.720001 118.680000 -24.240000 
72802876750126 66.720001 118.680000 -24.240000 
72802896750126 66.720001 118.680000 -24.240000 
72802916750126 66.779999 118.979996 -24.119999 
72802936750126 66.779999 118.979996 -24.119999 
72802956750126 66.779999 118.979996 -24.119999 
72802976750126 66.779999 118.979996 -24.119999 
72802996750126 66.779999 118.979996 -24.119999 
72803016750126 66.779999 118.979996 -24.119999 
72803036750126 66.779999 118.979996 -24.119999 
72803056750126 66.779999 118.979996 -24.119999 
72803076750126 66.779999 118.979996 -24.119999 
72803096750126 66.779999 118.979996 -24.119999 
72803116750126 66.779999 118.979996 -24.119999 
72803136750126 66.779999 118.979996 -24.119999 
72803156750126 66.779999 118.979996 -24.119999 
72803176750126 66.779999 118.979996 -24.119999 
72803196750126 66.779999 118.979996 -24.119999 
72803216750126 66.779999 118.979996 -24.119999 
72803236750126 66.779999 118.979996 -24.119999 
72803256750126 66.779999 118.979996 -24.119999 
72803276750126 66.779999 118.979996 -24.119999 
72803296750126 66.779999 118.979996 -24.119999 
72803316750126 66.779999 118.979996 -24.119999 
72803336750126 66.779999 118.979996 -24.119999 
72803356750126 66.779999 118.979996 -24.119999 
72803376750126 66.779999 118.979996 -24.119999 
72803396750126 66.779999 118.979996 -24.119999 
72803416750126 66.779999 118.979996 -24.119999 
72803436750126 66.779999 118.979996 -24.119999 
72803456750126 66.779999 118.979996 -24.119999 
72803476750126 66.779999 118.979996 -24.119999 
72803496750126 66.779999 118.979996 -24.119999 
72803516750126 66.779999 118.979996 -24.119999 
72803536750126 66.779999 118.979996 -24.119999 
72803556750126 66.779999 118.979996 -24.119999 
72803576750126 66.779999 118.979996 -24.119999 
72803596750126 66.779999 118.979996 -24.119999 
72803616750126 66.779999 118.979996 -24.119999 
72803636750126 66.779999 118.979996 -24.119999 
72803656750126 66.779999 118.979996 -24.119999 
72803676750126 66.779999 118.979996 -24.119999 
72803696750126 66.779999 118.979996 -24.119999 
72803716750126 66.779999 118.979996 -24.119999 
72803736750126 66.779999 118.979996 -24.119999 
72803756750126 66.779999 118.979996 -24.119999 
72803776750126 66.779999 118.979996 -24.119999 
72803796750126 66.779999 118.979996 -24.119999 
72803816750126 66.779999 118.979996 -24.119999 
72803836750126 66.779999 118.979996 -24.119999 
72803856750126 66.779999 118.979996 -24.119999 
72803876750126 66.779999 118.979996 -24.119999 
72803896750126 66.779999 118.979996 -24.119999 
72803916750126 66.779999 118.979996 -24.119999 
72803936750126 66.779999 118.979996 -24.119999 
72803956750126 66.779999 118.979996 -24.119999 
72803976750126 66.779999 118.979996 -24.119999 
72803996750126 66.779999 118.979996 -24.119999 
72804016750126 66.779999 118.979996 -24.119999 
72804036750126 66.779999 118.979996 -24.119999 
72804056750126 66.779999 118.979996 -24.119999 
72804076750126 66.779999 118.979996 -24.299999 
72804096750126 66.779999 118.979996 -24.299999 
72804116750126 66.779999 118.979996 -24.299999 
72804136750126 66.779999 118.979996 -24.299999 
72804156750126 66.779999 118.979996 -24.299999 
72804176750126 66.779999 118.979996 -24.299999 
72804196750126 66.779999 118.979996 -24.299999 
72804216750126 66.779999 118.979996 -24.299999 
72804236750126 66.779999 118.979996 -24.299999 
72804256750126 66.779999 118.979996 -24.299999 
72804276750126 66.779999 118.979996 -24.299999 
72804296750126 66.779999 118.979996 -24.299999 
72804316750126 66.779999 118.979996 -24.299999 
72804336750126 66.779999 118.979996 -24.299999 
72804356750126 66.779999 118.979996 -24.299999 
72804376750126 66.779999 118.979996 -24.299999 
72804396750126 66.779999 118.979996 -24.299999 
72804416750126 66.779999 118.979996 -24.299999 
72804436750126 66.779999 118.979996 -24.299999 
72804456750126 66.779999 118.979996 -24.299999 
72804476750126 66.779999 118.979996 -24.299999 
72804496750126 66.779999 118.979996 -24.299999 
72804516750126 66.779999 118.979996 -24.299999 
72804536750126 66.779999 118.979996 -24.299999 
72804556750126 66.779999 118.979996 -24.299999 
72804576750126 66.779999 118.979996 -24.299999 
72804596750126 66.779999 118.979996 -24.299999 
72804616750126 66.779999 118.979996 -24.299999 
72804636750126 66.779999 118.979996 -24.299999 
72804656750126 66.779999 118.979996 -24.299999 
72804676750126 66.779999 118.979996 -24.299999 
72804696750126 66.779999 118.979996 -24.299999 
72804716750126 66.720001 118.919998 -24.480000 
72804736750126 66.720001 118.919998 -24.480000 
72804756750126 66.720001 118.919998 -24.480000 
72804776750126 66.720001 118.919998 -24.480000 
72804796750126 66.720001 118.919998 -24.480000 
72804816750126 66.720001 118.919998 -24.480000 
72804836750126 66.720001 118.919998 -24.480000 
72804856750126 66.720001 118.919998 -24.480000 
72804876750126 66.720001 118.919998 -24.480000 
72804896750126 66.720001 118.919998 -24.480000 
72804916750126 66.720001 118.919998 -24.480000 
72804936750126 66.720001 118.919998 -24.480000 
72804956750126 66.720001 118.919998 -24.480000 
72804976750126 66.720001 118.919998 -24.480000 
72804996750126 66.720001 118.919998 -24.480000 
72805016750126 66.720001 118.919998 -24.480000 
72805036750126 66.720001 118.919998 -24.480000 
72805056750126 66.720001 118.919998 -24.480000 
72805076750126 66.720001 118.919998 -24.480000 
72805096750126 66.720001 118.919998 -24.480000 
72805116750126 66.720001 118.919998 -24.480000 
72805136750126 66.720001 118.919998 -24.480000 
72805156750126 66.720001 118.860001 -24.660000 
72805176750126 66.720001 118.860001 -24.660000 
72805196750126 66.720001 118.860001 -24.660000 
72805216750126 66.720001 118.860001 -24.660000 
72805236750126 66.720001 118.860001 -24.660000 
72805256750126 66.720001 118.860001 -24.660000 
72805276750126 66.720001 118.860001 -24.660000 
72805296750126 66.720001 118.860001 -24.660000 
72805316750126 66.720001 118.860001 -24.660000 
72805336750126 66.720001 118.860001 -24.660000 
72805356750126 66.720001 118.860001 -24.660000 
72805376750126 66.720001 118.860001 -24.660000 
72805396750126 66.720001 118.860001 -24.660000 
72805416750126 66.720001 118.860001 -24.660000 
72805436750126 66.720001 118.860001 -24.660000 
72805456750126 66.720001 118.860001 -24.660000 
72805476750126 66.720001 118.860001 -24.660000 
72805496750126 66.720001 118.860001 -24.660000 
72805516750126 66.720001 118.860001 -24.660000 
72805536750126 66.720001 118.860001 -24.660000 
72805556750126 66.720001 118.860001 -24.660000 
72805576750126 66.720001 118.860001 -24.660000 
72805596750126 66.720001 118.860001 -24.660000 
72805616750126 66.720001 118.860001 -24.660000 
72805636750126 66.720001 118.860001 -24.660000 
72805656750126 66.720001 118.860001 -24.660000 
72805676750126 66.720001 118.860001 -24.660000 
72805696750126 66.720001 118.860001 -24.660000 
72805716750126 66.720001 118.860001 -24.660000 
72805736750126 66.720001 118.860001 -24.660000 
72805756750126 66.720001 118.860001 -24.660000 
72805776750126 66.720001 118.860001 -24.660000 
72805796750126 66.720001 118.860001 -24.660000 
72805816750126 66.720001 118.860001 -24.660000 
72805836750126 66.720001 118.860001 -24.660000 
72805856750126 66.720001 118.860001 -24.660000 
72805876750126 66.720001 118.860001 -24.660000 
72805896750126 66.720001 118.860001 -24.660000 
72805916750126 66.720001 118.860001 -24.660000 
72805936750126 66.720001 118.860001 -24.660000 
72805956750126 66.720001 118.860001 -24.660000 
72805976750126 66.720001 118.860001 -24.660000 
72805996750126 66.720001 118.860001 -24.660000 
72806016750126 66.720001 118.860001 -24.660000 
72806036750126 66.720001 118.860001 -24.660000 
72806056750126 66.720001 118.860001 -24.660000 
72806076750126 66.720001 118.860001 -24.660000 
72806096750126 66.720001 118.860001 -24.660000 
72806116750126 66.720001 118.860001 -24.660000 
72806136750126 66.720001 118.860001 -24.660000 
72806156750126 66.720001 118.860001 -24.660000 
72806176750126 66.720001 118.860001 -24.660000 
72806196750126 66.720001 118.860001 -24.660000 
72806216750126 66.720001 118.860001 -24.660000 
72806236750126 66.599998 118.860001 -24.959999 
72806256750126 66.599998 118.860001 -24.959999 
72806276750126 66.599998 118.860001 -24.959999 
72806296750126 66.599998 118.860001 -24.959999 
72806316750126 66.599998 118.860001 -24.959999 
72806336750126 66.599998 118.860001 -24.959999 
72806356750126 66.599998 118.860001 -24.959999 
72806376750126 66.599998 118.860001 -24.959999 
72806396750126 66.599998 118.860001 -24.959999 
72806416750126 66.599998 118.860001 -24.959999 
72806436750126 66.599998 118.860001 -24.959999 
72806456750126 66.599998 118.860001 -24.959999 
72806476750126 66.599998 118.860001 -24.959999 
72806496750126 66.599998 118.860001 -24.959999 
72806516750126 66.599998 118.860001 -24.959999 
72806536750126 66.599998 118.860001 -24.959999 
72806556750126 66.599998 118.860001 -24.959999 
72806576750126 66.599998 118.860001 -24.959999 
72806596750126 66.599998 118.860001 -24.959999 
72806616750126 66.599998 118.860001 -24.959999 
72806636750126 66.599998 118.860001 -24.959999 
72806656750126 66.599998 118.860001 -24.959999 
72806676750126 66.599998 118.860001 -24.959999 
72806696750126 66.599998 118.860001 -24.959999 
72806716750126 66.599998 118.860001 -24.959999 
72806736750126 66.599998 118.860001 -24.959999 
72806756750126 66.599998 118.860001 -24.959999 
72806776750126 66.599998 118.860001 -24.959999 
72806796750126 66.599998 118.860001 -24.959999 
72806816750126 66.599998 118.860001 -24.959999 
72806836750126 66.599998 118.860001 -24.959999 
72806856750126 66.599998 118.860001 -24.959999 
72806876750126 66.599998 118.860001 -24.959999 
72806896750126 66.599998 118.860001 -24.959999 
72806916750126 66.599998 118.860001 -24.959999 
72806936750126 66.599998 118.860001 -24.959999 
72806956750126 66.599998 118.860001 -24.959999 
72806976750126 66.599998 118.860001 -24.959999 
72806996750126 66.599998 118.860001 -24.959999 
72807016750126 66.599998 118.860001 -24.959999 
72807036750126 66.599998 118.860001 -24.959999 
72807056750126 66.599998 118.860001 -24.959999 
72807076750126 66.599998 118.860001 -24.959999 
72807096750126 66.599998 118.860001 -24.959999 
72807116750126 66.599998 118.860001 -24.959999 
72807136750126 66.599998 118.860001 -24.959999 
72807156750126 66.599998 118.860001 -24.959999 
72807176750126 66.599998 118.860001 -24.959999 
72807196750126 66.599998 118.860001 -24.959999 
72807216750126 66.599998 118.860001 -24.959999 
72807236750126 66.599998 118.860001 -24.959999 
72807256750126 66.599998 118.860001 -24.959999 
72807276750126 66.599998 118.860001 -24.959999 
72807296750126 66.599998 118.860001 -24.959999 
72807316750126 66.599998 118.860001 -24.959999 
72807336750126 66.599998 118.860001 -24.959999 
72807356750126 66.599998 118.860001 -24.959999 
72807376750126 66.599998 118.860001 -24.959999 
72807396750126 66.599998 118.860001 -24.959999 
72807416750126 66.599998 118.860001 -24.959999 
72807436750126 66.599998 118.860001 -24.959999 
72807456750126 66.599998 118.860001 -24.959999 
72807476750126 66.599998 118.860001 -24.959999 
72807496750126 66.599998 118.860001 -24.959999 
72807516750126 66.599998 118.860001 -24.959999 
72807536750126 66.599998 118.860001 -24.959999 
72807556750126 66.599998 118.860001 -24.959999 
72807576750126 66.599998 118.860001 -24.959999 
72807596750126 66.599998 118.860001 -24.959999 
72807616750126 66.599998 118.860001 -24.959999 
72807636750126 66.599998 118.860001 -24.959999 
72807656750126 66.599998 118.860001 -24.959999 
72807676750126 66.599998 118.860001 -24.959999 
72807696750126 66.599998 118.860001 -24.959999 
72807716750126 66.599998 118.860001 -24.959999 
72807736750126 66.599998 118.860001 -24.959999 
72807756750126 66.599998 118.860001 -24.959999 
72807776750126 66.599998 118.860001 -24.959999 
72807796750126 66.599998 118.860001 -24.959999 
72807816750126 66.599998 118.860001 -24.959999 
72807836750126 66.599998 118.860001 -24.959999 
72807856750126 66.599998 118.860001 -24.959999 
72807876750126 66.599998 118.860001 -24.959999 
72807896750126 66.599998 118.860001 -24.959999 
72807916750126 66.599998 118.860001 -24.959999 
72807936750126 66.599998 118.860001 -24.959999 
72807956750126 66.599998 118.860001 -24.959999 
72807976750126 66.599998 118.860001 -24.959999 
72807996750126 66.599998 118.860001 -24.959999 
72808016750126 66.599998 118.860001 -24.959999 
72808036750126 66.599998 118.860001 -24.959999 
72808056750126 66.599998 118.860001 -24.959999 
72808076750126 66.599998 118.860001 -24.959999 
72808096750126 66.599998 118.860001 -24.959999 
72808116750126 66.599998 118.860001 -24.959999 
72808136750126 66.599998 118.860001 -24.959999 
72808156750126 66.599998 118.860001 -24.959999 
72808176750126 66.599998 118.860001 -24.959999 
72808196750126 66.599998 118.860001 -24.959999 
72808216750126 66.599998 118.860001 -24.959999 
72808236750126 66.599998 118.860001 -24.959999 
72808256750126 66.599998 118.860001 -24.959999 
72808276750126 66.599998 118.860001 -24.959999 
72808296750126 66.599998 118.860001 -24.959999 
72808316750126 66.599998 118.860001 -24.959999 
72808336750126 66.599998 118.860001 -24.959999 
72808356750126 66.599998 118.860001 -24.959999 
72808376750126 66.599998 118.860001 -24.959999 
72808396750126 66.599998 118.860001 -24.959999 
72808416750126 66.599998 118.860001 -24.959999 
72808436750126 66.599998 118.860001 -24.959999 
72808456750126 66.599998 118.860001 -24.959999 
72808476750126 66.599998 118.860001 -24.959999 
72808496750126 66.599998 118.860001 -24.959999 
72808516750126 66.599998 118.860001 -24.959999 
72808536750126 66.599998 118.860001 -24.959999 
72808556750126 66.599998 118.860001 -24.959999 
72808576750126 66.599998 118.860001 -24.959999 
72808596750126 66.479996 119.040001 -25.199999 
72808616750126 66.479996 119.040001 -25.199999 
72808636750126 66.479996 119.040001 -25.199999 
72808656750126 66.479996 119.040001 -25.199999 
72808676750126 66.479996 119.040001 -25.199999 
72808696750126 66.479996 119.040001 -25.199999 
72808716750126 66.479996 119.040001 -25.199999 
72808736750126 66.479996 119.040001 -25.199999 
72808756750126 66.479996 119.040001 -25.199999 
72808776750126 66.479996 119.040001 -25.199999 
72808796750126 66.479996 119.040001 -25.199999 
72808816750126 66.479996 119.040001 -25.199999 
72808836750126 66.479996 119.040001 -25.199999 
72808856750126 66.479996 119.040001 -25.199999 
72808876750126 66.479996 119.040001 -25.199999 
72808896750126 66.479996 119.040001 -25.199999 
72808916750126 66.479996 119.040001 -25.199999 
72808936750126 66.479996 119.040001 -25.199999 
72808956750126 66.479996 119.040001 -25.199999 
72808976750126 66.479996 119.040001 -25.199999 
72808996750126 66.479996 119.040001 -25.199999 
72809016750126 66.479996 119.040001 -25.199999 
72809036750126 66.479996 119.040001 -25.199999 
72809056750126 66.479996 119.040001 -25.199999 
72809076750126 66.479996 119.040001 -25.199999 
72809096750126 66.479996 119.040001 -25.199999 
72809116750126 66.479996 119.040001 -25.199999 
72809136750126 66.479996 119.040001 -25.199999 
72809156750126 66.479996 119.040001 -25.199999 
72809176750126 66.479996 119.040001 -25.199999 
72809196750126 66.479996 119.040001 -25.199999 
72809216750126 66.479996 119.040001 -25.199999 
72809236750126 66.479996 119.040001 -25.199999 
72809256750126 66.479996 119.040001 -25.199999 
72809276750126 66.479996 119.040001 -25.199999 
72809296750126 66.479996 119.040001 -25.199999 
72809316750126 66.479996 119.040001 -25.199999 
72809336750126 66.479996 119.040001 -25.199999 
72809356750126 66.479996 119.040001 -25.199999 
72809376750126 66.479996 119.040001 -25.199999 
72809396750126 66.479996 119.040001 -25.199999 
72809416750126 66.479996 119.040001 -25.199999 
72809436750126 66.479996 119.040001 -25.199999 
72809456750126 66.479996 119.040001 -25.199999 
72809476750126 66.479996 119.040001 -25.199999 
72809496750126 66.479996 119.040001 -25.199999 
72809516750126 66.479996 119.040001 -25.199999 
72809536750126 66.479996 119.040001 -25.199999 
72809556750126 66.479996 119.040001 -25.199999 
72809576750126 66.479996 119.040001 -25.199999 
72809596750126 66.479996 119.040001 -25.199999 
72809616750126 66.479996 119.040001 -25.199999 
72809636750126 66.479996 119.040001 -25.199999 
72809656750126 66.479996 119.040001 -25.199999 
72809676750126 66.479996 119.040001 -25.199999 
72809696750126 66.479996 119.040001 -25.199999 
72809716750126 66.479996 119.040001 -25.199999 
72809736750126 66.479996 119.040001 -25.199999 
72809756750126 66.479996 119.040001 -25.199999 
72809776750126 66.479996 119.040001 -25.199999 
72809796750126 66.479996 119.040001 -25.199999 
72809816750126 66.479996 119.040001 -25.199999 
72809836750126 66.479996 119.040001 -25.199999 
72809856750126 66.479996 119.040001 -25.199999 
72809876750126 66.479996 119.040001 -25.199999 
72809896750126 66.479996 119.040001 -25.199999 
72809916750126 66.479996 119.040001 -25.199999 
72809936750126 66.479996 119.040001 -25.199999 
72809956750126 66.479996 119.040001 -25.199999 
72809976750126 66.479996 119.040001 -25.199999 
72809996750126 66.479996 119.040001 -25.199999 
72810016750126 66.479996 119.040001 -25.199999 
72810036750126 66.479996 119.040001 -25.199999 
72810056750126 66.479996 119.040001 -25.199999 
72810076750126 66.479996 119.040001 -25.199999 
72810096750126 66.479996 119.040001 -25.199999 
72810116750126 66.479996 119.040001 -25.199999 
72810136750126 66.479996 119.040001 -25.199999 
72810156750126 66.479996 119.040001 -25.199999 
72810176750126 66.479996 119.040001 -25.199999 
72810196750126 66.479996 119.040001 -25.199999 
72810216750126 66.479996 119.040001 -25.199999 
72810236750126 66.479996 119.040001 -25.199999 
72810256750126 66.479996 119.040001 -25.199999 
72810276750126 66.479996 119.040001 -25.199999 
72810296750126 66.479996 119.040001 -25.199999 
72810316750126 66.479996 119.040001 -25.199999 
72810336750126 66.479996 119.040001 -25.199999 
72810356750126 66.479996 119.040001 -25.199999 
72810376750126 66.479996 119.040001 -25.199999 
72810396750126 66.479996 119.040001 -25.199999 
72810416750126 66.479996 119.040001 -25.199999 
72810436750126 66.479996 119.040001 -25.199999 
72810456750126 66.479996 119.040001 -25.199999 
72810476750126 66.479996 119.040001 -25.199999 
72810496750126 66.479996 119.040001 -25.199999 
72810516750126 66.479996 119.040001 -25.199999 
72810536750126 66.479996 119.040001 -25.199999 
72810556750126 66.479996 119.040001 -25.199999 
72810576750126 66.479996 119.040001 -25.199999 
72810596750126 66.479996 119.040001 -25.199999 
72810616750126 66.479996 119.040001 -25.199999 
72810636750126 66.479996 119.040001 -25.199999 
72810656750126 66.479996 119.040001 -25.199999 
72810676750126 66.479996 119.040001 -25.199999 
72810696750126 66.479996 119.040001 -25.199999 
72810716750126 66.479996 119.040001 -25.199999 
72810736750126 66.479996 119.040001 -25.199999 
72810756750126 66.479996 119.040001 -25.199999 
72810776750126 66.479996 119.040001 -25.199999 
72810796750126 66.479996 119.040001 -25.199999 
72810816750126 66.479996 119.040001 -25.199999 
72810836750126 66.479996 119.040001 -25.199999 
72810856750126 66.479996 119.040001 -25.199999 
72810876750126 66.479996 119.040001 -25.199999 
72810896750126 66.479996 119.040001 -25.199999 
72810916750126 66.479996 119.040001 -25.199999 
72810936750126 66.479996 119.040001 -25.199999 
72810956750126 66.479996 119.040001 -25.199999 
72810976750126 66.479996 119.040001 -25.199999 
72810996750126 66.479996 119.040001 -25.199999 
72811016750126 66.479996 119.040001 -25.199999 
72811036750126 66.479996 119.040001 -25.199999 
72811056750126 66.479996 119.040001 -25.199999 
72811076750126 66.479996 119.040001 -25.199999 
72811096750126 66.479996 119.040001 -25.199999 
72811116750126 66.479996 119.040001 -25.199999 
72811136750126 66.479996 119.040001 -25.199999 
72811156750126 66.479996 119.040001 -25.199999 
72811176750126 66.479996 119.040001 -25.199999 
72811196750126 66.479996 119.040001 -25.199999 
72811216750126 66.479996 119.040001 -25.199999 
72811236750126 66.479996 119.040001 -25.199999 
72811256750126 66.479996 119.040001 -25.199999 
72811276750126 66.479996 119.040001 -25.199999 
72811296750126 66.479996 119.040001 -25.199999 
72811316750126 66.479996 119.040001 -25.199999 
72811336750126 66.479996 119.040001 -25.199999 
72811356750126 66.479996 119.040001 -25.199999 
72811376750126 66.479996 119.040001 -25.199999 
72811396750126 66.479996 119.040001 -25.199999 
72811416750126 66.479996 119.040001 -25.199999 
72811436750126 66.479996 119.040001 -25.199999 
72811456750126 66.479996 119.040001 -25.199999 
72811476750126 66.479996 119.040001 -25.199999 
72811496750126 66.479996 119.040001 -25.199999 
72811516750126 66.479996 119.040001 -25.199999 
72811536750126 66.479996 119.040001 -25.199999 
72811556750126 66.479996 119.040001 -25.199999 
72811576750126 66.479996 119.040001 -25.199999 
72811596750126 66.479996 119.040001 -25.199999 
72811616750126 66.479996 119.040001 -25.199999 
72811636750126 66.479996 119.040001 -25.199999 
72811656750126 66.479996 119.040001 -25.199999 
72811676750126 66.479996 119.040001 -25.199999 
72811696750126 66.479996 119.040001 -25.199999 
72811716750126 66.479996 119.040001 -25.199999 
72811736750126 66.479996 119.040001 -25.199999 
72811756750126 66.479996 119.040001 -25.199999 
72811776750126 66.479996 119.040001 -25.199999 
72811796750126 66.479996 119.040001 -25.199999 
72811816750126 66.479996 119.040001 -25.199999 
72811836750126 66.479996 119.040001 -25.199999 
72811856750126 66.479996 119.040001 -25.199999 
72811876750126 66.479996 119.040001 -25.199999 
72811896750126 66.479996 119.040001 -25.199999 
72811916750126 66.479996 119.040001 -25.199999 
72811936750126 66.479996 119.040001 -25.199999 
72811956750126 66.479996 119.040001 -25.199999 
72811976750126 66.479996 119.040001 -25.199999 
72811996750126 66.479996 119.040001 -25.199999 
72812016750126 66.479996 119.040001 -25.199999 
72812036750126 66.479996 119.040001 -25.199999 
72812056750126 66.479996 119.040001 -25.199999 
72812076750126 66.479996 119.040001 -25.199999 
72812096750126 66.479996 119.040001 -25.199999 
72812116750126 66.479996 119.040001 -25.199999 
72812136750126 66.479996 119.040001 -25.199999 
72812156750126 66.479996 119.040001 -25.199999 
72812176750126 66.479996 119.040001 -25.199999 
72812196750126 66.479996 119.040001 -25.199999 
72812216750126 66.479996 119.040001 -25.199999 
72812236750126 66.479996 119.040001 -25.199999 
72812256750126 66.479996 119.040001 -25.199999 
72812276750126 66.479996 119.040001 -25.199999 
72812296750126 66.479996 119.040001 -25.199999 
72812316750126 66.479996 119.040001 -25.199999 
72812336750126 66.479996 119.040001 -25.199999 
72812356750126 66.479996 119.040001 -25.199999 
72812376750126 66.479996 119.040001 -25.199999 
72812396750126 66.479996 119.040001 -25.199999 
72812416750126 66.479996 119.040001 -25.199999 
72812436750126 66.479996 119.040001 -25.199999 
72812456750126 66.479996 119.040001 -25.199999 
72812476750126 66.479996 119.040001 -25.199999 
72812496750126 66.479996 119.040001 -25.199999 
72812516750126 66.479996 119.040001 -25.199999 
72812536750126 66.479996 119.040001 -25.199999 
72812556750126 66.479996 119.040001 -25.199999 
72812576750126 66.479996 119.040001 -25.199999 
72812596750126 66.479996 119.040001 -25.199999 
72812616750126 66.479996 119.040001 -25.199999 
72812636750126 66.479996 119.040001 -25.199999 
72812656750126 66.479996 119.040001 -25.199999 
72812676750126 66.479996 119.040001 -25.199999 
72812696750126 66.479996 119.040001 -25.199999 
72812716750126 66.479996 119.040001 -25.199999 
72812736750126 66.479996 119.040001 -25.199999 
72812756750126 66.479996 119.040001 -25.199999 
72812776750126 66.479996 119.040001 -25.199999 
72812796750126 66.479996 119.040001 -25.199999 
72812816750126 66.479996 119.040001 -25.199999 
72812836750126 66.479996 119.040001 -25.199999 
72812856750126 66.479996 119.040001 -25.199999 
72812876750126 66.479996 119.040001 -25.199999 
72812896750126 66.479996 119.040001 -25.199999 
72812916750126 66.479996 119.040001 -25.199999 
72812936750126 66.479996 119.040001 -25.199999 
72812956750126 66.479996 119.040001 -25.199999 
72812976750126 66.479996 119.040001 -25.199999 
72812996750126 66.479996 119.040001 -25.199999 
72813016750126 66.479996 119.040001 -25.199999 
72813036750126 66.479996 119.040001 -25.199999 
72813056750126 66.479996 119.040001 -25.199999 
72813076750126 66.479996 119.040001 -25.199999 
72813096750126 66.479996 119.040001 -25.199999 
72813116750126 66.479996 119.040001 -25.199999 
72813136750126 66.479996 119.040001 -25.199999 
72813156750126 66.479996 119.040001 -25.199999 
72813176750126 66.479996 119.040001 -25.199999 
72813196750126 66.479996 119.040001 -25.199999 
72813216750126 66.479996 119.040001 -25.199999 
72813236750126 66.479996 119.040001 -25.199999 
72813256750126 66.479996 119.040001 -25.199999 
72813276750126 66.479996 119.040001 -25.199999 
72813296750126 66.479996 119.040001 -25.199999 
72813316750126 66.479996 119.040001 -25.199999 
72813336750126 66.479996 119.040001 -25.199999 
72813356750126 66.479996 119.040001 -25.199999 
72813376750126 66.479996 119.040001 -25.199999 
72813396750126 66.479996 119.040001 -25.199999 
72813416750126 66.479996 119.040001 -25.199999 
72813436750126 66.479996 119.040001 -25.199999 
72813456750126 66.479996 119.040001 -25.199999 
72813476750126 66.479996 119.040001 -25.199999 
72813496750126 66.479996 119.040001 -25.199999 
72813516750126 66.479996 119.040001 -25.199999 
72813536750126 66.479996 119.040001 -25.199999 
72813556750126 66.479996 119.040001 -25.199999 
72813576750126 66.479996 119.040001 -25.199999 
72813596750126 66.479996 119.040001 -25.199999 
72813616750126 66.479996 119.040001 -25.199999 
72813636750126 66.479996 119.040001 -25.199999 
72813656750126 66.479996 119.040001 -25.199999 
72813676750126 66.479996 119.040001 -25.199999 
72813696750126 66.479996 119.040001 -25.199999 
72813716750126 66.479996 119.040001 -25.199999 
72813736750126 66.479996 119.040001 -25.199999 
72813756750126 66.479996 119.040001 -25.199999 
72813776750126 66.479996 119.040001 -25.199999 
72813796750126 66.479996 119.040001 -25.199999 
72813816750126 66.479996 119.040001 -25.199999 
72813836750126 66.479996 119.040001 -25.199999 
72813856750126 66.479996 119.040001 -25.199999 
72813876750126 66.479996 119.040001 -25.199999 
72813896750126 66.479996 119.040001 -25.199999 
72813916750126 66.479996 119.040001 -25.199999 
72813936750126 66.479996 119.040001 -25.199999 
72813956750126 66.479996 119.040001 -25.199999 
72813976750126 66.479996 119.040001 -25.199999 
72813996750126 66.479996 119.040001 -25.199999 
72814016750126 66.479996 119.040001 -25.199999 
72814036750126 66.479996 119.040001 -25.199999 
72814056750126 66.479996 119.040001 -25.199999 
72814076750126 66.479996 119.040001 -25.199999 
72814096750126 66.479996 119.040001 -25.199999 
72814116750126 66.479996 119.040001 -25.199999 
72814136750126 66.479996 119.040001 -25.199999 
72814156750126 66.479996 119.040001 -25.199999 
72814176750126 66.479996 119.040001 -25.199999 
72814196750126 66.479996 119.040001 -25.199999 
72814216750126 66.479996 119.040001 -25.199999 
72814236750126 66.479996 119.040001 -25.199999 
72814256750126 66.479996 119.040001 -25.199999 
72814276750126 66.479996 119.040001 -25.199999 
72814296750126 66.479996 119.040001 -25.199999 
72814316750126 66.479996 119.040001 -25.199999 
72814336750126 66.479996 119.040001 -25.199999 
72814356750126 66.479996 119.040001 -25.199999 
72814376750126 66.479996 119.040001 -25.199999 
72814396750126 66.479996 119.040001 -25.199999 
72814416750126 66.479996 119.040001 -25.199999 
72814436750126 66.479996 119.040001 -25.199999 
72814456750126 66.479996 119.040001 -25.199999 
72814476750126 66.479996 119.040001 -25.199999 
72814496750126 66.479996 119.040001 -25.199999 
72814516750126 66.479996 119.040001 -25.199999 
72814536750126 66.479996 119.040001 -25.199999 
72814556750126 66.479996 119.040001 -25.199999 
72814576750126 66.479996 119.040001 -25.199999 
72814596750126 66.479996 119.040001 -25.199999 
72814616750126 66.479996 119.040001 -25.199999 
72814636750126 66.479996 119.040001 -25.199999 
72814656750126 66.479996 119.040001 -25.199999 
72814676750126 66.479996 119.040001 -25.199999 
72814696750126 66.479996 119.040001 -25.199999 
72814716750126 66.479996 119.040001 -25.199999 
72814736750126 66.479996 119.040001 -25.199999 
72814756750126 66.479996 119.040001 -25.199999 
72814776750126 66.479996 119.040001 -25.199999 
72814796750126 66.479996 119.040001 -25.199999 
72814816750126 66.479996 119.040001 -25.199999 
72814836750126 66.479996 119.040001 -25.199999 
72814856750126 66.479996 119.040001 -25.199999 
72814876750126 66.479996 119.040001 -25.199999 
72814896750126 66.479996 119.040001 -25.199999 
72814916750126 66.479996 119.040001 -25.199999 
72814936750126 66.479996 119.040001 -25.199999 
72814956750126 66.479996 119.040001 -25.199999 
72814976750126 66.479996 119.040001 -25.199999 
72814996750126 66.479996 119.040001 -25.199999 
72815016750126 66.479996 119.040001 -25.199999 
72815036750126 66.479996 119.040001 -25.199999 
72815056750126 66.479996 119.040001 -25.199999 
72815076750126 66.479996 119.040001 -25.199999 
72815096750126 66.479996 119.040001 -25.199999 
72815116750126 66.479996 119.040001 -25.199999 
72815136750126 66.479996 119.040001 -25.199999 
72815156750126 66.479996 119.040001 -25.199999 
72815176750126 66.479996 119.040001 -25.199999 
72815196750126 66.479996 119.040001 -25.199999 
72815216750126 66.479996 119.040001 -25.199999 
72815236750126 66.479996 119.040001 -25.199999 
72815256750126 66.479996 119.040001 -25.199999 
72815276750126 66.479996 119.040001 -25.199999 
72815296750126 66.479996 119.040001 -25.199999 
72815316750126 66.479996 119.040001 -25.199999 
72815336750126 66.479996 119.040001 -25.199999 
72815356750126 66.479996 119.040001 -25.199999 
72815376750126 66.479996 119.040001 -25.199999 
72815396750126 66.479996 119.040001 -25.199999 
72815416750126 66.479996 119.040001 -25.199999 
72815436750126 66.479996 119.040001 -25.199999 
72815456750126 66.479996 119.040001 -25.199999 
72815476750126 66.479996 119.040001 -25.199999 
72815496750126 66.479996 119.040001 -25.199999 
72815516750126 66.479996 119.040001 -25.199999 
72815536750126 66.479996 119.040001 -25.199999 
72815556750126 66.479996 119.040001 -25.199999 
72815576750126 66.479996 119.040001 -25.199999 
72815596750126 66.479996 119.040001 -25.199999 
72815616750126 66.479996 119.040001 -25.199999 
72815636750126 66.479996 119.040001 -25.199999 
72815656750126 66.479996 119.040001 -25.199999 
72815676750126 66.479996 119.040001 -25.199999 
72815696750126 66.479996 119.040001 -25.199999 
72815716750126 66.479996 119.040001 -25.199999 
72815736750126 66.479996 119.040001 -25.199999 
72815756750126 66.479996 119.040001 -25.199999 
72815776750126 66.479996 119.040001 -25.199999 
72815796750126 66.479996 119.040001 -25.199999 
72815816750126 66.479996 119.040001 -25.199999 
72815836750126 66.479996 119.040001 -25.199999 
72815856750126 66.479996 119.040001 -25.199999 
72815876750126 66.479996 119.040001 -25.199999 
72815896750126 66.479996 119.040001 -25.199999 
72815916750126 66.479996 119.040001 -25.199999 
72815936750126 66.479996 119.040001 -25.199999 
72815956750126 66.479996 119.040001 -25.199999 
72815976750126 66.479996 119.040001 -25.199999 
72815996750126 66.479996 119.040001 -25.199999 
72816016750126 66.479996 119.040001 -25.199999 
72816036750126 66.479996 119.040001 -25.199999 
72816056750126 66.479996 119.040001 -25.199999 
72816076750126 66.479996 119.040001 -25.199999 
72816096750126 66.479996 119.040001 -25.199999 
72816116750126 66.479996 119.040001 -25.199999 
72816136750126 66.479996 119.040001 -25.199999 
72816156750126 66.479996 119.040001 -25.199999 
72816176750126 66.479996 119.040001 -25.199999 
72816196750126 66.479996 119.040001 -25.199999 
72816216750126 66.479996 119.040001 -25.199999 
72816236750126 66.479996 119.040001 -25.199999 
72816256750126 66.479996 119.040001 -25.199999 
72816276750126 66.479996 119.040001 -25.199999 
72816296750126 66.479996 119.040001 -25.199999 
72816316750126 66.479996 119.040001 -25.199999 
72816336750126 66.479996 119.040001 -25.199999 
72816356750126 66.299995 118.979996 -25.080000 
72816376750126 66.299995 118.979996 -25.080000 
72816396750126 66.299995 118.979996 -25.080000 
72816416750126 66.299995 118.979996 -25.080000 
72816436750126 66.299995 118.979996 -25.080000 
72816456750126 66.299995 118.979996 -25.080000 
72816476750126 66.299995 118.979996 -25.080000 
72816496750126 66.299995 118.979996 -25.080000 
72816516750126 66.299995 118.979996 -25.080000 
72816536750126 66.299995 118.979996 -25.080000 
72816556750126 66.299995 118.979996 -25.080000 
72816576750126 66.299995 118.979996 -25.080000 
72816596750126 66.299995 118.979996 -25.080000 
72816616750126 66.299995 118.979996 -25.080000 
72816636750126 66.299995 118.979996 -25.080000 
72816656750126 66.299995 118.979996 -25.080000 
72816676750126 66.299995 118.979996 -25.080000 
72816696750126 66.299995 118.979996 -25.080000 
72816716750126 66.299995 118.979996 -25.080000 
72816736750126 66.299995 118.979996 -25.080000 
72816756750126 66.299995 118.979996 -25.080000 
72816776750126 66.299995 118.979996 -25.080000 
72816796750126 66.299995 118.979996 -25.080000 
72816816750126 66.299995 118.979996 -25.080000 
72816836750126 66.299995 118.979996 -25.080000 
72816856750126 66.299995 118.979996 -25.080000 
72816876750126 66.299995 118.979996 -25.080000 
72816896750126 66.299995 118.979996 -25.080000 
72816916750126 66.299995 118.979996 -25.080000 
72816936750126 66.299995 118.979996 -25.080000 
72816956750126 66.299995 118.979996 -25.080000 
72816976750126 66.299995 118.979996 -25.080000 
72816996750126 66.299995 118.979996 -25.080000 
72817016750126 66.299995 118.979996 -25.080000 
72817036750126 66.239998 118.919998 -24.900000 
72817056750126 66.239998 118.919998 -24.900000 
72817076750126 66.239998 118.919998 -24.900000 
72817096750126 66.239998 118.919998 -24.900000 
72817116750126 66.239998 118.919998 -24.900000 
72817136750126 66.239998 118.919998 -24.900000 
72817156750126 66.239998 118.919998 -24.900000 
72817176750126 66.239998 118.919998 -24.900000 
72817196750126 66.239998 118.919998 -24.900000 
72817216750126 66.239998 118.919998 -24.900000 
72817236750126 66.239998 118.919998 -24.900000 
72817256750126 66.239998 118.919998 -24.900000 
72817276750126 66.239998 118.919998 -24.900000 
72817296750126 66.239998 118.919998 -24.900000 
72817316750126 66.239998 118.919998 -24.900000 
72817336750126 66.239998 118.919998 -24.900000 
72817356750126 66.239998 118.919998 -24.900000 
72817376750126 66.239998 118.919998 -24.900000 
72817396750126 66.239998 118.919998 -24.900000 
72817416750126 66.239998 118.919998 -24.900000 
72817436750126 66.239998 118.919998 -24.900000 
72817456750126 66.239998 118.919998 -24.900000 
72817476750126 66.180000 118.919998 -24.719999 
72817496750126 66.180000 118.919998 -24.719999 
72817516750126 66.180000 118.919998 -24.719999 
72817536750126 66.180000 118.919998 -24.719999 
72817556750126 66.180000 118.919998 -24.719999 
72817576750126 66.180000 118.919998 -24.719999 
72817596750126 66.180000 118.919998 -24.719999 
72817616750126 66.180000 118.919998 -24.719999 
72817636750126 66.180000 118.919998 -24.719999 
72817656750126 66.180000 118.919998 -24.719999 
72817676750126 66.180000 118.919998 -24.719999 
72817696750126 66.180000 118.919998 -24.719999 
72817716750126 66.180000 118.919998 -24.719999 
72817736750126 66.180000 118.919998 -24.719999 
72817756750126 66.180000 118.919998 -24.719999 
72817776750126 66.180000 118.919998 -24.719999 
72817796750126 66.180000 118.919998 -24.719999 
72817816750126 66.180000 118.919998 -24.719999 
72817836750126 66.180000 118.919998 -24.719999 
72817856750126 66.180000 118.919998 -24.719999 
72817876750126 66.180000 118.919998 -24.719999 
72817896750126 66.180000 118.919998 -24.719999 
72817916750126 66.180000 118.919998 -24.719999 
72817936750126 66.180000 118.919998 -24.719999 
72817956750126 66.180000 118.919998 -24.719999 
72817976750126 66.180000 118.919998 -24.719999 
72817996750126 66.180000 118.919998 -24.719999 
72818016750126 66.180000 118.919998 -24.719999 
72818036750126 66.180000 118.919998 -24.719999 
72818056750126 66.180000 118.919998 -24.719999 
72818076750126 66.180000 118.919998 -24.719999 
72818096750126 66.180000 118.919998 -24.719999 
72818116750126 66.180000 119.099998 -24.600000 
72818136750126 66.180000 119.099998 -24.600000 
72818156750126 66.180000 119.099998 -24.600000 
72818176750126 66.180000 119.099998 -24.600000 
72818196750126 66.180000 119.099998 -24.600000 
72818216750126 66.180000 119.099998 -24.600000 
72818236750126 66.180000 119.099998 -24.600000 
72818256750126 66.180000 119.099998 -24.600000 
72818276750126 66.180000 119.099998 -24.600000 
72818296750126 66.180000 119.099998 -24.600000 
72818316750126 66.180000 119.099998 -24.600000 
72818336750126 66.180000 119.099998 -24.600000 
72818356750126 66.180000 119.099998 -24.600000 
72818376750126 66.180000 119.099998 -24.600000 
72818396750126 66.180000 119.099998 -24.600000 
72818416750126 66.180000 119.099998 -24.600000 
72818436750126 66.180000 119.099998 -24.600000 
72818456750126 66.180000 119.099998 -24.600000 
72818476750126 66.180000 119.099998 -24.600000 
72818496750126 66.180000 119.099998 -24.600000 
72818516750126 66.180000 119.099998 -24.600000 
72818536750126 66.180000 119.099998 -24.600000 
72818556750126 66.180000 119.099998 -24.600000 
72818576750126 66.180000 119.099998 -24.600000 
72818596750126 66.119995 119.339996 -24.660000 
72818616750126 66.119995 119.339996 -24.660000 
72818636750126 66.119995 119.339996 -24.660000 
72818656750126 66.119995 119.339996 -24.660000 
72818676750126 66.119995 119.339996 -24.660000 
72818696750126 66.119995 119.339996 -24.660000 
72818716750126 66.119995 119.339996 -24.660000 
72818736750126 66.119995 119.339996 -24.660000 
72818756750126 66.119995 119.339996 -24.660000 
72818776750126 66.119995 119.339996 -24.660000 
72818796750126 66.119995 119.339996 -24.660000 
72818816750126 66.119995 119.339996 -24.660000 
72818836750126 66.119995 119.339996 -24.660000 
72818856750126 66.119995 119.339996 -24.660000 
72818876750126 66.119995 119.339996 -24.660000 
72818896750126 66.119995 119.339996 -24.660000 
72818916750126 66.119995 119.339996 -24.660000 
72818936750126 66.119995 119.339996 -24.660000 
72818956750126 66.119995 119.339996 -24.660000 
72818976750126 66.119995 119.339996 -24.660000 
72818996750126 66.119995 119.339996 -24.660000 
72819016750126 66.119995 119.339996 -24.660000 
72819036750126 66.119995 119.339996 -24.660000 
72819056750126 66.119995 119.339996 -24.660000 
72819076750126 66.119995 119.339996 -24.660000 
72819096750126 66.119995 119.339996 -24.660000 
72819116750126 66.119995 119.339996 -24.660000 
72819136750126 66.119995 119.339996 -24.660000 
72819156750126 66.000000 119.639999 -24.779999 
72819176750126 66.000000 119.639999 -24.779999 
72819196750126 66.000000 119.639999 -24.779999 
72819216750126 66.000000 119.639999 -24.779999 
72819236750126 66.000000 119.639999 -24.779999 
72819256750126 66.000000 119.639999 -24.779999 
72819276750126 66.000000 119.639999 -24.779999 
72819296750126 66.000000 119.639999 -24.779999 
72819316750126 66.000000 119.639999 -24.779999 
72819336750126 66.000000 119.639999 -24.779999 
72819356750126 66.000000 119.639999 -24.779999 
72819376750126 66.000000 119.639999 -24.779999 
72819396750126 66.000000 119.639999 -24.779999 
72819416750126 66.000000 119.639999 -24.779999 
72819436750126 66.000000 119.639999 -24.779999 
72819456750126 66.000000 119.639999 -24.779999 
72819476750126 66.000000 119.639999 -24.779999 
72819496750126 66.000000 119.639999 -24.779999 
72819516750126 66.000000 119.639999 -24.779999 
72819536750126 66.000000 119.639999 -24.779999 
72819556750126 66.000000 119.639999 -24.779999 
72819576750126 66.000000 119.639999 -24.779999 
72819596750126 66.000000 119.639999 -24.779999 
72819616750126 66.000000 119.639999 -24.779999 
72819636750126 66.000000 119.639999 -24.779999 
72819656750126 66.000000 119.639999 -24.779999 
72819676750126 66.000000 119.639999 -24.779999 
72819696750126 66.000000 119.639999 -24.779999 
72819716750126 66.000000 119.639999 -24.779999 
72819736750126 66.000000 119.639999 -24.779999 
72819756750126 66.000000 119.639999 -24.779999 
72819776750126 66.000000 119.639999 -24.779999 
72819796750126 66.000000 119.639999 -24.779999 
72819816750126 66.000000 119.639999 -24.779999 
72819836750126 66.000000 119.639999 -24.779999 
72819856750126 66.000000 119.639999 -24.779999 
72819876750126 66.000000 119.639999 -24.779999 
72819896750126 66.000000 119.639999 -24.779999 
72819916750126 66.000000 119.639999 -24.779999 
72819936750126 66.000000 119.639999 -24.779999 
72819956750126 66.000000 119.639999 -24.779999 
72819976750126 66.000000 119.639999 -24.779999 
72819996750126 66.000000 119.639999 -24.779999 
72820016750126 66.000000 119.639999 -24.779999 
72820036750126 66.000000 119.639999 -24.779999 
72820056750126 66.000000 119.639999 -24.779999 
72820076750126 66.000000 119.639999 -24.779999 
72820096750126 66.000000 119.639999 -24.779999 
72820116750126 66.000000 119.639999 -24.779999 
72820136750126 66.000000 119.639999 -24.779999 
72820156750126 66.000000 119.639999 -24.779999 
72820176750126 66.000000 119.639999 -24.779999 
72820196750126 66.000000 119.639999 -24.779999 
72820216750126 66.000000 119.639999 -24.779999 
72820236750126 66.000000 119.879997 -24.900000 
72820256750126 66.000000 119.879997 -24.900000 
72820276750126 66.000000 119.879997 -24.900000 
72820296750126 66.000000 119.879997 -24.900000 
72820316750126 66.000000 119.879997 -24.900000 
72820336750126 66.000000 119.879997 -24.900000 
72820356750126 66.000000 119.879997 -24.900000 
72820376750126 66.000000 119.879997 -24.900000 
72820396750126 66.000000 119.879997 -24.900000 
72820416750126 66.000000 119.879997 -24.900000 
72820436750126 66.000000 119.879997 -24.900000 
72820456750126 66.000000 119.879997 -24.900000 
72820476750126 66.000000 119.879997 -24.900000 
72820496750126 66.000000 119.879997 -24.900000 
72820516750126 66.000000 119.879997 -24.900000 
72820536750126 66.000000 119.879997 -24.900000 
72820556750126 66.000000 119.879997 -24.900000 
72820576750126 66.000000 119.879997 -24.900000 
72820596750126 66.000000 119.879997 -24.900000 
72820616750126 66.000000 119.879997 -24.900000 
72820636750126 66.000000 119.879997 -24.900000 
72820656750126 66.000000 119.879997 -24.900000 
72820676750126 66.000000 119.879997 -24.900000 
72820696750126 66.000000 119.879997 -24.900000 
72820716750126 66.000000 119.879997 -24.900000 
72820736750126 66.000000 119.879997 -24.900000 
72820756750126 66.000000 119.879997 -24.900000 
72820776750126 66.000000 119.879997 -24.900000 
72820796750126 66.000000 119.879997 -24.900000 
72820816750126 66.000000 119.879997 -24.900000 
72820836750126 66.000000 119.879997 -24.900000 
72820856750126 66.000000 119.879997 -24.900000 
72820876750126 66.000000 119.879997 -24.900000 
72820896750126 66.000000 119.879997 -24.900000 
72820916750126 66.000000 119.879997 -24.900000 
72820936750126 66.000000 119.879997 -24.900000 
72820956750126 66.000000 119.879997 -24.900000 
72820976750126 66.000000 119.879997 -24.900000 
72820996750126 66.000000 119.879997 -24.900000 
72821016750126 66.000000 119.879997 -24.900000 
72821036750126 66.000000 119.879997 -24.900000 
72821056750126 66.000000 119.879997 -24.900000 
72821076750126 66.000000 119.879997 -24.900000 
72821096750126 66.000000 119.879997 -24.900000 
72821116750126 66.000000 119.879997 -24.900000 
72821136750126 66.000000 119.879997 -24.900000 
72821156750126 66.000000 119.879997 -24.900000 
72821176750126 66.000000 119.879997 -24.900000 
72821196750126 66.000000 119.879997 -24.900000 
72821216750126 66.000000 119.879997 -24.900000 
72821236750126 66.000000 119.879997 -24.900000 
72821256750126 66.000000 119.879997 -24.900000 
72821276750126 66.000000 119.879997 -24.900000 
72821296750126 66.000000 119.879997 -24.900000 
72821316750126 66.000000 119.879997 -24.900000 
72821336750126 66.000000 119.879997 -24.900000 
72821356750676 66.000000 119.879997 -24.900000 
72821376750676 66.000000 119.879997 -24.900000 
72821396750676 66.000000 119.879997 -24.900000 
72821416750676 66.000000 119.879997 -24.900000 
72821436750676 66.000000 119.879997 -24.900000 
72821456750676 66.000000 119.879997 -24.900000 
72821476750676 66.000000 119.879997 -24.900000 
72821496750676 66.000000 119.879997 -24.900000 
72821516750676 66.000000 119.879997 -24.900000 
72821536750676 66.000000 119.879997 -24.900000 
72821556750676 66.000000 119.879997 -24.900000 
72821576750676 66.000000 119.879997 -24.900000 
72821596750676 66.000000 119.879997 -24.900000 
72821616750676 66.000000 119.879997 -24.900000 
72821636750676 66.000000 119.879997 -24.900000 
72821656750676 66.000000 119.879997 -24.900000 
72821676750676 66.000000 119.879997 -24.900000 
72821696750676 66.000000 119.879997 -24.900000 
72821716750676 66.000000 119.879997 -24.900000 
72821736750676 66.000000 119.879997 -24.900000 
72821756750676 66.000000 119.879997 -24.900000 
72821776750676 66.000000 119.879997 -24.900000 
72821796750676 66.000000 119.879997 -24.900000 
72821816750676 66.000000 119.879997 -24.900000 
72821836750676 66.000000 119.879997 -24.900000 
72821856750676 66.000000 119.879997 -24.900000 
72821876750676 66.000000 119.879997 -24.900000 
72821896750676 66.000000 119.879997 -24.900000 
72821916750676 66.000000 119.879997 -24.900000 
72821936750676 66.000000 119.879997 -24.900000 
72821956750676 66.000000 119.879997 -24.900000 
72821976750676 66.000000 119.879997 -24.900000 
72821996750676 66.000000 119.879997 -24.900000 
72822016750676 66.000000 119.879997 -24.900000 
72822036750676 66.000000 119.879997 -24.900000 
72822056750676 66.000000 119.879997 -24.900000 
72822076750676 66.000000 119.879997 -24.900000 
72822096750676 66.000000 119.879997 -24.900000 
72822116750676 66.000000 119.879997 -24.900000 
72822136750676 66.000000 119.879997 -24.900000 
72822156750676 66.000000 119.879997 -24.900000 
72822176750676 66.000000 119.879997 -24.900000 
72822196750676 66.000000 119.879997 -24.900000 
72822216750676 66.000000 119.879997 -24.900000 
72822236750676 66.000000 119.879997 -24.900000 
72822256750676 66.000000 119.879997 -24.900000 
72822276750676 66.000000 119.879997 -24.900000 
72822296750676 66.000000 119.879997 -24.900000 
72822316750676 66.000000 119.879997 -24.900000 
72822336750676 66.000000 119.879997 -24.900000 
72822356750676 66.000000 119.879997 -24.900000 
72822376750676 66.000000 119.879997 -24.900000 
72822396750676 66.000000 119.879997 -24.900000 
72822416750676 66.000000 119.879997 -24.900000 
72822436750676 66.000000 119.879997 -24.900000 
72822456750676 66.000000 119.879997 -24.900000 
72822476750676 66.000000 119.879997 -24.900000 
72822496750676 66.000000 119.879997 -24.900000 
72822516750676 66.000000 119.879997 -24.900000 
72822536750676 66.000000 119.879997 -24.900000 
72822556750676 66.000000 119.879997 -24.900000 
72822576750676 66.000000 119.879997 -24.900000 
72822596750676 66.000000 119.879997 -24.900000 
72822616750676 66.000000 119.879997 -24.900000 
72822636750676 66.000000 119.879997 -24.900000 
72822656750676 66.000000 119.879997 -24.900000 
72822676750676 66.000000 119.879997 -24.900000 
72822696750676 66.000000 119.879997 -24.900000 
72822716750676 66.000000 119.879997 -24.900000 
72822736750676 66.000000 119.879997 -24.900000 
72822756750676 66.000000 119.879997 -24.900000 
72822776750676 66.000000 119.879997 -24.900000 
72822796750676 66.000000 119.879997 -24.900000 
72822816750676 66.000000 119.879997 -24.900000 
72822836750676 66.000000 119.879997 -24.900000 
72822856750676 66.000000 119.879997 -24.900000 
72822876750676 66.000000 119.879997 -24.900000 
72822896750676 66.000000 119.879997 -24.900000 
72822916750676 66.000000 119.879997 -24.900000 
72822936750676 66.000000 119.879997 -24.900000 
72822956750676 66.000000 119.879997 -24.900000 
72822976750676 66.000000 119.879997 -24.900000 
72822996750676 66.000000 119.879997 -24.900000 
72823016750676 66.000000 119.879997 -24.900000 
72823036750676 66.000000 119.879997 -24.900000 
72823056750676 66.000000 119.879997 -24.900000 
72823076750676 66.000000 119.879997 -24.900000 
72823096750676 66.000000 119.879997 -24.900000 
72823116750676 66.000000 119.879997 -24.900000 
72823136750676 66.000000 119.879997 -24.900000 
72823156750676 66.000000 119.879997 -24.900000 
72823176750676 66.000000 119.879997 -24.900000 
72823196750676 66.000000 119.879997 -24.900000 
72823216750676 66.000000 119.879997 -24.900000 
72823236750676 66.000000 119.879997 -24.900000 
72823256750676 66.000000 119.879997 -24.900000 
72823276750676 66.000000 119.879997 -24.900000 
72823296750676 66.000000 119.879997 -24.900000 
72823316750676 66.000000 119.879997 -24.900000 
72823336750676 66.000000 119.879997 -24.900000 
72823356750676 66.000000 119.879997 -24.900000 
72823376750676 66.000000 119.879997 -24.900000 
72823396750676 66.000000 119.879997 -24.900000 
72823416750676 66.000000 119.879997 -24.900000 
72823436750676 66.000000 119.879997 -24.900000 
72823456750676 66.000000 119.879997 -24.900000 
72823476750676 66.000000 119.879997 -24.900000 
72823496750676 66.000000 119.879997 -24.900000 
72823516750676 66.000000 119.879997 -24.900000 
72823536750676 66.000000 119.879997 -24.900000 
72823556750676 66.000000 119.879997 -24.900000 
72823576750676 66.000000 119.879997 -24.900000 
72823596750676 66.000000 119.879997 -24.900000 
72823616750676 66.000000 119.879997 -24.900000 
72823636750676 66.000000 119.879997 -24.900000 
72823656750676 66.000000 119.879997 -24.900000 
72823676750676 66.000000 119.879997 -24.900000 
72823696750676 66.000000 119.879997 -24.900000 
72823716750676 66.000000 119.879997 -24.900000 
72823736750676 66.000000 119.879997 -24.900000 
72823756750676 66.000000 119.879997 -24.900000 
72823776750676 66.000000 119.879997 -24.900000 
72823796750676 66.000000 119.879997 -24.900000 
72823816750676 66.000000 119.879997 -24.900000 
72823836750676 66.000000 119.879997 -24.900000 
72823856750676 66.000000 119.879997 -24.900000 
72823876750676 66.000000 119.879997 -24.900000 
72823896750676 66.000000 119.879997 -24.900000 
72823916750676 66.000000 119.879997 -24.900000 
72823936750676 66.000000 119.879997 -24.900000 
72823956750676 66.000000 119.879997 -24.900000 
72823976750676 66.000000 119.879997 -24.900000 
72823996750676 66.000000 119.879997 -24.900000 
72824016750676 66.000000 119.879997 -24.900000 
72824036750676 66.000000 119.879997 -24.900000 
72824056750676 66.000000 119.879997 -24.900000 
72824076750676 66.000000 119.879997 -24.900000 
72824096750676 66.000000 119.879997 -24.900000 
72824116750676 66.000000 119.879997 -24.900000 
72824136750676 66.000000 119.879997 -24.900000 
72824156750676 66.000000 119.879997 -24.900000 
72824176750676 66.000000 119.879997 -24.900000 
72824196750676 66.000000 119.879997 -24.900000 
72824216750676 66.000000 119.879997 -24.900000 
72824236750676 66.000000 119.879997 -24.900000 
72824256750676 66.000000 119.879997 -24.900000 
72824276750676 66.000000 119.879997 -24.900000 
72824296750676 66.000000 119.879997 -24.900000 
72824316750676 66.000000 119.879997 -24.900000 
72824336750676 66.000000 119.879997 -24.900000 
72824356750676 66.000000 119.879997 -24.900000 
72824376750676 66.000000 119.879997 -24.900000 
72824396750676 66.000000 119.879997 -24.900000 
72824416750676 66.000000 119.879997 -24.900000 
72824436750676 66.000000 119.879997 -24.900000 
72824456750676 66.000000 119.879997 -24.900000 
72824476750676 66.000000 119.879997 -24.900000 
72824496750676 66.000000 119.879997 -24.900000 
72824516750676 66.000000 119.879997 -24.900000 
72824536750676 66.000000 119.879997 -24.900000 
72824556750676 66.000000 119.879997 -24.900000 
72824576750676 66.000000 119.879997 -24.900000 
72824596750676 66.000000 119.879997 -24.900000 
72824616750676 66.000000 119.879997 -24.900000 
72824636750676 66.000000 119.879997 -24.900000 
72824656750676 66.000000 119.879997 -24.900000 
72824676750676 66.000000 119.879997 -24.900000 
72824696750676 66.000000 119.879997 -24.900000 
72824716750676 66.000000 119.879997 -24.900000 
72824736750676 66.000000 119.879997 -24.900000 
72824756750676 66.000000 119.879997 -24.900000 
72824776750676 66.000000 119.879997 -24.900000 
72824796750676 66.000000 119.879997 -24.900000 
72824816750676 66.000000 119.879997 -24.900000 
72824836750676 66.000000 119.879997 -24.900000 
72824856750676 66.000000 119.879997 -24.900000 
72824876750676 66.000000 119.879997 -24.900000 
72824896750676 66.000000 119.879997 -24.900000 
72824916750676 66.000000 119.879997 -24.900000 
72824936750676 66.000000 119.879997 -24.900000 
72824956750676 66.000000 119.879997 -24.900000 
72824976750676 66.000000 119.879997 -24.900000 
72824996750676 66.000000 119.879997 -24.900000 
72825016750676 66.000000 119.879997 -24.900000 
72825036750676 66.000000 119.879997 -24.900000 
72825056750676 66.000000 119.879997 -24.900000 
72825076750676 66.000000 119.879997 -24.900000 
72825096750676 66.000000 119.879997 -24.900000 
72825116750676 66.000000 119.879997 -24.900000 
72825136750676 66.000000 119.879997 -24.900000 
72825156750676 66.000000 119.879997 -24.900000 
72825176750676 66.000000 119.879997 -24.900000 
72825196750676 66.000000 119.879997 -24.900000 
72825216750676 66.000000 119.879997 -24.900000 
72825236750676 66.000000 119.879997 -24.900000 
72825256750676 66.000000 119.879997 -24.900000 
72825276750676 66.000000 119.879997 -24.900000 
72825296750676 66.000000 119.879997 -24.900000 
72825316750676 66.000000 119.879997 -24.900000 
72825336750676 66.000000 119.879997 -24.900000 
72825356750676 66.000000 119.879997 -24.900000 
72825376750676 66.000000 119.879997 -24.900000 
72825396750676 66.000000 119.879997 -24.900000 
72825416750676 66.000000 119.879997 -24.900000 
72825436750676 66.000000 119.879997 -24.900000 
72825456750676 66.000000 119.879997 -24.900000 
72825476750676 66.000000 119.879997 -24.900000 
72825496750676 66.000000 119.879997 -24.900000 
72825516750676 66.000000 119.879997 -24.900000 
72825536750676 66.000000 119.879997 -24.900000 
72825556750676 66.000000 119.879997 -24.900000 
72825576750676 66.000000 119.879997 -24.900000 
72825596750676 66.000000 119.879997 -24.900000 
72825616750676 66.000000 119.879997 -24.900000 
72825636750676 66.000000 119.879997 -24.900000 
72825656750676 66.000000 119.879997 -24.900000 
72825676750676 66.000000 119.879997 -24.900000 
72825696750676 66.000000 119.879997 -24.900000 
72825716750676 66.000000 119.879997 -24.900000 
72825736750676 66.000000 119.879997 -24.900000 
72825756750676 66.000000 119.879997 -24.900000 
72825776750676 66.000000 119.879997 -24.900000 
72825796750676 66.000000 119.879997 -24.900000 
72825816750676 66.000000 119.879997 -24.900000 
72825836750676 66.000000 119.879997 -24.900000 
72825856750676 66.000000 119.879997 -24.900000 
72825876750676 66.000000 119.879997 -24.900000 
72825896750676 66.000000 119.879997 -24.900000 
72825916750676 66.000000 119.879997 -24.900000 
72825936750676 66.000000 119.879997 -24.900000 
72825956750676 66.000000 119.879997 -24.900000 
72825976750676 66.000000 119.879997 -24.900000 
72825996750676 66.000000 119.879997 -24.900000 
72826016750676 66.000000 119.879997 -24.900000 
72826036750676 66.000000 119.879997 -24.900000 
72826056750676 66.000000 119.879997 -24.900000 
72826076750676 66.000000 119.879997 -24.900000 
72826096750676 66.000000 119.879997 -24.900000 
72826116750676 66.000000 119.879997 -24.900000 
72826136750676 66.000000 119.879997 -24.900000 
72826156750676 66.000000 119.879997 -24.900000 
72826176750676 66.000000 119.879997 -24.900000 
72826196750676 66.000000 119.879997 -24.900000 
72826216750676 66.000000 119.879997 -24.900000 
72826236750676 66.000000 119.879997 -24.900000 
72826256750676 66.000000 119.879997 -24.900000 
72826276750676 66.000000 119.879997 -24.900000 
72826296750676 66.000000 119.879997 -24.900000 
72826316750676 66.000000 119.879997 -24.900000 
72826336750676 66.000000 119.879997 -24.900000 
72826356750676 65.699997 120.000000 -25.019999 
72826376750676 65.699997 120.000000 -25.019999 
72826396750676 65.699997 120.000000 -25.019999 
72826416750676 65.699997 120.000000 -25.019999 
72826436750676 65.699997 120.000000 -25.019999 
72826456750676 65.699997 120.000000 -25.019999 
72826476750676 65.699997 120.000000 -25.019999 
72826496750676 65.699997 120.000000 -25.019999 
72826516750676 65.699997 120.000000 -25.019999 
72826536750676 65.699997 120.000000 -25.019999 
72826556750676 65.699997 120.000000 -25.019999 
72826576750676 65.699997 120.000000 -25.019999 
72826596750676 65.699997 120.000000 -25.019999 
72826616750676 65.699997 120.000000 -25.019999 
72826636750676 65.699997 120.000000 -25.019999 
72826656750676 65.699997 120.000000 -25.019999 
72826676750676 65.699997 120.000000 -25.019999 
72826696750676 65.699997 120.000000 -25.019999 
72826716750676 65.519997 120.000000 -25.080000 
72826736750676 65.519997 120.000000 -25.080000 
72826756750676 65.519997 120.000000 -25.080000 
72826776750676 65.519997 120.000000 -25.080000 
72826796750676 65.519997 120.000000 -25.080000 
72826816750676 65.519997 120.000000 -25.080000 
72826836750676 65.220001 119.939995 -25.080000 
72826856750676 65.220001 119.939995 -25.080000 
72826876750676 65.220001 119.939995 -25.080000 
72826896750676 65.220001 119.939995 -25.080000 
72826916750676 65.220001 119.939995 -25.080000 
72826936750676 65.220001 119.939995 -25.080000 
72826956750676 64.979996 120.059998 -25.139999 
72826976750676 64.979996 120.059998 -25.139999 
72826996750676 64.979996 120.059998 -25.139999 
72827016750676 64.979996 120.059998 -25.139999 
72827036750676 64.979996 120.059998 -25.139999 
72827056750676 64.979996 120.059998 -25.139999 
72827076750676 64.979996 120.059998 -25.139999 
72827096750676 64.979996 120.059998 -25.139999 
72827116750676 64.979996 120.059998 -25.139999 
72827136750676 64.979996 120.059998 -25.139999 
72827156750676 64.979996 120.059998 -25.139999 
72827176750676 64.979996 120.059998 -25.139999 
72827196750676 64.979996 120.059998 -25.139999 
72827216750676 64.979996 120.059998 -25.139999 
72827236750676 64.979996 120.059998 -25.139999 
72827256750676 64.979996 120.059998 -25.139999 
72827276750676 64.979996 120.059998 -25.139999 
72827296750676 64.979996 120.059998 -25.139999 
72827316750676 64.979996 120.059998 -25.139999 
72827336750676 64.979996 120.059998 -25.139999 
72827356750676 64.979996 120.059998 -25.139999 
72827376750676 64.979996 120.059998 -25.139999 
72827396750676 64.979996 120.059998 -25.139999 
72827416750676 64.979996 120.059998 -25.139999 
72827436750676 64.979996 120.059998 -25.139999 
72827456750676 64.979996 120.059998 -25.139999 
72827476750676 64.979996 120.059998 -25.139999 
72827496750676 64.979996 120.059998 -25.139999 
72827516750676 64.979996 120.059998 -25.139999 
72827536750676 64.979996 120.059998 -25.139999 
72827556750676 64.979996 120.059998 -25.139999 
72827576750676 64.979996 120.059998 -25.139999 
72827596750676 64.979996 120.059998 -25.139999 
72827616750676 64.979996 120.059998 -25.139999 
72827636750676 64.979996 120.059998 -25.139999 
72827656750676 64.979996 120.059998 -25.139999 
72827676750676 64.979996 120.059998 -25.139999 
72827696750676 64.979996 120.059998 -25.139999 
72827716750676 64.979996 120.059998 -25.139999 
72827736750676 64.979996 120.059998 -25.139999 
72827756750676 64.979996 120.059998 -25.139999 
72827776750676 64.979996 120.059998 -25.139999 
72827796750676 64.979996 120.059998 -25.139999 
72827816750676 64.979996 120.059998 -25.139999 
72827836750676 64.979996 120.059998 -25.139999 
72827856750676 64.979996 120.059998 -25.139999 
72827876750676 64.979996 120.059998 -25.139999 
72827896750676 64.979996 120.059998 -25.139999 
72827916750676 64.979996 120.059998 -25.139999 
72827936750676 64.979996 120.059998 -25.139999 
72827956750676 64.979996 120.059998 -25.139999 
72827976750676 64.979996 120.059998 -25.139999 
72827996750676 64.979996 120.059998 -25.139999 
72828016750676 64.979996 120.059998 -25.139999 
72828036750676 64.979996 120.059998 -25.139999 
72828056750676 64.979996 120.059998 -25.139999 
72828076750676 64.979996 120.059998 -25.139999 
72828096750676 64.979996 120.059998 -25.139999 
72828116750676 64.979996 120.059998 -25.139999 
72828136750676 64.979996 120.059998 -25.139999 
72828156750676 64.979996 120.059998 -25.139999 
72828176750676 64.979996 120.059998 -25.139999 
72828196750676 64.979996 120.059998 -25.139999 
72828216750676 64.979996 120.059998 -25.139999 
72828236750676 64.979996 120.059998 -25.139999 
72828256750676 64.979996 120.059998 -25.139999 
72828276750676 64.979996 120.059998 -25.139999 
72828296750676 64.979996 120.059998 -25.139999 
72828316750676 64.979996 120.059998 -25.139999 
72828336750676 64.979996 120.059998 -25.139999 
72828356750676 64.979996 120.059998 -25.139999 
72828376750676 64.979996 120.059998 -25.139999 
72828396750676 64.979996 120.059998 -25.139999 
72828416750676 64.979996 120.059998 -25.139999 
72828436750676 64.979996 120.059998 -25.139999 
72828456750676 64.979996 120.059998 -25.139999 
72828476750676 64.979996 120.059998 -25.139999 
72828496750676 64.979996 120.059998 -25.139999 
72828516750676 64.979996 120.059998 -25.139999 
72828536750676 64.979996 120.059998 -25.139999 
72828556750676 64.979996 120.059998 -25.139999 
72828576750676 64.979996 120.059998 -25.139999 
72828596750676 64.979996 120.059998 -25.139999 
72828616750676 64.979996 120.059998 -25.139999 
72828636750676 64.979996 120.059998 -25.139999 
72828656750676 64.979996 120.059998 -25.139999 
72828676750676 64.979996 120.059998 -25.139999 
72828696750676 64.979996 120.059998 -25.139999 
72828716750676 64.979996 120.059998 -25.139999 
72828736750676 64.979996 120.059998 -25.139999 
72828756750676 64.979996 120.059998 -25.139999 
72828776750676 64.979996 120.059998 -25.139999 
72828796750676 64.979996 120.059998 -25.139999 
72828816750676 64.979996 120.059998 -25.139999 
72828836750676 64.979996 120.059998 -25.139999 
72828856750676 64.979996 120.059998 -25.139999 
72828876750676 64.979996 120.059998 -25.139999 
72828896750676 64.979996 120.059998 -25.139999 
72828916750676 64.979996 120.059998 -25.139999 
72828936750676 64.979996 120.059998 -25.139999 
72828956750676 64.979996 120.059998 -25.139999 
72828976750676 64.979996 120.059998 -25.139999 
72828996750676 64.979996 120.059998 -25.139999 
72829016750676 64.979996 120.059998 -25.139999 
72829036750676 64.979996 120.059998 -25.139999 
72829056750676 64.979996 120.059998 -25.139999 
72829076750676 64.979996 120.059998 -25.139999 
72829096750676 64.979996 120.059998 -25.139999 
72829116750676 64.979996 120.059998 -25.139999 
72829136750676 64.979996 120.059998 -25.139999 
72829156750676 64.979996 120.059998 -25.139999 
72829176750676 64.979996 120.059998 -25.139999 
72829196750676 64.979996 120.059998 -25.139999 
72829216750676 64.979996 120.059998 -25.139999 
72829236750676 64.979996 120.059998 -25.139999 
72829256750676 64.979996 120.059998 -25.139999 
72829276750676 64.979996 120.059998 -25.139999 
72829296750676 64.979996 120.059998 -25.139999 
72829316750676 64.979996 120.059998 -25.139999 
72829336750676 64.979996 120.059998 -25.139999 
72829356750676 64.979996 120.059998 -25.139999 
72829376750676 64.979996 120.059998 -25.139999 
72829396750676 64.979996 120.059998 -25.139999 
72829416750676 64.979996 120.059998 -25.139999 
72829436750676 64.979996 120.059998 -25.139999 
72829456750676 64.979996 120.059998 -25.139999 
72829476750676 64.979996 120.059998 -25.139999 
72829496750676 64.979996 120.059998 -25.139999 
72829516750676 64.979996 120.059998 -25.139999 
72829536750676 64.979996 120.059998 -25.139999 
72829556750676 64.979996 120.059998 -25.139999 
72829576750676 64.979996 120.059998 -25.139999 
72829596750676 64.979996 120.059998 -25.139999 
72829616750676 64.979996 120.059998 -25.139999 
72829636750676 64.979996 120.059998 -25.139999 
72829656750676 64.979996 120.059998 -25.139999 
72829676750676 64.979996 120.059998 -25.139999 
72829696750676 64.979996 120.059998 -25.139999 
72829716750676 64.979996 120.059998 -25.139999 
72829736750676 64.979996 120.059998 -25.139999 
72829756750676 64.979996 120.059998 -25.139999 
72829776750676 64.979996 120.059998 -25.139999 
72829796750676 64.979996 120.059998 -25.139999 
72829816750676 64.979996 120.059998 -25.139999 
72829836750676 64.979996 120.059998 -25.139999 
72829856750676 64.979996 120.059998 -25.139999 
72829876750676 64.979996 120.059998 -25.139999 
72829896750676 64.979996 120.059998 -25.139999 
72829916750676 64.979996 120.059998 -25.139999 
72829936750676 64.979996 120.059998 -25.139999 
72829956750676 64.979996 120.059998 -25.139999 
72829976750676 64.979996 120.059998 -25.139999 
72829996750676 64.979996 120.059998 -25.139999 
72830016750676 64.979996 120.059998 -25.139999 
72830036750676 64.979996 120.059998 -25.139999 
72830056750676 64.979996 120.059998 -25.139999 
72830076750676 64.979996 120.059998 -25.139999 
72830096750676 64.979996 120.059998 -25.139999 
72830116750676 64.979996 120.059998 -25.139999 
72830136750676 64.979996 120.059998 -25.139999 
72830156750676 64.979996 120.059998 -25.139999 
72830176750676 64.979996 120.059998 -25.139999 
72830196750676 64.979996 120.059998 -25.139999 
72830216750676 64.979996 120.059998 -25.139999 
72830236750676 64.979996 120.059998 -25.139999 
72830256750676 64.979996 120.059998 -25.139999 
72830276750676 64.979996 120.059998 -25.139999 
72830296750676 64.979996 120.059998 -25.139999 
72830316750676 64.979996 120.059998 -25.139999 
72830336750676 64.979996 120.059998 -25.139999 
72830356750676 64.979996 120.059998 -25.139999 
72830376750676 64.979996 120.059998 -25.139999 
72830396750676 64.979996 120.059998 -25.139999 
72830416750676 64.979996 120.059998 -25.139999 
72830436750676 64.979996 120.059998 -25.139999 
72830456750676 64.979996 120.059998 -25.139999 
72830476750676 64.979996 120.059998 -25.139999 
72830496750676 64.979996 120.059998 -25.139999 
72830516750676 64.979996 120.059998 -25.139999 
72830536750676 64.979996 120.059998 -25.139999 
72830556750676 64.979996 120.059998 -25.139999 
72830576750676 64.979996 120.059998 -25.139999 
72830596750676 64.979996 120.059998 -25.139999 
72830616750676 64.979996 120.059998 -25.139999 
72830636750676 64.979996 120.059998 -25.139999 
72830656750676 64.979996 120.059998 -25.139999 
72830676750676 64.979996 120.059998 -25.139999 
72830696750676 64.979996 120.059998 -25.139999 
72830716750676 64.979996 120.059998 -25.139999 
72830736750676 64.979996 120.059998 -25.139999 
72830756750676 64.979996 120.059998 -25.139999 
72830776750676 64.979996 120.059998 -25.139999 
72830796750676 64.979996 120.059998 -25.139999 
72830816750676 64.979996 120.059998 -25.139999 
72830836750676 64.979996 120.059998 -25.139999 
72830856750676 64.979996 120.059998 -25.139999 
72830876750676 64.979996 120.059998 -25.139999 
72830896750676 64.979996 120.059998 -25.139999 
72830916750676 64.979996 120.059998 -25.139999 
72830936750676 64.979996 120.059998 -25.139999 
72830956750676 64.979996 120.059998 -25.139999 
72830976750676 64.979996 120.059998 -25.139999 
72830996750676 64.979996 120.059998 -25.139999 
72831016750676 64.979996 120.059998 -25.139999 
72831036750676 64.979996 120.059998 -25.139999 
72831056750676 64.979996 120.059998 -25.139999 
72831076750676 64.979996 120.059998 -25.139999 
72831096750676 64.979996 120.059998 -25.139999 
72831116750676 64.979996 120.059998 -25.139999 
72831136750676 64.979996 120.059998 -25.139999 
72831156750676 64.979996 120.059998 -25.139999 
72831176750676 64.979996 120.059998 -25.139999 
72831196750676 64.979996 120.059998 -25.139999 
72831216750676 64.979996 120.059998 -25.139999 
72831236750676 64.979996 120.059998 -25.139999 
72831256750676 64.979996 120.059998 -25.139999 
72831276750676 64.979996 120.059998 -25.139999 
72831296750676 64.979996 120.059998 -25.139999 
72831316750676 64.979996 120.059998 -25.139999 
72831336750676 64.979996 120.059998 -25.139999 
72831356750676 64.979996 120.059998 -25.139999 
72831376750676 64.979996 120.059998 -25.139999 
72831396750676 64.979996 120.059998 -25.139999 
72831416750676 64.979996 120.059998 -25.139999 
72831436750676 64.979996 120.059998 -25.139999 
72831456750676 64.979996 120.059998 -25.139999 
72831476750676 64.979996 120.059998 -25.139999 
72831496750676 64.979996 120.059998 -25.139999 
72831516750676 64.979996 120.059998 -25.139999 
72831536750676 64.979996 120.059998 -25.139999 
72831556750676 64.979996 120.059998 -25.139999 
72831576750676 64.979996 120.059998 -25.139999 
72831596750676 64.979996 120.059998 -25.139999 
72831616750676 64.979996 120.059998 -25.139999 
72831636750676 64.979996 120.059998 -25.139999 
72831656750676 64.979996 120.059998 -25.139999 
72831676750676 64.979996 120.059998 -25.139999 
72831696750676 64.979996 120.059998 -25.139999 
72831716750676 64.979996 120.059998 -25.139999 
72831736750676 64.979996 120.059998 -25.139999 
72831756750676 64.979996 120.059998 -25.139999 
72831776750676 64.979996 120.059998 -25.139999 
72831796750676 64.979996 120.059998 -25.139999 
72831816750676 64.979996 120.059998 -25.139999 
72831836750676 64.979996 120.059998 -25.139999 
72831856750676 64.979996 120.059998 -25.139999 
72831876750676 64.979996 120.059998 -25.139999 
72831896750676 64.979996 120.059998 -25.139999 
72831916750676 64.979996 120.059998 -25.139999 
72831936750676 64.979996 120.059998 -25.139999 
72831956750676 64.979996 120.059998 -25.139999 
72831976750676 64.979996 120.059998 -25.139999 
72831996750676 64.979996 120.059998 -25.139999 
72832016750676 64.979996 120.059998 -25.139999 
72832036750676 64.979996 120.059998 -25.139999 
72832056750676 64.979996 120.059998 -25.139999 
72832076750676 64.979996 120.059998 -25.139999 
72832096750676 64.979996 120.059998 -25.139999 
72832116750676 64.979996 120.059998 -25.139999 
72832136750676 64.979996 120.059998 -25.139999 
72832156750676 64.979996 120.059998 -25.139999 
72832176750676 64.979996 120.059998 -25.139999 
72832196750676 64.979996 120.059998 -25.139999 
72832216750676 64.979996 120.059998 -25.139999 
72832236750676 64.979996 120.059998 -25.139999 
72832256750676 64.979996 120.059998 -25.139999 
72832276750676 64.979996 120.059998 -25.139999 
72832296750676 64.979996 120.059998 -25.139999 
72832316750676 64.979996 120.059998 -25.139999 
72832336750676 64.979996 120.059998 -25.139999 
72832356750676 64.979996 120.059998 -25.139999 
72832376750676 64.979996 120.059998 -25.139999 
72832396750676 64.979996 120.059998 -25.139999 
72832416750676 64.979996 120.059998 -25.139999 
72832436750676 64.979996 120.059998 -25.139999 
72832456750676 64.979996 120.059998 -25.139999 
72832476750676 64.979996 120.059998 -25.139999 
72832496750676 64.979996 120.059998 -25.139999 
72832516750676 64.979996 120.059998 -25.139999 
72832536750676 64.979996 120.059998 -25.139999 
