# Created at Fri Jan 31 08:39:49 GMT+01:00 2025 in Burnaby Canada 
71559836750607 65.820000 122.159996 -24.719999 
71559856750607 65.820000 122.159996 -24.719999 
71559876750607 65.820000 122.159996 -24.719999 
71559896750607 65.820000 122.159996 -24.719999 
71559916750607 65.820000 122.159996 -24.719999 
71559936750607 65.820000 122.159996 -24.719999 
71559956750607 65.820000 122.159996 -24.719999 
71559976750607 65.820000 122.159996 -24.719999 
71559996750607 65.820000 122.159996 -24.719999 
71560016750607 65.820000 122.159996 -24.719999 
71560036750607 65.820000 122.159996 -24.719999 
71560056750607 65.820000 122.159996 -24.719999 
71560076750607 65.820000 122.159996 -24.719999 
71560096750607 65.820000 122.159996 -24.719999 
71560116750607 65.820000 122.159996 -24.719999 
71560136750607 65.820000 122.159996 -24.719999 
71560156750607 65.820000 122.159996 -24.719999 
71560176750607 65.820000 122.159996 -24.719999 
71560196750607 65.820000 122.159996 -24.719999 
71560216750607 65.820000 122.159996 -24.719999 
71560236750607 65.820000 122.159996 -24.719999 
71560256750607 65.820000 122.159996 -24.719999 
71560276750607 65.820000 122.159996 -24.719999 
71560296750607 65.820000 122.159996 -24.719999 
71560316750607 65.820000 122.159996 -24.719999 
71560336750607 65.820000 122.159996 -24.719999 
71560356750607 65.820000 122.159996 -24.719999 
71560376750607 65.820000 122.159996 -24.719999 
71560396750607 65.820000 122.159996 -24.719999 
71560416750607 65.820000 122.159996 -24.719999 
71560436750607 65.820000 122.159996 -24.719999 
71560456750607 65.820000 122.159996 -24.719999 
71560476750607 65.820000 122.159996 -24.719999 
71560496750607 65.820000 122.159996 -24.719999 
71560516750607 65.820000 122.459999 -25.199999 
71560536750607 65.820000 122.459999 -25.199999 
71560556750607 65.820000 122.459999 -25.199999 
71560576750607 65.820000 122.459999 -25.199999 
71560596750607 65.820000 122.459999 -25.199999 
71560616750607 65.820000 122.459999 -25.199999 
71560636750607 65.820000 122.459999 -25.199999 
71560656750607 65.820000 122.459999 -25.199999 
71560676750607 65.820000 122.459999 -25.199999 
71560696750607 65.820000 122.459999 -25.199999 
71560716750607 65.820000 122.459999 -25.199999 
71560736750607 65.820000 122.459999 -25.199999 
71560756750607 65.820000 122.459999 -25.199999 
71560776750607 65.820000 122.459999 -25.199999 
71560796750607 65.820000 122.459999 -25.199999 
71560816750607 65.820000 122.459999 -25.199999 
71560836750607 65.820000 122.459999 -25.199999 
71560856750607 65.820000 122.459999 -25.199999 
71560876750607 65.820000 122.459999 -25.199999 
71560896750607 65.820000 122.459999 -25.199999 
71560916750607 65.820000 122.459999 -25.199999 
71560936750607 65.820000 122.459999 -25.199999 
71560956750607 65.820000 122.459999 -25.199999 
71560976750607 65.820000 122.459999 -25.199999 
71560996750607 65.820000 122.459999 -25.199999 
71561016750607 65.820000 122.459999 -25.199999 
71561036750607 65.820000 122.459999 -25.199999 
71561056750607 65.820000 122.459999 -25.199999 
71561076750607 66.000000 122.459999 -25.199999 
71561096750607 66.000000 122.459999 -25.199999 
71561116750607 66.000000 122.459999 -25.199999 
71561136750607 66.000000 122.459999 -25.199999 
71561156750607 66.000000 122.459999 -25.199999 
71561176750607 66.000000 122.459999 -25.199999 
71561196750607 66.000000 122.459999 -25.199999 
71561216750607 66.000000 122.459999 -25.199999 
71561236750607 66.180000 122.399994 -25.080000 
71561256750607 66.180000 122.399994 -25.080000 
71561276750607 66.180000 122.399994 -25.080000 
71561296750607 66.180000 122.399994 -25.080000 
71561316750607 66.180000 122.399994 -25.080000 
71561336750607 66.180000 122.399994 -25.080000 
71561356750220 66.180000 122.399994 -25.080000 
71561376749959 66.180000 122.399994 -25.080000 
71561396749959 66.180000 122.399994 -25.080000 
71561416749959 66.180000 122.399994 -25.080000 
71561436749959 66.180000 122.399994 -25.080000 
71561456749959 66.180000 122.399994 -25.080000 
71561476749959 66.180000 122.399994 -25.080000 
71561496749959 66.180000 122.399994 -25.080000 
71561516749959 66.180000 122.399994 -25.080000 
71561536749959 66.180000 122.399994 -25.080000 
71561556749959 66.180000 122.399994 -25.080000 
71561576749959 66.180000 122.399994 -25.080000 
71561596749959 66.180000 122.399994 -25.080000 
71561616749959 66.180000 122.399994 -25.080000 
71561636749959 66.180000 122.399994 -25.080000 
71561656749959 66.180000 122.399994 -25.080000 
71561676749959 66.180000 122.399994 -25.080000 
71561696749959 66.180000 122.399994 -25.080000 
71561716749959 66.119995 122.339996 -24.840000 
71561736749959 66.119995 122.339996 -24.840000 
71561756749959 66.119995 122.339996 -24.840000 
71561776749959 66.119995 122.339996 -24.840000 
71561796749959 66.119995 122.339996 -24.840000 
71561816749959 66.119995 122.339996 -24.840000 
71561836749959 66.119995 122.339996 -24.840000 
71561856749959 66.119995 122.339996 -24.840000 
71561876749959 66.119995 122.339996 -24.840000 
71561896749959 66.119995 122.339996 -24.840000 
71561916749959 66.119995 122.339996 -24.840000 
71561936749959 66.119995 122.339996 -24.840000 
71561956749959 66.119995 122.339996 -24.840000 
71561976749959 66.119995 122.339996 -24.840000 
71561996749959 66.119995 122.339996 -24.840000 
71562016749959 66.119995 122.339996 -24.840000 
71562036749959 66.119995 122.339996 -24.840000 
71562056749959 66.119995 122.339996 -24.840000 
71562076749959 66.119995 122.339996 -24.840000 
71562096749959 66.119995 122.339996 -24.840000 
71562116749959 66.119995 122.339996 -24.840000 
71562136749959 66.119995 122.339996 -24.840000 
71562156749959 66.119995 122.339996 -24.840000 
71562176749959 66.119995 122.339996 -24.840000 
71562196749959 66.000000 121.979996 -24.660000 
71562216749959 66.000000 121.979996 -24.660000 
71562236749959 66.000000 121.979996 -24.660000 
71562256749959 66.000000 121.979996 -24.660000 
71562276749959 66.000000 121.979996 -24.660000 
71562296749959 66.000000 121.979996 -24.660000 
71562316749959 66.000000 121.979996 -24.660000 
71562336749959 66.000000 121.979996 -24.660000 
71562356749959 66.000000 121.979996 -24.660000 
71562376749959 66.000000 121.979996 -24.660000 
71562396749959 66.000000 121.979996 -24.660000 
71562416749959 66.000000 121.979996 -24.660000 
71562436749959 66.000000 121.979996 -24.660000 
71562456749959 66.000000 121.979996 -24.660000 
71562476749959 66.000000 121.979996 -24.660000 
71562496749959 66.000000 121.979996 -24.660000 
71562516749959 66.000000 121.979996 -24.660000 
71562536749959 66.000000 121.979996 -24.660000 
71562556749959 66.000000 121.979996 -24.660000 
71562576749959 66.000000 121.979996 -24.660000 
71562596749959 66.000000 121.979996 -24.660000 
71562616749959 66.000000 121.979996 -24.660000 
71562636749959 66.000000 121.979996 -24.660000 
71562656749959 66.000000 121.979996 -24.660000 
71562676749959 66.000000 121.979996 -24.660000 
71562696749959 66.000000 121.979996 -24.660000 
71562716749959 66.000000 121.979996 -24.660000 
71562736749959 66.000000 121.979996 -24.660000 
71562756749959 66.000000 121.979996 -24.660000 
71562776749959 66.000000 121.979996 -24.660000 
71562796749959 66.000000 121.979996 -24.660000 
71562816749959 66.000000 121.979996 -24.660000 
71562836749959 66.000000 121.979996 -24.660000 
71562856749959 66.000000 121.979996 -24.660000 
71562876749959 66.000000 121.979996 -24.660000 
71562896749959 66.000000 121.979996 -24.660000 
71562916749959 66.000000 121.979996 -24.660000 
71562936749959 66.000000 121.979996 -24.660000 
71562956749959 66.000000 121.979996 -24.660000 
71562976749959 66.000000 121.979996 -24.660000 
71562996749959 66.000000 121.979996 -24.660000 
71563016749959 66.000000 121.979996 -24.660000 
71563036749959 66.000000 121.979996 -24.660000 
71563056749959 66.000000 121.979996 -24.660000 
71563076749959 66.000000 121.979996 -24.660000 
71563096749959 66.000000 121.979996 -24.660000 
71563116749959 66.000000 121.979996 -24.660000 
71563136749959 66.000000 121.979996 -24.660000 
71563156749959 66.000000 121.979996 -24.660000 
71563176749959 66.000000 121.979996 -24.660000 
71563196749959 66.000000 121.979996 -24.660000 
71563216749959 66.000000 121.979996 -24.660000 
71563236749959 66.000000 121.979996 -24.660000 
71563256749959 66.000000 121.979996 -24.660000 
71563276749959 66.000000 121.979996 -24.660000 
71563296749959 66.000000 121.979996 -24.660000 
71563316749959 66.000000 121.979996 -24.660000 
71563336749959 66.000000 121.979996 -24.660000 
71563356749959 66.000000 121.979996 -24.660000 
71563376749959 66.000000 121.979996 -24.660000 
71563396749959 66.000000 121.979996 -24.660000 
71563416749959 66.000000 121.979996 -24.660000 
71563436749959 66.000000 121.979996 -24.660000 
71563456749959 66.000000 121.979996 -24.660000 
71563476749959 66.000000 121.979996 -24.660000 
71563496749959 66.000000 121.979996 -24.660000 
71563516749959 66.000000 121.979996 -24.660000 
71563536749959 66.000000 121.979996 -24.660000 
71563556749959 66.000000 121.979996 -24.660000 
71563576749959 66.000000 121.979996 -24.660000 
71563596749959 66.000000 121.979996 -24.660000 
71563616749959 66.000000 121.979996 -24.660000 
71563636749959 66.000000 121.979996 -24.660000 
71563656749959 66.000000 121.979996 -24.660000 
71563676749959 66.000000 121.979996 -24.660000 
71563696749959 66.000000 121.979996 -24.660000 
71563716749959 66.000000 121.979996 -24.660000 
71563736749959 66.000000 121.979996 -24.660000 
71563756749959 66.000000 121.979996 -24.660000 
71563776749959 66.000000 121.979996 -24.660000 
71563796749959 66.000000 121.979996 -24.660000 
71563816749959 66.000000 121.979996 -24.660000 
71563836749959 66.000000 121.979996 -24.660000 
71563856749959 66.000000 121.979996 -24.660000 
71563876749959 66.000000 121.979996 -24.660000 
71563896749959 66.000000 121.979996 -24.660000 
71563916749959 66.000000 121.979996 -24.660000 
71563936749959 66.000000 121.979996 -24.660000 
71563956749959 66.000000 121.979996 -24.660000 
71563976749959 66.000000 121.979996 -24.660000 
71563996749959 66.000000 121.979996 -24.660000 
71564016749959 66.000000 121.979996 -24.660000 
71564036749959 66.000000 121.979996 -24.660000 
71564056749959 66.000000 121.979996 -24.660000 
71564076749959 66.000000 121.979996 -24.660000 
71564096749959 66.000000 121.979996 -24.660000 
71564116749959 66.000000 121.979996 -24.660000 
71564136749959 66.000000 121.979996 -24.660000 
71564156749959 66.000000 121.979996 -24.660000 
71564176749959 66.000000 121.979996 -24.660000 
71564196749959 66.000000 121.979996 -24.660000 
71564216749959 66.000000 121.979996 -24.660000 
71564236749959 66.000000 121.979996 -24.660000 
71564256749959 66.000000 121.979996 -24.660000 
71564276749959 66.000000 121.979996 -24.660000 
71564296749959 66.000000 121.979996 -24.660000 
71564316749959 66.000000 121.979996 -24.660000 
71564336749959 66.000000 121.979996 -24.660000 
71564356749959 66.000000 121.979996 -24.660000 
71564376749959 66.000000 121.979996 -24.660000 
71564396749959 66.000000 121.979996 -24.660000 
71564416749959 66.000000 121.979996 -24.660000 
71564436749959 66.000000 121.979996 -24.660000 
71564456749959 66.000000 121.979996 -24.660000 
71564476749959 66.000000 121.979996 -24.660000 
71564496749959 66.000000 121.979996 -24.660000 
71564516749959 66.000000 121.979996 -24.660000 
71564536749959 66.000000 121.979996 -24.660000 
71564556749959 66.000000 121.979996 -24.660000 
71564576749959 66.000000 121.979996 -24.660000 
71564596749959 66.000000 121.979996 -24.660000 
71564616749959 66.000000 121.979996 -24.660000 
71564636749959 66.000000 121.979996 -24.660000 
71564656749959 66.000000 121.979996 -24.660000 
71564676749959 66.000000 121.979996 -24.660000 
71564696749959 66.000000 121.979996 -24.660000 
71564716749959 66.000000 121.979996 -24.660000 
71564736749959 66.000000 121.979996 -24.660000 
71564756749959 66.000000 121.979996 -24.660000 
71564776749959 66.000000 121.979996 -24.660000 
71564796749959 66.000000 121.979996 -24.660000 
71564816749959 66.000000 121.979996 -24.660000 
71564836749959 66.000000 121.979996 -24.660000 
71564856749959 66.000000 121.979996 -24.660000 
71564876749959 66.000000 121.979996 -24.660000 
71564896749959 66.000000 121.979996 -24.660000 
71564916749959 66.000000 121.979996 -24.660000 
71564936749959 66.000000 121.979996 -24.660000 
71564956749959 66.000000 121.979996 -24.660000 
71564976749959 66.000000 121.979996 -24.660000 
71564996749959 66.000000 121.979996 -24.660000 
71565016749959 66.000000 121.979996 -24.660000 
71565036749959 66.000000 121.979996 -24.660000 
71565056749959 66.000000 121.979996 -24.660000 
71565076749959 66.000000 121.979996 -24.660000 
71565096749959 66.000000 121.979996 -24.660000 
71565116749959 66.000000 121.979996 -24.660000 
71565136749959 66.000000 121.979996 -24.660000 
71565156749959 66.000000 121.979996 -24.660000 
71565176749959 66.000000 121.979996 -24.660000 
71565196749959 66.000000 121.979996 -24.660000 
71565216749959 66.000000 121.979996 -24.660000 
71565236749959 66.000000 121.979996 -24.660000 
71565256749959 66.000000 121.979996 -24.660000 
71565276749959 66.000000 121.979996 -24.660000 
71565296749959 66.000000 121.979996 -24.660000 
71565316749959 66.000000 121.979996 -24.660000 
71565336749959 66.000000 121.979996 -24.660000 
71565356749959 66.000000 121.979996 -24.660000 
71565376749959 66.000000 121.979996 -24.660000 
71565396749959 66.000000 121.979996 -24.660000 
71565416749959 66.000000 121.979996 -24.660000 
71565436749959 66.000000 121.979996 -24.660000 
71565456749959 66.000000 121.979996 -24.660000 
71565476749959 66.000000 121.979996 -24.660000 
71565496749959 66.000000 121.979996 -24.660000 
71565516749959 66.000000 121.979996 -24.660000 
71565536749959 66.000000 121.979996 -24.660000 
71565556749959 66.000000 121.979996 -24.660000 
71565576749959 66.000000 121.979996 -24.660000 
71565596749959 66.000000 121.979996 -24.660000 
71565616749959 66.000000 121.979996 -24.660000 
71565636749959 66.000000 121.979996 -24.660000 
71565656749959 66.000000 121.979996 -24.660000 
71565676749959 66.000000 121.979996 -24.660000 
71565696749959 66.000000 121.979996 -24.660000 
71565716749959 66.000000 121.979996 -24.660000 
71565736749959 66.000000 121.979996 -24.660000 
71565756749959 66.000000 121.979996 -24.660000 
71565776749959 66.000000 121.979996 -24.660000 
71565796749959 66.000000 121.979996 -24.660000 
71565816749959 66.000000 121.979996 -24.660000 
71565836749959 66.000000 121.979996 -24.660000 
71565856749959 66.000000 121.979996 -24.660000 
71565876749959 66.000000 121.979996 -24.660000 
71565896749959 66.000000 121.979996 -24.660000 
71565916749959 66.000000 121.979996 -24.660000 
71565936749959 66.000000 121.979996 -24.660000 
71565956749959 66.000000 121.979996 -24.660000 
71565976749959 66.000000 121.979996 -24.660000 
71565996749959 66.000000 121.979996 -24.660000 
71566016749959 66.000000 121.979996 -24.660000 
71566036749959 66.000000 121.979996 -24.660000 
71566056749959 66.000000 121.979996 -24.660000 
71566076749959 66.000000 121.979996 -24.660000 
71566096749959 66.000000 121.979996 -24.660000 
71566116749959 66.000000 121.979996 -24.660000 
71566136749959 66.000000 121.979996 -24.660000 
71566156749959 66.000000 121.979996 -24.660000 
71566176749959 66.000000 121.979996 -24.660000 
71566196749959 66.000000 121.979996 -24.660000 
71566216749959 66.000000 121.979996 -24.660000 
71566236749959 66.000000 121.979996 -24.660000 
71566256749959 66.000000 121.979996 -24.660000 
71566276749959 66.000000 121.979996 -24.660000 
71566296749959 66.000000 121.979996 -24.660000 
71566316749959 66.000000 121.979996 -24.660000 
71566336749959 66.000000 121.979996 -24.660000 
71566356749959 66.000000 121.979996 -24.660000 
71566376749959 66.000000 121.979996 -24.660000 
71566396749959 66.000000 121.979996 -24.660000 
71566416749959 66.000000 121.979996 -24.660000 
71566436749959 66.000000 121.979996 -24.660000 
71566456749959 66.000000 121.979996 -24.660000 
71566476749959 66.000000 121.979996 -24.660000 
71566496749959 66.000000 121.979996 -24.660000 
71566516749959 66.000000 121.979996 -24.660000 
71566536749959 66.000000 121.979996 -24.660000 
71566556749959 66.000000 121.979996 -24.660000 
71566576749959 66.000000 121.979996 -24.660000 
71566596749959 66.000000 121.979996 -24.660000 
71566616749959 66.000000 121.979996 -24.660000 
71566636749959 66.000000 121.979996 -24.660000 
71566656749959 66.000000 121.979996 -24.660000 
71566676749959 66.000000 121.979996 -24.660000 
71566696749959 66.000000 121.979996 -24.660000 
71566716749959 66.000000 121.979996 -24.660000 
71566736749959 66.000000 121.979996 -24.660000 
71566756749959 66.000000 121.979996 -24.660000 
71566776749959 66.000000 121.979996 -24.660000 
71566796749959 66.000000 121.979996 -24.660000 
71566816749959 66.000000 121.979996 -24.660000 
71566836749959 66.000000 121.979996 -24.660000 
71566856749959 66.000000 121.979996 -24.660000 
71566876749959 66.000000 121.979996 -24.660000 
71566896749959 66.000000 121.979996 -24.660000 
71566916749959 66.000000 121.979996 -24.660000 
71566936749959 66.000000 121.979996 -24.660000 
71566956749959 66.000000 121.979996 -24.660000 
71566976749959 66.000000 121.979996 -24.660000 
71566996749959 66.000000 121.979996 -24.660000 
71567016749959 66.000000 121.979996 -24.660000 
71567036749959 66.000000 121.979996 -24.660000 
71567056749959 66.000000 121.979996 -24.660000 
71567076749959 66.000000 121.979996 -24.660000 
71567096749959 66.000000 121.979996 -24.660000 
71567116749959 66.000000 121.979996 -24.660000 
71567136749959 66.000000 121.979996 -24.660000 
71567156749959 66.000000 121.979996 -24.660000 
71567176749959 66.000000 121.979996 -24.660000 
71567196749959 66.000000 121.979996 -24.660000 
71567216749959 66.000000 121.979996 -24.660000 
71567236749959 66.000000 121.979996 -24.660000 
71567256749959 66.000000 121.979996 -24.660000 
71567276749959 66.000000 121.979996 -24.660000 
71567296749959 66.000000 121.979996 -24.660000 
71567316749959 66.000000 121.979996 -24.660000 
71567336749959 66.000000 121.979996 -24.660000 
71567356749959 66.000000 121.979996 -24.660000 
71567376749959 66.000000 121.979996 -24.660000 
71567396749959 66.000000 121.979996 -24.660000 
71567416749959 66.000000 121.979996 -24.660000 
71567436749959 66.000000 121.979996 -24.660000 
71567456749959 66.000000 121.979996 -24.660000 
71567476749959 66.000000 121.979996 -24.660000 
71567496749959 66.000000 121.979996 -24.660000 
71567516749959 66.000000 121.979996 -24.660000 
71567536749959 66.000000 121.979996 -24.660000 
71567556749959 66.000000 121.979996 -24.660000 
71567576749959 66.000000 121.979996 -24.660000 
71567596749959 66.000000 121.979996 -24.660000 
71567616749959 66.000000 121.979996 -24.660000 
71567636749959 66.000000 121.979996 -24.660000 
71567656749959 66.000000 121.979996 -24.660000 
71567676749959 66.000000 121.979996 -24.660000 
71567696749959 66.000000 121.979996 -24.660000 
71567716749959 66.000000 121.979996 -24.660000 
71567736749959 66.000000 121.979996 -24.660000 
71567756749959 66.000000 121.979996 -24.660000 
71567776749959 66.000000 121.979996 -24.660000 
71567796749959 66.000000 121.979996 -24.660000 
71567816749959 66.000000 121.979996 -24.660000 
71567836749959 66.000000 121.979996 -24.660000 
71567856749959 66.000000 121.979996 -24.660000 
71567876749959 66.000000 121.979996 -24.660000 
71567896749959 66.000000 121.979996 -24.660000 
71567916749959 66.000000 121.979996 -24.660000 
71567936749959 66.000000 121.979996 -24.660000 
71567956749959 66.000000 121.979996 -24.660000 
71567976749959 66.000000 121.979996 -24.660000 
71567996749959 66.000000 121.979996 -24.660000 
71568016749959 66.000000 121.979996 -24.660000 
71568036749959 66.000000 121.979996 -24.660000 
71568056749959 66.000000 121.979996 -24.660000 
71568076749959 66.000000 121.979996 -24.660000 
71568096749959 66.000000 121.979996 -24.660000 
71568116749959 66.000000 121.979996 -24.660000 
71568136749959 66.000000 121.979996 -24.660000 
71568156749959 66.000000 121.979996 -24.660000 
71568176749959 66.000000 121.979996 -24.660000 
71568196749959 66.000000 121.979996 -24.660000 
71568216749959 66.000000 121.979996 -24.660000 
71568236749959 66.000000 121.979996 -24.660000 
71568256749959 66.000000 121.979996 -24.660000 
71568276749959 66.000000 121.979996 -24.660000 
71568296749959 66.000000 121.979996 -24.660000 
71568316749959 66.000000 121.979996 -24.660000 
71568336749959 66.000000 121.979996 -24.660000 
71568356749959 66.000000 121.979996 -24.660000 
71568376749959 66.000000 121.979996 -24.660000 
71568396749959 66.000000 121.979996 -24.660000 
71568416749959 66.000000 121.979996 -24.660000 
71568436749959 66.000000 121.979996 -24.660000 
71568456749959 66.000000 121.979996 -24.660000 
71568476749959 66.000000 121.979996 -24.660000 
71568496749959 66.000000 121.979996 -24.660000 
71568516749959 66.000000 121.979996 -24.660000 
71568536749959 66.000000 121.979996 -24.660000 
71568556749959 66.000000 121.979996 -24.660000 
71568576749959 66.000000 121.979996 -24.660000 
71568596749959 66.000000 121.979996 -24.660000 
71568616749959 66.000000 121.979996 -24.660000 
71568636749959 66.000000 121.979996 -24.660000 
71568656749959 66.000000 121.979996 -24.660000 
71568676749959 66.000000 121.979996 -24.660000 
71568696749959 66.000000 121.979996 -24.660000 
71568716749959 66.000000 121.979996 -24.660000 
71568736749959 66.000000 121.979996 -24.660000 
71568756749959 66.000000 121.979996 -24.660000 
71568776749959 66.000000 121.979996 -24.660000 
71568796749959 66.000000 121.979996 -24.660000 
71568816749959 66.000000 121.979996 -24.660000 
71568836749959 66.000000 121.979996 -24.660000 
71568856749959 66.000000 121.979996 -24.660000 
71568876749959 66.000000 121.979996 -24.660000 
71568896749959 66.000000 121.979996 -24.660000 
71568916749959 66.000000 121.979996 -24.660000 
71568936749959 66.000000 121.979996 -24.660000 
71568956749959 66.000000 121.979996 -24.660000 
71568976749959 66.000000 121.979996 -24.660000 
71568996749959 66.000000 121.979996 -24.660000 
71569016749959 66.000000 121.979996 -24.660000 
71569036749959 66.000000 121.979996 -24.660000 
71569056749959 66.000000 121.979996 -24.660000 
71569076749959 66.000000 121.979996 -24.660000 
71569096749959 66.000000 121.979996 -24.660000 
71569116749959 66.000000 121.979996 -24.660000 
71569136749959 66.000000 121.979996 -24.660000 
71569156749959 66.000000 121.979996 -24.660000 
71569176749959 66.000000 121.979996 -24.660000 
71569196749959 66.000000 121.979996 -24.660000 
71569216749959 66.000000 121.979996 -24.660000 
71569236749959 66.000000 121.979996 -24.660000 
71569256749959 66.000000 121.979996 -24.660000 
71569276749959 66.000000 121.979996 -24.660000 
71569296749959 66.000000 121.979996 -24.660000 
71569316749959 66.000000 121.979996 -24.660000 
71569336749959 66.000000 121.979996 -24.660000 
71569356749959 66.000000 121.979996 -24.660000 
71569376749959 66.000000 121.979996 -24.660000 
71569396749959 66.000000 121.979996 -24.660000 
71569416749959 66.000000 121.979996 -24.660000 
71569436749959 66.000000 121.979996 -24.660000 
71569456749959 66.000000 121.979996 -24.660000 
71569476749959 66.000000 121.979996 -24.660000 
71569496749959 66.000000 121.979996 -24.660000 
71569516749959 66.000000 121.979996 -24.660000 
71569536749959 66.000000 121.979996 -24.660000 
71569556749959 66.000000 121.979996 -24.660000 
71569576749959 66.000000 121.979996 -24.660000 
71569596749959 66.000000 121.979996 -24.660000 
71569616749959 66.000000 121.979996 -24.660000 
71569636749959 66.000000 121.979996 -24.660000 
71569656749959 66.000000 121.979996 -24.660000 
71569676749959 66.000000 121.979996 -24.660000 
71569696749959 66.000000 121.979996 -24.660000 
71569716749959 66.000000 121.979996 -24.660000 
71569736749959 66.000000 121.979996 -24.660000 
71569756749959 66.000000 121.979996 -24.660000 
71569776749959 66.000000 121.979996 -24.660000 
71569796749959 66.000000 121.979996 -24.660000 
71569816749959 66.000000 121.979996 -24.660000 
71569836749959 66.000000 121.979996 -24.660000 
71569856749959 66.000000 121.979996 -24.660000 
71569876749959 66.000000 121.979996 -24.660000 
71569896749959 66.000000 121.979996 -24.660000 
71569916749959 66.000000 121.979996 -24.660000 
71569936749959 66.000000 121.979996 -24.660000 
71569956749959 66.000000 121.979996 -24.660000 
71569976749959 66.000000 121.979996 -24.660000 
71569996749959 66.000000 121.979996 -24.660000 
71570016749959 66.000000 121.979996 -24.660000 
71570036749959 66.000000 121.979996 -24.660000 
71570056749959 66.000000 121.979996 -24.660000 
71570076749959 66.000000 121.979996 -24.660000 
71570096749959 66.000000 121.979996 -24.660000 
71570116749959 66.000000 121.979996 -24.660000 
71570136749959 66.000000 121.979996 -24.660000 
71570156749959 66.000000 121.979996 -24.660000 
71570176749959 66.000000 121.979996 -24.660000 
71570196749959 66.000000 121.979996 -24.660000 
71570216749959 66.000000 121.979996 -24.660000 
71570236749959 66.000000 121.979996 -24.660000 
71570256749959 66.000000 121.979996 -24.660000 
71570276749959 66.000000 121.979996 -24.660000 
71570296749959 66.000000 121.979996 -24.660000 
71570316749959 66.000000 121.979996 -24.660000 
71570336749959 66.000000 121.979996 -24.660000 
71570356749959 66.000000 121.979996 -24.660000 
71570376749959 66.000000 121.979996 -24.660000 
71570396749959 66.000000 121.979996 -24.660000 
71570416749959 66.000000 121.979996 -24.660000 
71570436749959 66.000000 121.979996 -24.660000 
71570456749959 66.000000 121.979996 -24.660000 
71570476749959 66.000000 121.979996 -24.660000 
71570496749959 66.000000 121.979996 -24.660000 
71570516749959 66.000000 121.979996 -24.660000 
71570536749959 66.000000 121.979996 -24.660000 
71570556749959 66.000000 121.979996 -24.660000 
71570576749959 66.000000 121.979996 -24.660000 
71570596749959 66.000000 121.979996 -24.660000 
71570616749959 66.000000 121.979996 -24.660000 
71570636749959 66.000000 121.979996 -24.660000 
71570656749959 66.000000 121.979996 -24.660000 
71570676749959 66.000000 121.979996 -24.660000 
71570696749959 66.000000 121.979996 -24.660000 
71570716749959 66.000000 121.979996 -24.660000 
71570736749959 66.000000 121.979996 -24.660000 
71570756749959 66.000000 121.979996 -24.660000 
71570776749959 66.000000 121.979996 -24.660000 
71570796749959 66.000000 121.979996 -24.660000 
71570816749959 66.000000 121.979996 -24.660000 
71570836749959 66.000000 121.979996 -24.660000 
71570856749959 66.000000 121.979996 -24.660000 
71570876749959 66.000000 121.979996 -24.660000 
71570896749959 66.000000 121.979996 -24.660000 
71570916749959 66.000000 121.979996 -24.660000 
71570936749959 66.000000 121.979996 -24.660000 
71570956749959 66.000000 121.979996 -24.660000 
71570976749959 66.000000 121.979996 -24.660000 
71570996749959 66.000000 121.979996 -24.660000 
71571016749959 66.000000 121.979996 -24.660000 
71571036749959 66.000000 121.979996 -24.660000 
71571056749959 66.000000 121.979996 -24.660000 
71571076749959 66.000000 121.979996 -24.660000 
71571096749959 66.000000 121.979996 -24.660000 
71571116749959 66.000000 121.979996 -24.660000 
71571136749959 66.000000 121.979996 -24.660000 
71571156749959 66.000000 121.979996 -24.660000 
71571176749959 66.000000 121.979996 -24.660000 
71571196749959 66.000000 121.979996 -24.660000 
71571216749959 66.000000 121.979996 -24.660000 
71571236749959 66.000000 121.979996 -24.660000 
71571256749959 66.000000 121.979996 -24.660000 
71571276749959 66.000000 121.979996 -24.660000 
71571296749959 66.000000 121.979996 -24.660000 
71571316749959 66.000000 121.979996 -24.660000 
71571336749959 66.000000 121.979996 -24.660000 
71571356749959 66.000000 121.979996 -24.660000 
71571376749959 66.000000 121.979996 -24.660000 
71571396749959 66.000000 121.979996 -24.660000 
71571416749959 66.000000 121.979996 -24.660000 
71571436749959 66.000000 121.979996 -24.660000 
71571456749959 66.000000 121.979996 -24.660000 
71571476749959 66.000000 121.979996 -24.660000 
71571496749959 66.000000 121.979996 -24.660000 
71571516749959 66.000000 121.979996 -24.660000 
71571536749959 66.000000 121.979996 -24.660000 
71571556749959 66.000000 121.979996 -24.660000 
71571576749959 66.000000 121.979996 -24.660000 
71571596749959 66.000000 121.979996 -24.660000 
71571616749959 66.000000 121.979996 -24.660000 
71571636749959 66.000000 121.979996 -24.660000 
71571656749959 66.000000 121.979996 -24.660000 
71571676749959 66.000000 121.979996 -24.660000 
71571696749959 66.000000 121.979996 -24.660000 
71571716749959 66.000000 121.979996 -24.660000 
71571736749959 66.000000 121.979996 -24.660000 
71571756749959 66.000000 121.979996 -24.660000 
71571776749959 66.000000 121.979996 -24.660000 
71571796749959 66.000000 121.979996 -24.660000 
71571816749959 66.000000 121.979996 -24.660000 
71571836749959 66.000000 121.979996 -24.660000 
71571856749959 66.000000 121.979996 -24.660000 
71571876749959 66.000000 121.979996 -24.660000 
71571896749959 66.000000 121.979996 -24.660000 
71571916749959 66.000000 121.979996 -24.660000 
71571936749959 66.000000 121.979996 -24.660000 
71571956749959 66.000000 121.979996 -24.660000 
71571976749959 66.000000 121.979996 -24.660000 
71571996749959 66.000000 121.979996 -24.660000 
71572016749959 66.000000 121.979996 -24.660000 
71572036749959 66.000000 121.979996 -24.660000 
71572056749959 66.000000 121.979996 -24.660000 
71572076749959 66.000000 121.979996 -24.660000 
71572096749959 66.000000 121.979996 -24.660000 
71572116749959 66.000000 121.979996 -24.660000 
71572136749959 66.000000 121.979996 -24.660000 
71572156749959 66.000000 121.979996 -24.660000 
71572176749959 66.000000 121.979996 -24.660000 
71572196749959 66.000000 121.979996 -24.660000 
71572216749959 66.000000 121.979996 -24.660000 
71572236749959 66.000000 121.979996 -24.660000 
71572256749959 66.000000 121.979996 -24.660000 
71572276749959 66.000000 121.979996 -24.660000 
71572296749959 66.000000 121.979996 -24.660000 
71572316749959 66.000000 121.979996 -24.660000 
71572336749959 66.000000 121.979996 -24.660000 
71572356749959 66.000000 121.979996 -24.660000 
71572376749959 66.000000 121.979996 -24.660000 
71572396749959 66.000000 121.979996 -24.660000 
71572416749959 66.000000 121.979996 -24.660000 
71572436749959 66.000000 121.979996 -24.660000 
71572456749959 66.000000 121.979996 -24.660000 
71572476749959 66.000000 121.979996 -24.660000 
71572496749959 66.000000 121.979996 -24.660000 
71572516749959 66.000000 121.979996 -24.660000 
71572536749959 66.000000 121.979996 -24.660000 
71572556749959 66.000000 121.979996 -24.660000 
71572576749959 66.000000 121.979996 -24.660000 
71572596749959 66.000000 121.979996 -24.660000 
71572616749959 66.000000 121.979996 -24.660000 
71572636749959 66.000000 121.979996 -24.660000 
71572656749959 66.000000 121.979996 -24.660000 
71572676749959 66.000000 121.979996 -24.660000 
71572696749959 66.000000 121.979996 -24.660000 
71572716749959 66.000000 121.979996 -24.660000 
71572736749959 66.000000 121.979996 -24.660000 
71572756749959 66.000000 121.979996 -24.660000 
71572776749959 66.000000 121.979996 -24.660000 
71572796749959 66.000000 121.979996 -24.660000 
71572816749959 66.000000 121.979996 -24.660000 
71572836749959 66.000000 121.979996 -24.660000 
71572856749959 66.000000 121.979996 -24.660000 
71572876749959 66.000000 121.979996 -24.660000 
71572896749959 66.000000 121.979996 -24.660000 
71572916749959 66.000000 121.979996 -24.660000 
71572936749959 66.000000 121.979996 -24.660000 
71572956749959 66.000000 121.979996 -24.660000 
71572976749959 66.000000 121.979996 -24.660000 
71572996749959 66.000000 121.979996 -24.660000 
71573016749959 66.000000 121.979996 -24.660000 
71573036749959 66.000000 121.979996 -24.660000 
71573056749959 66.000000 121.979996 -24.660000 
71573076749959 66.000000 121.979996 -24.660000 
71573096749959 66.000000 121.979996 -24.660000 
71573116749959 66.000000 121.979996 -24.660000 
71573136749959 66.000000 121.979996 -24.660000 
71573156749959 66.000000 121.979996 -24.660000 
71573176749959 66.000000 121.979996 -24.660000 
71573196749959 66.000000 121.979996 -24.660000 
71573216749959 66.000000 121.979996 -24.660000 
71573236749959 66.000000 121.979996 -24.660000 
71573256749959 66.000000 121.979996 -24.660000 
71573276749959 66.000000 121.979996 -24.660000 
71573296749959 66.000000 121.979996 -24.660000 
71573316749959 66.000000 121.979996 -24.660000 
71573336749959 66.000000 121.979996 -24.660000 
71573356749959 66.000000 121.979996 -24.660000 
71573376749959 66.000000 121.979996 -24.660000 
71573396749959 66.000000 121.979996 -24.660000 
71573416749959 66.000000 121.979996 -24.660000 
71573436749959 66.000000 121.979996 -24.660000 
71573456749959 66.000000 121.979996 -24.660000 
71573476749959 66.000000 121.979996 -24.660000 
71573496749959 66.000000 121.979996 -24.660000 
71573516749959 66.000000 121.979996 -24.660000 
71573536749959 66.000000 121.979996 -24.660000 
71573556749959 66.000000 121.979996 -24.660000 
71573576749959 66.000000 121.979996 -24.660000 
71573596749959 66.000000 121.979996 -24.660000 
71573616749959 66.000000 121.979996 -24.660000 
71573636749959 66.000000 121.979996 -24.660000 
71573656749959 66.000000 121.979996 -24.660000 
71573676749959 66.000000 121.979996 -24.660000 
71573696749959 66.000000 121.979996 -24.660000 
71573716749959 66.000000 121.979996 -24.660000 
71573736749959 66.000000 121.979996 -24.660000 
71573756749959 66.000000 121.979996 -24.660000 
71573776749959 66.000000 121.979996 -24.660000 
71573796749959 66.000000 121.979996 -24.660000 
71573816749959 66.000000 121.979996 -24.660000 
71573836749959 66.000000 121.979996 -24.660000 
71573856749959 66.000000 121.979996 -24.660000 
71573876749959 66.000000 121.979996 -24.660000 
71573896749959 66.000000 121.979996 -24.660000 
71573916749959 66.000000 121.979996 -24.660000 
71573936749959 66.000000 121.979996 -24.660000 
71573956749959 66.000000 121.979996 -24.660000 
71573976749959 66.000000 121.979996 -24.660000 
71573996749959 66.000000 121.979996 -24.660000 
71574016749959 66.000000 121.979996 -24.660000 
71574036749959 66.000000 121.979996 -24.660000 
71574056749959 66.000000 121.979996 -24.660000 
71574076749959 66.000000 121.979996 -24.660000 
71574096749959 66.000000 121.979996 -24.660000 
71574116749959 66.000000 121.979996 -24.660000 
71574136749959 66.000000 121.979996 -24.660000 
71574156749959 66.000000 121.979996 -24.660000 
71574176749959 66.000000 121.979996 -24.660000 
71574196749959 66.000000 121.979996 -24.660000 
71574216749959 66.000000 121.979996 -24.660000 
71574236749959 66.000000 121.979996 -24.660000 
71574256749959 66.000000 121.979996 -24.660000 
71574276749959 66.000000 121.979996 -24.660000 
71574296749959 66.000000 121.979996 -24.660000 
71574316749959 66.000000 121.979996 -24.660000 
71574336749959 66.000000 121.979996 -24.660000 
71574356749959 66.000000 121.979996 -24.660000 
71574376749959 66.000000 121.979996 -24.660000 
71574396749959 66.000000 121.979996 -24.660000 
71574416749959 66.000000 121.979996 -24.660000 
71574436749959 66.000000 121.979996 -24.660000 
71574456749959 66.000000 121.979996 -24.660000 
71574476749959 66.000000 121.979996 -24.660000 
71574496749959 66.000000 121.979996 -24.660000 
71574516749959 66.000000 121.979996 -24.660000 
71574536749959 66.000000 121.979996 -24.660000 
71574556749959 66.000000 121.979996 -24.660000 
71574576749959 66.000000 121.979996 -24.660000 
71574596749959 66.000000 121.979996 -24.660000 
71574616749959 66.000000 121.979996 -24.660000 
71574636749959 66.000000 121.979996 -24.660000 
71574656749959 66.000000 121.979996 -24.660000 
71574676749959 66.000000 121.979996 -24.660000 
71574696749959 66.000000 121.979996 -24.660000 
71574716749959 66.000000 121.979996 -24.660000 
71574736749959 66.000000 121.979996 -24.660000 
71574756749959 66.000000 121.979996 -24.660000 
71574776749959 66.000000 121.979996 -24.660000 
71574796749959 66.000000 121.979996 -24.660000 
71574816749959 66.000000 121.979996 -24.660000 
71574836749959 66.000000 121.979996 -24.660000 
71574856749959 66.000000 121.979996 -24.660000 
71574876749959 66.000000 121.979996 -24.660000 
71574896749959 66.000000 121.979996 -24.660000 
71574916749959 66.000000 121.979996 -24.660000 
71574936749959 66.000000 121.979996 -24.660000 
71574956749959 66.000000 121.979996 -24.660000 
71574976749959 66.000000 121.979996 -24.660000 
71574996749959 66.000000 121.979996 -24.660000 
71575016749959 66.000000 121.979996 -24.660000 
71575036749959 66.000000 121.979996 -24.660000 
71575056749959 66.000000 121.979996 -24.660000 
71575076749959 66.000000 121.979996 -24.660000 
71575096749959 66.000000 121.979996 -24.660000 
71575116749959 66.000000 121.979996 -24.660000 
71575136749959 66.000000 121.979996 -24.660000 
71575156749959 66.000000 121.979996 -24.660000 
71575176749959 66.000000 121.979996 -24.660000 
71575196749959 66.000000 121.979996 -24.660000 
71575216749959 66.000000 121.979996 -24.660000 
71575236749959 66.000000 121.979996 -24.660000 
71575256749959 66.000000 121.979996 -24.660000 
71575276749959 66.000000 121.979996 -24.660000 
71575296749959 66.000000 121.979996 -24.660000 
71575316749959 66.000000 121.979996 -24.660000 
71575336749959 66.000000 121.979996 -24.660000 
71575356749959 66.000000 121.979996 -24.660000 
71575376749959 66.000000 121.979996 -24.660000 
71575396749959 66.000000 121.979996 -24.660000 
71575416749959 66.000000 121.979996 -24.660000 
71575436749959 66.000000 121.979996 -24.660000 
71575456749959 66.000000 121.979996 -24.660000 
71575476749959 66.000000 121.979996 -24.660000 
71575496749959 66.000000 121.979996 -24.660000 
71575516749959 66.000000 121.979996 -24.660000 
71575536749959 66.000000 121.979996 -24.660000 
71575556749959 66.000000 121.979996 -24.660000 
71575576749959 66.000000 121.979996 -24.660000 
71575596749959 66.000000 121.979996 -24.660000 
71575616749959 66.000000 121.979996 -24.660000 
71575636749959 66.000000 121.979996 -24.660000 
71575656749959 66.000000 121.979996 -24.660000 
71575676749959 66.000000 121.979996 -24.660000 
71575696749959 66.000000 121.979996 -24.660000 
71575716749959 66.000000 121.979996 -24.660000 
71575736749959 66.000000 121.979996 -24.660000 
71575756749959 66.000000 121.979996 -24.660000 
71575776749959 66.000000 121.979996 -24.660000 
71575796749959 66.000000 121.979996 -24.660000 
71575816749959 66.000000 121.979996 -24.660000 
71575836749959 66.000000 121.979996 -24.660000 
71575856749959 66.000000 121.979996 -24.660000 
71575876749959 66.000000 121.979996 -24.660000 
71575896749959 66.000000 121.979996 -24.660000 
71575916749959 66.000000 121.979996 -24.660000 
71575936749959 66.000000 121.979996 -24.660000 
71575956749959 66.000000 121.979996 -24.660000 
71575976749959 66.000000 121.979996 -24.660000 
71575996749959 66.000000 121.979996 -24.660000 
71576016749959 66.000000 121.979996 -24.660000 
71576036749959 66.000000 121.979996 -24.660000 
71576056749959 66.000000 121.979996 -24.660000 
71576076749959 66.000000 121.979996 -24.660000 
71576096749959 66.000000 121.979996 -24.660000 
71576116749959 66.000000 121.979996 -24.660000 
71576136749959 66.000000 121.979996 -24.660000 
71576156749959 66.000000 121.979996 -24.660000 
71576176749959 66.000000 121.979996 -24.660000 
71576196749959 66.000000 121.979996 -24.660000 
71576216749959 66.000000 121.979996 -24.660000 
71576236749959 66.000000 121.979996 -24.660000 
71576256749959 66.000000 121.979996 -24.660000 
71576276749959 66.000000 121.979996 -24.660000 
71576296749959 66.000000 121.979996 -24.660000 
71576316749959 66.000000 121.979996 -24.660000 
71576336749959 66.000000 121.979996 -24.660000 
71576356749959 66.000000 121.979996 -24.660000 
71576376749959 66.000000 121.979996 -24.660000 
71576396749959 66.000000 121.979996 -24.660000 
71576416749959 66.000000 121.979996 -24.660000 
71576436749959 66.000000 121.979996 -24.660000 
71576456749959 66.000000 121.979996 -24.660000 
71576476749959 66.000000 121.979996 -24.660000 
71576496749959 66.000000 121.979996 -24.660000 
71576516749959 66.000000 121.979996 -24.660000 
71576536749959 66.000000 121.979996 -24.660000 
71576556749959 66.000000 121.979996 -24.660000 
71576576749959 66.000000 121.979996 -24.660000 
71576596749959 66.000000 121.979996 -24.660000 
71576616749959 66.000000 121.979996 -24.660000 
71576636749959 66.000000 121.979996 -24.660000 
71576656749959 66.000000 121.979996 -24.660000 
71576676749959 66.000000 121.979996 -24.660000 
71576696749959 66.000000 121.979996 -24.660000 
71576716749959 66.000000 121.979996 -24.660000 
71576736749959 66.000000 121.979996 -24.660000 
71576756749959 66.000000 121.979996 -24.660000 
71576776749959 66.000000 121.979996 -24.660000 
71576796749959 66.000000 121.979996 -24.660000 
71576816749959 66.000000 121.979996 -24.660000 
71576836749959 66.000000 121.979996 -24.660000 
71576856749959 66.000000 121.979996 -24.660000 
71576876749959 66.000000 121.979996 -24.660000 
71576896749959 66.000000 121.979996 -24.660000 
71576916749959 66.000000 121.979996 -24.660000 
71576936749959 66.000000 121.979996 -24.660000 
71576956749959 66.000000 121.979996 -24.660000 
71576976749959 66.000000 121.979996 -24.660000 
71576996749959 66.000000 121.979996 -24.660000 
71577016749959 66.000000 121.979996 -24.660000 
71577036749959 66.000000 121.979996 -24.660000 
71577056749959 66.000000 121.979996 -24.660000 
71577076749959 66.000000 121.979996 -24.660000 
71577096749959 66.000000 121.979996 -24.660000 
71577116749959 66.000000 121.979996 -24.660000 
71577136749959 66.000000 121.979996 -24.660000 
71577156749959 66.000000 121.979996 -24.660000 
71577176749959 66.000000 121.979996 -24.660000 
71577196749959 66.000000 121.979996 -24.660000 
71577216749959 66.000000 121.979996 -24.660000 
71577236749959 66.000000 121.979996 -24.660000 
71577256749959 66.000000 121.979996 -24.660000 
71577276749959 66.000000 121.979996 -24.660000 
71577296749959 66.000000 121.979996 -24.660000 
71577316749959 66.000000 121.979996 -24.660000 
71577336749959 66.000000 121.979996 -24.660000 
71577356749959 66.000000 121.979996 -24.660000 
71577376749959 66.000000 121.979996 -24.660000 
71577396749959 66.000000 121.979996 -24.660000 
71577416749959 66.000000 121.979996 -24.660000 
71577436749959 66.000000 121.979996 -24.660000 
71577456749959 66.000000 121.979996 -24.660000 
71577476749959 66.000000 121.979996 -24.660000 
71577496749959 66.000000 121.979996 -24.660000 
71577516749959 66.000000 121.979996 -24.660000 
71577536749959 66.000000 121.979996 -24.660000 
71577556749959 66.000000 121.979996 -24.660000 
71577576749959 66.000000 121.979996 -24.660000 
71577596749959 66.000000 121.979996 -24.660000 
71577616749959 66.000000 121.979996 -24.660000 
71577636749959 66.000000 121.979996 -24.660000 
71577656749959 66.000000 121.979996 -24.660000 
71577676749959 66.000000 121.979996 -24.660000 
71577696749959 66.000000 121.979996 -24.660000 
71577716749959 66.000000 121.979996 -24.660000 
71577736749959 66.000000 121.979996 -24.660000 
71577756749959 66.000000 121.979996 -24.660000 
71577776749959 66.000000 121.979996 -24.660000 
71577796749959 66.000000 121.979996 -24.660000 
71577816749959 66.000000 121.979996 -24.660000 
71577836749959 66.000000 121.979996 -24.660000 
71577856749959 66.000000 121.979996 -24.660000 
71577876749959 66.000000 121.979996 -24.660000 
71577896749959 66.000000 121.979996 -24.660000 
71577916749959 66.000000 121.979996 -24.660000 
71577936749959 66.000000 121.979996 -24.660000 
71577956749959 66.000000 121.979996 -24.660000 
71577976749959 66.000000 121.979996 -24.660000 
71577996749959 66.000000 121.979996 -24.660000 
71578016749959 66.000000 121.979996 -24.660000 
71578036749959 66.000000 121.979996 -24.660000 
71578056749959 66.000000 121.979996 -24.660000 
71578076749959 66.000000 121.979996 -24.660000 
71578096749959 66.000000 121.979996 -24.660000 
71578116749959 66.000000 121.979996 -24.660000 
71578136749959 66.000000 121.979996 -24.660000 
71578156749959 66.000000 121.979996 -24.660000 
71578176749959 66.000000 121.979996 -24.660000 
71578196749959 66.000000 121.979996 -24.660000 
71578216749959 66.000000 121.979996 -24.660000 
71578236749959 66.000000 121.979996 -24.660000 
71578256749959 66.000000 121.979996 -24.660000 
71578276749959 66.000000 121.979996 -24.660000 
71578296749959 66.000000 121.979996 -24.660000 
71578316749959 66.000000 121.979996 -24.660000 
71578336749959 66.000000 121.979996 -24.660000 
71578356749959 66.000000 121.979996 -24.660000 
71578376749959 66.000000 121.979996 -24.660000 
71578396749959 66.000000 121.979996 -24.660000 
71578416749959 66.000000 121.979996 -24.660000 
71578436749959 66.000000 121.979996 -24.660000 
71578456749959 66.000000 121.979996 -24.660000 
71578476749959 66.000000 121.979996 -24.660000 
71578496749959 66.000000 121.979996 -24.660000 
71578516749959 66.000000 121.979996 -24.660000 
71578536749959 66.000000 121.979996 -24.660000 
71578556749959 66.000000 121.979996 -24.660000 
71578576749959 66.000000 121.979996 -24.660000 
71578596749959 66.000000 121.979996 -24.660000 
71578616749959 66.000000 121.979996 -24.660000 
71578636749959 66.000000 121.979996 -24.660000 
71578656749959 66.000000 121.979996 -24.660000 
71578676749959 66.000000 121.979996 -24.660000 
71578696749959 66.000000 121.979996 -24.660000 
71578716749959 66.000000 121.979996 -24.660000 
71578736749959 66.000000 121.979996 -24.660000 
71578756749959 66.000000 121.979996 -24.660000 
71578776749959 66.000000 121.979996 -24.660000 
71578796749959 66.000000 121.979996 -24.660000 
71578816749959 66.000000 121.979996 -24.660000 
71578836749959 65.939995 121.799995 -24.299999 
71578856749959 65.939995 121.799995 -24.299999 
71578876749959 65.939995 121.799995 -24.299999 
71578896749959 65.939995 121.799995 -24.299999 
71578916749959 65.939995 121.799995 -24.299999 
71578936749959 65.939995 121.799995 -24.299999 
71578956749959 65.939995 121.799995 -24.299999 
71578976749959 65.939995 121.799995 -24.299999 
71578996749959 65.939995 121.799995 -24.299999 
71579016749959 65.939995 121.799995 -24.299999 
71579036749959 65.939995 121.799995 -24.299999 
71579056749959 65.939995 121.799995 -24.299999 
71579076749959 65.939995 121.799995 -24.299999 
71579096749959 65.939995 121.799995 -24.299999 
71579116749959 65.939995 121.799995 -24.299999 
71579136749959 65.939995 121.799995 -24.299999 
71579156749959 65.939995 121.799995 -24.299999 
71579176749959 65.939995 121.799995 -24.299999 
71579196749959 65.939995 121.799995 -24.299999 
71579216749959 65.939995 121.799995 -24.299999 
71579236749959 65.939995 121.799995 -24.299999 
71579256749959 65.939995 121.799995 -24.299999 
71579276749959 65.939995 121.799995 -24.299999 
71579296749959 65.939995 121.799995 -24.299999 
71579316749959 65.939995 121.799995 -24.299999 
71579336749959 65.939995 121.799995 -24.299999 
71579356749959 65.939995 121.799995 -24.299999 
71579376749959 65.939995 121.799995 -24.299999 
71579396749959 65.939995 121.799995 -24.299999 
71579416749959 65.939995 121.799995 -24.299999 
71579436749959 65.939995 121.799995 -24.299999 
71579456749959 65.939995 121.799995 -24.299999 
71579476749959 65.939995 121.799995 -24.299999 
71579496749959 65.939995 121.799995 -24.299999 
71579516749959 65.939995 121.799995 -24.299999 
71579536749959 65.939995 121.799995 -24.299999 
71579556749959 65.939995 121.799995 -24.299999 
71579576749959 65.939995 121.799995 -24.299999 
71579596749959 65.939995 121.799995 -24.299999 
71579616749959 65.939995 121.799995 -24.299999 
71579636749959 65.939995 121.799995 -24.299999 
71579656749959 65.939995 121.799995 -24.299999 
71579676749959 65.939995 121.799995 -24.299999 
71579696749959 65.939995 121.799995 -24.299999 
71579716749959 65.939995 121.799995 -24.299999 
71579736749959 65.939995 121.799995 -24.299999 
71579756749959 65.939995 121.799995 -24.299999 
71579776749959 65.939995 121.799995 -24.299999 
71579796749959 65.939995 121.799995 -24.299999 
71579816749959 65.939995 121.799995 -24.299999 
71579836749959 65.939995 121.799995 -24.299999 
71579856749959 65.939995 121.799995 -24.299999 
71579876749959 65.939995 121.799995 -24.299999 
71579896749959 65.939995 121.799995 -24.299999 
71579916749959 65.939995 121.799995 -24.299999 
71579936749959 65.939995 121.799995 -24.299999 
71579956749959 65.939995 121.799995 -24.299999 
71579976749959 65.939995 121.799995 -24.299999 
71579996749959 65.939995 121.799995 -24.299999 
71580016749959 65.939995 121.799995 -24.299999 
71580036749959 65.939995 121.799995 -24.299999 
71580056749959 65.939995 121.799995 -24.299999 
71580076749959 65.939995 121.799995 -24.299999 
71580096749959 65.939995 121.799995 -24.299999 
71580116749959 65.939995 121.799995 -24.299999 
71580136749959 65.939995 121.799995 -24.299999 
71580156749959 65.939995 121.799995 -24.299999 
71580176749959 65.939995 121.799995 -24.299999 
71580196749959 65.939995 121.799995 -24.299999 
71580216749959 65.939995 121.799995 -24.299999 
71580236749959 65.939995 121.799995 -24.299999 
71580256749959 65.939995 121.799995 -24.299999 
71580276749959 65.939995 121.799995 -24.299999 
71580296749959 65.939995 121.799995 -24.299999 
71580316749959 65.939995 121.799995 -24.299999 
71580336749959 65.939995 121.799995 -24.299999 
71580356749959 65.939995 121.799995 -24.299999 
71580376749959 65.939995 121.799995 -24.299999 
71580396749959 65.939995 121.799995 -24.299999 
71580416749959 65.939995 121.799995 -24.299999 
71580436749959 65.939995 121.799995 -24.299999 
71580456749959 65.939995 121.799995 -24.299999 
71580476749959 65.939995 121.799995 -24.299999 
71580496749959 65.939995 121.799995 -24.299999 
71580516749959 65.939995 121.799995 -24.299999 
71580536749959 65.939995 121.799995 -24.299999 
71580556749959 65.939995 121.799995 -24.299999 
71580576749959 65.939995 121.799995 -24.299999 
71580596749959 65.939995 121.799995 -24.299999 
71580616749959 65.939995 121.799995 -24.299999 
71580636749959 65.879997 121.559998 -24.059999 
71580656749959 65.879997 121.559998 -24.059999 
71580676749959 65.879997 121.559998 -24.059999 
71580696749959 65.879997 121.559998 -24.059999 
71580716749959 65.879997 121.559998 -24.059999 
71580736749959 65.879997 121.559998 -24.059999 
71580756749959 65.879997 121.559998 -24.059999 
71580776749959 65.879997 121.559998 -24.059999 
71580796749959 65.879997 121.559998 -24.059999 
71580816749959 65.879997 121.559998 -24.059999 
71580836749959 65.879997 121.559998 -24.059999 
71580856749959 65.879997 121.559998 -24.059999 
71580876749959 65.879997 121.559998 -24.059999 
71580896749959 65.879997 121.559998 -24.059999 
71580916749959 65.879997 121.559998 -24.059999 
71580936749959 65.879997 121.559998 -24.059999 
71580956749959 65.879997 121.559998 -24.059999 
71580976749959 65.879997 121.559998 -24.059999 
71580996749959 65.879997 121.559998 -24.059999 
71581016749959 65.879997 121.559998 -24.059999 
71581036749959 65.879997 121.559998 -24.059999 
71581056749959 65.879997 121.559998 -24.059999 
71581076749959 65.879997 121.559998 -24.059999 
71581096749959 65.879997 121.559998 -24.059999 
71581116749959 65.879997 121.559998 -24.059999 
71581136749959 65.879997 121.559998 -24.059999 
71581156749959 65.879997 121.559998 -24.059999 
71581176749959 65.879997 121.559998 -24.059999 
71581196749959 65.879997 121.559998 -24.059999 
71581216749959 65.879997 121.559998 -24.059999 
71581236749959 65.879997 121.559998 -24.059999 
71581256749959 65.879997 121.559998 -24.059999 
71581276749959 65.879997 121.559998 -24.059999 
71581296749959 65.879997 121.559998 -24.059999 
71581316749959 65.879997 121.559998 -24.059999 
71581336749959 65.879997 121.559998 -24.059999 
71581356749959 65.879997 121.559998 -24.059999 
71581376749959 65.879997 121.559998 -24.059999 
71581396749959 65.879997 121.559998 -24.059999 
71581416749959 65.879997 121.559998 -24.059999 
71581436749959 65.879997 121.559998 -24.059999 
71581456749959 65.879997 121.559998 -24.059999 
71581476749959 65.879997 121.559998 -24.059999 
71581496749959 65.879997 121.559998 -24.059999 
71581516749959 65.879997 121.559998 -24.059999 
71581536749959 65.879997 121.559998 -24.059999 
71581556749959 65.879997 121.559998 -24.059999 
71581576749959 65.879997 121.559998 -24.059999 
71581596749959 65.879997 121.559998 -24.059999 
71581616749959 65.879997 121.559998 -24.059999 
71581636749959 65.879997 121.559998 -24.059999 
71581656749959 65.879997 121.559998 -24.059999 
71581676749959 65.879997 121.559998 -24.059999 
71581696749959 65.879997 121.559998 -24.059999 
71581716749959 65.879997 121.559998 -24.059999 
71581736749959 65.879997 121.559998 -24.059999 
71581756749959 65.879997 121.559998 -24.059999 
71581776749959 65.879997 121.559998 -24.059999 
71581796749959 65.879997 121.559998 -24.059999 
71581816749959 65.879997 121.559998 -24.059999 
71581836749959 65.879997 121.559998 -24.059999 
71581856749959 65.879997 121.559998 -24.059999 
71581876749959 65.879997 121.559998 -24.059999 
71581896749959 65.879997 121.559998 -24.059999 
71581916749959 65.879997 121.559998 -24.059999 
71581936749959 65.879997 121.559998 -24.059999 
71581956749959 65.879997 121.559998 -24.059999 
71581976749959 65.879997 121.559998 -24.059999 
71581996749959 65.879997 121.559998 -24.059999 
71582016749959 65.879997 121.559998 -24.059999 
71582036749959 65.879997 121.559998 -24.059999 
71582056749959 65.879997 121.559998 -24.059999 
71582076749959 65.879997 121.559998 -24.059999 
71582096749959 65.879997 121.559998 -24.059999 
71582116749959 65.879997 121.559998 -24.059999 
71582136749959 65.879997 121.559998 -24.059999 
71582156749959 65.879997 121.559998 -24.059999 
71582176749959 65.879997 121.559998 -24.059999 
71582196749959 65.879997 121.559998 -24.059999 
71582216749959 65.879997 121.559998 -24.059999 
71582236749959 65.879997 121.559998 -24.059999 
71582256749959 65.879997 121.559998 -24.059999 
71582276749959 65.879997 121.559998 -24.059999 
71582296749959 65.879997 121.559998 -24.059999 
71582316749959 65.879997 121.559998 -24.059999 
71582336749959 65.879997 121.559998 -24.059999 
71582356749959 65.879997 121.559998 -24.059999 
71582376749959 65.879997 121.559998 -24.059999 
71582396749959 65.879997 121.559998 -24.059999 
71582416749959 65.879997 121.559998 -24.059999 
71582436749959 65.879997 121.559998 -24.059999 
71582456749959 65.879997 121.559998 -24.059999 
71582476749959 65.879997 121.559998 -24.059999 
71582496749959 65.879997 121.559998 -24.059999 
71582516749959 65.879997 121.559998 -24.059999 
71582536749959 65.879997 121.559998 -24.059999 
71582556749959 65.879997 121.559998 -24.059999 
71582576749959 65.879997 121.559998 -24.059999 
71582596749959 65.879997 121.559998 -24.059999 
71582616749959 65.879997 121.559998 -24.059999 
71582636749959 65.879997 121.559998 -24.059999 
71582656749959 65.879997 121.559998 -24.059999 
71582676749959 65.879997 121.559998 -24.059999 
71582696749959 65.879997 121.559998 -24.059999 
71582716749959 65.879997 121.559998 -24.059999 
71582736749959 65.879997 121.559998 -24.059999 
71582756749959 65.879997 121.559998 -24.059999 
71582776749959 65.879997 121.559998 -24.059999 
71582796749959 65.879997 121.559998 -24.059999 
71582816749959 65.879997 121.559998 -24.059999 
71582836749959 65.879997 121.559998 -24.059999 
71582856749959 65.879997 121.559998 -24.059999 
71582876749959 65.879997 121.559998 -24.059999 
71582896749959 65.879997 121.559998 -24.059999 
71582916749959 65.879997 121.559998 -24.059999 
71582936749959 65.879997 121.559998 -24.059999 
71582956749959 65.879997 121.559998 -24.059999 
71582976749959 65.879997 121.559998 -24.059999 
71582996749959 65.879997 121.559998 -24.059999 
71583016749959 65.879997 121.559998 -24.059999 
71583036749959 65.879997 121.559998 -24.059999 
71583056749959 65.879997 121.559998 -24.059999 
71583076749959 65.879997 121.559998 -24.059999 
71583096749959 65.879997 121.559998 -24.059999 
71583116749959 65.879997 121.559998 -24.059999 
71583136749959 65.879997 121.559998 -24.059999 
71583156749959 65.879997 121.559998 -24.059999 
71583176749959 65.879997 121.559998 -24.059999 
71583196749959 65.879997 121.559998 -24.059999 
71583216749959 65.879997 121.559998 -24.059999 
71583236749959 65.879997 121.559998 -24.059999 
71583256749959 65.879997 121.559998 -24.059999 
71583276749959 65.879997 121.559998 -24.059999 
71583296749959 65.879997 121.559998 -24.059999 
71583316749959 65.879997 121.559998 -24.059999 
71583336749959 65.879997 121.559998 -24.059999 
71583356749959 65.879997 121.559998 -24.059999 
71583376749959 65.879997 121.559998 -24.059999 
71583396749959 65.879997 121.559998 -24.059999 
71583416749959 65.879997 121.559998 -24.059999 
71583436749959 65.879997 121.559998 -24.059999 
71583456749959 65.879997 121.559998 -24.059999 
71583476749959 65.879997 121.559998 -24.059999 
71583496749959 65.879997 121.559998 -24.059999 
71583516749959 65.879997 121.559998 -24.059999 
71583536749959 65.879997 121.559998 -24.059999 
71583556749959 65.879997 121.559998 -24.059999 
71583576749959 65.879997 121.559998 -24.059999 
71583596749959 65.879997 121.559998 -24.059999 
71583616749959 65.879997 121.559998 -24.059999 
71583636749959 65.879997 121.559998 -24.059999 
71583656749959 65.879997 121.559998 -24.059999 
71583676749959 65.879997 121.559998 -24.059999 
71583696749959 65.879997 121.559998 -24.059999 
71583716749959 65.879997 121.559998 -24.059999 
71583736749959 65.879997 121.559998 -24.059999 
71583756749959 65.879997 121.559998 -24.059999 
71583776749959 65.879997 121.559998 -24.059999 
71583796749959 65.879997 121.559998 -24.059999 
71583816749959 65.879997 121.559998 -24.059999 
71583836749959 65.879997 121.559998 -24.059999 
71583856749959 65.879997 121.559998 -24.059999 
71583876749959 65.879997 121.559998 -24.059999 
71583896749959 65.879997 121.559998 -24.059999 
71583916749959 65.879997 121.559998 -24.059999 
71583936749959 65.879997 121.559998 -24.059999 
71583956749959 65.879997 121.559998 -24.059999 
71583976749959 65.879997 121.559998 -24.059999 
71583996749959 65.879997 121.559998 -24.059999 
71584016749959 65.879997 121.559998 -24.059999 
71584036749959 65.879997 121.559998 -24.059999 
71584056749959 65.879997 121.559998 -24.059999 
71584076749959 65.879997 121.559998 -24.059999 
71584096749959 65.879997 121.559998 -24.059999 
71584116749959 65.879997 121.559998 -24.059999 
71584136749959 65.879997 121.559998 -24.059999 
71584156749959 65.879997 121.559998 -24.059999 
71584176749959 65.879997 121.559998 -24.059999 
71584196749959 65.879997 121.559998 -24.059999 
71584216749959 65.879997 121.559998 -24.059999 
71584236749959 65.879997 121.559998 -24.059999 
71584256749959 65.879997 121.559998 -24.059999 
71584276749959 65.879997 121.559998 -24.059999 
71584296749959 65.879997 121.559998 -24.059999 
71584316749959 65.879997 121.559998 -24.059999 
71584336749959 65.879997 121.559998 -24.059999 
71584356749959 65.879997 121.559998 -24.059999 
71584376749959 65.879997 121.559998 -24.059999 
71584396749959 65.879997 121.559998 -24.059999 
71584416749959 65.879997 121.559998 -24.059999 
71584436749959 65.879997 121.559998 -24.059999 
71584456749959 65.879997 121.559998 -24.059999 
71584476749959 65.879997 121.559998 -24.059999 
71584496749959 65.879997 121.559998 -24.059999 
71584516749959 65.879997 121.559998 -24.059999 
71584536749959 65.879997 121.559998 -24.059999 
71584556749959 65.879997 121.559998 -24.059999 
71584576749959 65.879997 121.559998 -24.059999 
71584596749959 65.879997 121.559998 -24.059999 
71584616749959 65.879997 121.559998 -24.059999 
71584636749959 65.879997 121.559998 -24.059999 
71584656749959 65.879997 121.559998 -24.059999 
71584676749959 65.879997 121.559998 -24.059999 
71584696749959 65.879997 121.559998 -24.059999 
71584716749959 65.879997 121.559998 -24.059999 
71584736749959 65.879997 121.559998 -24.059999 
71584756749959 65.879997 121.559998 -24.059999 
71584776749959 65.879997 121.559998 -24.059999 
71584796749959 65.879997 121.559998 -24.059999 
71584816749959 65.879997 121.559998 -24.059999 
71584836749959 65.879997 121.559998 -24.059999 
71584856749959 65.879997 121.559998 -24.059999 
71584876749959 65.879997 121.559998 -24.059999 
71584896749959 65.879997 121.559998 -24.059999 
71584916749959 65.879997 121.559998 -24.059999 
71584936749959 65.879997 121.559998 -24.059999 
71584956749959 65.879997 121.559998 -24.059999 
71584976749959 65.879997 121.559998 -24.059999 
71584996749959 65.879997 121.559998 -24.059999 
71585016749959 65.879997 121.559998 -24.059999 
71585036749959 65.879997 121.559998 -24.059999 
71585056749959 65.879997 121.559998 -24.059999 
71585076749959 65.879997 121.559998 -24.059999 
71585096749959 65.879997 121.559998 -24.059999 
71585116749959 65.879997 121.559998 -24.059999 
71585136749959 65.879997 121.559998 -24.059999 
71585156749959 65.879997 121.559998 -24.059999 
71585176749959 65.879997 121.559998 -24.059999 
71585196749959 65.879997 121.559998 -24.059999 
71585216749959 65.879997 121.559998 -24.059999 
71585236749959 65.879997 121.559998 -24.059999 
71585256749959 65.879997 121.559998 -24.059999 
71585276749959 65.879997 121.559998 -24.059999 
71585296749959 65.879997 121.559998 -24.059999 
71585316749959 65.879997 121.559998 -24.059999 
71585336749959 65.879997 121.559998 -24.059999 
71585356749959 65.879997 121.559998 -24.059999 
71585376749959 65.879997 121.559998 -24.059999 
71585396749959 65.879997 121.559998 -24.059999 
71585416749959 65.879997 121.559998 -24.059999 
71585436749959 65.879997 121.559998 -24.059999 
71585456749959 65.879997 121.559998 -24.059999 
71585476749959 65.879997 121.559998 -24.059999 
71585496749959 65.879997 121.559998 -24.059999 
71585516749959 65.879997 121.559998 -24.059999 
71585536749959 65.879997 121.559998 -24.059999 
71585556749959 65.879997 121.559998 -24.059999 
71585576749959 65.879997 121.559998 -24.059999 
71585596749959 65.879997 121.559998 -24.059999 
71585616749959 65.879997 121.559998 -24.059999 
71585636749959 65.879997 121.559998 -24.059999 
71585656749959 65.879997 121.559998 -24.059999 
71585676749959 65.879997 121.559998 -24.059999 
71585696749959 65.879997 121.559998 -24.059999 
71585716749959 65.879997 121.559998 -24.059999 
71585736749959 65.879997 121.559998 -24.059999 
71585756749959 65.879997 121.559998 -24.059999 
71585776749959 65.879997 121.559998 -24.059999 
71585796749959 65.879997 121.559998 -24.059999 
71585816749959 65.879997 121.559998 -24.059999 
71585836749959 65.879997 121.559998 -24.059999 
71585856749959 65.879997 121.559998 -24.059999 
71585876749959 65.879997 121.559998 -24.059999 
71585896749959 65.879997 121.559998 -24.059999 
71585916749959 65.879997 121.559998 -24.059999 
71585936749959 65.879997 121.559998 -24.059999 
71585956749959 65.879997 121.559998 -24.059999 
71585976749959 65.879997 121.559998 -24.059999 
71585996749959 65.879997 121.559998 -24.059999 
71586016749959 65.879997 121.559998 -24.059999 
71586036749959 65.879997 121.559998 -24.059999 
71586056749959 65.879997 121.559998 -24.059999 
71586076749959 65.879997 121.559998 -24.059999 
71586096749959 65.879997 121.559998 -24.059999 
71586116749959 65.879997 121.559998 -24.059999 
71586136749959 65.879997 121.559998 -24.059999 
71586156749959 65.879997 121.559998 -24.059999 
71586176749959 65.879997 121.559998 -24.059999 
71586196749959 65.879997 121.559998 -24.059999 
71586216749959 65.879997 121.559998 -24.059999 
71586236749959 65.879997 121.559998 -24.059999 
71586256749959 65.879997 121.559998 -24.059999 
71586276749959 65.879997 121.559998 -24.059999 
71586296749959 65.879997 121.559998 -24.059999 
71586316749959 65.879997 121.559998 -24.059999 
71586336749959 65.879997 121.559998 -24.059999 
71586356749959 65.879997 121.559998 -24.059999 
71586376749959 65.879997 121.559998 -24.059999 
71586396749959 65.879997 121.559998 -24.059999 
71586416749959 65.879997 121.559998 -24.059999 
71586436749959 65.879997 121.559998 -24.059999 
71586456749959 65.879997 121.559998 -24.059999 
71586476749959 65.879997 121.559998 -24.059999 
71586496749959 65.879997 121.559998 -24.059999 
71586516749959 65.879997 121.559998 -24.059999 
71586536749959 65.879997 121.559998 -24.059999 
71586556749959 65.879997 121.559998 -24.059999 
71586576749959 65.879997 121.559998 -24.059999 
71586596749959 65.879997 121.559998 -24.059999 
71586616749959 65.879997 121.559998 -24.059999 
71586636749959 65.879997 121.559998 -24.059999 
71586656749959 65.879997 121.559998 -24.059999 
71586676749959 65.879997 121.559998 -24.059999 
71586696749959 65.879997 121.559998 -24.059999 
71586716749959 65.879997 121.559998 -24.059999 
71586736749959 65.879997 121.559998 -24.059999 
71586756749959 65.879997 121.559998 -24.059999 
71586776749959 65.879997 121.559998 -24.059999 
71586796749959 65.879997 121.559998 -24.059999 
71586816749959 65.879997 121.559998 -24.059999 
71586836749959 65.879997 121.559998 -24.059999 
71586856749959 65.879997 121.559998 -24.059999 
71586876749959 65.879997 121.559998 -24.059999 
71586896749959 65.879997 121.559998 -24.059999 
71586916749959 65.879997 121.559998 -24.059999 
71586936749959 65.879997 121.559998 -24.059999 
71586956749959 65.879997 121.559998 -24.059999 
71586976749959 65.879997 121.559998 -24.059999 
71586996749959 65.879997 121.559998 -24.059999 
71587016749959 65.879997 121.559998 -24.059999 
71587036749959 65.879997 121.559998 -24.059999 
71587056749959 65.879997 121.559998 -24.059999 
71587076749959 65.879997 121.559998 -24.059999 
71587096749959 65.879997 121.559998 -24.059999 
71587116749959 65.879997 121.559998 -24.059999 
71587136749959 65.879997 121.559998 -24.059999 
71587156749959 65.879997 121.559998 -24.059999 
71587176749959 65.879997 121.559998 -24.059999 
71587196749959 65.879997 121.559998 -24.059999 
71587216749959 65.879997 121.559998 -24.059999 
71587236749959 65.879997 121.559998 -24.059999 
71587256749959 65.879997 121.559998 -24.059999 
71587276749959 65.879997 121.559998 -24.059999 
71587296749959 65.879997 121.559998 -24.059999 
71587316749959 65.879997 121.559998 -24.059999 
71587336749959 65.879997 121.559998 -24.059999 
71587356749959 65.879997 121.559998 -24.059999 
71587376749959 65.879997 121.559998 -24.059999 
71587396749959 65.879997 121.559998 -24.059999 
71587416749959 65.879997 121.559998 -24.059999 
71587436749959 65.879997 121.559998 -24.059999 
71587456749959 65.879997 121.559998 -24.059999 
71587476749959 65.879997 121.559998 -24.059999 
71587496749959 65.879997 121.559998 -24.059999 
71587516749959 65.879997 121.559998 -24.059999 
71587536749959 65.879997 121.559998 -24.059999 
71587556749959 65.879997 121.559998 -24.059999 
71587576749959 65.879997 121.559998 -24.059999 
71587596749959 65.879997 121.559998 -24.059999 
71587616749959 65.879997 121.559998 -24.059999 
71587636749959 65.879997 121.559998 -24.059999 
71587656749959 65.879997 121.559998 -24.059999 
71587676749959 65.879997 121.559998 -24.059999 
71587696749959 65.879997 121.559998 -24.059999 
71587716749959 65.879997 121.559998 -24.059999 
71587736749959 65.879997 121.559998 -24.059999 
71587756749959 65.879997 121.559998 -24.059999 
71587776749959 65.879997 121.559998 -24.059999 
71587796749959 65.879997 121.559998 -24.059999 
71587816749959 65.879997 121.559998 -24.059999 
71587836749959 65.879997 121.559998 -24.059999 
71587856749959 65.879997 121.559998 -24.059999 
71587876749959 65.879997 121.559998 -24.059999 
71587896749959 65.879997 121.559998 -24.059999 
71587916749959 65.879997 121.559998 -24.059999 
71587936749959 65.879997 121.559998 -24.059999 
71587956749959 65.879997 121.559998 -24.059999 
71587976749959 65.879997 121.559998 -24.059999 
71587996749959 65.879997 121.559998 -24.059999 
71588016749959 65.879997 121.559998 -24.059999 
71588036749959 65.879997 121.559998 -24.059999 
71588056749959 65.879997 121.559998 -24.059999 
71588076749959 65.879997 121.559998 -24.059999 
71588096749959 65.879997 121.559998 -24.059999 
71588116749959 65.879997 121.559998 -24.059999 
71588136749959 65.879997 121.559998 -24.059999 
71588156749959 65.879997 121.559998 -24.059999 
71588176749959 65.879997 121.559998 -24.059999 
71588196749959 65.879997 121.559998 -24.059999 
71588216749959 65.879997 121.559998 -24.059999 
71588236749959 65.879997 121.559998 -24.059999 
71588256749959 65.879997 121.559998 -24.059999 
71588276749959 65.879997 121.559998 -24.059999 
71588296749959 65.879997 121.559998 -24.059999 
71588316749959 65.879997 121.559998 -24.059999 
71588336749959 65.879997 121.559998 -24.059999 
71588356749959 65.879997 121.559998 -24.059999 
71588376749959 65.879997 121.559998 -24.059999 
71588396749959 65.879997 121.559998 -24.059999 
71588416749959 65.879997 121.559998 -24.059999 
71588436749959 65.879997 121.559998 -24.059999 
71588456749959 65.879997 121.559998 -24.059999 
71588476749959 65.879997 121.559998 -24.059999 
71588496749959 65.879997 121.559998 -24.059999 
71588516749959 65.879997 121.559998 -24.059999 
71588536749959 65.879997 121.559998 -24.059999 
71588556749959 65.879997 121.559998 -24.059999 
71588576749959 65.879997 121.559998 -24.059999 
71588596749959 65.879997 121.559998 -24.059999 
71588616749959 65.879997 121.559998 -24.059999 
71588636749959 65.879997 121.559998 -24.059999 
71588656749959 65.879997 121.559998 -24.059999 
71588676749959 65.879997 121.559998 -24.059999 
71588696749959 65.879997 121.559998 -24.059999 
71588716749959 65.879997 121.559998 -24.059999 
71588736749959 65.879997 121.559998 -24.059999 
71588756749959 65.879997 121.559998 -24.059999 
71588776749959 65.879997 121.559998 -24.059999 
71588796749959 65.879997 121.559998 -24.059999 
71588816749959 65.879997 121.559998 -24.059999 
71588836749959 65.879997 121.559998 -24.059999 
71588856749959 65.879997 121.559998 -24.059999 
71588876749959 65.879997 121.559998 -24.059999 
71588896749959 65.879997 121.559998 -24.059999 
71588916749959 65.879997 121.559998 -24.059999 
71588936749959 65.879997 121.559998 -24.059999 
71588956749959 65.879997 121.559998 -24.059999 
71588976749959 65.879997 121.559998 -24.059999 
71588996749959 65.879997 121.559998 -24.059999 
71589016749959 65.879997 121.559998 -24.059999 
71589036749959 65.879997 121.559998 -24.059999 
71589056749959 65.879997 121.559998 -24.059999 
71589076749959 65.879997 121.559998 -24.059999 
71589096749959 65.879997 121.559998 -24.059999 
71589116749959 65.879997 121.559998 -24.059999 
71589136749959 65.879997 121.559998 -24.059999 
71589156749959 65.879997 121.559998 -24.059999 
71589176749959 65.879997 121.559998 -24.059999 
71589196749959 65.879997 121.559998 -24.059999 
71589216749959 65.879997 121.559998 -24.059999 
71589236749959 65.879997 121.559998 -24.059999 
71589256749959 65.879997 121.559998 -24.059999 
71589276749959 65.879997 121.559998 -24.059999 
71589296749959 65.879997 121.559998 -24.059999 
71589316749959 65.879997 121.559998 -24.059999 
71589336749959 65.879997 121.559998 -24.059999 
71589356749959 65.879997 121.559998 -24.059999 
71589376749959 65.879997 121.559998 -24.059999 
71589396749959 65.879997 121.559998 -24.059999 
71589416749959 65.879997 121.559998 -24.059999 
71589436749959 65.879997 121.559998 -24.059999 
71589456749959 65.879997 121.559998 -24.059999 
71589476749959 65.879997 121.559998 -24.059999 
71589496749959 65.879997 121.559998 -24.059999 
71589516749959 65.879997 121.559998 -24.059999 
71589536749959 65.879997 121.559998 -24.059999 
71589556749959 65.879997 121.559998 -24.059999 
71589576749959 65.879997 121.559998 -24.059999 
71589596749959 65.879997 121.559998 -24.059999 
71589616749959 65.879997 121.559998 -24.059999 
71589636749959 65.879997 121.559998 -24.059999 
71589656749959 65.879997 121.559998 -24.059999 
71589676749959 65.879997 121.559998 -24.059999 
71589696749959 65.879997 121.559998 -24.059999 
71589716749959 65.879997 121.559998 -24.059999 
71589736749959 65.879997 121.559998 -24.059999 
71589756749959 65.879997 121.559998 -24.059999 
71589776749959 65.879997 121.559998 -24.059999 
71589796749959 65.879997 121.559998 -24.059999 
71589816749959 65.879997 121.559998 -24.059999 
71589836749959 65.879997 121.559998 -24.059999 
71589856749959 65.879997 121.559998 -24.059999 
71589876749959 65.879997 121.559998 -24.059999 
71589896749959 65.879997 121.559998 -24.059999 
71589916749959 65.879997 121.559998 -24.059999 
71589936749959 65.879997 121.559998 -24.059999 
71589956749959 65.879997 121.559998 -24.059999 
71589976749959 65.879997 121.559998 -24.059999 
71589996749959 65.879997 121.559998 -24.059999 
71590016749959 65.879997 121.559998 -24.059999 
71590036749959 65.879997 121.559998 -24.059999 
71590056749959 65.879997 121.559998 -24.059999 
71590076749959 65.879997 121.559998 -24.059999 
71590096749959 65.879997 121.559998 -24.059999 
71590116749959 65.879997 121.559998 -24.059999 
71590136749959 65.879997 121.559998 -24.059999 
71590156749959 65.879997 121.559998 -24.059999 
71590176749959 65.879997 121.559998 -24.059999 
71590196749959 65.879997 121.559998 -24.059999 
71590216749959 65.879997 121.559998 -24.059999 
71590236749959 65.879997 121.559998 -24.059999 
71590256749959 65.879997 121.559998 -24.059999 
71590276749959 65.879997 121.559998 -24.059999 
71590296749959 65.879997 121.559998 -24.059999 
71590316749959 65.879997 121.559998 -24.059999 
71590336749959 65.879997 121.559998 -24.059999 
71590356749959 65.879997 121.559998 -24.059999 
71590376749959 65.879997 121.559998 -24.059999 
71590396749959 65.879997 121.559998 -24.059999 
71590416749959 65.879997 121.559998 -24.059999 
71590436749959 65.879997 121.559998 -24.059999 
71590456749959 65.879997 121.559998 -24.059999 
71590476749959 65.879997 121.559998 -24.059999 
71590496749959 65.879997 121.559998 -24.059999 
71590516749959 65.879997 121.559998 -24.059999 
71590536749959 65.879997 121.559998 -24.059999 
71590556749959 65.879997 121.559998 -24.059999 
71590576749959 65.879997 121.559998 -24.059999 
71590596749959 65.879997 121.559998 -24.059999 
71590616749959 65.879997 121.559998 -24.059999 
71590636749959 65.879997 121.559998 -24.059999 
71590656749959 65.879997 121.559998 -24.059999 
71590676749959 65.879997 121.559998 -24.059999 
71590696749959 65.879997 121.559998 -24.059999 
71590716749959 65.879997 121.559998 -24.059999 
71590736749959 65.879997 121.559998 -24.059999 
71590756749959 65.879997 121.559998 -24.059999 
71590776749959 65.879997 121.559998 -24.059999 
71590796749959 65.879997 121.559998 -24.059999 
71590816749959 65.879997 121.559998 -24.059999 
71590836749959 65.879997 121.559998 -24.059999 
71590856749959 65.879997 121.559998 -24.059999 
71590876749959 65.879997 121.559998 -24.059999 
71590896749959 65.879997 121.559998 -24.059999 
71590916749959 65.879997 121.559998 -24.059999 
71590936749959 65.879997 121.559998 -24.059999 
71590956749959 65.879997 121.559998 -24.059999 
71590976749959 65.879997 121.559998 -24.059999 
71590996749959 65.879997 121.559998 -24.059999 
71591016749959 65.879997 121.559998 -24.059999 
71591036749959 65.879997 121.559998 -24.059999 
71591056749959 65.879997 121.559998 -24.059999 
71591076749959 65.879997 121.559998 -24.059999 
71591096749959 65.879997 121.559998 -24.059999 
71591116749959 65.879997 121.559998 -24.059999 
71591136749959 65.879997 121.559998 -24.059999 
71591156749959 65.879997 121.559998 -24.059999 
71591176749959 65.879997 121.559998 -24.059999 
71591196749959 65.879997 121.559998 -24.059999 
71591216749959 65.879997 121.559998 -24.059999 
71591236749959 65.879997 121.559998 -24.059999 
71591256749959 65.879997 121.559998 -24.059999 
71591276749959 65.879997 121.559998 -24.059999 
71591296749959 65.879997 121.559998 -24.059999 
71591316749959 65.879997 121.559998 -24.059999 
71591336749959 65.879997 121.559998 -24.059999 
71591356749959 65.879997 121.559998 -24.059999 
71591376749959 65.879997 121.559998 -24.059999 
71591396749959 65.879997 121.559998 -24.059999 
71591416749959 65.879997 121.559998 -24.059999 
71591436749959 65.879997 121.559998 -24.059999 
71591456749959 65.879997 121.559998 -24.059999 
71591476749959 65.879997 121.559998 -24.059999 
71591496749959 65.879997 121.559998 -24.059999 
71591516749959 65.879997 121.559998 -24.059999 
71591536749959 65.879997 121.559998 -24.059999 
71591556749959 65.879997 121.559998 -24.059999 
71591576749959 65.879997 121.559998 -24.059999 
71591596749959 65.879997 121.559998 -24.059999 
71591616749959 65.879997 121.559998 -24.059999 
71591636749959 65.879997 121.559998 -24.059999 
71591656749959 65.879997 121.559998 -24.059999 
71591676749959 65.879997 121.559998 -24.059999 
71591696749959 65.879997 121.559998 -24.059999 
71591716749959 65.879997 121.559998 -24.059999 
71591736749959 65.879997 121.559998 -24.059999 
71591756749959 65.879997 121.559998 -24.059999 
71591776749959 65.879997 121.559998 -24.059999 
71591796749959 65.879997 121.559998 -24.059999 
71591816749959 65.879997 121.559998 -24.059999 
71591836749959 65.879997 121.559998 -24.059999 
71591856749959 65.879997 121.559998 -24.059999 
71591876749959 65.879997 121.559998 -24.059999 
71591896749959 65.879997 121.559998 -24.059999 
71591916749959 65.879997 121.559998 -24.059999 
71591936749959 65.879997 121.559998 -24.059999 
71591956749959 65.879997 121.559998 -24.059999 
71591976749959 65.879997 121.559998 -24.059999 
71591996749959 65.879997 121.559998 -24.059999 
71592016749959 65.879997 121.559998 -24.059999 
71592036749959 65.879997 121.559998 -24.059999 
71592056749959 65.879997 121.559998 -24.059999 
71592076749959 65.879997 121.559998 -24.059999 
71592096749959 65.879997 121.559998 -24.059999 
71592116749959 65.879997 121.559998 -24.059999 
71592136749959 65.879997 121.559998 -24.059999 
71592156749959 65.879997 121.559998 -24.059999 
71592176749959 65.879997 121.559998 -24.059999 
71592196749959 65.879997 121.559998 -24.059999 
71592216749959 65.879997 121.559998 -24.059999 
71592236749959 65.879997 121.559998 -24.059999 
71592256749959 65.879997 121.559998 -24.059999 
71592276749959 65.879997 121.559998 -24.059999 
71592296749959 65.879997 121.559998 -24.059999 
71592316749959 65.879997 121.559998 -24.059999 
71592336749959 65.879997 121.559998 -24.059999 
71592356749959 65.879997 121.559998 -24.059999 
71592376749959 65.879997 121.559998 -24.059999 
71592396749959 65.879997 121.559998 -24.059999 
71592416749959 65.879997 121.559998 -24.059999 
71592436749959 65.879997 121.559998 -24.059999 
71592456749959 65.879997 121.559998 -24.059999 
71592476749959 65.879997 121.559998 -24.059999 
71592496749959 65.879997 121.559998 -24.059999 
71592516749959 65.879997 121.559998 -24.059999 
71592536749959 65.879997 121.559998 -24.059999 
71592556749959 65.879997 121.559998 -24.059999 
71592576749959 65.879997 121.559998 -24.059999 
71592596749959 65.879997 121.559998 -24.059999 
71592616749959 65.879997 121.559998 -24.059999 
71592636749959 65.879997 121.559998 -24.059999 
71592656749959 65.879997 121.559998 -24.059999 
71592676749959 65.879997 121.559998 -24.059999 
71592696749959 65.879997 121.559998 -24.059999 
71592716749959 65.879997 121.559998 -24.059999 
71592736749959 65.879997 121.559998 -24.059999 
71592756749959 65.879997 121.559998 -24.059999 
71592776749959 65.879997 121.559998 -24.059999 
71592796749959 65.879997 121.559998 -24.059999 
71592816749959 65.879997 121.559998 -24.059999 
71592836749959 65.879997 121.559998 -24.059999 
71592856749959 65.879997 121.559998 -24.059999 
71592876749959 65.879997 121.559998 -24.059999 
71592896749959 65.879997 121.559998 -24.059999 
71592916749959 65.879997 121.559998 -24.059999 
71592936749959 65.879997 121.559998 -24.059999 
71592956749959 65.879997 121.559998 -24.059999 
71592976749959 65.879997 121.559998 -24.059999 
71592996749959 65.879997 121.559998 -24.059999 
71593016749959 65.879997 121.559998 -24.059999 
71593036749959 65.879997 121.559998 -24.059999 
71593056749959 65.879997 121.559998 -24.059999 
71593076749959 65.879997 121.559998 -24.059999 
71593096749959 65.879997 121.559998 -24.059999 
71593116749959 65.879997 121.559998 -24.059999 
71593136749959 65.879997 121.559998 -24.059999 
71593156749959 65.879997 121.559998 -24.059999 
71593176749959 65.879997 121.559998 -24.059999 
71593196749959 65.879997 121.559998 -24.059999 
71593216749959 65.879997 121.559998 -24.059999 
71593236749959 65.879997 121.559998 -24.059999 
71593256749959 65.879997 121.559998 -24.059999 
71593276749959 65.879997 121.559998 -24.059999 
71593296749959 65.879997 121.559998 -24.059999 
71593316749959 65.879997 121.559998 -24.059999 
71593336749959 65.879997 121.559998 -24.059999 
71593356749959 65.879997 121.559998 -24.059999 
71593376749959 65.879997 121.559998 -24.059999 
71593396749959 65.879997 121.559998 -24.059999 
71593416749959 65.879997 121.559998 -24.059999 
71593436749959 65.879997 121.559998 -24.059999 
71593456749959 65.879997 121.559998 -24.059999 
71593476749959 65.879997 121.559998 -24.059999 
71593496749959 65.879997 121.559998 -24.059999 
71593516749959 65.879997 121.559998 -24.059999 
71593536749959 65.879997 121.559998 -24.059999 
71593556749959 65.879997 121.559998 -24.059999 
71593576749959 65.879997 121.559998 -24.059999 
71593596749959 65.879997 121.559998 -24.059999 
71593616749959 65.879997 121.559998 -24.059999 
71593636749959 65.879997 121.559998 -24.059999 
71593656749959 65.879997 121.559998 -24.059999 
71593676749959 65.879997 121.559998 -24.059999 
71593696749959 65.879997 121.559998 -24.059999 
71593716749959 65.879997 121.559998 -24.059999 
71593736749959 65.879997 121.559998 -24.059999 
71593756749959 65.879997 121.559998 -24.059999 
71593776749959 65.879997 121.559998 -24.059999 
71593796749959 65.879997 121.559998 -24.059999 
71593816749959 65.879997 121.559998 -24.059999 
71593836749959 65.879997 121.559998 -24.059999 
71593856749959 65.879997 121.559998 -24.059999 
71593876749959 65.879997 121.559998 -24.059999 
71593896749959 65.879997 121.559998 -24.059999 
71593916749959 65.879997 121.559998 -24.059999 
71593936749959 65.879997 121.559998 -24.059999 
71593956749959 65.879997 121.559998 -24.059999 
71593976749959 65.879997 121.559998 -24.059999 
71593996749959 65.879997 121.559998 -24.059999 
71594016749959 65.879997 121.559998 -24.059999 
71594036749959 65.879997 121.559998 -24.059999 
71594056749959 65.879997 121.559998 -24.059999 
71594076749959 65.879997 121.559998 -24.059999 
71594096749959 65.879997 121.559998 -24.059999 
71594116749959 65.879997 121.559998 -24.059999 
71594136749959 65.879997 121.559998 -24.059999 
71594156749959 65.879997 121.559998 -24.059999 
71594176749959 65.879997 121.559998 -24.059999 
71594196749959 65.879997 121.559998 -24.059999 
71594216749959 65.879997 121.559998 -24.059999 
71594236749959 65.879997 121.559998 -24.059999 
71594256749959 65.879997 121.559998 -24.059999 
71594276749959 65.879997 121.559998 -24.059999 
71594296749959 65.879997 121.559998 -24.059999 
71594316749959 65.879997 121.559998 -24.059999 
71594336749959 65.879997 121.559998 -24.059999 
71594356749959 65.879997 121.559998 -24.059999 
71594376749959 65.879997 121.559998 -24.059999 
71594396749959 65.879997 121.559998 -24.059999 
71594416749959 65.879997 121.559998 -24.059999 
71594436749959 65.879997 121.559998 -24.059999 
71594456749959 65.879997 121.559998 -24.059999 
71594476749959 65.879997 121.559998 -24.059999 
71594496749959 65.879997 121.559998 -24.059999 
71594516749959 65.879997 121.559998 -24.059999 
71594536749959 65.879997 121.559998 -24.059999 
71594556749959 65.879997 121.559998 -24.059999 
71594576749959 65.879997 121.559998 -24.059999 
71594596749959 65.879997 121.559998 -24.059999 
71594616749959 65.879997 121.559998 -24.059999 
71594636749959 65.879997 121.559998 -24.059999 
71594656749959 65.879997 121.559998 -24.059999 
71594676749959 65.879997 121.559998 -24.059999 
71594696749959 65.879997 121.559998 -24.059999 
71594716749959 65.879997 121.559998 -24.059999 
71594736749959 65.879997 121.559998 -24.059999 
71594756749959 65.879997 121.559998 -24.059999 
71594776749959 65.879997 121.559998 -24.059999 
71594796749959 65.879997 121.559998 -24.059999 
71594816749959 65.879997 121.559998 -24.059999 
71594836749959 65.879997 121.559998 -24.059999 
71594856749959 65.879997 121.559998 -24.059999 
71594876749959 65.879997 121.559998 -24.059999 
71594896749959 65.879997 121.559998 -24.059999 
71594916749959 65.879997 121.559998 -24.059999 
71594936749959 65.879997 121.559998 -24.059999 
71594956749959 65.879997 121.559998 -24.059999 
71594976749959 65.879997 121.559998 -24.059999 
71594996749959 65.879997 121.559998 -24.059999 
71595016749959 65.879997 121.559998 -24.059999 
71595036749959 65.879997 121.559998 -24.059999 
71595056749959 65.879997 121.559998 -24.059999 
71595076749959 65.879997 121.559998 -24.059999 
71595096749959 65.879997 121.559998 -24.059999 
71595116749959 65.879997 121.559998 -24.059999 
71595136749959 65.879997 121.559998 -24.059999 
71595156749959 65.879997 121.559998 -24.059999 
71595176749959 65.879997 121.559998 -24.059999 
71595196749959 65.879997 121.559998 -24.059999 
71595216749959 65.879997 121.559998 -24.059999 
71595236749959 65.879997 121.559998 -24.059999 
71595256749959 65.879997 121.559998 -24.059999 
71595276749959 65.879997 121.559998 -24.059999 
71595296749959 65.879997 121.559998 -24.059999 
71595316749959 65.879997 121.559998 -24.059999 
71595336749959 65.879997 121.559998 -24.059999 
71595356749959 65.879997 121.559998 -24.059999 
71595376749959 65.879997 121.559998 -24.059999 
71595396749959 65.879997 121.559998 -24.059999 
71595416749959 65.879997 121.559998 -24.059999 
71595436749959 65.879997 121.559998 -24.059999 
71595456749959 65.879997 121.559998 -24.059999 
71595476749959 65.879997 121.559998 -24.059999 
71595496749959 65.879997 121.559998 -24.059999 
71595516749959 65.879997 121.559998 -24.059999 
71595536749959 65.879997 121.559998 -24.059999 
71595556749959 65.879997 121.559998 -24.059999 
71595576749959 65.879997 121.559998 -24.059999 
71595596749959 65.879997 121.559998 -24.059999 
71595616749959 65.879997 121.559998 -24.059999 
71595636749959 65.879997 121.559998 -24.059999 
71595656749959 65.879997 121.559998 -24.059999 
71595676749959 65.879997 121.559998 -24.059999 
71595696749959 65.879997 121.559998 -24.059999 
71595716749959 65.879997 121.559998 -24.059999 
71595736749959 65.879997 121.559998 -24.059999 
71595756749959 65.879997 121.559998 -24.059999 
71595776749959 65.879997 121.559998 -24.059999 
71595796749959 65.879997 121.559998 -24.059999 
71595816749959 65.879997 121.559998 -24.059999 
71595836749959 65.879997 121.559998 -24.059999 
71595856749959 65.879997 121.559998 -24.059999 
71595876749959 65.879997 121.559998 -24.059999 
71595896749959 65.879997 121.559998 -24.059999 
71595916749959 65.879997 121.559998 -24.059999 
71595936749959 65.879997 121.559998 -24.059999 
71595956749959 65.879997 121.559998 -24.059999 
71595976749959 65.879997 121.559998 -24.059999 
71595996749959 65.879997 121.559998 -24.059999 
71596016749959 65.879997 121.559998 -24.059999 
71596036749959 65.879997 121.559998 -24.059999 
71596056749959 65.879997 121.559998 -24.059999 
71596076749959 65.879997 121.559998 -24.059999 
71596096749959 65.879997 121.559998 -24.059999 
71596116749959 65.879997 121.559998 -24.059999 
71596136749959 65.879997 121.559998 -24.059999 
71596156749959 65.879997 121.559998 -24.059999 
71596176749959 65.879997 121.559998 -24.059999 
71596196749959 65.879997 121.559998 -24.059999 
71596216749959 65.879997 121.559998 -24.059999 
71596236749959 65.879997 121.559998 -24.059999 
71596256749959 65.879997 121.559998 -24.059999 
71596276749959 65.879997 121.559998 -24.059999 
71596296749959 65.879997 121.559998 -24.059999 
71596316749959 65.879997 121.559998 -24.059999 
71596336749959 65.879997 121.559998 -24.059999 
71596356749959 65.879997 121.559998 -24.059999 
71596376749959 65.879997 121.559998 -24.059999 
71596396749959 65.879997 121.559998 -24.059999 
71596416749959 65.879997 121.559998 -24.059999 
71596436749959 65.879997 121.559998 -24.059999 
71596456749959 65.879997 121.559998 -24.059999 
71596476749959 65.879997 121.559998 -24.059999 
71596496749959 65.879997 121.559998 -24.059999 
71596516749959 65.879997 121.559998 -24.059999 
71596536749959 65.879997 121.559998 -24.059999 
71596556749959 65.879997 121.559998 -24.059999 
71596576749959 65.879997 121.559998 -24.059999 
71596596749959 65.879997 121.559998 -24.059999 
71596616749959 65.879997 121.559998 -24.059999 
71596636749959 65.879997 121.559998 -24.059999 
71596656749959 65.879997 121.559998 -24.059999 
71596676749959 65.879997 121.559998 -24.059999 
71596696749959 65.879997 121.559998 -24.059999 
71596716749959 65.879997 121.559998 -24.059999 
71596736749959 65.879997 121.559998 -24.059999 
71596756749959 65.879997 121.559998 -24.059999 
71596776749959 65.879997 121.559998 -24.059999 
71596796749959 65.879997 121.559998 -24.059999 
71596816749959 65.879997 121.559998 -24.059999 
71596836749959 65.879997 121.559998 -24.059999 
71596856749959 65.879997 121.559998 -24.059999 
71596876749959 65.879997 121.559998 -24.059999 
71596896749959 65.879997 121.559998 -24.059999 
71596916749959 65.879997 121.559998 -24.059999 
71596936749959 65.879997 121.559998 -24.059999 
71596956749959 65.760002 121.439995 -23.820000 
71596976749959 65.760002 121.439995 -23.820000 
71596996749959 65.760002 121.439995 -23.820000 
71597016749959 65.760002 121.439995 -23.820000 
71597036749959 65.639999 121.680000 -23.519999 
71597056749959 65.639999 121.680000 -23.519999 
71597076749959 65.639999 121.680000 -23.519999 
71597096749959 65.639999 121.680000 -23.519999 
71597116749959 65.459999 121.919998 -23.160000 
71597136749959 65.459999 121.919998 -23.160000 
71597156749959 65.459999 121.919998 -23.160000 
71597176749959 65.459999 121.919998 -23.160000 
71597196749959 65.279999 122.219994 -22.740000 
71597216749959 65.279999 122.219994 -22.740000 
71597236749959 65.279999 122.219994 -22.740000 
71597256749959 65.279999 122.219994 -22.740000 
71597276749959 65.279999 122.399994 -22.619999 
71597296749959 65.279999 122.399994 -22.619999 
71597316749959 65.279999 122.399994 -22.619999 
71597336749959 65.279999 122.399994 -22.619999 
71597356749959 65.279999 122.399994 -22.619999 
71597376749959 65.279999 122.399994 -22.619999 
71597396749959 65.279999 122.399994 -22.619999 
71597416749959 65.279999 122.399994 -22.619999 
71597436749959 65.279999 122.399994 -22.619999 
71597456749959 65.279999 122.399994 -22.619999 
71597476749959 65.279999 122.399994 -22.619999 
71597496749959 65.279999 122.399994 -22.619999 
71597516749959 65.279999 122.399994 -22.619999 
71597536749959 65.279999 122.399994 -22.619999 
71597556749959 65.279999 122.399994 -22.619999 
71597576749959 65.279999 122.399994 -22.619999 
71597596749959 65.279999 122.399994 -22.619999 
71597616749959 65.279999 122.399994 -22.619999 
71597636749959 65.279999 122.399994 -22.619999 
71597656749959 65.279999 122.399994 -22.619999 
71597676749959 65.279999 122.399994 -22.619999 
71597696749959 65.279999 122.399994 -22.619999 
71597716749959 65.279999 122.399994 -22.619999 
71597736749959 65.279999 122.399994 -22.619999 
71597756749959 65.279999 122.399994 -22.619999 
71597776749959 65.279999 122.399994 -22.619999 
71597796749959 65.279999 122.399994 -22.619999 
71597816749959 65.279999 122.399994 -22.619999 
71597836749959 65.279999 122.399994 -22.619999 
71597856749959 65.279999 122.399994 -22.619999 
71597876749959 65.279999 122.399994 -22.619999 
71597896749959 65.279999 122.399994 -22.619999 
71597916749959 65.279999 122.399994 -22.619999 
71597936749959 65.279999 122.399994 -22.619999 
71597956749959 65.279999 122.399994 -22.619999 
71597976749959 65.279999 122.399994 -22.619999 
71597996749959 65.339996 122.639999 -22.439999 
71598016749959 65.339996 122.639999 -22.439999 
71598036749959 65.339996 122.639999 -22.439999 
71598056749959 65.339996 122.639999 -22.439999 
71598076749959 65.339996 122.639999 -22.439999 
71598096749959 65.339996 122.639999 -22.439999 
71598116749959 65.339996 122.639999 -22.439999 
71598136749959 65.339996 122.639999 -22.439999 
71598156749959 65.339996 122.639999 -22.439999 
71598176749959 65.339996 122.639999 -22.439999 
71598196749959 65.339996 122.639999 -22.439999 
71598216749959 65.339996 122.639999 -22.439999 
71598236749959 65.339996 122.639999 -22.439999 
71598256749959 65.339996 122.639999 -22.439999 
71598276749959 65.339996 122.639999 -22.439999 
71598296749959 65.339996 122.639999 -22.439999 
71598316749959 65.339996 122.639999 -22.439999 
71598336749959 65.339996 122.639999 -22.439999 
71598356749959 65.339996 122.639999 -22.439999 
71598376749959 65.339996 122.639999 -22.439999 
71598396749959 65.339996 122.639999 -22.439999 
71598416749959 65.339996 122.639999 -22.439999 
71598436749959 65.339996 122.639999 -22.439999 
71598456749959 65.339996 122.639999 -22.439999 
71598476749959 65.339996 122.639999 -22.439999 
71598496749959 65.339996 122.639999 -22.439999 
71598516749959 65.339996 122.639999 -22.439999 
71598536749959 65.339996 122.639999 -22.439999 
71598556749959 65.339996 122.639999 -22.439999 
71598576749959 65.339996 122.639999 -22.439999 
71598596749959 65.339996 122.639999 -22.439999 
71598616749959 65.339996 122.639999 -22.439999 
71598636749959 65.339996 122.639999 -22.439999 
71598656749959 65.339996 122.639999 -22.439999 
71598676749959 65.339996 122.639999 -22.439999 
71598696749959 65.339996 122.639999 -22.439999 
71598716749959 65.339996 122.639999 -22.439999 
71598736749959 65.339996 122.639999 -22.439999 
71598756749959 65.339996 122.639999 -22.439999 
71598776749959 65.339996 122.639999 -22.439999 
71598796749959 65.339996 122.639999 -22.439999 
71598816749959 65.339996 122.639999 -22.439999 
71598836749959 65.339996 122.639999 -22.439999 
71598856749959 65.339996 122.639999 -22.439999 
71598876749959 65.339996 122.639999 -22.439999 
71598896749959 65.339996 122.639999 -22.439999 
71598916749959 65.339996 122.639999 -22.439999 
71598936749959 65.339996 122.639999 -22.439999 
71598956749959 65.339996 122.639999 -22.439999 
71598976749959 65.339996 122.639999 -22.439999 
71598996749959 65.339996 122.639999 -22.439999 
71599016749959 65.339996 122.639999 -22.439999 
71599036749959 65.339996 122.639999 -22.439999 
71599056749959 65.339996 122.639999 -22.439999 
71599076749959 65.339996 122.639999 -22.439999 
71599096749959 65.339996 122.639999 -22.439999 
71599116749959 65.339996 122.639999 -22.439999 
71599136749959 65.339996 122.639999 -22.439999 
71599156749959 65.339996 122.639999 -22.439999 
71599176749959 65.339996 122.639999 -22.439999 
71599196749959 65.339996 122.639999 -22.439999 
71599216749959 65.339996 122.639999 -22.439999 
71599236749959 65.339996 122.639999 -22.439999 
71599256749959 65.339996 122.639999 -22.439999 
71599276749959 65.339996 122.639999 -22.439999 
71599296749959 65.339996 122.639999 -22.439999 
71599316749959 65.339996 122.639999 -22.439999 
71599336749959 65.339996 122.639999 -22.439999 
71599356749959 65.339996 122.639999 -22.439999 
71599376749959 65.339996 122.639999 -22.439999 
71599396749959 65.339996 122.639999 -22.439999 
71599416749959 65.339996 122.639999 -22.439999 
71599436749959 65.339996 122.639999 -22.439999 
71599456749959 65.339996 122.639999 -22.439999 
71599476749959 65.339996 122.639999 -22.439999 
71599496749959 65.339996 122.639999 -22.439999 
71599516749959 65.339996 122.639999 -22.439999 
71599536749959 65.339996 122.639999 -22.439999 
71599556749959 65.339996 122.639999 -22.439999 
71599576749959 65.339996 122.639999 -22.439999 
71599596749959 65.339996 122.639999 -22.439999 
71599616749959 65.339996 122.639999 -22.439999 
71599636749959 65.339996 122.639999 -22.439999 
71599656749959 65.339996 122.639999 -22.439999 
71599676749959 65.339996 122.639999 -22.439999 
71599696749959 65.339996 122.639999 -22.439999 
71599716749959 65.339996 122.639999 -22.439999 
71599736749959 65.339996 122.639999 -22.439999 
71599756749959 65.339996 122.639999 -22.439999 
71599776749959 65.339996 122.639999 -22.439999 
71599796749959 65.339996 122.639999 -22.439999 
71599816749959 65.339996 122.639999 -22.439999 
71599836749959 65.339996 122.639999 -22.439999 
71599856749959 65.339996 122.639999 -22.439999 
71599876749959 65.339996 122.639999 -22.439999 
71599896749959 65.339996 122.639999 -22.439999 
71599916749959 65.339996 122.639999 -22.439999 
71599936749959 65.339996 122.639999 -22.439999 
71599956749959 65.339996 122.639999 -22.439999 
71599976749959 65.339996 122.639999 -22.439999 
71599996749959 65.339996 122.639999 -22.439999 
71600016749959 65.339996 122.639999 -22.439999 
71600036749959 65.339996 122.639999 -22.439999 
71600056749959 65.339996 122.639999 -22.439999 
71600076749959 65.339996 122.639999 -22.439999 
71600096749959 65.339996 122.639999 -22.439999 
71600116749959 65.339996 122.639999 -22.439999 
71600136749959 65.339996 122.639999 -22.439999 
71600156749959 65.339996 122.639999 -22.439999 
71600176749959 65.339996 122.639999 -22.439999 
71600196749959 65.339996 122.639999 -22.439999 
71600216749959 65.339996 122.639999 -22.439999 
71600236749959 65.339996 122.639999 -22.439999 
71600256749959 65.339996 122.639999 -22.439999 
71600276749959 65.339996 122.639999 -22.439999 
71600296749959 65.339996 122.639999 -22.439999 
71600316749959 65.339996 122.639999 -22.439999 
71600336749959 65.339996 122.639999 -22.439999 
71600356749959 65.339996 122.639999 -22.439999 
71600376749959 65.339996 122.639999 -22.439999 
71600396749959 65.339996 122.639999 -22.439999 
71600416749959 65.339996 122.639999 -22.439999 
71600436749959 65.339996 122.639999 -22.439999 
71600456749959 65.339996 122.639999 -22.439999 
71600476749959 65.339996 122.639999 -22.439999 
71600496749959 65.339996 122.639999 -22.439999 
71600516749959 65.339996 122.639999 -22.439999 
71600536749959 65.339996 122.639999 -22.439999 
71600556749959 65.339996 122.639999 -22.439999 
71600576749959 65.339996 122.639999 -22.439999 
71600596749959 65.339996 122.639999 -22.439999 
71600616749959 65.339996 122.639999 -22.439999 
71600636749959 65.339996 122.639999 -22.439999 
71600656749959 65.339996 122.639999 -22.439999 
71600676749959 65.339996 122.639999 -22.439999 
71600696749959 65.339996 122.639999 -22.439999 
71600716749959 65.339996 122.639999 -22.439999 
71600736749959 65.339996 122.639999 -22.439999 
71600756749959 65.339996 122.639999 -22.439999 
71600776749959 65.339996 122.639999 -22.439999 
71600796749959 65.339996 122.639999 -22.439999 
71600816749959 65.339996 122.639999 -22.439999 
71600836749959 65.339996 122.639999 -22.439999 
71600856749959 65.339996 122.639999 -22.439999 
71600876749959 65.339996 122.639999 -22.439999 
71600896749959 65.339996 122.639999 -22.439999 
71600916749959 65.339996 122.639999 -22.439999 
71600936749959 65.339996 122.639999 -22.439999 
71600956749959 65.339996 122.639999 -22.439999 
71600976749959 65.339996 122.639999 -22.439999 
71600996749959 65.339996 122.639999 -22.439999 
71601016749959 65.339996 122.639999 -22.439999 
71601036749959 65.339996 122.639999 -22.439999 
71601056749959 65.339996 122.639999 -22.439999 
71601076749959 65.339996 122.639999 -22.439999 
71601096749959 65.339996 122.639999 -22.439999 
71601116749959 65.339996 122.639999 -22.439999 
71601136749959 65.339996 122.639999 -22.439999 
71601156749959 65.339996 122.639999 -22.439999 
71601176749959 65.339996 122.639999 -22.439999 
71601196749959 65.339996 122.639999 -22.439999 
71601216749959 65.339996 122.639999 -22.439999 
71601236749959 65.339996 122.639999 -22.439999 
71601256749959 65.339996 122.639999 -22.439999 
71601276749959 65.339996 122.639999 -22.439999 
71601296749959 65.339996 122.639999 -22.439999 
71601316749959 65.339996 122.639999 -22.439999 
71601336749959 65.339996 122.639999 -22.439999 
71601356749959 65.339996 122.639999 -22.439999 
71601376749959 65.339996 122.639999 -22.439999 
71601396749959 65.339996 122.639999 -22.439999 
